//Numpy array shape [64]
//Min -0.000032735479
//Max 0.000025399628
//Number of zeros 0

#ifndef B18_H_
#define B18_H_

#ifndef __SYNTHESIS__
model_default_t b18[64];
#else
model_default_t b18[64] = {-0.0032174799, 0.0049925116, -0.0004312362, -0.0006093511, 0.0164912753, -0.0102018863, 0.0112187378, -0.0008876847, 0.0117323874, -0.0085494062, -0.0003197340, -0.0129920943, 0.0040032701, 0.0233715288, -0.0057204291, 0.0063254442, 0.0087655447, -0.0105840284, -0.0184261110, 0.0036102361, -0.0253980719, 0.0143090058, 0.0317377634, 0.0190596934, 0.0171532258, 0.0119756572, -0.0243489482, -0.0202090684, -0.0112691382, -0.0186070297, -0.0047580241, -0.0063220924, 0.0024295561, -0.0241005942, -0.0018920576, 0.0001442189, -0.0141406916, 0.0141619481, 0.0052539073, -0.0035637589, 0.0011061189, -0.0060385210, 0.0371517986, 0.0135827446, -0.0169563647, 0.0004581994, -0.0283712596, -0.0112686511, 0.0108471382, -0.0019015271, -0.0151055483, -0.0010846029, -0.0127726533, -0.0019724672, -0.0005290363, 0.0267421622, 0.0001235447, -0.0021482294, -0.0157136116, -0.0001425270, -0.0164099336, 0.0232305937, -0.0184932631, -0.0069050998};
#endif

#endif
