//Numpy array shape [64]
//Min -0.000029392035
//Max 0.000036631856
//Number of zeros 0

#ifndef B22_H_
#define B22_H_

#ifndef __SYNTHESIS__
model_default_t b22[64];
#else
model_default_t b22[64] = {-0.0059106564, 0.0021988205, -0.0072064335, 0.0131179960, 0.0007372622, 0.0001001730, -0.0068756421, 0.0083335163, -0.0173108634, -0.0073830402, -0.0057729767, -0.0056625558, 0.0132811340, -0.0073391483, -0.0188221149, 0.0021152860, 0.0028562329, -0.0041612363, 0.0057526864, 0.0099359490, -0.0018832856, -0.0007288358, -0.0018221319, -0.0062973024, 0.0153549714, -0.0022897616, -0.0049292459, 0.0043494999, -0.0063068056, -0.0106106987, -0.0227063503, -0.0052315057, 0.0016832018, 0.0076250574, 0.0180924516, 0.0019994380, 0.0170242749, 0.0029075539, 0.0043694442, 0.0110184634, 0.0001580015, -0.0026456136, 0.0031024856, -0.0020207600, -0.0018659974, -0.0093156761, 0.0044396357, 0.0075310310, 0.0016227758, 0.0060407231, 0.0028597862, 0.0009809325, -0.0030028890, 0.0021239358, 0.0138831194, -0.0080597624, -0.0053821639, -0.0005851029, -0.0060442826, 0.0035504852, -0.0083490536, -0.0015232165, 0.0083741322, 0.0048560761};
#endif

#endif
