//Numpy array shape [128]
//Min -0.000014797442
//Max 0.000024026804
//Number of zeros 0

#ifndef B27_H_
#define B27_H_

#ifndef __SYNTHESIS__
model_default_t b27[128];
#else
model_default_t b27[128] = {-0.0330247134, 0.0114150727, 0.0057733357, -0.0217510741, 0.0115336021, -0.0107519096, 0.0273741707, 0.0241939332, 0.0310244411, -0.0154673951, -0.0073184986, -0.0289087873, 0.0089334929, 0.0142401448, -0.0099253813, 0.0124573372, 0.0060356031, 0.0026087034, 0.0071462649, 0.0017208729, -0.0109285284, 0.0339350812, 0.0041414979, 0.0320548713, 0.0140596079, -0.0019966173, -0.0050010886, 0.0003894888, -0.0511924140, -0.0108031724, 0.0256441031, -0.0077202655, 0.0014194620, -0.0164517276, 0.0139358435, -0.0188357066, 0.0101768933, 0.0126585029, -0.0025051069, 0.0629917532, 0.0293041859, 0.0114936959, -0.0135465423, 0.0349199697, 0.0036760557, 0.0440873429, -0.0108633153, -0.0005943289, -0.0036780625, 0.0024887258, -0.0172567144, 0.0059356675, -0.0110110966, -0.0109745646, 0.0002435268, -0.0336540826, 0.0038775115, 0.0112114716, 0.0099218162, -0.0012366056, 0.0002500775, -0.0018807382, 0.0035286266, -0.0165906399, 0.0294311270, -0.0127368653, -0.0213619862, -0.0019736302, -0.0135945110, -0.0147841824, -0.0196625851, -0.0042341920, 0.0204543713, 0.0009151881, -0.0166769810, -0.0487811789, 0.0040009138, -0.0078004361, 0.0116068553, 0.0120419255, -0.0106011005, -0.0160642155, 0.0242904313, -0.0380943455, -0.0073256590, -0.0337039530, 0.0083982078, -0.0215195138, 0.0061103487, 0.0111796698, 0.0191248134, -0.0065258793, 0.0033356780, 0.0104963053, 0.0084474413, -0.0092903171, -0.0123215728, 0.0203624628, 0.0134050110, -0.0123788491, 0.0127945002, -0.0213255547, 0.0366518945, -0.0138733052, -0.0088148490, 0.0012192033, 0.0248126239, -0.0082637025, -0.0074186698, 0.0430873446, 0.0091329375, -0.0113502583, -0.0015652870, 0.0026064040, -0.0112585900, -0.0151308728, 0.0177535601, -0.0086053619, -0.0099386238, -0.0385203809, 0.0159662813, 0.0091762859, -0.0297158007, -0.0082217688, 0.0047694766, 0.0085244086, 0.0051695048, 0.0211374648};
#endif

#endif
