//Numpy array shape [128]
//Min -0.000012907933
//Max 0.000015709429
//Number of zeros 0

#ifndef B31_H_
#define B31_H_

#ifndef __SYNTHESIS__
model_default_t b31[128];
#else
model_default_t b31[128] = {-0.0105793364, 0.0115296990, 0.0021118056, 0.0063829892, -0.0075484370, -0.0025738904, -0.0018003664, -0.0108319120, 0.0245891549, -0.0160830617, -0.0061660861, 0.0005196169, -0.0091799237, -0.0056179524, -0.0035803898, -0.0137115223, -0.0108963372, -0.0028474384, 0.0099500995, -0.0052501899, -0.0164928436, -0.0030621823, -0.0000928727, 0.0099715292, 0.0153013570, -0.0033393030, 0.0053197155, 0.0110611385, -0.0048902724, 0.0073055727, -0.0080658449, -0.0125177233, 0.0046949727, -0.0020317829, 0.0056853760, 0.0053049549, 0.0071084476, -0.0077279862, 0.0036633413, 0.0012473824, 0.0008127791, -0.0018121045, 0.0071995948, 0.0038179434, 0.0060032462, 0.0032287217, -0.0046542902, 0.0045062876, 0.0135155758, 0.0006501870, 0.0079389382, -0.0153842969, -0.0071315602, 0.0001392200, -0.0065855789, 0.0038754528, -0.0045270287, 0.0075540459, -0.0015910011, 0.0035247568, -0.0040561329, -0.0074449945, 0.0053685713, -0.0085143317, -0.0045387615, 0.0056102383, 0.0104596559, -0.0067794812, -0.0087880045, 0.0124980453, -0.0093065286, 0.0023688409, -0.0273411851, 0.0053061624, 0.0092180502, 0.0036949432, 0.0082549592, -0.0076957513, -0.0022796595, -0.0024598339, 0.0019984166, 0.0072169760, -0.0007932569, 0.0020375629, 0.0123803001, 0.0117892874, -0.0028594283, -0.0047740112, 0.0000807143, -0.0020880937, 0.0069100615, 0.0010615936, -0.0121242385, -0.0021810501, 0.0008184585, -0.0014110507, 0.0058714096, 0.0021985727, -0.0018249566, 0.0215773266, 0.0142085049, -0.0036168867, -0.0008277530, 0.0162863396, 0.0124812163, -0.0118939895, 0.0015410340, 0.0013569504, 0.0015499505, 0.0085114418, -0.0098791393, 0.0068909535, -0.0143796727, -0.0037439791, -0.0046356288, 0.0104145445, -0.0054899459, 0.0099182492, 0.0081178145, 0.0009877266, 0.0233309567, 0.0081086075, -0.0190145615, -0.0007316415, -0.0056513650, -0.0027314182, 0.0299437083, -0.0025010423};
#endif

#endif
