//Numpy array shape [256]
//Min -0.000014452380
//Max 0.000008037096
//Number of zeros 0

#ifndef B36_H_
#define B36_H_

#ifndef __SYNTHESIS__
model_default_t b36[256];
#else
model_default_t b36[256] = {-0.0004857973, 0.0347304977, 0.0323685221, 0.0229883585, 0.0262181927, 0.0271267928, 0.0066831280, 0.0586979203, 0.0676791221, 0.0275190268, 0.0245267432, 0.0027992427, -0.0475320444, -0.0063367896, -0.0258806963, -0.0079853181, -0.0050728545, -0.0162331033, 0.0178446490, -0.0409093350, -0.0131953303, -0.0040976582, 0.0481606349, 0.0009575505, 0.0066434750, 0.0093878647, -0.0102524180, 0.0021369103, -0.0021283193, 0.0242474210, 0.0302829612, -0.0065801134, 0.0295452736, 0.0106201116, -0.0092831831, 0.0091217635, 0.0320809223, -0.0012396009, 0.0256731063, -0.0035277645, 0.0436386727, -0.0045617470, 0.0021429085, 0.0074107307, 0.0321025625, -0.0179572701, -0.0173360445, 0.0114838406, -0.0080950828, -0.0130458018, 0.0333240777, 0.0177740157, -0.0257871896, 0.0011609778, 0.0022215582, -0.0009393326, 0.0154602854, -0.0182384122, 0.0289727896, 0.0127394404, 0.0024561051, -0.0221804008, -0.0122426031, 0.0344764777, -0.0111317169, 0.0166339800, 0.0057271272, 0.0089561576, 0.0183358844, -0.0213360861, 0.0020673785, 0.0178127084, -0.0158072300, -0.0015665049, 0.0280345511, -0.0245104674, -0.0080844359, 0.0078603057, -0.0265926495, -0.0133147249, 0.0048784679, 0.0301203746, -0.0208713617, 0.0164315123, 0.0058126356, 0.0191941112, 0.0080457656, -0.0534604304, 0.0265412405, -0.0135910129, 0.0221354049, 0.0242241230, -0.0155370012, -0.0270402711, -0.0182479154, 0.0003343177, -0.0378880948, 0.0154182045, 0.0140867466, 0.0130033884, -0.0056296377, -0.0170973856, -0.0287681092, 0.0202280153, -0.0129846456, -0.0172343310, 0.0175227560, 0.0196100883, -0.0311435554, -0.0003911562, -0.0100573776, 0.0220959149, -0.0216498356, 0.0157338995, 0.0125844209, -0.0118379183, -0.0038547479, 0.0228267107, -0.0317184404, -0.0128511507, 0.0123254554, -0.0013677359, -0.0006954702, 0.0181970242, 0.0142098637, -0.0419246219, 0.0278479494, 0.0006121003, 0.0379922725, 0.0073172213, -0.0047310698, 0.0143729588, 0.0220307857, 0.0321024470, -0.0265364237, 0.0059307246, -0.0164228156, 0.0156212598, 0.0240505692, -0.0033005537, -0.0091323862, 0.0106561119, 0.0230642445, 0.0042170705, -0.0032442876, 0.0081346519, 0.0244613662, -0.0155181605, 0.0012003829, 0.0015235242, -0.0145097533, -0.0187701397, 0.0189372301, 0.0051696687, -0.0129784606, -0.0178097636, 0.0003458879, 0.0459705070, -0.0028167930, -0.0130198831, -0.0466977693, 0.0376902819, 0.0109730968, 0.0245727673, 0.0064718430, -0.0292718820, -0.0045220088, -0.0284488201, -0.0438989773, 0.0170019288, -0.0141465757, -0.0134008620, -0.0025639711, 0.0016947620, 0.0198373813, 0.0092082936, -0.0106730433, 0.0225196350, 0.0094001582, 0.0155211668, -0.0140854465, -0.0349357575, 0.0194168705, -0.0138441464, -0.0241766758, -0.0124706682, -0.0189292524, -0.0231617652, -0.0073134117, 0.0074735605, -0.0199546851, 0.0447756127, 0.0153904697, -0.0099763051, -0.0219463930, -0.0050928369, -0.0141904503, 0.0299288630, -0.0244045947, -0.0166218113, -0.0029706706, -0.0010145904, -0.0503798537, -0.0169343390, 0.0147963362, -0.0080857845, 0.0055881864, -0.0486886129, -0.0004864958, 0.0440412685, 0.0085494602, 0.0072117280, -0.0364556238, 0.0019061483, 0.0070514767, -0.0029169712, -0.0193124972, 0.0140990848, 0.0029815312, 0.0075647440, 0.0020254492, 0.0098963995, -0.0041402774, 0.0135717625, 0.0108379647, -0.0210375413, -0.0077489414, -0.0158026610, 0.0162741393, 0.0134100607, -0.0312412605, -0.0155074708, 0.0333176255, 0.0116255339, 0.0059259073, 0.0278584585, 0.0148047823, 0.0123169553, 0.0224133860, -0.0185990036, -0.0151787000, 0.0080893207, -0.0041356380, 0.0319359489, -0.0235797372, -0.0027120933, -0.0084182639, 0.0400530659, 0.0108947158, 0.0202908032, 0.0031269549, 0.0024129602, -0.0029347381, 0.0055651031, -0.0138146579, -0.0254411995};
#endif

#endif
