//Numpy array shape [256]
//Min 0.000000000000
//Max 0.000000000000
//Number of zeros 256

#ifndef B45_H_
#define B45_H_

#ifndef __SYNTHESIS__
bias45_t b45[256];
#else
bias45_t b45[256] = {0.0046449332, -0.0049972995, 0.0033918743, 0.0078164404, 0.0052142353, 0.0189236887, -0.0252749287, -0.0027840564, 0.0130580598, -0.0072136358, 0.0115736332, -0.0357482769, -0.0005873034, -0.0212202519, 0.0007851499, 0.0257585123, 0.0071008448, -0.0091689378, 0.0111830104, -0.0141357603, 0.0345611051, 0.0102995802, -0.0253609326, 0.0248705056, 0.0019406127, 0.0121749509, 0.0185295194, -0.0219044443, 0.0007982351, 0.0278757587, -0.0073164655, 0.0051699420, 0.0036744489, 0.0059641958, 0.0284437723, 0.0110133039, 0.0450380743, -0.0063029132, 0.0093977265, -0.0290599819, -0.0265281834, -0.0328717157, 0.0001632166, 0.0034800218, 0.0142443990, -0.0086371461, -0.0359553471, -0.0136982668, -0.0203180090, -0.0181300566, -0.0091355788, -0.0361917391, 0.0112332869, 0.0114023183, -0.0210175831, 0.0137742003, -0.0114983069, 0.0359378718, 0.0436502770, -0.0262138750, -0.0154044628, -0.0217762049, 0.0407917351, -0.0221721791, -0.0492105521, -0.0245770160, -0.0120342514, -0.0058467346, -0.0150392447, 0.0348707587, -0.0247323513, -0.0120712807, 0.0246776715, -0.0072793839, -0.0263687447, -0.0236475691, 0.0241280515, -0.0176292155, 0.0081153121, -0.0477682725, 0.0339975059, -0.0120027075, 0.0067302883, 0.0336384326, -0.0389920324, -0.0155610833, -0.0065049385, -0.0127859237, 0.0080108391, -0.0148575762, -0.0118306670, -0.0153503073, 0.0118323984, 0.0349805318, -0.0165435281, 0.0150379315, 0.0414367653, 0.0323154889, 0.0167444535, -0.0053784605, -0.0014839044, -0.0038764458, -0.0235218946, -0.0665215254, 0.0100031001, -0.0057239537, -0.0210511815, -0.0432428494, -0.0055386629, 0.0256053079, 0.0026005569, 0.0031678528, -0.0118891587, 0.0162080992, 0.0244752467, -0.0237075314, -0.0239498578, 0.0106327320, -0.0085375141, -0.0460356697, -0.0037866563, -0.0057371622, -0.0026915076, 0.0338582136, -0.0127160912, 0.0226366315, -0.0493529215, -0.0013464883, 0.0368575193, -0.0055104839, -0.0097326050, -0.0322228968, -0.0233918875, 0.0499196313, 0.0054614116, 0.0251613297, 0.0004151803, -0.0117783006, 0.0183600672, -0.0127577363, -0.0024990588, -0.0130602969, -0.0159759298, 0.0332405716, -0.0271587279, -0.0192195680, -0.0369302779, -0.0529505275, 0.0129952589, -0.0147389984, 0.0357111953, -0.0242245570, -0.0082735475, 0.0185350999, 0.0097013153, 0.0084490599, 0.0065223165, 0.0071831616, 0.0262923744, 0.0269887932, -0.0236089677, 0.0251854267, -0.0035582969, -0.0334560983, -0.0214657206, 0.0203470513, 0.0378495008, -0.0261196494, -0.0067371023, -0.0052017225, -0.0143985944, -0.0496159121, -0.0132984612, 0.0186034553, 0.0031766174, 0.0067040259, 0.0154694328, -0.0001566081, 0.0367826782, 0.0368912481, 0.0192619842, -0.0327931121, -0.0418799892, -0.0196080375, -0.0000467372, -0.0267459545, -0.0240473356, 0.0189908072, 0.0154047757, 0.0031350162, -0.0205213632, -0.0276613366, -0.0218464322, 0.0279703811, -0.0052937092, -0.0291248206, -0.0088009005, 0.0121611217, -0.0306181945, -0.0233623926, -0.0075773979, 0.0047632908, -0.0394295640, -0.0194250308, 0.0351668298, 0.0216705985, 0.0106381169, -0.0159077290, 0.0011157395, -0.0149162179, -0.0204478111, -0.0286001675, -0.0073337215, -0.0052559399, 0.0250559021, -0.0082575502, -0.0132317832, 0.0173051953, -0.0025192271, 0.0140039353, 0.0071358513, -0.0208956320, 0.0045587113, -0.0011847508, 0.0327865928, -0.0221631210, -0.0031262001, -0.0017090787, 0.0109921042, 0.0100874268, -0.0044392976, 0.0238675736, -0.0128862215, -0.0043521663, -0.0128662614, -0.0306710973, 0.0194761977, 0.0218280982, -0.0183460675, -0.0100346692, 0.0274884645, -0.0016792016, 0.0144193638, 0.0289345048, -0.0134589346, -0.0243519042, 0.0206019115, 0.0343610868, 0.0041307472, -0.0122562684, 0.0028935208, -0.0118223410, 0.0091665955, 0.0148342894, -0.0139341988, -0.0133614736};
#endif

#endif
