//Numpy array shape [256]
//Min 0.000000000000
//Max 0.000000000000
//Number of zeros 256

#ifndef B49_H_
#define B49_H_

#ifndef __SYNTHESIS__
bias49_t b49[256];
#else
bias49_t b49[256] = {0.0054293559, -0.0097731166, 0.0184165258, 0.0028360980, -0.0018747965, 0.0112403585, -0.0146434046, 0.0011446533, 0.0120975021, -0.0335030481, -0.0236382335, -0.0018978514, -0.0226482376, 0.0170902144, -0.0196549352, -0.0191788580, 0.0084058763, 0.0137789613, 0.0001314580, -0.0022705100, 0.0014543430, -0.0127424123, 0.0018492624, -0.0002740513, 0.0177663397, -0.0152802384, -0.0110353669, 0.0188834183, -0.0028392668, -0.0208055042, -0.0133367311, 0.0157543663, -0.0034817732, 0.0048166458, -0.0097497460, 0.0191009324, 0.0016427417, 0.0194058325, 0.0153204231, 0.0042382609, -0.0291813035, 0.0073976996, -0.0202130247, -0.0040735127, 0.0067569017, -0.0009807423, -0.0073806294, 0.0051348233, 0.0137974415, 0.0015166627, -0.0132185034, 0.0032828460, -0.0108921006, -0.0104996515, -0.0135405026, 0.0007560838, 0.0210524611, -0.0077079167, -0.0135248052, -0.0088245617, -0.0243466888, -0.0027674511, 0.0032551028, -0.0168981217, 0.0223397091, -0.0177906994, -0.0085121198, 0.0084528681, -0.0010084300, -0.0051005082, -0.0073262202, -0.0023781825, -0.0127183469, 0.0143782962, 0.0211969316, -0.0058519221, -0.0219566338, 0.0098112971, -0.0037785254, 0.0003280283, 0.0036737865, -0.0222996641, 0.0081017893, -0.0020780989, 0.0019138134, 0.0018205247, -0.0150344959, -0.0032830006, -0.0065249582, 0.0095784161, 0.0177748799, 0.0090703676, 0.0139326798, 0.0050834981, 0.0127655910, -0.0124775404, -0.0048974031, -0.0245606862, 0.0232440662, 0.0235987548, 0.0084517989, 0.0180911869, -0.0071479059, 0.0140586384, -0.0084257713, -0.0012738167, -0.0244744942, 0.0140207196, 0.0283325203, -0.0039173365, 0.0042965924, -0.0190131273, -0.0024554173, -0.0205541681, 0.0161907729, -0.0309719890, -0.0053213867, 0.0147982817, 0.0066570528, 0.0032240967, 0.0039298511, 0.0000409188, 0.0000425818, 0.0296323504, -0.0238358863, -0.0027239460, 0.0058530392, 0.0099241333, -0.0183431916, 0.0080515677, -0.0172730964, -0.0228651892, 0.0121287759, 0.0008598613, 0.0059564379, 0.0303464159, -0.0059898268, 0.0033914736, -0.0197287593, -0.0099939639, -0.0024226964, -0.0047615180, 0.0059942054, 0.0089051062, 0.0195182972, -0.0126107670, 0.0064480677, -0.0157074276, 0.0187445190, -0.0002547763, 0.0051361150, -0.0103783309, -0.0075665326, 0.0020117669, -0.0102509763, 0.0137969190, -0.0171590839, -0.0015849924, 0.0118432948, 0.0123967035, 0.0050995024, -0.0167977437, 0.0090712551, 0.0056216042, -0.0042249649, -0.0043010963, 0.0042877370, 0.0175352711, 0.0097164772, 0.0103209680, -0.0111982310, 0.0007989600, -0.0159511119, -0.0074012647, 0.0252551865, 0.0133496542, -0.0103413668, 0.0004285256, 0.0089733033, 0.0137822479, -0.0066150068, -0.0140029844, -0.0182255059, -0.0028788946, -0.0027995191, -0.0034987596, 0.0213112272, -0.0210649334, 0.0203455184, 0.0175548624, 0.0126105910, 0.0100505333, -0.0074672075, 0.0089382296, -0.0099753495, -0.0095822420, -0.0206546467, 0.0087898914, 0.0042192079, 0.0051040482, -0.0110831866, -0.0051713884, -0.0044751293, 0.0017513901, 0.0094547644, -0.0221235529, -0.0020614485, -0.0288904887, -0.0091841687, 0.0086907502, 0.0023466898, 0.0065632844, -0.0166619364, 0.0037745235, -0.0116899703, -0.0040292190, -0.0176956933, -0.0077011976, -0.0008835174, 0.0346461125, 0.0117577100, -0.0155714927, -0.0051434552, 0.0014179946, 0.0019979335, 0.0158132650, 0.0064689359, -0.0154462215, 0.0163891222, -0.0174331870, -0.0058593107, -0.0042686611, -0.0092054605, -0.0062439987, -0.0067001982, 0.0069432929, 0.0058262935, 0.0017202101, 0.0006837104, -0.0200425833, 0.0135117946, -0.0081562102, 0.0127263870, -0.0009635170, 0.0252663009, -0.0026556421, 0.0241564661, 0.0125039369, -0.0085559040, 0.0062765437, -0.0070257410, 0.0038720600, 0.0059635397, 0.0104548289, 0.0106630502, 0.0089139212};
#endif

#endif
