//Numpy array shape [3, 3, 32, 32]
//Min -0.218909338117
//Max 0.247123077512
//Number of zeros 0

#ifndef W13_H_
#define W13_H_

#ifndef __SYNTHESIS__
model_default_t w13[9216];
#else
model_default_t w13[9216] = {-0.0051490800, -0.0508898236, 0.0631693974, -0.1136788353, 0.0970713571, -0.0398758017, -0.0231611468, -0.0098233456, 0.0664402694, -0.0631878749, -0.1056348458, 0.1369139403, -0.0039237174, 0.0321934223, 0.0744422898, 0.0796841905, 0.0048955162, 0.0468103960, -0.0499862991, 0.0122933891, 0.0054517188, -0.0259843674, -0.0441590361, -0.0600902997, -0.0154637108, -0.0327472053, -0.0482839085, 0.0507166088, 0.0094590122, -0.0392724164, -0.0008550124, 0.0449733511, 0.0215950534, -0.0453910716, 0.0053416151, -0.0496483073, -0.0495014898, -0.0314739011, -0.0944598094, 0.0439715460, 0.0177630726, -0.0533772931, -0.0216731429, -0.0270333514, 0.0294108465, -0.0110411095, 0.0021829684, -0.0104652774, 0.0091241067, -0.0530591980, 0.0251638927, 0.0776365548, -0.0396259949, -0.0053910338, -0.0156556927, -0.0189419705, 0.0229105130, 0.0909046531, -0.0226373430, -0.0185642503, 0.0546709299, -0.0742876008, 0.0872988850, -0.0742729902, 0.0107757282, -0.0144521846, -0.0473698974, -0.0868719220, -0.0847743899, 0.0713420436, -0.0075799678, 0.1063445434, 0.0016406702, 0.0338812806, -0.0364752859, 0.0256918054, 0.0696233958, 0.0867925882, 0.0156542752, -0.0522395484, -0.0029388717, -0.1539143026, -0.0036195649, 0.0137260677, -0.0089271404, 0.0190323684, 0.0770066381, 0.0370535254, 0.0620045699, -0.0775720328, 0.0975110158, 0.0323610492, 0.0348242745, 0.0235491060, 0.0693241879, -0.0190800969, 0.0031603461, 0.0509500504, -0.1018547043, 0.1126324460, -0.0057865879, -0.0570437089, 0.0598551072, 0.0018615860, 0.0730493069, -0.0212119538, 0.0673498511, 0.0252488907, -0.0361403748, -0.1026318446, -0.1351312846, -0.0576948747, 0.0721952468, 0.1075259000, -0.0513481312, -0.0238707401, 0.0062324633, 0.0188991446, -0.0723305419, -0.0660550892, -0.0226216521, -0.1205453724, 0.0818976238, -0.0080892388, -0.0401357263, 0.0996972173, -0.0865539759, -0.0684750676, -0.0392344519, 0.0484508574, -0.1066342592, 0.0151667017, 0.0195358731, 0.0108409431, 0.0329073481, -0.0255217217, -0.0108398376, 0.0314227454, -0.0850632191, 0.0606755577, 0.0293943062, -0.0005154137, 0.0472631380, 0.0650282577, 0.0061467909, -0.0304618701, -0.0162534919, -0.0964736864, -0.0152705200, -0.0189836882, 0.0954243764, -0.0169878043, 0.0212604087, 0.0207919832, -0.0563532226, 0.0804518685, -0.0184529275, 0.0326719582, 0.0982433110, -0.0017047664, -0.0191443171, 0.0587863103, 0.0703113899, 0.0202787872, -0.0419424511, 0.0338026434, 0.0125806015, 0.0988063216, -0.0258962885, 0.0400458053, 0.0692163333, -0.0796913803, -0.0204203892, 0.1024734899, 0.0246209893, -0.0195826292, -0.0099823233, 0.0831311569, 0.0277378615, -0.0131085366, -0.0506964698, -0.1525942087, -0.0555531867, 0.0413619392, 0.0033484122, -0.0186005197, -0.0681348667, 0.0067389342, -0.1293211877, -0.0131843947, 0.0542790480, -0.0199194085, 0.0296053234, 0.0903475285, -0.0548467264, 0.0122676082, -0.1564051658, -0.0344686508, 0.0791125521, 0.0773062930, -0.0937831625, 0.1134651154, -0.0096319215, 0.1407128721, 0.0789017603, -0.0179437082, 0.0746766478, -0.0638999119, -0.0136832930, -0.0286627803, -0.0492865406, 0.0703153685, 0.0154913394, 0.0061481046, 0.0972587913, 0.0297249984, -0.0927305445, -0.0322729684, -0.1060481593, 0.0105052469, 0.0227716137, 0.0205592290, 0.0144067928, -0.0908142775, 0.0479678735, 0.0632085502, 0.0364780091, -0.0252732579, 0.0864530504, 0.0369290449, 0.0346093364, 0.0134866573, 0.0396352261, 0.0524280369, 0.0026939837, 0.0246702731, -0.0449990407, -0.0145783331, -0.0791428313, -0.0245263092, 0.0156864729, -0.0183279365, -0.0754325166, -0.0604359359, -0.0415396728, 0.0300350506, 0.0510914996, -0.0881479010, -0.0295211524, 0.0395252258, 0.0031926637, 0.0552009717, -0.1685786992, -0.0743031874, 0.0386626087, 0.1122014597, 0.1168907359, 0.1094234809, 0.0770962909, -0.0580362640, -0.0331486799, 0.0058304775, 0.0196048748, -0.1081339568, -0.0388559289, -0.0852925181, -0.0122507038, -0.0316763632, -0.0171523150, 0.0211204235, 0.0494770631, -0.0151542341, 0.0083606103, 0.0366352014, -0.0093320021, -0.0490043350, 0.1418652982, -0.0558962114, -0.0026065721, 0.0321843661, 0.0093291327, -0.0812386870, 0.0290314071, -0.0366762616, -0.0701030567, 0.0664653704, -0.0682211071, 0.1483240426, 0.0416133031, -0.0426669903, -0.0494484939, -0.0215356331, -0.0067759701, -0.0803243369, 0.0508718081, -0.0662884861, 0.0540784411, 0.0852470249, -0.0461351201, 0.1034473032, -0.0591122732, -0.0759819448, 0.0250350386, 0.0211389828, -0.0350129604, -0.0205560103, -0.0396060832, -0.0743786097, -0.0226358604, 0.0078985365, 0.0615859516, -0.0055156811, 0.1200335994, 0.0774064139, -0.0194440726, 0.1370938718, -0.0696514770, 0.0138711678, -0.0037056378, 0.0242479127, 0.1517396718, -0.0193048064, 0.1213307306, 0.0136869922, -0.0067272596, 0.0692508519, 0.0672537982, -0.0399901830, -0.1470833570, 0.0137964394, -0.0157169122, 0.0486936569, -0.0127450079, -0.0363200530, 0.0120287286, 0.0531906001, 0.0437608548, -0.0003398932, -0.0010576805, -0.0472144261, 0.0163287800, -0.0118927807, 0.0222356003, -0.1402240694, -0.0179086942, 0.0687806159, 0.0454168543, -0.0301463716, -0.0284833126, -0.0012354068, 0.0673145056, 0.0134844193, 0.0385883749, -0.0709038824, -0.0142182373, 0.0578577183, 0.0094714044, -0.0877857581, 0.0146480128, -0.0162106361, 0.0764688626, 0.0824836195, -0.0634825677, -0.0033958510, 0.0378341712, 0.0146329002, 0.0476479307, -0.0425227284, -0.0802333057, 0.0268957261, 0.1152182668, -0.0040184362, -0.0207537580, -0.0246727914, -0.0344593562, -0.0477213822, -0.0241520014, 0.0282426439, 0.0527572408, -0.0393575355, 0.0399460122, -0.1023292243, 0.0597920045, -0.0561379455, -0.0902489796, -0.1174158528, 0.0193746984, 0.0662620142, -0.0453341678, -0.0043432512, -0.0189258698, 0.0999225527, 0.0425937288, 0.0642805547, -0.0615591370, 0.0189833753, 0.0554157794, 0.0305794980, -0.0508937575, -0.0125405258, -0.0488953255, 0.0759735629, -0.0484597422, -0.0363232978, 0.0085198814, 0.0072925137, 0.0524301119, 0.0005752491, -0.0568419844, 0.0190283209, -0.1444700956, 0.0094753345, 0.0892865211, 0.0358035788, 0.0145425247, 0.0378862582, -0.0672517419, 0.1008947641, 0.0230681431, 0.0663433895, -0.0346172191, 0.0327704921, 0.0801481530, 0.0703786016, -0.0214390010, -0.1326528192, 0.0501640551, 0.0296679921, -0.0461325534, -0.0429156236, -0.0252054054, 0.0173421465, 0.0109082479, -0.1106523648, -0.0684507787, 0.0515598916, 0.0024329415, -0.0863557234, -0.0414931625, -0.0446987338, -0.0904582217, -0.0216507316, -0.0108902976, -0.1316958517, -0.0759412572, -0.0763260946, -0.0226008985, -0.0533542410, 0.0770922750, -0.0405455939, 0.0433283672, 0.0821939111, 0.0490475930, 0.0484068990, 0.1180383936, 0.0721718669, 0.1284861267, -0.0404641703, 0.0555968620, 0.0367897116, -0.0248962436, 0.0348010883, 0.0513329729, -0.0022567143, 0.0222026557, -0.0208199304, -0.0185650941, -0.0751610324, 0.0184404999, 0.0302521400, 0.0334654637, 0.0293593109, -0.0129737100, 0.0543964207, 0.1359170675, -0.0574831776, 0.0650683865, -0.0027053035, -0.0005827287, -0.0032369264, 0.0464851968, -0.0083904453, -0.0349148251, 0.1108352914, -0.0003617001, -0.0585695468, 0.0090041067, 0.0256969295, 0.0137560870, 0.0604765154, 0.0325002372, 0.0262522437, 0.0195449889, 0.1050279960, -0.0711275190, -0.0636845455, 0.0014135233, 0.0580819845, 0.0504472964, -0.0037557136, -0.0832110643, -0.0223946907, -0.0197815597, -0.0499035642, -0.0390775278, -0.0756866261, -0.0523098484, -0.0399111509, 0.0916249156, 0.0640558600, -0.1329506189, -0.0073629878, -0.1045418382, 0.0392938405, 0.0528420471, 0.0661315322, 0.1265086681, -0.0044778567, -0.0018468408, 0.0032474797, 0.0017825520, -0.0366326459, 0.0578812733, 0.0064392211, 0.0146474959, 0.0414561704, 0.0141998045, 0.0642258674, -0.0322063081, 0.0004775520, -0.0474405102, 0.0191385634, 0.0481335223, -0.0781813562, -0.0054915235, 0.0669780299, -0.0060255402, -0.0762979835, 0.0446407571, 0.0692013353, -0.0195242614, 0.0748016313, 0.0548984371, -0.0948424339, 0.0109934332, 0.1053696647, 0.0381665379, -0.0629082695, -0.0188803114, 0.1437995434, 0.0169709586, -0.0636924952, -0.0873164535, -0.0704005212, -0.0043459702, 0.1222614273, 0.0074135852, -0.0010363543, -0.0399082787, 0.0004405435, 0.1450549513, 0.0291648116, 0.0122842407, -0.0876278430, 0.0498784073, 0.0366938077, 0.0404556915, 0.1082340851, -0.1539078355, 0.0439955220, 0.0200977158, 0.0220537744, 0.0737160072, 0.0159611236, -0.0590986386, -0.0812510327, 0.0808951557, -0.0322746299, -0.0275822263, -0.0995397717, -0.0959318429, -0.0337555371, 0.0225132946, -0.0544123575, 0.0206999630, -0.0482697487, -0.0002463240, 0.0022259993, -0.0468339175, -0.0059774891, -0.0060998662, 0.0090931030, -0.0120325163, 0.0161471404, 0.0331050791, 0.0583667941, -0.0942675024, -0.0348935723, -0.0525896512, -0.0266941935, 0.0129533550, 0.0965213031, 0.0909628123, -0.0226403587, 0.0172449350, 0.1149048582, 0.0677833930, -0.0094061680, -0.0984210148, -0.0337051675, 0.0566023849, 0.0901510715, -0.0827239677, 0.0585562997, -0.0873524919, -0.0342134759, -0.0269900039, 0.0505641922, -0.0026499003, 0.0280240010, -0.0502623394, -0.0505597442, 0.0448525622, -0.1517216116, -0.0319032706, -0.0182994008, 0.0295763537, -0.0256974846, 0.0682238936, -0.0074828593, 0.0850468799, 0.0054198755, 0.0908209234, -0.0113423495, -0.1115928516, -0.0323989168, 0.0844827592, -0.0460333414, -0.0061528785, -0.0148435794, 0.0225638468, 0.1915729195, -0.0951365307, -0.0258034281, 0.0374397896, -0.1006527245, -0.0472026840, 0.0425294489, 0.0588025860, -0.0056203548, -0.0434564166, 0.0204793140, 0.0280022882, 0.0389692150, 0.0574818626, -0.0247814450, -0.0003620280, 0.0507590547, -0.0379544683, -0.0549644753, -0.0997039974, -0.0787866563, 0.0441223532, 0.0956992730, 0.0606629886, -0.0558670424, -0.0089800861, -0.0204467177, -0.0466946512, -0.1111684963, 0.1054778919, -0.0409224927, -0.0586385243, -0.0145292124, 0.0501679704, 0.0378854536, 0.0580615588, -0.0915163755, 0.0678024143, -0.0010619240, 0.0698603094, -0.0273616537, 0.0307981148, 0.1788162887, -0.0084718922, -0.0060317148, 0.0712008029, 0.0834449604, -0.0542141311, 0.1107627526, -0.0476891138, -0.0095599787, -0.0149934981, 0.0086600538, -0.0014396091, -0.0444493704, 0.0316251963, 0.0955397859, 0.0243397392, 0.0983013585, 0.0148141878, -0.0107415812, 0.1703930795, -0.0452553369, 0.0169702265, 0.0309730992, -0.0425336435, 0.0741291344, 0.0413143560, -0.0027375855, 0.0613034181, 0.0104417317, -0.0031925712, 0.1123742089, 0.0007949105, -0.0290686805, 0.1156297028, -0.0078958925, 0.0066814381, -0.0990215912, -0.0597056001, 0.0918127373, 0.0911747366, 0.0393547155, 0.0597045198, 0.0181878712, 0.0118953530, -0.0978858247, 0.0557492189, -0.0623934008, 0.0405246690, 0.0099634659, -0.0453109369, -0.0870852396, 0.0302433614, -0.0324055701, 0.0530954227, -0.0217543263, -0.0429906175, -0.0091830539, 0.0354735553, 0.0344652198, 0.1027637944, -0.0093625914, -0.0385050625, 0.0330095813, 0.0244598128, 0.1342416406, -0.0258785002, -0.0467302389, -0.0437109768, 0.0433351435, -0.0642110854, -0.0871858969, -0.1405710876, -0.0062798276, -0.0927071124, -0.0621905588, 0.0266239159, -0.0085855210, 0.0017696144, -0.0744435489, 0.0220064986, -0.0057675168, -0.0408616662, -0.0103502516, 0.0194029361, -0.0461752154, 0.0441881157, -0.0260156449, 0.0380626284, 0.0284762122, -0.0358185582, 0.0826182514, -0.0978735089, 0.1068887487, 0.0559129752, -0.0443597697, -0.0044638598, -0.1255548447, 0.0219666734, 0.0442411192, 0.0142449904, 0.0841223523, -0.0197105370, 0.0319830962, 0.0766215473, -0.0803829059, 0.0716763362, 0.0125159975, 0.0636914447, 0.0438035354, -0.0425430536, -0.0793448836, -0.0052003423, 0.0944679826, 0.0132485852, 0.0238376874, 0.0415107533, 0.0191513151, 0.0559562556, -0.0503182150, 0.0533229634, 0.0407554023, 0.0473584533, 0.0504750609, 0.0031060653, 0.0662894547, 0.0211040135, -0.0473666601, -0.0680565238, -0.0100995312, -0.0741691142, -0.0052304883, 0.0799678117, -0.0012462498, -0.0530783385, 0.0042601689, 0.0717195794, -0.0933539197, 0.0474318936, -0.0214821007, 0.1140593067, -0.0700442940, 0.0395024307, -0.0502942875, 0.0007105671, -0.0215849821, 0.1163520962, -0.0194433965, 0.0135773038, 0.0599854030, 0.0835830942, 0.0281827040, 0.0340914391, -0.0694218352, -0.0700415224, -0.0085517131, -0.0145539436, -0.0346065089, 0.0633121580, 0.0815348104, -0.1039400995, -0.0325425193, -0.0108580431, -0.0522310771, 0.0671337396, -0.1075865552, 0.0030933630, 0.0175284203, 0.0396142378, -0.0758643225, -0.0404986739, -0.0799928010, -0.1323674768, 0.0362568647, 0.0077270940, 0.0721570849, -0.0729807913, 0.0052604754, 0.0415038504, -0.0241694544, 0.0627906546, 0.0597806163, -0.0098073892, 0.1015095785, -0.0238166433, -0.0433270633, -0.0354935974, 0.0582149476, -0.0678087994, 0.0531064719, -0.0871251971, -0.0972361490, 0.0134542715, -0.0280896872, -0.0326565914, 0.0678629279, 0.0233435351, 0.0393717885, 0.0228550509, -0.0181891043, 0.0375599340, 0.0187118407, -0.0274608601, -0.0304058138, -0.0396124460, 0.1369620562, -0.0494929329, 0.0744522884, 0.1116775274, 0.0091038663, -0.0387864001, -0.1195504144, -0.0839841664, 0.0436828770, 0.0249233935, -0.0078235557, 0.0573766939, 0.0602889694, 0.0458275899, 0.1371714771, -0.0148352226, 0.0550862998, -0.0325217284, 0.0262886807, -0.0846528932, 0.0903140754, -0.0200606585, -0.0196600985, -0.0116249537, -0.0546504222, 0.0468529202, 0.0120494803, -0.0081660189, 0.0177130084, -0.0054591992, -0.0123264119, -0.0467006452, -0.1069761217, -0.0900032967, -0.0194098689, 0.0916174278, -0.0116322590, -0.0069447001, -0.0330673568, 0.0248993095, 0.0189522244, 0.0908188298, 0.0741485357, 0.1719357520, 0.0897988081, -0.0166863184, 0.0443338826, 0.0471259914, -0.1051253304, 0.1691157818, 0.0013390505, -0.0003303040, -0.0962514952, 0.0206153858, -0.1278765202, -0.0239957850, -0.0179109778, -0.0366420001, -0.0287224893, 0.0243159998, 0.0444084555, -0.0512670390, -0.0606459416, 0.0064869495, 0.0731017590, -0.0337677896, -0.0280218869, 0.0350426324, -0.0526771098, 0.1005844548, -0.1628341675, -0.0394777805, 0.0382938534, -0.0071606939, 0.0641117245, -0.0833410919, -0.0619302914, 0.0072316681, 0.0962997526, 0.0477170758, -0.0580304228, 0.0259827655, 0.0235399771, 0.0475699604, -0.0908032358, 0.0283909366, -0.0255301222, -0.0661701560, 0.0152079044, 0.2317592800, 0.0173850190, -0.0487368964, 0.0155200837, 0.0369221829, 0.0175507739, -0.1076870412, 0.0357823446, 0.0579445586, -0.0319365449, -0.0320141874, -0.0544263460, 0.0313713029, -0.0080204988, -0.0028251982, 0.0028388079, -0.0141630936, -0.0544023328, 0.0123503013, 0.0088910209, -0.0100634545, 0.0724245086, -0.0294526313, 0.0558593795, -0.0176873151, -0.0246025827, 0.0182066411, 0.0277795661, 0.0913388208, -0.0516110137, -0.0143979052, 0.1256233156, 0.0128296120, -0.0892011598, -0.0417859182, 0.0564518571, -0.0396556482, -0.0074510369, 0.0746439993, -0.0112162605, 0.0207304023, 0.0806027353, -0.1580227613, 0.0716420040, -0.0834462196, 0.1245511398, -0.0345319621, -0.1174456254, 0.0044326968, 0.0522965156, 0.0021928402, -0.0376408398, 0.0483677164, 0.0317450166, 0.0069603687, -0.0179594867, -0.0154102435, 0.0366699435, -0.0317915678, 0.0161000099, 0.0075195120, 0.0880639106, -0.0023779059, 0.0132037066, -0.0333029255, -0.0077240202, -0.0284926351, -0.0078692352, -0.0074240095, 0.0294271652, 0.0611291379, -0.0426658206, 0.0214614999, 0.1156479195, -0.0275822729, 0.0149635030, -0.0170171149, -0.0355394185, -0.0080841342, -0.1104428843, 0.0080960114, 0.0210409649, 0.0061185900, -0.0764021277, -0.0368573740, -0.0234423522, -0.0874803513, 0.0605989918, -0.0223727748, -0.0143878255, 0.0537305437, -0.0421594344, -0.0524535701, 0.0521543622, -0.0571547709, -0.0754434988, 0.0315958895, -0.0898108780, 0.0797260106, -0.0799011141, -0.0216563642, 0.0412266515, 0.0352052301, -0.0587615371, 0.0211624596, -0.0188119784, -0.0193492807, 0.1357106417, -0.0039864494, 0.0475088321, -0.0639865249, -0.0574693456, 0.0970434919, -0.0468235351, -0.0205964260, 0.0924988315, -0.0076801330, -0.0361939669, 0.0003496842, 0.0104705961, 0.0707230568, -0.0112792794, -0.0318415351, -0.0699501410, -0.0883854255, 0.0396055803, -0.0333379321, 0.0578022711, 0.0567160323, 0.0061758575, -0.0104720686, 0.0463215336, -0.0880407169, 0.0267199948, -0.0220643599, -0.0048517054, -0.0373150669, 0.0547480881, 0.0617576912, -0.1223505437, 0.1032702923, 0.0122719556, -0.0006913745, -0.0295349658, -0.0020698025, 0.0572472438, -0.0444196351, -0.0640190393, 0.0235310607, -0.0988655537, -0.0759075806, 0.0107911183, 0.0472025834, 0.0202803742, 0.0622297116, 0.0053696143, -0.1581337899, -0.0628504157, 0.0059111104, -0.0735277236, -0.0311112329, -0.0065664477, 0.1422679275, 0.0050457558, 0.0537170805, 0.0676383749, 0.0144391796, -0.0119165871, 0.0629659817, 0.0811531171, 0.0118502956, -0.0329423025, 0.0226986948, -0.0563176908, 0.0009583865, 0.0673962384, -0.1108406037, 0.0489385836, 0.0026797033, 0.0519765727, 0.0734565258, 0.1297575384, 0.0807272568, 0.1253235191, 0.0329069085, 0.0033571681, 0.0199813787, 0.0095761595, -0.1073523611, -0.0272270106, 0.0406953320, -0.0153756235, -0.0631352887, -0.0614309907, -0.0822099969, 0.0452040546, -0.0286270678, 0.0439491458, 0.0651840940, 0.0340418965, -0.0322025120, 0.0866677389, 0.0027094586, -0.0887400210, -0.0911082923, 0.1912899613, -0.0085347835, 0.1163256839, 0.0282533821, 0.1143876016, 0.0156398844, 0.0064147417, 0.0280992538, -0.0879669935, -0.0143676074, -0.0332262814, -0.0504164733, 0.0279222466, -0.0197263397, 0.1195088625, -0.0038261730, 0.1625879556, 0.0402290858, -0.1115710139, 0.0021811104, 0.0963172987, 0.0900991410, 0.0853662863, -0.0337985642, 0.0131530399, 0.0307986438, -0.0470787622, -0.0484401211, 0.0195060614, -0.0040308321, 0.0893964022, -0.0126470244, -0.0605716631, 0.0045069493, -0.0439974368, -0.0416020080, 0.1173836663, -0.0617812388, -0.0607232749, 0.0748755112, -0.0615946576, -0.0316471383, 0.0074274517, -0.0454164669, -0.0329074711, -0.0107894242, -0.1001565009, 0.0394943319, 0.0503759906, -0.0112612210, -0.0566467047, 0.0749050677, 0.0347564518, 0.0964394510, -0.0427989140, 0.1278689057, 0.0351717994, -0.0346596316, -0.0124416174, -0.0115586119, 0.0334222279, -0.0468324162, -0.0958704129, -0.1055332273, 0.0477404930, -0.0787747204, -0.0232496466, 0.0029969907, 0.0559539460, 0.0210985038, 0.0204354320, -0.0512186959, 0.0962369964, -0.0253487378, -0.0816058591, -0.0396777578, -0.0080514392, 0.0528209656, 0.1034108773, -0.0702425241, -0.1209013462, 0.0416398123, 0.0144071374, 0.0367503427, -0.0381508395, -0.0449508764, -0.0543512776, 0.0479295924, -0.0239599161, -0.0443990789, -0.1120346263, 0.0298830923, 0.0247840732, -0.0344527736, 0.0225419123, 0.1058982462, 0.0711390153, -0.0565163791, -0.1283001155, 0.0623927191, 0.0335770734, 0.0467504933, 0.0287743788, -0.0667418167, -0.0404453762, -0.0585442595, 0.0138352513, -0.0051424289, -0.0295203142, 0.0773003772, -0.0321729407, 0.0247353166, 0.0687123314, -0.0087541975, -0.0546824485, -0.0630312338, -0.0172820557, -0.0285827946, 0.0268528778, -0.0581719019, -0.0400583595, -0.0864962712, -0.0665290356, -0.0253052060, 0.0358643197, 0.0626257360, 0.0298691597, 0.0235960931, 0.0007534826, 0.1045711786, 0.0333558545, -0.0471971221, -0.0254771095, 0.0205551200, -0.0318250395, -0.0522752814, -0.0346849971, -0.0530347899, -0.0193935018, 0.0039642388, -0.0127275661, 0.0045872144, -0.0698336363, 0.0040567801, 0.1221244261, 0.1036728546, -0.0469595976, -0.0264886823, -0.0453783572, -0.1045542359, -0.0148831978, -0.0114249000, -0.0332846828, -0.0140607934, 0.0061550625, 0.0354427621, 0.1147812456, -0.0099152541, 0.0721186027, 0.1105823144, 0.0504335798, -0.1201206595, 0.0120796300, 0.0164911319, -0.1123258993, 0.0408931859, -0.0301895905, 0.0171464365, -0.0323858634, 0.0340387784, -0.0427802354, -0.0415646695, 0.0746646300, -0.0222936776, -0.0122364676, 0.0183666013, 0.0449415818, 0.0066674026, 0.0508055575, 0.0184498113, 0.0250890460, -0.0195222571, 0.0044591771, 0.0501205958, -0.0641490668, -0.0321735926, -0.0224621091, -0.0053153122, 0.0090969568, 0.0028781993, 0.0379758328, -0.0531398281, 0.0809584409, -0.0662598237, 0.0081832977, -0.0049022660, 0.0586954132, -0.0073302938, 0.0692438558, 0.0096658822, -0.0160604287, 0.1863697618, -0.0791564435, 0.0008207848, -0.0160853621, -0.1806313545, -0.0801433772, 0.0103107579, -0.0940599144, 0.0351405255, 0.1221411973, 0.0762012899, 0.0321371481, 0.0011660216, -0.0013268458, 0.0207548626, -0.0857797563, -0.0643271357, -0.1239270419, -0.0777057409, -0.0282083228, 0.0500322394, 0.0047576078, -0.0485845543, -0.0581943206, -0.0187192950, 0.0490336530, -0.0629066750, 0.0370030627, -0.0365222879, 0.0192259233, 0.0088577261, -0.0297919754, -0.0785163045, -0.0523982495, -0.0386025310, -0.0333118886, 0.0562345684, -0.0264748801, 0.0439080670, 0.0313466415, -0.0534072481, 0.0338104516, 0.0233690906, -0.0605814569, 0.0376685783, -0.0310654286, 0.1392962337, -0.0391293913, -0.0834408775, 0.0396816432, -0.0492885895, -0.0184666049, -0.0286125094, -0.0215330925, 0.0252121817, 0.0405395776, 0.0439117663, 0.0329400264, -0.0196180772, -0.0576724857, 0.0358590744, 0.0687255412, -0.0247536693, 0.0569406934, -0.0029012351, 0.0491574556, 0.0225155223, 0.0216056295, 0.0645535290, 0.0436616279, 0.0399768613, -0.0338200331, 0.0111811748, -0.0267543327, 0.0537536219, 0.0343539007, 0.0934740528, 0.0329541266, 0.0475885496, -0.0824878812, 0.1060606167, 0.0788889006, 0.0533014089, 0.0360173360, -0.0392332636, -0.0468426533, -0.0961124599, 0.0144304810, -0.0100315847, 0.0466874726, -0.0674016476, 0.0140043208, -0.0236270521, -0.0312746726, -0.0103859417, -0.0094573824, 0.0444585718, -0.0057884851, 0.0896033719, -0.0079622250, 0.0096603166, -0.0150967678, 0.0211714562, 0.0273848418, 0.0211461708, 0.0602664240, 0.0307496712, 0.0159009639, 0.0939222723, -0.0197687391, -0.0319265537, -0.0953426063, -0.0413684808, 0.0211811308, 0.0231700018, -0.0449824631, 0.0443124324, 0.0166449510, 0.0360125490, 0.0188798625, -0.0446622446, -0.0183673408, 0.0336052738, -0.1523871869, -0.1033139527, -0.0487816297, 0.0470810905, -0.0914051831, 0.0261457991, -0.0522536039, -0.0331777520, -0.0051137083, -0.0265008062, 0.0302547738, 0.0191536378, 0.1151149720, 0.0121426368, 0.0096762665, 0.0882715434, 0.0046911328, -0.0415263027, -0.1019824371, -0.1056450456, -0.0507001802, -0.0918319672, -0.1183716059, 0.0085683763, -0.0593653694, 0.0463898331, 0.0343365334, 0.1061714962, 0.1106510386, -0.0068256501, 0.0866289884, 0.0493389443, 0.0140738208, -0.0565360188, 0.0299130697, -0.0244543105, -0.0246573575, 0.0284480378, 0.0100540295, -0.0310548600, -0.0117232054, -0.0451937094, -0.0192376040, -0.0025092482, 0.1346666068, -0.0602458045, -0.0087639457, 0.0265179388, 0.0050321617, 0.0095786713, 0.0711727068, -0.0170241054, 0.1019662246, -0.0384115502, -0.0202679541, 0.1597133577, -0.0484954938, -0.0216176268, -0.0790240914, 0.0309488121, 0.0702801570, -0.0147377066, 0.0081547201, -0.0276817866, -0.0165381227, -0.1102070585, 0.1397164017, 0.0054106559, 0.0277789999, 0.0169423763, -0.0339552835, 0.0576550514, 0.0418669581, 0.0423212424, 0.0328951292, 0.0214187950, -0.0188109204, -0.0994340852, -0.0203089304, -0.0020565910, -0.0430346802, -0.0200836081, 0.0208842643, 0.0883041248, -0.0037998508, 0.0503993593, -0.0197216254, 0.0214145910, -0.0753942057, -0.0512948968, 0.1267605275, -0.1070945114, -0.1066216975, -0.0490375012, -0.0484991781, -0.0476214923, 0.0494403206, 0.0325656608, 0.0191107113, 0.0410537645, -0.0091337431, 0.1325796545, -0.0460702032, 0.0708667338, 0.0206481609, -0.1146866381, -0.0276594330, -0.0158948097, 0.0513303988, 0.0886982232, 0.0086278375, -0.0043170080, -0.1240613610, 0.0286287628, -0.0507192500, 0.0128769688, -0.1048907191, -0.0424416661, -0.0566563979, 0.0747151673, -0.0329620466, 0.0599715523, 0.0885158107, 0.0990763828, -0.0568620674, -0.0119982688, 0.0302259848, 0.0758445859, -0.1030608863, -0.0274472516, 0.0483796000, 0.0585934967, 0.0338818170, 0.0639827251, -0.0418466963, -0.0009828235, -0.1324700117, 0.0703326017, 0.0637279004, -0.0169761684, 0.0137898233, -0.0145565169, -0.0511817336, -0.0479666851, -0.0149233025, 0.0696486309, -0.0259966608, -0.1320724487, 0.0847931504, -0.0108286152, -0.0151708750, -0.0502814725, 0.0821594670, 0.0825368166, -0.0624358170, -0.0523483343, 0.0189526752, 0.1265658587, 0.0401452407, 0.0318597108, -0.0309585240, -0.0872637331, 0.0166916214, -0.0190565139, 0.0710796788, 0.0390462913, 0.0544042327, -0.0925166234, -0.1114073917, -0.0128441444, 0.0121115195, -0.0307000950, 0.0184264481, -0.0988533348, 0.0909964293, -0.0443117395, 0.0979707092, -0.0802666768, -0.0209615286, -0.1059569865, 0.0037938084, -0.0010100584, -0.0439487509, -0.0179027002, 0.0542752743, -0.0207880940, -0.0650702938, -0.0082993284, 0.0081397882, 0.0044233794, 0.1668272465, -0.0822410807, -0.0183263868, 0.1379435956, -0.0733558685, -0.0198084544, 0.0712303892, 0.0180690065, 0.0013018606, -0.0690641850, 0.0793163106, 0.0627605468, -0.0584044643, -0.0439442098, -0.0336428210, -0.0134062571, -0.1049581841, 0.0720653459, 0.1151848808, 0.0948398486, 0.0146375773, 0.0083568711, -0.1048087999, 0.0322418064, -0.0065482613, 0.0386878662, 0.0063243494, -0.0812316686, 0.0364432186, 0.0577170216, 0.0058092917, 0.0731524378, -0.0061832499, 0.0193862356, 0.0244004931, -0.0758023560, -0.0927482545, 0.0358232036, -0.1306832284, 0.0343053006, 0.0002314028, 0.0828274190, 0.0395432860, 0.0465019010, -0.0145659717, 0.0164501518, -0.0495088659, 0.0330057181, -0.1613303870, 0.0264182333, -0.0312429797, 0.0500340015, -0.0300223455, -0.0185051784, 0.0022345749, 0.0309310984, 0.0267927535, -0.0150114559, 0.0114067988, -0.0075018764, 0.0034384399, -0.0471103713, -0.0110766487, 0.0297712237, 0.0765699893, -0.0114649795, -0.1141247153, -0.0206531789, 0.0375664569, -0.0832250491, -0.0743343160, -0.0379194021, 0.0637399480, -0.0022666408, -0.0046190703, 0.1160812378, -0.1175042763, -0.0178518314, -0.0270424820, 0.0326639563, 0.0772762671, -0.0188877918, 0.0596848540, 0.0447872207, -0.1708864868, -0.0552239940, 0.0249662790, -0.0044317916, -0.1184899732, -0.0127758812, 0.0185744409, 0.0179584343, -0.0641732141, 0.0223644804, -0.0651966408, -0.0700844824, 0.1204597056, -0.1158398911, 0.0521201231, -0.0476854071, 0.0565105416, -0.0966371149, 0.0309675466, -0.1430524588, 0.0271070451, 0.0096799396, -0.0290056877, 0.0322066359, -0.0920621008, 0.0050182356, -0.0394583233, 0.0804422349, 0.0917096287, 0.0107189119, -0.0049772216, -0.0338222533, 0.0500038415, 0.0296796188, -0.0559556447, 0.0658280253, 0.0482435897, -0.0902236849, -0.0722684190, 0.0517675318, 0.0443785563, 0.0385769643, -0.0451146401, -0.0895755589, 0.0337484628, 0.0396679156, -0.0055023497, -0.0384551175, 0.0997692570, -0.0455838516, 0.0013294434, 0.1329278499, -0.0265167654, -0.0943868533, -0.0544934571, -0.0403600447, 0.0171086360, -0.0297348574, -0.0750318691, -0.1280381382, -0.0073220893, -0.0184914079, -0.0413177833, -0.0480294339, 0.0236539561, 0.0598573014, 0.0409433618, -0.0205044728, -0.0317324847, 0.0690965056, -0.0002984341, 0.0651326180, 0.0794131979, 0.0232282616, -0.0352412984, -0.0626443177, -0.0502728112, -0.0002474240, 0.0045822356, 0.0876564458, 0.0011896127, -0.1156723723, -0.0614003651, 0.0095818564, -0.0082216049, -0.0242967810, -0.1228468046, -0.0071066762, 0.0257570185, 0.0002538627, -0.0379605331, -0.0285596550, 0.0047637890, 0.0182715897, 0.0899306461, 0.0149771236, 0.0225432105, 0.0592013597, 0.0028515118, 0.0582548380, 0.0807977244, 0.0687048659, 0.0077301282, 0.0026353511, -0.1285149753, -0.0175352581, -0.0369738899, 0.0177943986, -0.1063534766, -0.1550863385, 0.0118758744, -0.0436600000, 0.0566638038, 0.0340026282, 0.0842375085, 0.1511354893, 0.0195197649, -0.1086785495, 0.0240109451, -0.0359473974, -0.0235282984, 0.0962170288, -0.0876750723, 0.0470443219, 0.0979589671, -0.0991332084, -0.0608363561, -0.0198934097, 0.1003679186, 0.0412203819, 0.0609071590, 0.0663253814, 0.0176233631, 0.1211375073, -0.0158953462, 0.0234611370, -0.0219233576, 0.0870821029, 0.0566679947, 0.0342768207, -0.0053537306, 0.0095941657, -0.0411589071, 0.0653292984, 0.0279087238, 0.0180666670, -0.0999199748, -0.0749254599, -0.0800287351, 0.0473560020, 0.0855112672, -0.0051328582, 0.1355837137, 0.0571446680, -0.0210059974, 0.0594060570, 0.0747123733, -0.1000962853, -0.0059559480, -0.0334489234, 0.0021927708, 0.0892934203, -0.0765182376, 0.0175732821, 0.0272596739, 0.0024413599, -0.0064791581, -0.0739183351, -0.0580763370, -0.0109117236, -0.0147336321, -0.0009363061, 0.0033339835, 0.1129610538, -0.0226425920, -0.0840564370, 0.0431706570, 0.0035404528, 0.0254441071, 0.0132449605, 0.0554924421, 0.0212667231, 0.0530778468, -0.0615712665, 0.0037283734, 0.0604222864, 0.0365027711, -0.0210171938, -0.1087745950, 0.0234821588, 0.0066626137, -0.0640404671, 0.0697511286, -0.0259069465, 0.0320646912, 0.0187048651, -0.0736715347, -0.0353339426, -0.0118917935, 0.0177671965, -0.0563649200, -0.0167930014, -0.0099417558, -0.0193514638, -0.1239205152, -0.0718542263, 0.0462681279, 0.0550624169, 0.0261026453, 0.0211507715, 0.0051587862, -0.1525655985, 0.0762281418, -0.0571730249, -0.0509099178, 0.0201007202, -0.0180702023, 0.0102128088, 0.0782563910, -0.0366103388, -0.1048477069, 0.0300910417, -0.0127527565, -0.0091847535, -0.0452340357, -0.0761464164, 0.0711538345, -0.0264913440, -0.0363988765, 0.0193917491, -0.0524054430, -0.0432601161, -0.0781992972, -0.0091286404, -0.0003036221, 0.0627210885, -0.0118986862, -0.0377007611, 0.1231865734, 0.1746656448, -0.1106567532, -0.0286444090, 0.0588688403, 0.0241478309, 0.0441241376, 0.0708664805, -0.0840090066, -0.0855339915, 0.0525390133, 0.0348075964, -0.0498209000, -0.0222869925, -0.0077033774, -0.0396956503, 0.0402948745, -0.0659386516, -0.0056984900, -0.0184185933, 0.0669319481, 0.0249632467, 0.0355043858, -0.0040683430, -0.0295662731, 0.0485599265, 0.0033630696, 0.0062762331, 0.0633760244, -0.0319199860, 0.0310263988, -0.0594599769, -0.0916156471, 0.0043332172, -0.0568842143, 0.0344581641, 0.0502225459, 0.0795745254, -0.0286145769, 0.1441599578, 0.0063292407, 0.0324113220, 0.0035569703, -0.0573826469, 0.0191026609, -0.0110455612, 0.0459362455, 0.0668379366, 0.0202132668, 0.0592128560, -0.0060829502, 0.0668203011, 0.0085267397, 0.0047401488, -0.0945977122, -0.0249065887, 0.0035011841, -0.0045841774, 0.0923663601, -0.0235978253, -0.0312381964, -0.0237826612, -0.0377450623, -0.0166394189, 0.0966332704, 0.0547841005, 0.0389908925, 0.0072387336, 0.0494523384, 0.0206474047, 0.0460778885, -0.0344815440, 0.0310845058, -0.0521444306, 0.0538668819, -0.0327621624, -0.0495469719, -0.0088358242, 0.0225812215, 0.0494899042, -0.1160137653, 0.0583155341, 0.0361948721, -0.1379463971, -0.0333514959, 0.0112906024, -0.0622324757, -0.0484142415, -0.0875381082, 0.0009299828, -0.1318241954, -0.1452752203, 0.0056895427, 0.0424127877, 0.0047723837, 0.0060636061, -0.0198651887, 0.0704265982, -0.0079206778, 0.0570285581, 0.0015884864, 0.0107762702, -0.0386399031, 0.0353132635, 0.0800029337, 0.0252582114, 0.0747037977, -0.0566188805, -0.0420728810, 0.0270480327, 0.0998405591, -0.1067700088, 0.0328376628, -0.0458206721, -0.0314267315, 0.0542662330, -0.0272065662, -0.0452221856, -0.0591725223, -0.0099477386, -0.0249731690, -0.1039725244, 0.0399401337, -0.0518136770, 0.0772662833, -0.0162842758, -0.0581692420, -0.0456027538, -0.0151401255, 0.0057417131, -0.0969467610, -0.0133969542, 0.1502708048, 0.0455662869, 0.0145985279, -0.0103704780, -0.0637514964, -0.0322000422, 0.0987142697, 0.0118495869, -0.0812152028, 0.0031360006, 0.0721261650, 0.0577126220, -0.0198245943, -0.0079192268, 0.1003275514, -0.0078695854, 0.0125855366, -0.0847482607, 0.1320321709, 0.0404304489, 0.0360054262, 0.0561347641, -0.0165824965, 0.1646287739, 0.0042612692, -0.0923266113, -0.0952792689, 0.0629722700, -0.0851509869, -0.0261719096, -0.1020516381, -0.0370017514, -0.0303938370, -0.0024735490, 0.0496767834, 0.0532746837, -0.0625009090, 0.0785292983, -0.0783338547, -0.0456075780, -0.0831837878, 0.1093196273, -0.1274183691, -0.0037117100, 0.0211540312, 0.0526419617, -0.0886966959, 0.0513064563, -0.0070966058, -0.0724648833, 0.0150266597, 0.0544450246, -0.0240732580, 0.0643789768, -0.0011197778, -0.0358045697, 0.0150337247, 0.0293867365, 0.0343960635, 0.0517998673, -0.1162316948, -0.0314723589, 0.0218410697, -0.0098643620, -0.0122664245, -0.0129773356, 0.0715520307, -0.0360285491, -0.0781821907, 0.0403153822, -0.0409053043, -0.1144002378, -0.0429898053, -0.0092146033, -0.0383293703, -0.0188391972, -0.0875410289, 0.0679172501, 0.0808693841, 0.0689423606, -0.0488128066, 0.0038161657, 0.1093083918, 0.0595488101, 0.0425475985, 0.0767402351, 0.0880623758, 0.0527472869, -0.0219785534, 0.0442843065, -0.0135896057, 0.0520965271, -0.0174470898, -0.1388691664, -0.0271372925, -0.0202274267, -0.0254296344, 0.0151116159, 0.0481895506, -0.0690418407, -0.0346081927, 0.0077602663, 0.0825374424, 0.0588185042, 0.1321969181, 0.0656644702, -0.0227355585, 0.0411912240, -0.0534647070, -0.0812552497, 0.1459260583, -0.0884370506, -0.0203586388, 0.0326844752, -0.0194679294, 0.0092000058, -0.0500810482, 0.0360380970, -0.0149611924, 0.0621916503, -0.0460294597, -0.0561925694, 0.0448770188, 0.0148041658, -0.0290452335, 0.0844167918, -0.0745018795, -0.0976602733, 0.1397403330, -0.0197741035, -0.0088993860, -0.0427370071, -0.0963378102, 0.0246863812, -0.0264118463, 0.0299895853, -0.0474612750, 0.0705630705, 0.0129844099, -0.0601596646, 0.0543583632, -0.0976587608, 0.0519724600, -0.0454484522, 0.0540676862, -0.0169461574, -0.0054164636, 0.0621841513, 0.0539329499, -0.0579291359, 0.0013153743, -0.0983944014, -0.0059685148, 0.0202581454, -0.0663591176, 0.0421208218, -0.0220832247, 0.0066667018, 0.0036966361, -0.1422905773, 0.0307638329, 0.0592584498, -0.1332531571, 0.0051233685, 0.0361912400, -0.0108644022, 0.0140608530, 0.0068159699, -0.0157158207, 0.0245411545, 0.0026420073, 0.0848586038, 0.0742693767, -0.0429296568, -0.0573103242, 0.0116270036, -0.0075402912, 0.0023608487, -0.1254803687, -0.0154294884, -0.0056658834, 0.0422347374, -0.0251363944, 0.0040107621, 0.0990582705, -0.0596440732, -0.0379700400, -0.0002761696, -0.0721382871, -0.1345543563, 0.0515269898, 0.0966805369, 0.0007937492, 0.0399542227, -0.0470241457, -0.0722174644, 0.0134323454, 0.0519459322, 0.0420491360, 0.0096564405, 0.0102383485, 0.0849365219, 0.0933034942, 0.0855831504, 0.1348055899, -0.0029063737, 0.0206394400, 0.0120886983, -0.0438756049, -0.0760152936, 0.0586502030, -0.0825127512, -0.0254751220, -0.0227209330, -0.0794589147, -0.1096135601, -0.0597900711, 0.0759256184, 0.0091160005, 0.0011885371, -0.0589685887, -0.0049230251, -0.0248175170, -0.0011342287, 0.0401298255, 0.0013217991, 0.0016436493, -0.0034376404, -0.0272494145, 0.0533012301, -0.0437713042, 0.0537959225, -0.0787215158, 0.0258495118, 0.0438668057, 0.0787262470, 0.0183065496, -0.0408064350, 0.1127828583, -0.0253164116, -0.0244510509, -0.0618685223, -0.0107658179, -0.0802898780, -0.0599781759, -0.0145867122, -0.0888257101, -0.0471368618, 0.0105164964, 0.0732332170, -0.1181972772, 0.1607312411, -0.0408660173, 0.0244798008, -0.0258351173, 0.0088534076, -0.0607981496, 0.0618112832, 0.0136422468, 0.0394845679, 0.0474474207, -0.0000923597, 0.0509646349, -0.0369964354, 0.1121990010, -0.0190747101, 0.0258544497, -0.0480035096, 0.0613761656, -0.0232375488, 0.0145900846, -0.0693408698, -0.0423643924, 0.0933505893, -0.0274474788, -0.0053730267, 0.0900681242, 0.0118721453, 0.1104927287, 0.0747173950, 0.0607200153, -0.0325663500, -0.1183628663, 0.0158228129, -0.1078289524, 0.0101411203, 0.0098061468, -0.0167035460, -0.0283833407, 0.0984414294, 0.0024516105, -0.0227259807, 0.0079896469, 0.0444754958, -0.0349446908, -0.0375961289, 0.0319306776, -0.0139450626, 0.0343114510, -0.0001904060, 0.0100051537, -0.0458878130, 0.0032893654, -0.0105122384, 0.0108688846, 0.0623081177, 0.0383037403, 0.1149329916, 0.0339104496, -0.0118554411, -0.0047673699, -0.1358904690, -0.1001125798, 0.1010772735, -0.0235752370, 0.0568091013, 0.0911614820, 0.0846078619, -0.0085287448, -0.0318228491, -0.0029763323, -0.0666525364, -0.0038384316, 0.0212311521, 0.0125251142, -0.0361246094, 0.0908293501, -0.0154845128, 0.0607270449, -0.0771538243, -0.0392757095, 0.0224993750, -0.1049328372, 0.0482024997, 0.1462171525, 0.0814667419, -0.0919255763, 0.0119269919, -0.0363699645, -0.0265306607, 0.1129438728, -0.0534328930, -0.0534761883, 0.0313182920, -0.0460815057, -0.0130416118, -0.0952647030, -0.0174390730, 0.0814236775, -0.0261797365, -0.0796335265, 0.0576154105, 0.0942628309, 0.0425336063, 0.0186075401, -0.0901620835, -0.0322877094, 0.0510756411, 0.1053564698, 0.0005399666, -0.0747606680, -0.0026451405, 0.0255674552, 0.0542892031, -0.0140269734, -0.0392982364, 0.0310889669, 0.0280398820, -0.0191286113, -0.0301922560, 0.0195742268, -0.0697783157, -0.0344730951, -0.0674201995, 0.0958189666, -0.0236923862, -0.0800146163, -0.0289998204, 0.0069316677, -0.0558492839, -0.0643231571, -0.0538733043, 0.1242938414, 0.1070340350, -0.0458033271, 0.0103907222, -0.0101619642, 0.0388544612, -0.0645728931, 0.0064856843, 0.0606900752, -0.0649291873, 0.0942145437, 0.0446948856, -0.0017026294, 0.0858217254, 0.1260264367, -0.0423283167, -0.1062415019, -0.0837672725, 0.0814226866, 0.0266817827, 0.0667767450, -0.0812004209, -0.0446848869, 0.0326319076, 0.0546089076, -0.0233384687, -0.0257060248, -0.0640942976, 0.0281297155, -0.0974634215, -0.0839871094, -0.0607341789, 0.0243499335, -0.0010206193, -0.0767846555, -0.0402835719, 0.0108285444, -0.1062770784, 0.0112567088, -0.0695241019, 0.0002822811, 0.0251598116, 0.0927130133, 0.0663129240, 0.0072864937, -0.0833174437, -0.0248480439, -0.0676099211, 0.0551605187, 0.0730291680, 0.0391993858, 0.0667142570, 0.0475753509, 0.0150635811, 0.1207835674, 0.0574109107, -0.0460403152, 0.0125363423, 0.0083893174, 0.0193235576, 0.0158745423, 0.0174261648, -0.0580556057, 0.0048828889, 0.0400631279, 0.0110975569, -0.0030420157, 0.1045844778, 0.1873942316, -0.0444917232, -0.0815105438, 0.0208420511, -0.0093880296, 0.0142227188, -0.1063566059, 0.1384716034, 0.0694473386, -0.0789849460, 0.1091147289, -0.0466029420, 0.1429850906, -0.0388160832, 0.0258154310, -0.0562315993, 0.0476585142, -0.0323166251, -0.1022396162, 0.0671913847, -0.0134530142, 0.1013396904, 0.0268499851, -0.0031162594, 0.0081710042, 0.0306541100, -0.1354666203, 0.0315968469, 0.0835998133, -0.1080810949, 0.0312225148, -0.0043656398, 0.0017506614, 0.0267567877, 0.0164857786, -0.1560726911, -0.0905517638, 0.0408609211, 0.0645886436, 0.0280777849, -0.0656009465, 0.0447123982, 0.0246614758, -0.0480645448, -0.0875549242, -0.0369430035, 0.0015011115, 0.0219409689, -0.0680823252, 0.0911445543, 0.0010272344, 0.0144927045, 0.0190851819, -0.0469201095, -0.0694139972, 0.0387354381, -0.0114527233, 0.0043553882, 0.0032799675, 0.0245121587, 0.0051568616, 0.0932464451, -0.0174495969, -0.0375492759, -0.0107881427, -0.1014018059, -0.1230324283, 0.0388133712, -0.0676582679, -0.0651677027, -0.1137071997, 0.0648658723, 0.0451731384, 0.0139159951, 0.0391687602, 0.0560444705, -0.0156887602, 0.0251918938, 0.0560197309, 0.0032932293, 0.0068639275, 0.1434270740, 0.0112098390, 0.0793566853, 0.1177082732, 0.0421670787, -0.1039313376, 0.0225952268, -0.0546423122, 0.0467762165, 0.0466506630, 0.0720425621, -0.0334140807, -0.0611268617, -0.1273577660, 0.0002005907, -0.0092290808, 0.0679174662, 0.0113660041, -0.0630097017, -0.0847505778, 0.0458089598, 0.0073722429, -0.0494217090, -0.0593750589, 0.0747234002, -0.0002151410, 0.0270479750, 0.0126292873, 0.0795841739, -0.0819318518, 0.0680378899, -0.0522764064, -0.0383590199, 0.0342532918, 0.0083147390, -0.0377937630, -0.0726861134, -0.0165556502, -0.0207269117, 0.0184801109, 0.0223019756, -0.0915513188, -0.0319567695, 0.0644610822, 0.0015584056, -0.0087668775, 0.0737647936, 0.0612123497, -0.0855595469, -0.0341734104, 0.0498085581, -0.0276878420, -0.1245923266, -0.0045693740, 0.0213000793, -0.0375949144, -0.0005339006, -0.0524769947, -0.0242950954, -0.0832002535, 0.0798143744, -0.0486794934, -0.0462248623, 0.0122539513, 0.1159485206, 0.0117389597, 0.0200549960, 0.0109360805, 0.0448737182, -0.0708236545, 0.0064129932, 0.0896313488, -0.0998348817, -0.0173380263, 0.0126611060, 0.0521520339, -0.0187963285, 0.0177012477, -0.0825318396, 0.0597481132, 0.0047831959, 0.0282852910, -0.0241361782, 0.0230101068, 0.0575983897, 0.0092374282, 0.0957789794, -0.0235895310, -0.0047141025, 0.0837181881, 0.0899769440, -0.0228753816, 0.0545968339, -0.0748963431, -0.1128792018, 0.0029226083, 0.0561481230, -0.1512487680, 0.0151775600, 0.0227247514, 0.1141553670, -0.0358976908, 0.0333695598, 0.1236453578, -0.0123116178, -0.0142868301, -0.0100416858, -0.0613076575, 0.0943424255, 0.0326068215, -0.0218895786, 0.0823857337, -0.1024177372, -0.0173221603, 0.0298967250, -0.0274201911, -0.0681507587, 0.1090802625, 0.0798555687, 0.0895026028, 0.0436508805, -0.1297327727, -0.0365463719, -0.0737556368, -0.0224318597, -0.0177159645, -0.0264709964, -0.0090443566, 0.0042958427, 0.0373294838, 0.0133121079, 0.0645935759, 0.0415299907, -0.0046029477, -0.0851053223, -0.0079826582, -0.0272478964, -0.0341417119, 0.0448150933, -0.0363340825, 0.0204343218, -0.0886526555, -0.0444809496, 0.0927297473, -0.0106744422, 0.0037046536, -0.0194698758, 0.0507068262, -0.0063259737, 0.0358723477, 0.0654802844, 0.0522381961, -0.0082143825, 0.0484745465, -0.0083040874, -0.0209199637, -0.0240869969, 0.0405554995, -0.0888786688, 0.0199215543, 0.0390218757, -0.0055380431, -0.0067742211, 0.0450341888, 0.0836875066, 0.0183001570, -0.0001611571, -0.0547622703, -0.0240489077, 0.1060887948, -0.0082628783, -0.0307601430, -0.0723398402, -0.0810976252, 0.0029062543, -0.0578976013, -0.0623469055, 0.0158658791, 0.0027290969, -0.0455649793, -0.0372742116, 0.0455640703, -0.1103166491, -0.0524872355, 0.1515543759, -0.0410590991, -0.0033559259, 0.0046384102, -0.0874357373, -0.0372017026, 0.0227162689, 0.0565133877, 0.0519638434, 0.0155267091, 0.0203960072, 0.0659543574, -0.0518223308, 0.0695853159, -0.0087651247, 0.0559556223, -0.0554006584, -0.0254909005, 0.0710102469, 0.1126997173, -0.0042670574, 0.0048375973, 0.0240047388, 0.1574559659, 0.0704402104, 0.0901433155, 0.1035259813, 0.0060900743, 0.0615820996, 0.0860922858, 0.0431891233, -0.0427661426, 0.0817385986, 0.0655059069, -0.0544407777, -0.0258223843, -0.0325042978, -0.0580937788, -0.1384186745, 0.0886421278, -0.0278602131, 0.0707535148, 0.0113969641, -0.0626737475, 0.0041968259, 0.0586051568, -0.0353544168, -0.0684873536, -0.0364380628, 0.0157000255, 0.0365414135, 0.0312003288, -0.0408677049, 0.0223535262, 0.0308606680, 0.0290353410, -0.0593584664, -0.0238806065, 0.0229027011, 0.0421247296, -0.1856088638, 0.1068811044, -0.0948559195, -0.0223934446, 0.0718356818, 0.0183043517, 0.0282870829, -0.0695349127, 0.0880620331, 0.0041301115, 0.0722332895, -0.0692772642, 0.0680268407, -0.0689984858, -0.0133341346, -0.0108630005, -0.0462897345, -0.0085005639, 0.0095168734, 0.0188790988, 0.0262887515, -0.0100807250, 0.0357964672, -0.0919812694, -0.0699925721, -0.0574186221, -0.0240626633, -0.0065368861, 0.0521122888, 0.0437519550, 0.0792565197, -0.0011023680, -0.0029822241, 0.1193666980, -0.0536700860, -0.0417290665, 0.0068091541, 0.1072993949, 0.0628234819, -0.0309097283, -0.0438453890, -0.0271737762, 0.1837140620, -0.0155347176, -0.0216608290, -0.0597341657, 0.0463881120, 0.0136149609, -0.0240206979, -0.0427242927, 0.0144256577, 0.0468287058, 0.0034417084, 0.0132308062, 0.0369451679, -0.0390799381, 0.0824215561, 0.0290235654, -0.0846854821, 0.0611179061, -0.0307133943, 0.0501505286, -0.0124527728, 0.0221452415, -0.0405527949, -0.0474639237, -0.0156622771, 0.0821827352, -0.0866197273, 0.0170775410, -0.0277213156, 0.0139999529, 0.0419744104, 0.0378424190, -0.0273208059, -0.0021918248, -0.0225376152, -0.0882291570, -0.1036932990, -0.0274025761, -0.0439667590, -0.0121771730, -0.0328822285, 0.0225996431, 0.0349786803, 0.0197617896, 0.0237657614, -0.0389053524, -0.0460184775, 0.0224212408, -0.0429174788, 0.0076097581, 0.0354726799, 0.0361602865, 0.0437607132, 0.0435921215, -0.1187144890, -0.0300505962, -0.0034468141, 0.0383763500, -0.0384242795, 0.0264826622, -0.0278012492, 0.0337084085, 0.0665816069, 0.0207539313, 0.0688607991, -0.0397595130, -0.0298044439, -0.0808591694, 0.0036907846, 0.0334768482, -0.0249746591, 0.0102704726, 0.0653830767, 0.0702663958, 0.0426040366, -0.0411506929, 0.0061742091, 0.0405386575, 0.0217651110, -0.1250059754, 0.0624462143, 0.1284963489, 0.0236849822, 0.0526338406, -0.0085213212, 0.1290849596, -0.0301451087, 0.1642310321, -0.2211854011, 0.0372228771, 0.0650008842, -0.0459829494, 0.0044492842, 0.0610764585, 0.0014495605, -0.0179528110, -0.0590665229, 0.1379761696, 0.0706269592, -0.0153002879, -0.1409485787, 0.0149536803, 0.0081119975, -0.0110089239, 0.0062517859, 0.0885874778, -0.0354012698, 0.0657736436, 0.0672113821, 0.0666293204, -0.0340644605, -0.0351168700, 0.0242202133, -0.0058019762, -0.0413143486, 0.0332276598, -0.0490685850, -0.0132886311, 0.0650818422, -0.0628125072, -0.0117221763, -0.0111193862, -0.0397539139, 0.0396757163, -0.0137680434, -0.0279828701, -0.0702163130, -0.0219950527, -0.0029388214, 0.0355344713, -0.0071468712, 0.0523245782, -0.0136359893, 0.0046898499, -0.0675491095, -0.1278537065, -0.0958506092, -0.0197713319, -0.0630310401, 0.0083467737, -0.0252299830, -0.0421230383, 0.0145337265, -0.0045006243, -0.0927648172, 0.0131419776, 0.1154386476, 0.0427009352, -0.0036965220, -0.0814729482, -0.0612405017, 0.0753367096, -0.0248143338, 0.0104251336, -0.0446300693, -0.0590682626, -0.0413229726, 0.1430629045, 0.0005066171, 0.0702562183, 0.0344542712, 0.0835602358, -0.0484648645, -0.0387484096, 0.0481373072, 0.0144840358, -0.0345112272, -0.0205168929, -0.0161662940, -0.0056293877, 0.0416260064, -0.0016773357, 0.0297028609, 0.0027486284, 0.0207380485, -0.0132512636, -0.0878264606, 0.0019630550, -0.2011678368, 0.0480159260, 0.0361056812, -0.0343121700, -0.0505943894, -0.0728982687, -0.0969282985, -0.0439078771, -0.1142722517, -0.0393612906, -0.0566409305, 0.0012992782, -0.0076239463, -0.0194548164, -0.0422250330, -0.0301852021, 0.0535705127, -0.0448538400, -0.0405195616, 0.1102192178, -0.0702832043, -0.0872551948, 0.0110555328, -0.0377183110, 0.0147164296, -0.0466415621, -0.0111662624, 0.0678920224, -0.0243506450, -0.0443144813, 0.0135668945, 0.0014287689, 0.0368391201, 0.0914072618, 0.0155942002, -0.0358654857, 0.0493410788, 0.0921628997, -0.0543623045, 0.0331985466, 0.0583303124, 0.0211581327, -0.1282765269, -0.0087918360, 0.0079525914, -0.0614928491, -0.0505281687, 0.0212812927, -0.0365642533, -0.0412047021, 0.0003816776, -0.0626258552, -0.1154885218, 0.0803367049, -0.0639607087, 0.1333057135, -0.0416679308, 0.0045553180, 0.1985485405, 0.0273632705, -0.0107588368, 0.0974229202, -0.0329095721, 0.1093875989, -0.0059520784, 0.0503269173, 0.0783918202, -0.0314838961, 0.0282149222, 0.0204939879, -0.0812477320, -0.0528106056, -0.0193047188, -0.0589509606, 0.0205228254, 0.0026830325, -0.0368359163, 0.0103893811, 0.1174629182, 0.0069288923, 0.1303520054, 0.0789200962, 0.0248853695, 0.0100933323, 0.1175008863, -0.0294794440, -0.0049737399, 0.0773254111, -0.0208868161, -0.0401873626, -0.0024743103, 0.0049850303, 0.0275256969, -0.0116764922, 0.0199594423, 0.0064874166, 0.0045978674, 0.0194807574, -0.0354350470, 0.0050072940, -0.0652367994, 0.0129063036, 0.0596282780, -0.0524218045, -0.0696864799, 0.0107285623, 0.0173392221, 0.0420050286, 0.0048151626, 0.0096506057, -0.1179212257, -0.0694544017, 0.0106999716, 0.1222684905, -0.0571125410, -0.1271074116, -0.0544712618, -0.0881346613, 0.0242053308, -0.0302164126, 0.0714086145, 0.0179463625, -0.0303450767, 0.0556454360, 0.0292497575, 0.0045879777, 0.0873848200, -0.0590275228, -0.0944549069, -0.0309928022, 0.0540099032, -0.1352613568, -0.0535390079, 0.0132419737, 0.0035803281, 0.0158511121, 0.0540801510, 0.0253534522, 0.0814538673, 0.0475886464, -0.1086178645, -0.0136353541, 0.0778679922, -0.0199355930, -0.0017968373, 0.0415481851, 0.1065612733, -0.0802152380, -0.0474152155, -0.0771799386, -0.0163594540, -0.0839946494, -0.0358325727, 0.0113046933, -0.0583883561, -0.0509650707, 0.0871301144, -0.0074030925, 0.0019755778, 0.0218255054, 0.0872274339, -0.1446528137, -0.0345783308, -0.0649521276, -0.0083669787, 0.0012090898, -0.0257896408, -0.0028265673, -0.0540132523, -0.0004876756, -0.0410919450, 0.0360721163, 0.0552171282, 0.0197850224, 0.0210348181, 0.0775282830, 0.0271611232, 0.0659694150, -0.0134163657, -0.0383791849, 0.0313463099, -0.0000978983, -0.0356988981, -0.0432211608, 0.0210317876, 0.0219878666, 0.0923748314, 0.0459294394, 0.0721180588, 0.0553309917, -0.0002463107, 0.0686027780, -0.0182687119, 0.0513531268, -0.0370393097, -0.0049120598, -0.0153696788, -0.0106753316, 0.0874337405, -0.0354813747, 0.0654445291, -0.0111100851, 0.0579895526, -0.0193175301, 0.0089360960, 0.0416312739, 0.0811704174, -0.0046986178, 0.0260627028, 0.0186261851, -0.0271155760, -0.0465077944, 0.1606364697, -0.1353795528, 0.0194274206, 0.0320530050, -0.0245094262, 0.1272467375, -0.0860790089, 0.0082891528, -0.0053990576, 0.0183472279, 0.1972918957, 0.0320375971, 0.0434775390, 0.0322347134, -0.0899478868, -0.0034413806, 0.0400568359, -0.0283808447, -0.0426468663, -0.0499711335, 0.0787380561, 0.0391068421, 0.0023478104, -0.0481470153, 0.0491371714, -0.0872785524, 0.0082739498, 0.0964754820, -0.0377784222, 0.0067516211, 0.0054529277, -0.0006859108, -0.0130333835, -0.0070708599, 0.0525590181, 0.0723903403, 0.0777556300, -0.0472559519, 0.0089212777, -0.2014282942, 0.0496817678, -0.0482018068, 0.0214496627, 0.0827331021, 0.0108725140, 0.0347565971, -0.0000111862, -0.0827642679, -0.0285050813, 0.0359713212, 0.0198755134, 0.0125397602, -0.0661262795, -0.0314102918, -0.0236705095, -0.1136066765, -0.0797432512, -0.0536305122, -0.0409613624, 0.0235461425, 0.0547798350, -0.1553216726, 0.0723612159, 0.0031225609, 0.0620351285, -0.1036247090, 0.0046369527, 0.0385131538, -0.1031411216, 0.0591489673, -0.0485006087, -0.0122690042, -0.0562003814, 0.0143405870, -0.0385896936, 0.0205711462, 0.1551821530, -0.0329325497, -0.0167469047, -0.0432500727, 0.0260961633, -0.0153156519, -0.0240461510, 0.0375229046, -0.1041985899, 0.0717424974, -0.0261549074, 0.0474372283, 0.1032537445, 0.0012667411, -0.0528380871, -0.0079586012, -0.0536411256, 0.0138802370, -0.0769141391, 0.0061235838, -0.0628272593, -0.0968762711, 0.0129875084, -0.0261438787, -0.0508059226, -0.0132387280, 0.0341386944, -0.0391900018, 0.0178595129, 0.0374953225, -0.0387733243, 0.0895380899, 0.1258429885, -0.0427172445, -0.0961501524, 0.0745739266, 0.0176833775, -0.0371787772, -0.1063425019, 0.0526664294, -0.0846185610, 0.0023935428, 0.0400731266, -0.0736330226, -0.0471685752, 0.1173486114, 0.0429051220, 0.0439472944, 0.0613037348, -0.0431007110, 0.0050518219, -0.0958891809, 0.0924016535, 0.0586993359, 0.0569721051, -0.0698483735, -0.0044609215, 0.0362455584, -0.0094120130, 0.0322746113, 0.0267874170, 0.0109987985, -0.0108575057, 0.1692935526, -0.0286709089, 0.0000378824, 0.0725410655, 0.0490217507, 0.1460298747, 0.0604612827, -0.0411039293, -0.0175370052, -0.0632369146, 0.0500925519, 0.0472068004, 0.0830456838, -0.0574155301, -0.0109447362, -0.0021439965, 0.0095257005, 0.0244943369, 0.0211724881, -0.0788945332, -0.0177885685, -0.1191560254, -0.0513110235, -0.0159743857, -0.0534375831, -0.0774549991, -0.0492508523, 0.1002736837, -0.0215069186, -0.0373455174, -0.0792940855, -0.0557081290, -0.0688476562, 0.0380529501, -0.1872941256, -0.0339365117, 0.0522151031, -0.0111157643, -0.0137752574, 0.0379633754, -0.0518525094, 0.0163161717, 0.0044626985, -0.0612312853, 0.0277180243, -0.0415392481, 0.0108011737, -0.0135205286, 0.0897843391, -0.0367719457, 0.0558858477, -0.0133806383, 0.0733561143, 0.0491698347, 0.0135137448, 0.0030717445, 0.0553880222, 0.0470248871, 0.0021397613, 0.0143230129, 0.0501269437, 0.1453578472, 0.0518424995, -0.0038334762, 0.0756476372, -0.0904065296, -0.0998600945, -0.0257881247, 0.0709573627, 0.0189529508, 0.0734442845, -0.0775906965, -0.0059239701, -0.0579227060, -0.0222816207, -0.0299204998, -0.0345293321, 0.0443733297, -0.0878903866, -0.1009035408, -0.0554753281, 0.0267544184, -0.0055046929, 0.0131344888, -0.0173942223, -0.1044883579, -0.1034066454, -0.0138326287, -0.0179741681, -0.1194166318, 0.0290102717, 0.0173260979, 0.0625523701, 0.0301752221, 0.0074420860, 0.0544641949, 0.0444001295, 0.0731101483, 0.0636084601, -0.0006232174, 0.0746136904, 0.0880079642, 0.0367698334, -0.0660130829, -0.0011608432, -0.0168023072, -0.0095431032, -0.0336573087, -0.0488926098, 0.0989621729, -0.0554551370, -0.0149798971, 0.0295626316, -0.0264102872, 0.0661911368, 0.0147326328, -0.0550962612, -0.0018359390, -0.0667252541, -0.0089975642, 0.0067464476, 0.0151605029, -0.1032711118, 0.0631252676, -0.1583863795, 0.0177129786, -0.0396334194, 0.0608944446, -0.0448319167, -0.0085787326, 0.0617622025, 0.0658977702, 0.1774372309, 0.0182304196, -0.0658847988, 0.0076642237, 0.0458268747, 0.0364743099, -0.0009604495, -0.0070676054, -0.0040149647, 0.0432416797, 0.1165747494, 0.0353482254, -0.0536477268, -0.0271650311, 0.0450522862, 0.0492660962, 0.0657998845, -0.0298485290, -0.0832704976, -0.0478249341, -0.0348789841, 0.0282299928, 0.0607912093, 0.1136663258, 0.0521269999, 0.0578598268, -0.1298056990, 0.1246082783, 0.0507914275, -0.0163044464, -0.0014742138, 0.0413359962, -0.0317030810, 0.0663148686, 0.0421658568, -0.0465335958, 0.0091630546, 0.0565745048, -0.0282106698, 0.0536212102, 0.0606553592, 0.0612771586, -0.1083967984, 0.0227473155, -0.0605728589, -0.0552396290, 0.0352436416, 0.0381042250, -0.0879616588, -0.0206508525, 0.0418800637, 0.0819331929, -0.0223801602, 0.0402400121, 0.1107664779, -0.0799343586, 0.0517498702, 0.0023572841, -0.1156947538, -0.1078347713, -0.0427395962, 0.0710286573, 0.0489293784, -0.0080468329, -0.0392737314, -0.0850276425, -0.0073100198, -0.0249908883, 0.0114535931, 0.0288269967, -0.0280759223, 0.0400695838, -0.0196176916, 0.0052293390, 0.0366389230, -0.0028283843, 0.0648748279, 0.0028973301, 0.0707202256, 0.0761206895, 0.0166083723, -0.0042973193, 0.0240440574, -0.0090561481, 0.0287957471, -0.0277515315, 0.0643624812, -0.0704664811, 0.0201287679, -0.0453782864, -0.0191731174, 0.0244796444, -0.0063441428, -0.0102987979, -0.0242648255, -0.0198759772, 0.0015428319, -0.0455488190, -0.0579268821, -0.0054497933, 0.0052384203, 0.0054725385, -0.0198616777, -0.0256553832, -0.0553264953, -0.0361819938, -0.0238077659, 0.1962824017, 0.0804119930, -0.0388603918, 0.0434624590, 0.0594928525, 0.0389390476, -0.0889626294, 0.0852295756, 0.1507714242, 0.0763405040, 0.0152481487, -0.0054002437, -0.0630838647, 0.0142241856, 0.0328457728, -0.0340686999, -0.0371089131, -0.0395494364, -0.0151651194, -0.1136977002, 0.0804871395, 0.0349216200, 0.0787954107, -0.0295198914, -0.0792578012, 0.0690716803, 0.0002827694, 0.0541146733, -0.0266657285, -0.0472031124, 0.0093592973, 0.0421639234, -0.0455188602, 0.1287705302, -0.0095910951, -0.0689855888, 0.0937090144, -0.0839869604, -0.0052832733, 0.0296095666, 0.0182915982, 0.0505144969, 0.0345683470, -0.0736660138, 0.0020563593, 0.0001220546, 0.0002121041, 0.0288075488, -0.0006495749, -0.0353186093, -0.0388071723, -0.1017836183, -0.0666517615, -0.0938817486, 0.0630328506, 0.0977327302, -0.0186503287, 0.0150415478, -0.0016451374, -0.0560203381, -0.0074404837, -0.0590820909, 0.0106159365, -0.0438255072, -0.0219050068, 0.1072271690, -0.0121805891, -0.0422778875, -0.0443765968, -0.0144418236, 0.0513881557, 0.0149206016, -0.0365491137, -0.0934670568, -0.0282052029, 0.0007733115, -0.0404413939, 0.0086243059, 0.0130115794, -0.0537474081, 0.0640045181, 0.0406342000, 0.0448808111, -0.0145370532, -0.0846284181, -0.0392777137, -0.0225977767, 0.0783891454, 0.0682682842, 0.1285037994, -0.0304495003, 0.0081049576, 0.0895642564, -0.0009200738, -0.0974722132, -0.0325187184, 0.0315833800, -0.0059488593, 0.0752877593, -0.0074390373, -0.0407012030, 0.0177804362, 0.0082893632, -0.0800340325, 0.0255197305, -0.0181562100, -0.0065828483, 0.0110795079, 0.0307082310, -0.0624800026, -0.0091482708, 0.0267819539, -0.0315336660, -0.0277929492, -0.0150499735, 0.0922130346, 0.0985762104, -0.0823559910, -0.0639958903, -0.0442186892, 0.0940822586, -0.0091734864, -0.0227617286, 0.1405592114, -0.0175990891, -0.1306247264, 0.0861838311, 0.0037424411, -0.1077940241, 0.0293186270, -0.0384130850, 0.0477615483, 0.0458451435, 0.0260182507, 0.0633726269, 0.0118888840, -0.0913091898, 0.0401325561, -0.1210207939, 0.0064487034, 0.1482862681, 0.0339108184, -0.0526687242, 0.0214139000, -0.0631968752, -0.0244245119, -0.0135685690, 0.0253764857, -0.0443435796, 0.0418179743, 0.0734484717, -0.1730649471, -0.0003935558, 0.0106036533, 0.0228782073, -0.0979973674, -0.0472250804, -0.0257554632, -0.1001123935, -0.0335926451, -0.0950761363, -0.0753488019, 0.0016458556, -0.0204344299, -0.0563312694, 0.1059489921, 0.0556520298, -0.0621116012, 0.0419583879, 0.0967623144, 0.0480490513, -0.0159214661, 0.1610080600, -0.0171667878, 0.0066989684, 0.0288730226, 0.0362561941, 0.0147136049, 0.0372095630, -0.0207572747, -0.0366602279, -0.0396597460, 0.0733370930, 0.0179530997, -0.0467252284, 0.0430228375, -0.0078250989, 0.0268029515, -0.0297305845, 0.0415090807, -0.1174278185, 0.0555004515, 0.0416674651, 0.0058924556, 0.0044229208, 0.0777276158, 0.0257983152, 0.0088970503, 0.1488694698, -0.0343935005, 0.0562130660, -0.0154526038, 0.0222094916, -0.0130091533, 0.0184790250, -0.0099079628, 0.1085135713, 0.0800498575, 0.0921130627, -0.0409923233, -0.0178825948, -0.0675508082, -0.0101434207, 0.0247240961, 0.0362503454, -0.1982293129, -0.0683434010, 0.0278969482, 0.1112502143, 0.0310313441, 0.0147151668, -0.0502532907, 0.0371003002, -0.0207580253, 0.0623874441, 0.0207042601, -0.0256860219, -0.0215064436, -0.0348939560, -0.0953250378, 0.0516097844, -0.0037195927, -0.0543923527, 0.0358523466, 0.1264104545, 0.0188957825, 0.0128180571, 0.0074434024, 0.1006895080, 0.0881079584, 0.0292818137, 0.0068858801, 0.0882333741, -0.0092722056, -0.0406545848, 0.0463824347, 0.1102563366, 0.0181149002, 0.1298257560, 0.0210802499, 0.0333797149, 0.0775221437, 0.0140288854, 0.0042457879, 0.0483062044, 0.0715886950, -0.0927832276, 0.0300964545, -0.1039794534, 0.0798297450, -0.0485295542, -0.0178352911, -0.1025310680, 0.0145100048, -0.0027522040, -0.0114642801, 0.0522916913, -0.0215648897, 0.0009267949, 0.0334829092, 0.0969641656, 0.0165994000, 0.0825724974, 0.0518470891, -0.0093197254, -0.0420351252, -0.1648641974, -0.0456116796, 0.0390554331, -0.0266398881, 0.0580919310, -0.0413807109, 0.0295237321, 0.0140813943, 0.0474676266, -0.0241907761, -0.0971612632, 0.0219631698, 0.0635079294, -0.1208500564, 0.0227610301, -0.0854615495, -0.0820743665, -0.0876032636, -0.0409105048, -0.0015416589, 0.0373961553, -0.0729431883, 0.0183408298, 0.0476780720, 0.0919409022, -0.0771303698, 0.0299717411, -0.0024122251, -0.0416343026, -0.0003466838, -0.0041251853, -0.1303140372, -0.0764405802, 0.0261294264, -0.0389937870, -0.1168230549, -0.0226358194, -0.1053169370, -0.0096183913, -0.0419987403, 0.0834972709, -0.0865091160, 0.0463532768, -0.1111790538, -0.0761913732, -0.0948395208, 0.0219545364, 0.0953384191, -0.0216673613, -0.0338351205, -0.0891454369, -0.0109297037, -0.0024801437, 0.0056193206, -0.0381568037, 0.0356177911, -0.0447786078, -0.0134776011, -0.0439586379, 0.0485892259, 0.0867480487, -0.0713494122, -0.0310053602, 0.0462896526, -0.0374192819, -0.0547628626, -0.0371409282, 0.1112243012, 0.0998247564, 0.0276983157, 0.0041464078, 0.0024203877, 0.0218106490, -0.0048203766, -0.0369235985, -0.0047867741, 0.0420466661, -0.0913763270, -0.0262089260, -0.0181437116, 0.0607174747, -0.0144918570, 0.0001513167, 0.0129027329, -0.0215590987, -0.0594350211, -0.0316844471, 0.0538520552, -0.0623903386, -0.0785373673, 0.0656197593, -0.0938091055, -0.0611214265, -0.0003617673, -0.0742598623, 0.0003127416, -0.0289739482, 0.0469225049, 0.0022816097, -0.0135680912, -0.0115662282, 0.0481293872, -0.0912372991, 0.0235033371, -0.0310364496, 0.1351131201, 0.0127454959, -0.0435738191, 0.0120501211, -0.0753380358, 0.0729922056, -0.0301064737, -0.0062493761, 0.0353226773, 0.0041345800, -0.0540201403, -0.0243467372, 0.0524243303, 0.0299598612, 0.0651779175, 0.0081124566, 0.0195174236, 0.0498632789, -0.0478739329, 0.0090697864, -0.0354364812, -0.0861992389, 0.0012405389, 0.0345137566, 0.0011946457, -0.0090287365, 0.0413056724, 0.0162886214, 0.0243917704, 0.0341237299, -0.0705022439, -0.0371437855, 0.0567281470, -0.0271886680, 0.0130856121, -0.1331839114, -0.0700721964, -0.0730239823, 0.0585279912, 0.0090584988, 0.0112242037, -0.0606870167, 0.0475776531, -0.0094426097, 0.0428919382, -0.0794710740, -0.0621570535, 0.0745379701, -0.0087858094, 0.0028009473, -0.1612722725, 0.0350685827, 0.0052240933, -0.1015128568, 0.0511780456, 0.0787056237, -0.0839879438, -0.0102727953, -0.0215203203, 0.0424024574, 0.0528053269, 0.0094574476, -0.0202581603, -0.1751382500, 0.0365287401, 0.0211145151, -0.1039063334, 0.1322232783, -0.0216416679, -0.0071457028, -0.0327801146, 0.0053703673, 0.0150926784, -0.0020438009, 0.0503788888, -0.0213675834, 0.0405381769, 0.0818804428, 0.0273582190, -0.0571443848, -0.0399422571, 0.1024527922, 0.0301033948, -0.1477763057, -0.0756087527, 0.1340042949, -0.0022471463, -0.0941077992, -0.0488889851, 0.0841019601, 0.1109602377, -0.0861008540, -0.0558651425, 0.0773766339, -0.0192208346, 0.1318910718, -0.0292479619, -0.1102480143, 0.0208254233, 0.0058684866, -0.0684145913, 0.0132495761, 0.0131467851, 0.0897662193, -0.0452884920, 0.0157909151, -0.0463780053, 0.1079531983, -0.0292485431, 0.0147770336, 0.0626555383, -0.0248386487, 0.0589905307, 0.0220352076, -0.1242439970, -0.0764470622, 0.0885827020, -0.0440653674, 0.0647884384, 0.1152221411, 0.0264210775, 0.0151587026, 0.0425855704, 0.0200700760, 0.0036394731, 0.0261167772, 0.0501399226, -0.0781022534, 0.0526532717, 0.0014405462, -0.0549050272, 0.1058392599, -0.0539445765, 0.0662707686, -0.0122319860, 0.0872877389, -0.0622408614, 0.0708056614, 0.0780743435, 0.0538804159, 0.0928131789, -0.0277937688, 0.0942275971, 0.0656852275, -0.0217067916, -0.0651986599, -0.0268130917, -0.0334342904, -0.0041852021, 0.0097752232, 0.1160598099, 0.0151357092, 0.1254366785, -0.0283911470, -0.0298640039, -0.0013952306, -0.0375503115, -0.0291019082, 0.0366158411, -0.0254541803, 0.0334745273, 0.0699198917, 0.0495129935, 0.0540527850, 0.0793226212, 0.0007256861, 0.0057089408, -0.0453660749, -0.0110798664, 0.0445217416, -0.1083044037, 0.0678660348, 0.0433993451, -0.1035552919, 0.0025362091, -0.0201372467, 0.0338913985, 0.0116874883, 0.0181403589, -0.0568476282, 0.0518257879, 0.0393987671, 0.0184973944, -0.0286266692, 0.0168679841, 0.0489724986, -0.0311294310, -0.0177060533, -0.0010102721, -0.1085415184, 0.0202981159, 0.0125137912, 0.0033924084, -0.0030589150, 0.0018225997, -0.1979759336, -0.0044189733, -0.0728912428, 0.0248461571, -0.0642743409, 0.0701353326, 0.0077051036, 0.0345649570, -0.0040368056, 0.0439195111, -0.0153082814, -0.0645579100, -0.0060241781, 0.0327500887, 0.0629568174, 0.0007798828, 0.0670892596, -0.0333178751, -0.0101661170, -0.0678504258, -0.0551226549, -0.0800562650, 0.1091155484, 0.0368027203, 0.0298900139, -0.0019077600, 0.0454274453, -0.0031306313, -0.0407176912, 0.0290461686, -0.0236867331, 0.0788800716, -0.0029173321, 0.0416941904, 0.0282969400, -0.0859096870, -0.0350957029, 0.0119909011, -0.0162113868, -0.0364558324, 0.0683544353, -0.0151070384, -0.0043087723, 0.1449955553, 0.0457594022, -0.0237350576, -0.0072000432, 0.0507103838, -0.0581186637, -0.0372930840, 0.0082000522, -0.0618920773, -0.0027683035, -0.0869812667, -0.0963338092, 0.0212898515, 0.0950917080, -0.0002881652, -0.0493756086, -0.0569286458, 0.0190369524, 0.0117160343, -0.1144475043, -0.1553773731, 0.1138209105, -0.1057677791, -0.1081047729, 0.0668677613, -0.0125035783, 0.0466865003, 0.1291050166, -0.0080216946, -0.0026109619, 0.0962857455, -0.0823012888, -0.0230498277, -0.0120451283, -0.0144462753, -0.0818827301, 0.0639681742, -0.0138108442, 0.0281508099, 0.0133759845, 0.1281989515, 0.0684821457, 0.0115648070, -0.0860408470, -0.0320579894, -0.0230548158, -0.0809312090, 0.0439662002, 0.0264864825, -0.0495113134, -0.0597029068, -0.0425355881, 0.0254353546, -0.0652951077, -0.0410644785, -0.0322657600, 0.0192416497, -0.0066847275, 0.0681877658, 0.0792973042, 0.0294323526, 0.0171375070, 0.0816221908, 0.0878245905, -0.0188530833, 0.0313214734, -0.0798818618, -0.0177427791, -0.0074961986, 0.0235073119, -0.0113839433, -0.0159806535, -0.0117824711, -0.0025894607, 0.0230568647, 0.0018781195, -0.0304105040, -0.0374675542, -0.0709701255, 0.0544843636, 0.0576077439, -0.0504860803, -0.0352680758, -0.0434972234, -0.1596062779, -0.0096199438, -0.0157267228, 0.0928574950, -0.0070834970, -0.0898978859, 0.0135973208, -0.0776326731, 0.1497489363, 0.0984457284, -0.0486867242, 0.0576740168, 0.0653540269, -0.0130853597, -0.1479088068, -0.0995229036, -0.0342349671, 0.0182894990, 0.0825977176, 0.0448734686, 0.0919330567, 0.0939344019, -0.0379765406, -0.0023787317, -0.0332141072, -0.0424835347, 0.0292168390, -0.0894151255, 0.0284030791, -0.0839160234, -0.0962905735, -0.1441069543, -0.0243202802, -0.0250380710, -0.0358509123, 0.0522925481, 0.0385380760, 0.0255392864, -0.0156090464, -0.0789492205, -0.0646935552, 0.0604155660, -0.0637447014, 0.0583470277, -0.0087139150, 0.0661007166, -0.0031206235, 0.0245180652, 0.0464534238, 0.0178951565, -0.1244764626, 0.0177356526, -0.0696814731, -0.0377282351, -0.0063721547, 0.0493003093, -0.0129920980, 0.0167739522, -0.0309512280, 0.0140489349, 0.1198420525, -0.0143840751, 0.0185338464, -0.0662160069, 0.0028139292, -0.0039538424, -0.1365891993, 0.0828946233, -0.0138897263, -0.0790707618, 0.0679920912, 0.0478560142, -0.0152694015, -0.0525063984, 0.0369292982, -0.0300098266, -0.0001374379, 0.0338220894, -0.0374794193, 0.0363167897, 0.0680162907, 0.0456130020, 0.0847562253, 0.0218651481, -0.0407078043, 0.0610768124, -0.0099977721, 0.0484895520, 0.0210909806, -0.0524700172, 0.0093599837, -0.0209720861, 0.0033169948, -0.0573131032, 0.0406830795, -0.0410304144, -0.0429173410, -0.0019093151, 0.0952535570, 0.0543809086, -0.0004081552, -0.0832740441, -0.0522638820, 0.0649873093, 0.0428588539, 0.0002743963, -0.0093235774, -0.0769409388, -0.0382769555, -0.0211104173, 0.1168922335, -0.0822002217, 0.0335505083, 0.0084623685, -0.0617792346, -0.0400848798, -0.0454776362, -0.0309471078, -0.0770781860, -0.0350738429, -0.0363189839, 0.1478604227, -0.1604881734, 0.0013445417, -0.0107318042, -0.0212489497, 0.0508025587, -0.0242388360, -0.0651218370, 0.0979297310, 0.0993007645, 0.0364121459, 0.0224904288, 0.0091184760, 0.0210136995, 0.0963817164, 0.1462385058, 0.0231655389, -0.0753004849, 0.0169366766, -0.0047932984, -0.0078185229, -0.0239516739, -0.0147488229, -0.0061798776, -0.0158516560, -0.0082463315, -0.0830701739, 0.0191788226, -0.0623465292, 0.0111304419, -0.1226977855, -0.0526161194, 0.0563679077, -0.0246973131, -0.0244582985, 0.0450849198, -0.0858266652, 0.0165574774, 0.0218063910, -0.0608852021, 0.0082106590, -0.0214088634, -0.0906374529, -0.0589411817, -0.0464826114, -0.0122169843, -0.1279837638, -0.0610447563, -0.0270409491, 0.0288688559, 0.0141238896, 0.0215633288, 0.1343360096, 0.0476993136, 0.0386522748, -0.0205149390, 0.0105604036, 0.0123869870, 0.0081960121, -0.0102619538, 0.1192750707, -0.0172401946, 0.0573387817, -0.0051663984, 0.0033871082, 0.0880493224, -0.0406709202, -0.0232999828, 0.0173168723, -0.0268381182, 0.0264123995, -0.0520923361, -0.0296540521, 0.0156292971, 0.0203116704, 0.0243950430, -0.0702226013, -0.0397131108, -0.0410730280, 0.0564153418, -0.0568750985, -0.0121545820, -0.0045625782, -0.0046771993, -0.0432479531, -0.0542808361, 0.0459883884, 0.0115205497, 0.0858434662, -0.1163634956, -0.0036558488, 0.0712965205, -0.0031859057, 0.0009558431, 0.0744363070, -0.0177496076, -0.0433294848, -0.0291244835, 0.0154110817, 0.0045608557, -0.0852953419, 0.0247420520, 0.0732389465, -0.0234772302, -0.0131847663, 0.0084475717, 0.0122226691, -0.0781893432, -0.0156201012, 0.0703775808, 0.0866769254, 0.0766317397, 0.0711133629, -0.0214973856, 0.0566622950, -0.0493224636, 0.0206974111, -0.0364773236, 0.0575214438, -0.0070200623, -0.0330739543, 0.0234069936, -0.0044402047, -0.0572079010, -0.0114055658, 0.0669286549, -0.0345525257, 0.0107146911, -0.0868409052, -0.0654176101, 0.0558701307, -0.1018388793, -0.0451056026, -0.0004553376, -0.0154840043, -0.0690292642, 0.0667870790, -0.0233584587, -0.0347773917, 0.0085010296, -0.0738998130, -0.0892541334, 0.0142303715, 0.0493640862, 0.0069525428, -0.0367832333, -0.0192253944, 0.0083915778, 0.0375321656, -0.0068093911, -0.0828322247, 0.0142586995, 0.0379933715, 0.0476327613, -0.0543977059, -0.0926417038, 0.0617245249, 0.0403262340, 0.0513162687, 0.1068492979, 0.0800645947, -0.0208750255, -0.0057654586, 0.0760418847, -0.0885834843, 0.0056868969, 0.0011679929, -0.0307141989, -0.0053589335, -0.0556070656, 0.0517927557, -0.0879253894, -0.0013295378, 0.0704536587, -0.0894529745, -0.0492389016, 0.0376951508, -0.0471847877, -0.0750509202, -0.0186237767, 0.1358081996, -0.0121888332, 0.0383585952, -0.0214031041, 0.1287597865, -0.0588850453, 0.0438729487, -0.0734475330, 0.0092836600, -0.0515867509, -0.0638709590, -0.0859966800, 0.1112637818, 0.0355671719, 0.0867379978, 0.0760318190, -0.0180134643, -0.0202391949, -0.1115046814, -0.0155304391, 0.1036531255, -0.0061018774, -0.0210483987, -0.0346003585, -0.0540827177, -0.1919319481, -0.0825078487, 0.0605538897, 0.0619127229, 0.0514764115, 0.0519272685, 0.0028086980, 0.0729983076, -0.0627937838, -0.0966392383, -0.1472765058, 0.1874125451, -0.0562539212, -0.0294764806, 0.0244029742, -0.0193759184, -0.1009489596, 0.0403126702, -0.0583243258, 0.0039255586, -0.1303134114, 0.0693760067, 0.0087159779, -0.0410823710, -0.0474408977, 0.0820906386, -0.0269371830, -0.0198905896, -0.0901692584, 0.0875698626, -0.0160444360, 0.0741364434, 0.0059420029, 0.0223422684, -0.0930068418, 0.0470841266, 0.0399973206, -0.0658754930, 0.0405418947, -0.0105158472, 0.0617580600, -0.0710443780, 0.0852898285, -0.0155444285, 0.0388292186, 0.0670211390, 0.0973752886, -0.0605518073, -0.0916015208, -0.0461735763, 0.1074412242, 0.0690345168, 0.0440058820, 0.0302998275, 0.0226749014, -0.0524966680, -0.0116234645, -0.0552757718, -0.0940032154, -0.0338685773, -0.0305205695, -0.0863015652, 0.0682631433, -0.0484084375, 0.0898046866, 0.0173217803, 0.0094296178, -0.0447297283, 0.0394268893, 0.0715121329, 0.0370813794, 0.0118692731, -0.0339668132, 0.0147595620, 0.0118520297, -0.0406465903, -0.0044681872, 0.0532593206, 0.0696936622, -0.0639849380, -0.0106651187, 0.0223827250, -0.0581847727, 0.0344798602, -0.0233868584, -0.0274921618, -0.0000998436, -0.0066632754, -0.0770051181, -0.0175556075, 0.0510837473, 0.0228731427, -0.1471561044, -0.0087781092, -0.0321295671, -0.0446647853, -0.0012469015, -0.0572933406, 0.1011047661, -0.0171821341, -0.0606057234, -0.0325674936, 0.0172077231, 0.0455205999, 0.0973342583, 0.0699701086, -0.0898401216, -0.1129717231, 0.0252204929, 0.0342106819, -0.0312868468, 0.0486518256, 0.0589596182, -0.1693589091, 0.0106316134, 0.1005936265, -0.1000746861, 0.1686799675, -0.0439781770, 0.1054774225, 0.0569631010, -0.0389032923, 0.0490684472, 0.0161914267, -0.0536350422, 0.0448422767, -0.0191040225, 0.0422192067, 0.0460471287, -0.0417702533, 0.0065478212, -0.0272292625, -0.0381364375, -0.0160780028, 0.0700498149, -0.0313730314, -0.0278457943, 0.0010907683, -0.0040351786, -0.0839309320, -0.0080246134, -0.0605557188, -0.0298195351, -0.0856323689, -0.0471524298, -0.1172657087, -0.0350178964, -0.0179612804, -0.0930478796, -0.0481065176, -0.0053511518, -0.0476134680, -0.0648103878, 0.0478364825, 0.0517902933, -0.0469932370, 0.0071965680, -0.0788818449, -0.0344644748, -0.1010261998, 0.0023471434, 0.0131702628, -0.0111383991, -0.0310052671, 0.0032150412, -0.1306021065, -0.0299871080, 0.0306776110, 0.0601558089, 0.0991472006, 0.0684808269, 0.1105839610, -0.0674344599, 0.0064278641, -0.0834590495, 0.1083301678, -0.0647258088, 0.0175429936, -0.0097207455, -0.1109445840, -0.0357388183, 0.0618791208, 0.0280744173, -0.0045764293, -0.0054308944, 0.0651425719, -0.0078659877, 0.0535738580, 0.1262058467, -0.0824535713, -0.0173879731, -0.0073238108, -0.0400258638, 0.0377782881, -0.0234070700, 0.0099052507, 0.0095189298, -0.0516554080, 0.0900022462, -0.0921946615, -0.0309649929, 0.0063709528, 0.0773143172, 0.0348803401, 0.0409165695, -0.0185966827, -0.0542617217, 0.0011716175, 0.0185926519, 0.0035672332, 0.0796208307, -0.0288406666, -0.0143096335, -0.0015176010, 0.0447317064, 0.1098232344, 0.0130237583, 0.1294370443, 0.0506872162, -0.0354672745, -0.0766090751, 0.0039036332, 0.0217373818, 0.0213337447, -0.0368584134, 0.0459230207, -0.0553347282, -0.0412143096, 0.0914666727, -0.0492945500, 0.0156064304, 0.0345795006, 0.0422297940, 0.0004635864, 0.0597727932, 0.0640763640, -0.0550047271, -0.0578880720, 0.0182663184, -0.0644890517, 0.0740006045, -0.0593088865, 0.0415801778, 0.0915574580, -0.1041181311, 0.0218921229, 0.0529312566, -0.0281659309, -0.0570425354, -0.0777944475, 0.0365415327, -0.0235575531, 0.0325844064, 0.0966894105, -0.0668688267, 0.0252597742, -0.0601128861, -0.0972229391, 0.0487746820, -0.0184177477, 0.0918985382, -0.1366475075, -0.0099357935, -0.0964594111, 0.0010327584, -0.0497818403, -0.0057424200, -0.0957257077, 0.0052052615, -0.1058399826, -0.1160316989, 0.0573676191, 0.0349727646, -0.0107172970, -0.0217798539, 0.1495966911, 0.0354923606, -0.0418180525, 0.0157407410, 0.0583228767, -0.0098084947, 0.0868989229, 0.0273015909, -0.0918416977, -0.1233336106, 0.0562453344, -0.1263486296, -0.0357019380, -0.0350973383, -0.1464059949, -0.1024745107, 0.0217939299, -0.1142013893, 0.0711882114, -0.0590756387, -0.0569764115, 0.0034935728, -0.0538201407, -0.0434333980, -0.1038180664, 0.0001439746, 0.0244145375, -0.0594146848, 0.0199365541, 0.0956173688, 0.0872733295, -0.0384595506, -0.0094061131, 0.0488731861, -0.0187197383, -0.0540228263, 0.0131357545, 0.0021043434, 0.0994458646, -0.0238858741, 0.0346268266, 0.0259546824, -0.0627941787, -0.0618427508, 0.0121398196, 0.0094376709, -0.0047843172, -0.0443654731, -0.0276434217, -0.0618864372, -0.0563155934, 0.0214836635, 0.0049783774, -0.0776023790, 0.0294853151, -0.0806105286, 0.0612729676, -0.0318605937, -0.0791379809, -0.0633406341, -0.0304568838, 0.0405184962, 0.0303072874, 0.0391136408, 0.0529720373, 0.0038106486, 0.0457448252, -0.0804767683, -0.0349157639, -0.0464911461, -0.1522127688, 0.0904547274, 0.0594919547, 0.0589311719, 0.0357076563, 0.0494402014, -0.1681148410, 0.0778025016, 0.1422476470, -0.0606369264, 0.0068244338, -0.0320455283, -0.0281395819, -0.0097320415, 0.0628204718, -0.0027965426, -0.0239858329, -0.0499773584, -0.0202944819, 0.0801369771, -0.0211764760, 0.0578474887, -0.0417323299, -0.0438144319, 0.0840644091, -0.0208993554, -0.0119977035, 0.0723727420, -0.0123378998, -0.0326231718, 0.0289471094, 0.0236862376, -0.0565095730, -0.0062253447, 0.0113785574, -0.0976484641, -0.0026018296, -0.0059745074, -0.0013567222, -0.0135294907, -0.0340552218, -0.0122892959, -0.0035408065, -0.0345847383, -0.0580830052, -0.0110201836, 0.0242854450, -0.0327352360, 0.0524972044, 0.0922680646, 0.0106242290, 0.0648636371, 0.0451632217, 0.0040090093, -0.0268652253, 0.0986464769, -0.0972256288, -0.0595774688, 0.0280354824, 0.0033913662, -0.0126498910, -0.1355068684, -0.0724584460, -0.0862590075, 0.0059415568, -0.0956396610, 0.0585778616, 0.0988412872, 0.0299080443, 0.0447892286, -0.0932887048, -0.0340691060, -0.0792428404, 0.0399671197, 0.0597167835, 0.0450068936, 0.0114106108, 0.0067157401, -0.0789271891, 0.0243054777, -0.0925083980, 0.0650119260, 0.0606905706, 0.0426078066, 0.0349943228, 0.0374524817, 0.1044297144, 0.0685344115, -0.0318892412, 0.0597985908, 0.0145274932, 0.0277117938, -0.0019336916, 0.0175030213, 0.0406310931, -0.0365975238, 0.0070352666, -0.0344933495, -0.0079257265, 0.0757917389, -0.1457340568, 0.0995740816, -0.0690997988, -0.0395431556, 0.0473505221, -0.0488576591, 0.0399694815, -0.0325358398, -0.0474818721, 0.0049470598, 0.0980460197, 0.0004792919, 0.0418365262, 0.0376453698, 0.0013971226, -0.0492162332, 0.0093708225, -0.0189652797, -0.0524058230, -0.0693486631, -0.0671486184, -0.0448601432, 0.0708064735, 0.0399957746, -0.0882059708, 0.0086404039, -0.0646236315, -0.0589165688, -0.0179603305, 0.0963215530, -0.0890694931, 0.0243821554, -0.0806171596, -0.0693883747, 0.0424816050, 0.0570968054, 0.0606682785, -0.0228638370, 0.0436589271, 0.0479781516, -0.0821791291, -0.0702939704, 0.0020482526, -0.0726178885, -0.0665547028, 0.0146473283, 0.0616289899, -0.1153941303, -0.0560854003, -0.1094038412, 0.0058370023, -0.0562398620, 0.0720373169, -0.0595671944, 0.0199776832, 0.0680629462, 0.1005724296, -0.1150632277, 0.0336476527, -0.0215634853, 0.0110701537, -0.0532152392, -0.0802938119, 0.0200714190, 0.0649733320, 0.0036301739, -0.0170621239, 0.1619777083, -0.0987419561, 0.0677312091, -0.0495063737, 0.0737173185, 0.0130283246, -0.0709576458, -0.0495200567, -0.0212092306, 0.0810497031, -0.0561113246, -0.0527391396, 0.0577642880, 0.0163893159, -0.0039597433, -0.0217261091, 0.0693554655, 0.0706939325, -0.1233287528, 0.0101537947, 0.0498392433, 0.0113648353, 0.0155370235, -0.0566762574, -0.1277216226, 0.0328372456, -0.0674587861, -0.1246787012, -0.0486554503, -0.0211547855, -0.0954483524, 0.0109661594, 0.0035467201, 0.0605692193, -0.0366726331, 0.0165594984, -0.0227269698, -0.0510351732, 0.0289650541, -0.0754170790, 0.0783325285, -0.0220554098, -0.0143051213, 0.0125627471, 0.0166350156, -0.0022151957, 0.0453444161, 0.0406805314, -0.0240897201, -0.0623636916, -0.0459259413, 0.0541749708, -0.0241625048, 0.0776946247, -0.0330484957, -0.0962797627, -0.0011966672, 0.0930782408, 0.0999802649, -0.0743290931, -0.0203591026, -0.0264096484, -0.0217130315, 0.0410806388, 0.0098622087, -0.0254524853, -0.0132338582, -0.0918330401, -0.0326070040, 0.0952678248, 0.0956130698, -0.0212436300, -0.0017808463, -0.1021361724, 0.0410268568, 0.0690688789, 0.0074952464, 0.0637974590, -0.0681086853, -0.0101020150, 0.0265571233, 0.0296793934, -0.0164838154, -0.0136170937, -0.0641756952, 0.0563740283, 0.0318187214, -0.0575548746, 0.0119556058, 0.0252672769, -0.0623486340, -0.0008909215, -0.1435813755, -0.0111443307, 0.0953901336, 0.0066582924, 0.0574577600, -0.0180411208, -0.0341158994, 0.0558559336, 0.0423185676, 0.0546845905, 0.0633372366, -0.0106431618, -0.0541389696, -0.0874247253, -0.0509947501, 0.0591342002, -0.0735685825, 0.0638461560, 0.0475882441, -0.0300963130, 0.0013132711, 0.0322372578, -0.0808397084, 0.1196358800, -0.0072636730, -0.0857940689, -0.0502527729, 0.1457257569, -0.0634378418, 0.0254485160, 0.1109882146, -0.0447553396, -0.0827113986, 0.0090517569, -0.0492231734, 0.0165303070, 0.0129657490, 0.0611736923, -0.0018854181, -0.0828598738, 0.0084570386, 0.0447202660, 0.1031469405, 0.0236775968, 0.0351391807, -0.0550843105, -0.0270865913, 0.0354555175, 0.0358423963, -0.0092287483, 0.0199122392, -0.0129498644, -0.0248004831, 0.0002183357, 0.0826062858, 0.0525950380, -0.0641231090, -0.0918459445, -0.0676827356, -0.0093321316, -0.1728194952, -0.0289130379, -0.0414178707, 0.0220969487, 0.0195189640, 0.0144207180, -0.0492702797, 0.0917244703, 0.0233630575, 0.0312311146, -0.0839265734, 0.0427891836, -0.0199128222, -0.0558549576, 0.0901130438, -0.0446954519, -0.0061756475, 0.0365649760, 0.0144184716, -0.0601525940, 0.0329792686, 0.0303540751, -0.0250139665, -0.0649027899, 0.0514904112, 0.1124056205, -0.0104854079, -0.0372567959, 0.0619063415, 0.0304587055, 0.0177565161, -0.1114198938, 0.1163739264, -0.0268703625, -0.0472923592, -0.0947003588, -0.0541783348, -0.0013913404, 0.0384185985, 0.0917359069, -0.0239403900, -0.0652629957, -0.0720576569, 0.0029810492, -0.0403706133, -0.1024593338, -0.0620296262, 0.1012383327, 0.0572185963, -0.1043764427, 0.0636233613, 0.0170697011, -0.0573744811, 0.0136820171, -0.0314892493, -0.0668223798, 0.0297477003, 0.0233643558, -0.0387886725, 0.0204201192, 0.0618295521, 0.0088382391, 0.0131697599, -0.0474613085, -0.0297321398, -0.0564541705, -0.1538823843, -0.0155361090, -0.0712540820, -0.1083147153, 0.0650522560, 0.0364936963, -0.1007549837, 0.0774803311, -0.1026351750, 0.0650827512, -0.0057565426, -0.0604304448, -0.0842998102, -0.0027141217, -0.0611857250, -0.0241523031, -0.0326499380, 0.0042176009, 0.0616114996, 0.0813720822, 0.0839822367, 0.0624343157, 0.1052533910, 0.0207528211, 0.0612530299, 0.0561409704, 0.0328738615, 0.0318090506, 0.1028930619, 0.0428758152, -0.0350841172, -0.0846074745, -0.0694183335, 0.0155863361, 0.0298139080, -0.0368682817, -0.0171447527, -0.0034211506, 0.0195965488, 0.0067943688, -0.0246536955, -0.0173585378, 0.0676665604, 0.0287830010, -0.0471438169, 0.0272627585, 0.0030375004, 0.0583800338, -0.0091198748, -0.1310363859, 0.1067808867, 0.0969099104, 0.0409488939, -0.0133746229, -0.0013579706, -0.0126024382, 0.0364475921, 0.0437675603, 0.0423463807, 0.0600125343, -0.0484009162, 0.0561420731, 0.0035283749, -0.0249099303, -0.0038610268, 0.1015283763, 0.0779677108, -0.0272065531, 0.0191314425, -0.0050784168, -0.0371095166, -0.0664265677, 0.0655348301, 0.0513417199, 0.0035626777, -0.0634057149, 0.0359191410, 0.0127967680, -0.0630135387, -0.0208613668, -0.0465182774, -0.0111581329, 0.0605918989, 0.0006581027, 0.0830292255, 0.0226486493, 0.0305579342, 0.0371178500, 0.1541918069, 0.0198551714, 0.0466694385, 0.0920118093, 0.0640822724, -0.0905900672, -0.0064579807, 0.0196481049, -0.0017860263, -0.0544104539, 0.0193707589, -0.0316985548, 0.0180283431, 0.0517948978, -0.0778105631, 0.0581451990, 0.1399715543, -0.0167559627, -0.0218853280, -0.0018686391, 0.0201271139, 0.0070038652, 0.0099810688, -0.0162499137, 0.0192506760, 0.0675671399, 0.0747204199, -0.0409669429, -0.1018245965, 0.1227107048, -0.0070005413, 0.0036187840, 0.0914097726, 0.0964369327, 0.0727472305, -0.0263766330, -0.0194932632, 0.0564875118, -0.0584778376, -0.0438111611, 0.1115345210, -0.0594789460, -0.0259353071, 0.0794823095, -0.0305761229, 0.0352946147, -0.0375464559, 0.0672038123, 0.0063288393, 0.0428325795, 0.0631859228, -0.0226060916, -0.0008858647, -0.0852600709, 0.0272088721, 0.0723110139, 0.0326329581, 0.0091749346, -0.0400055572, 0.0358708203, -0.0332111008, 0.0885362327, 0.0606353506, 0.0398260877, 0.0568779521, 0.0607975908, 0.1646697372, -0.0609630048, 0.0938636065, -0.1119845882, -0.0072729774, -0.0091154529, 0.1299081594, -0.0617398061, 0.0116596427, -0.1360040754, -0.0439579226, -0.0263321772, 0.0517639108, 0.1032137796, 0.0030540016, -0.0124504669, 0.0559290797, 0.0248313770, 0.0894566029, -0.0907545313, -0.0530505143, -0.0936805680, 0.0413053334, -0.0015824466, -0.1003357247, 0.1345419884, -0.0040373616, -0.0685580075, -0.0202179141, -0.0341488868, -0.0296903774, -0.0487033986, -0.0153720090, 0.0200232901, -0.0611272268, -0.0260706842, 0.0688850358, -0.0484553240, 0.0120886816, 0.0812987387, 0.0356017239, -0.0023117813, 0.0027039209, -0.0774860904, -0.1436131597, -0.0354621075, 0.0917092562, 0.0129590491, -0.0152692460, -0.0619212799, -0.0645862296, -0.0035835986, 0.0171319507, -0.0555869080, 0.0371923894, -0.0260194857, 0.1247653663, 0.0252652150, 0.0955965444, 0.1283998042, -0.0265361778, -0.0761665106, -0.0799460411, -0.0293712206, 0.1165256500, -0.0614820197, -0.0080557447, -0.0284927618, -0.0301698484, -0.0317202583, -0.1059724018, 0.0071554519, 0.0157592855, -0.0518358275, 0.1131815761, -0.0218307730, 0.0175317246, 0.0873711854, -0.0480514988, 0.0386470929, 0.0356546640, -0.0358649343, -0.0667633861, -0.0817362219, 0.0585362129, 0.0012269828, 0.0323251747, -0.0850150660, 0.0955725238, 0.0317352228, -0.1152380332, 0.0423699580, -0.0076918285, 0.0058614621, -0.0042394930, -0.0188473053, -0.0609078147, 0.0682848394, 0.0523133166, 0.0242418386, -0.0271658376, -0.0536949635, 0.1031803489, -0.0292660911, -0.0097922301, -0.0227606297, -0.0188267678, 0.0534582585, 0.0132090133, -0.0646134391, 0.0250932965, 0.0187107306, -0.0477245972, -0.1597142816, 0.0165843628, -0.0562605187, 0.0100629115, 0.0159756634, 0.1195176914, 0.0015030095, 0.0318632163, 0.0577294305, 0.0134995440, 0.0595682822, 0.0769996047, 0.0372039117, -0.0407650769, 0.0172521621, 0.0419747233, -0.0963831767, -0.0004655644, 0.0685823783, -0.0201614387, 0.0202558432, 0.0097523313, -0.0810713172, 0.0615064353, 0.0523210466, 0.0037452965, 0.0318766274, 0.0376813300, 0.0389902554, -0.0943401158, 0.0866468176, 0.0731846318, -0.0662902370, 0.1421095133, -0.1336072534, 0.0310006514, -0.0519454703, 0.0050248457, 0.0061404025, 0.1138463765, -0.0704416558, 0.1083163843, -0.0481336825, 0.0792769045, -0.0125876674, 0.0057595568, -0.0343278982, 0.0925443321, -0.0392869599, -0.0518377833, 0.1208860427, -0.0140058026, 0.0219790544, 0.0627317652, 0.0857302919, 0.0634257570, -0.0524883009, 0.0697339922, 0.0286860168, -0.0320895799, 0.0067486526, -0.0049753496, -0.0728103444, -0.0160693210, 0.0409385897, 0.0040792539, 0.0209479090, -0.0747980997, -0.1072966754, 0.0022095835, 0.0514861383, -0.0228249095, -0.0039623454, 0.0051361043, 0.0246315040, 0.0055356179, 0.0419736840, -0.0033357481, -0.0132167488, 0.0094795348, -0.0049368599, 0.0326037221, 0.0361900069, 0.0625187010, 0.1014802083, 0.0512956940, -0.0048588151, 0.0809939727, -0.0566977784, -0.1314221770, -0.0066692019, -0.0057753129, -0.0061556641, 0.0005459453, -0.0204842426, -0.1320584416, 0.0011331867, -0.1126968041, 0.1633895785, -0.0362828709, 0.0513894372, -0.0848657489, 0.0350617878, -0.0124226846, 0.0973615050, -0.0159767121, 0.0011929657, 0.0125195645, -0.0176343862, -0.0146417674, 0.1087956280, -0.0457460657, 0.0781798810, 0.0899580792, -0.1101215482, 0.1617970020, 0.0852106884, 0.0238197967, -0.0147455232, 0.1049765572, -0.0690709651, -0.0610853024, 0.1070961952, -0.0222725887, -0.0557518490, -0.0656730309, -0.0781652927, -0.0248153433, 0.0470959619, -0.0310830008, -0.0129498858, -0.0395071991, 0.0367954709, 0.0616779812, -0.0537168458, -0.0118638258, -0.0830242336, 0.0161109269, 0.0302827116, 0.0188358296, -0.0530176498, -0.1049377099, 0.0183743518, -0.0528594963, 0.0126518635, 0.0248127449, 0.0466207750, -0.0653853640, -0.0626919195, 0.0465272963, 0.0800024122, -0.0538164340, -0.0369350016, 0.0108092325, 0.0282128733, -0.0455000773, -0.0811001882, -0.0678598583, -0.0204279553, -0.0465875193, 0.0834657922, -0.0644206181, 0.0088973278, -0.0138731515, 0.0752851143, -0.0124777509, -0.0212329030, 0.0287609287, 0.1065217480, -0.0365321413, -0.0481381640, -0.0820308402, -0.0010507271, -0.1019455194, 0.0961817503, -0.0508262366, -0.0759121776, -0.0339942165, 0.0043686694, 0.0208967738, -0.0356670357, -0.0332783759, 0.0314834379, -0.0138424439, 0.0628490895, -0.0231638681, -0.0686525628, -0.0561874025, 0.0153525462, -0.0237774812, -0.0073697618, 0.0915434286, -0.0698445961, 0.0783956200, -0.0339839682, 0.0289954245, 0.0447705165, -0.0022594419, -0.0012342142, 0.1753926873, 0.0863362551, 0.0483449399, 0.0076778615, 0.1150708124, 0.0123439636, 0.0301259253, 0.0672930032, 0.0102598965, 0.0474263243, -0.0410640985, -0.0111233927, 0.0393009074, -0.0059184623, 0.0231232345, 0.0066497787, -0.1256581098, -0.0223629270, 0.0288383756, 0.0482462533, -0.0314784646, -0.0373289771, 0.0582941100, 0.0959906727, 0.0649660155, -0.0280022416, -0.0794006288, -0.0689566061, 0.0220572986, 0.0005196394, 0.0683900714, 0.0985706747, 0.0789704397, 0.1091138497, -0.0719549507, -0.0214929618, 0.0201570559, 0.0249440409, -0.0043931096, -0.0587026998, 0.0965856537, 0.0428614020, -0.0020542545, -0.0014937263, -0.0222608875, 0.0762281790, -0.0548412092, 0.0604065880, 0.0514206849, 0.0140257664, -0.1301715374, 0.0954100788, -0.0217440650, 0.0360277817, -0.0417192839, -0.0313378572, -0.0613795370, 0.0319295190, -0.0519285463, 0.0051708655, 0.0840594843, 0.0512475111, 0.0998035148, -0.0257597994, -0.0133135915, 0.0216893740, 0.0223201383, -0.0226284917, -0.0285755917, -0.0225972421, -0.0333593152, -0.0454119965, 0.0853150487, 0.0813252777, 0.0150246629, -0.0617667362, 0.0370274633, -0.0318553075, -0.0168210529, 0.0996114761, -0.0186093822, 0.0488572754, -0.0019781988, -0.0755427256, -0.0688386112, 0.0502673052, -0.0699794218, -0.0112312920, 0.0608719178, 0.1117533743, 0.1513670385, -0.0218964834, -0.0982944891, -0.0584626272, 0.0681515634, 0.1082742959, 0.0837205127, 0.0074925055, 0.0124632297, -0.0036108317, -0.0158294700, 0.0057034064, 0.0837741569, 0.1318492293, 0.1383824199, 0.0004927571, -0.0754279494, -0.0136579275, 0.0372210555, 0.0267509837, 0.0197893269, -0.0483324453, -0.0107309446, -0.0616232529, -0.0181847382, 0.0754061863, 0.0119393338, 0.0432021953, 0.0492815636, -0.0561869033, 0.0910765231, -0.0133658759, -0.0064483541, -0.0986672565, 0.0235054884, -0.0257541034, 0.0528805889, -0.0630442351, 0.0041641141, 0.0052299299, -0.0596331023, 0.0312654972, 0.0361347161, 0.0654679015, -0.0599788241, 0.0028081066, -0.0656511635, -0.0355052911, -0.0633433089, -0.0141984550, -0.0494507253, -0.0869552270, -0.0370593108, 0.1403994709, -0.0057653887, -0.0161759444, -0.0125733791, -0.1226040125, 0.0453887768, 0.0029487193, -0.0899818987, 0.0138166174, -0.0157112051, 0.0298858806, -0.0255819131, 0.0149634751, -0.0036518476, -0.0261118654, 0.0602740310, -0.0100705633, 0.0615251735, -0.1156868413, -0.0250924062, 0.0032324281, 0.1032065377, -0.1017582417, 0.0260179434, -0.0165484678, 0.0720128343, 0.0295921136, 0.0917063504, -0.0885284990, 0.0105478643, -0.0401155315, 0.0197893064, -0.1391756833, 0.0465026684, -0.0589895323, 0.0155180255, -0.0258976556, 0.0907476246, 0.0506055690, -0.0524468161, -0.0254539941, -0.0126226991, 0.1011730656, -0.0419247858, -0.0180529896, 0.0095682535, 0.0668010488, 0.1172624975, -0.0501922704, -0.0555326231, 0.0041008266, 0.1160807312, 0.0445234440, -0.0117054125, -0.0090423869, 0.0849920586, 0.0278600734, -0.0410748459, -0.0247202255, -0.0419922583, 0.0107441060, -0.0037157186, 0.0311832614, 0.0896718055, -0.0626079589, 0.0083256336, -0.0080322968, -0.1306077540, -0.0176806040, 0.2497032732, 0.1001489908, -0.0171015225, 0.0751415417, -0.0998151377, 0.0404210687, 0.0274691563, 0.0260059815, -0.0177692734, 0.0731842220, -0.0108586606, 0.0722202063, 0.0185307655, 0.0226754826, 0.0009476380, -0.0298129693, -0.0260161776, -0.0706840232, -0.0215182919, 0.0498077273, 0.0470348932, -0.0787422061, -0.0479225963, 0.1419319212, 0.0470336266, 0.1212569699, 0.0357859731, 0.0047968789, 0.0380587876, -0.0598742142, 0.0494205020, -0.0525760502, 0.0612648576, -0.0408698246, 0.0183230340, 0.0277930424, 0.1104202569, -0.0035010271, 0.0053992439, 0.0256866720, 0.1446133107, 0.0432140082, -0.0776967183, 0.0353136025, -0.0380913951, 0.1135589033, -0.0654576570, 0.0313131176, -0.0279940516, 0.0064221290, 0.0769331679, -0.0241969805, 0.1145923138, 0.0319203399, 0.0120627563, 0.0342962034, -0.0719982833, -0.0031568974, 0.0387803428, 0.0512509272, 0.0238881242, 0.0698661357, 0.0443998873, 0.0531201325, -0.0186529122, -0.0182321742, -0.0282597411, -0.1099049449, 0.0508841686, -0.0387384333, -0.0147569897, -0.0432122685, 0.0112269539, -0.0530517064, 0.0201666933, 0.0002486211, -0.0052577793, -0.0351085663, 0.0388947465, 0.0066085979, 0.0315521285, 0.0488898978, 0.0369360410, -0.0641168877, 0.0849699304, -0.0214455295, -0.0734151155, -0.0618758686, -0.0194710847, -0.0340071321, 0.0276649334, 0.0528284609, -0.0250697043, 0.0621595159, -0.0432361737, 0.0731040984, -0.1109026745, -0.0059549687, -0.0194491521, -0.0592660382, 0.0586801060, 0.0713143349, 0.0499321409, -0.0354826637, -0.0180571675, -0.1163379326, 0.0198900793, -0.0511480682, 0.0436319262, 0.0309133232, -0.0340613164, 0.0392890200, 0.0801980421, 0.0323930159, 0.1054944471, 0.0508366674, 0.0011071637, -0.0438489839, 0.0107798800, 0.0257452112, 0.0562577173, -0.1235310137, -0.0975730494, 0.1116252989, -0.0233224425, -0.0022794583, 0.0354889408, -0.0957202092, -0.0102956966, -0.0890949070, -0.0442764908, 0.0043603759, -0.0470597111, 0.0205845609, 0.0158216301, -0.0001543415, 0.0940040946, 0.0687289238, 0.0886905938, 0.0248550959, 0.0173939373, 0.0553907864, 0.0004340734, 0.0630349591, 0.1270537078, 0.0040097535, 0.0222878102, -0.0070262901, 0.0371655710, 0.0214563254, -0.0187314264, 0.0417246521, -0.0651418194, 0.0881204829, -0.0106131220, 0.0078134742, 0.0331124514, -0.0137345446, 0.0837958679, 0.0084998412, -0.0304125771, 0.0080831526, 0.0102376696, 0.0307199694, 0.0182605255, 0.0205398127, -0.0540176667, -0.0537576452, 0.0143311666, 0.0051414571, 0.0011599053, -0.0453445874, -0.0253305323, -0.0324077681, -0.1162442639, 0.0964606479, -0.0113048060, -0.0097102271, 0.0086985882, -0.0498011895, -0.0747693703, 0.0382200554, -0.0833503380, -0.0681510121, 0.0065872045, -0.0049285917, 0.0361224301, -0.0663123503, -0.0141827092, 0.1121397913, 0.0070504788, -0.0384764560, -0.0679575056, -0.0194841847, 0.1378483176, 0.0270221904, -0.0439814739, 0.0092309266, 0.0016576584, 0.0355864279, 0.0247840229, 0.0789002329, -0.0546246693, -0.0499139056, 0.0473332405, 0.0566836894, -0.0465078279, 0.0174376145, 0.0121320868, 0.0667107478, 0.0324445926, 0.0933450237, 0.0320946760, -0.0159727111, 0.0048203385, -0.0184055697, -0.0744876638, -0.0104693351, -0.0025570760, -0.1684228778, 0.0182101261, -0.0284608360, 0.0563589074, 0.0261148158, 0.0254868213, 0.0124122528, -0.0661531985, -0.1821654290, -0.0832273960, -0.0506708696, 0.0749206468, -0.0132561373, 0.0563636646, 0.0271886978, -0.1261788607, -0.0391128100, 0.1291178763, 0.0468961969, -0.0175941847, -0.0681341514, 0.0163197722, 0.0426240228, 0.0108603910, -0.0133349411, 0.0453146286, 0.1344065070, -0.0017183225, 0.0280614980, 0.0784667730, 0.0090960432, 0.0162380468, 0.0105899563, 0.0104349302, -0.0467373505, -0.0320052207, 0.0722954795, 0.0433395505, -0.0098942537, -0.1423998475, 0.0766857862, 0.0569110699, 0.0823284537, 0.1507929713, 0.0169852618, -0.1133326143, 0.0809813067, 0.0143551417, 0.0044072880, 0.1339435428, 0.0252283998, -0.0095913680, -0.0095903147, -0.0730988160, 0.0859587565, 0.0036141227, 0.0750166252, 0.0181898735, -0.0181094054, 0.0013269676, 0.0286129266, 0.0344960913, -0.0112357559, -0.0399062522, -0.0197964776, 0.0355175287, 0.0693128034, 0.0186735485, 0.1101029888, 0.0046400446, 0.0913295001, -0.0163791459, 0.0817955509, -0.0359357595, 0.0055848705, -0.0391733572, -0.0433010422, -0.0838187486, -0.0591254570, -0.0153650157, -0.0295284595, -0.0885895491, -0.0417211056, -0.1244178414, -0.0001038918, 0.0273361150, 0.0478184037, 0.0774047449, -0.0318513550, 0.0176715609, 0.0569367558, 0.1282826215, 0.0383860953, 0.0294942446, -0.0098246308, -0.0842789784, 0.0216893721, -0.0150812836, -0.1064643338, 0.0558469482, -0.0505952314, -0.0026390806, -0.0088153044, 0.0526969694, 0.1717700213, 0.0248979479, -0.0114241829, 0.0859844089, 0.0001927454, 0.0766190812, 0.0196382515, 0.0150307724, 0.0161834341, 0.0466319621, 0.0655684918, 0.0154092023, -0.0013901443, -0.0472396351, 0.0604902394, -0.0129851718, -0.0030770528, -0.0514399931, -0.0244071521, -0.0294616017, 0.0543488190, -0.0498222560, 0.0252328236, 0.0766230077, -0.0317143425, -0.0256116148, -0.0215287898, -0.0370620862, -0.0389834642, 0.0332324579, -0.0428317599, 0.0185149293, -0.0323845111, 0.0546092540, -0.0308342464, -0.0199399106, -0.0085983230, 0.0449495055, -0.0724760145, -0.0745543465, 0.0664780512, 0.0760960057, 0.0318004638, -0.0798311383, -0.0101102190, -0.0328481458, -0.0306813475, 0.0903798789, -0.0218800772, -0.0276214145, 0.0106521100, -0.0440464504, -0.0974590555, -0.0539407656, 0.0847691223, 0.1370463520, -0.0986210406, -0.0718484446, -0.0082385810, -0.0369680114, -0.0366967693, 0.0897080451, -0.0038541972, -0.0177142173, -0.0327984281, 0.0060167359, -0.0251428057, 0.0807474181, 0.0226548277, -0.0751146227, -0.0244080368, -0.0062185302, 0.0207346790, 0.0526607893, -0.0049651018, 0.0199125074, -0.0595428683, 0.0068122447, -0.0885331854, 0.0195780750, -0.0529841855, 0.0539423898, -0.1049245149, -0.0200680550, -0.1405684650, -0.0328774974, -0.0143073136, -0.1576604545, 0.0012225250, 0.1366928220, 0.0137791149, 0.0314735062, -0.0276834499, -0.0744591206, -0.0522809550, 0.0759580433, 0.0454225764, -0.0282077827, -0.0168424882, 0.0905715972, 0.0339982472, -0.0209366791, 0.0679154396, 0.1199168414, 0.0554152466, -0.0697406903, -0.0964059308, 0.1029677987, 0.0253033880, -0.0344013050, -0.0029566279, -0.0122926002, 0.1903677583, 0.1021244749, 0.0335479341, -0.0338701569, -0.1005741954, 0.0335152522, -0.0214521587, 0.0662413016, 0.0169304367, 0.0213700309, 0.0573672280, -0.0100347809, 0.0316393264, 0.0398481973, -0.0363363326, -0.0778990909, -0.0186985862, -0.0129579455, -0.0016805416, -0.0427387133, -0.0067053926, 0.0475407504, 0.0133115659, -0.0330147296, -0.0613030978, 0.0455539562, 0.0550382659, -0.0064752065, 0.0132104512, 0.0004440279, 0.1453597844, 0.0004689582, 0.0487247817, -0.0935209170, 0.0042397850, 0.0159613118, 0.0300146416, 0.1044172943, 0.0405661277, -0.0082577737, -0.1110438704, -0.0226160027, -0.0432443246, 0.0651616752, 0.0571754239, 0.0469695814, -0.1030001119, -0.0360138677, -0.0067304745, 0.0823114663, 0.0054193446, -0.0031225998, -0.0409829058, -0.1487354934, 0.1522093415, -0.0494188853, 0.1824002266, 0.0724674836, -0.0371674746, -0.0077534458, 0.0563187487, 0.0558906235, -0.0005665032, 0.0074412446, -0.0128770228, -0.0525898114, -0.1395373642, -0.0246436205, 0.0261711907, 0.0072196247, -0.0198409948, -0.0623979829, -0.0804086477, -0.1172473356, -0.1019341573, 0.0886994079, -0.0491352826, -0.0783135816, -0.0483788550, 0.0483346395, 0.0843308493, 0.0009856583, 0.1255750507, -0.0552068688, -0.0330184773, -0.0065908809, 0.0135472603, -0.0906350911, 0.0763477683, 0.0576253273, 0.0069401148, 0.0219143238, -0.0319427028, 0.0049488647, 0.0002244407, -0.0466294698, 0.1066767871, -0.0342345499, 0.0448570587, 0.0251606014, -0.0911842734, 0.0322526544, -0.0651199371, -0.0832469761, -0.1289375424, -0.0006748516, 0.0601426736, 0.0229131617, 0.0253353603, -0.0543408841, -0.0898452848, -0.0287245233, -0.0482452735, -0.0399150774, -0.0093338890, 0.0232576858, 0.1333715022, -0.0088613490, 0.0023077987, -0.0419556536, 0.0155653805, -0.0118653541, -0.0294921901, -0.0730555058, -0.0378728248, 0.0226580426, 0.0173703432, -0.0887550637, 0.0580935106, -0.0864913240, 0.0158573668, -0.0579839088, 0.0447142757, 0.0683267936, 0.0576463379, -0.0056909560, 0.1045954973, 0.0335760266, 0.0329799354, -0.0347206108, 0.0573182926, -0.0830705985, 0.1172047630, 0.0405289680, 0.0323332585, 0.0066155959, 0.0316878371, -0.0607896931, 0.0075627961, -0.0299498998, -0.0294620004, 0.0800704509, -0.0401214994, 0.0369267017, -0.0467623137, -0.0148613239, 0.0020548566, 0.0008721880, -0.0859267041, 0.0455113202, 0.0731327906, -0.0023978697, 0.0657184795, 0.0099264225, 0.0248763394, -0.0877863169, -0.0071493196, 0.0445501991, -0.0145391887, 0.0159137473, -0.1218067929, -0.0596057922, 0.0641079545, 0.0744278729, 0.0731248111, -0.0463581011, -0.0036312472, -0.0112120155, -0.0713168606, -0.0241912268, 0.0437251963, 0.0148192765, 0.0505351499, 0.0566942953, 0.0797678083, -0.0468543917, -0.1043229103, -0.1280091107, -0.0107396962, 0.0284944884, 0.0069933352, -0.0029842011, -0.0844005048, 0.0547140799, 0.1162056476, 0.0326196328, -0.1121508107, -0.0306424610, 0.0067465776, 0.0236001331, 0.0555895306, -0.0182836875, -0.1158939749, 0.0470014289, 0.0611337014, 0.0105732558, -0.0391368978, 0.0041712881, 0.0667412132, -0.0020363224, 0.0503459685, 0.0822656602, 0.0433880277, -0.0228800718, 0.0523809232, 0.0075001428, 0.0343599543, 0.0785582662, -0.0483573452, 0.0008361822, 0.0077322838, 0.0100417929, -0.0363611914, 0.0514939502, -0.0134447720, 0.1666598916, 0.0022728473, -0.0436766036, 0.0495864674, -0.0310096312, -0.0317525864, 0.0807495341, 0.0033006042, 0.0647604167, 0.0082059875, 0.1064005271, 0.0106890434, 0.0289128423, 0.0765511543, 0.0125129549, -0.0238003731, -0.0211649034, 0.0774098933, 0.0586323813, -0.0190594550, -0.0379665941, -0.0682309866, -0.0273156855, -0.1019954607, -0.0505274050, 0.0748360455, 0.0107066669, -0.0365591161, 0.0796670094, -0.0611061305, 0.0456694886, -0.0205874778, -0.1264313757, -0.0209747795, -0.0187329315, 0.0052853646, 0.0013382494, 0.0302362777, -0.0550944470, -0.0450007990, -0.0123813320, -0.1501858383, -0.0247474797, -0.0878865644, 0.0676474720, 0.0233414415, -0.1530319303, -0.0506295934, 0.0148039917, 0.0486212112, 0.0278876517, 0.0301846191, -0.0660053343, 