//Numpy array shape [3, 3, 32, 64]
//Min -0.242308259010
//Max 0.267024397850
//Number of zeros 0

#ifndef W18_H_
#define W18_H_

#ifndef __SYNTHESIS__
model_default_t w18[18432];
#else
model_default_t w18[18432] = {-0.0406645648, 0.0880123824, -0.0305244848, -0.0067860587, 0.0419623852, 0.0311304890, -0.0692056268, 0.1557777822, 0.1011524945, 0.0881577581, 0.0151030291, -0.1232603788, -0.0561115295, 0.1040852591, 0.0093464144, 0.0255986955, 0.0798278674, -0.0061236508, 0.0232104473, 0.0269100796, -0.0232975632, 0.0051549976, 0.0165950935, 0.0762531236, 0.0788736120, 0.1446088552, -0.0315382630, 0.0109048411, -0.0148498891, 0.0266951621, 0.0729896948, -0.0530935377, 0.1369892657, 0.0597772710, 0.0031588760, -0.0241489895, 0.0040269452, 0.0366615281, -0.0607487112, 0.0469535999, -0.0510062501, -0.0354737267, 0.0457933359, -0.0739874989, -0.0111577837, -0.0563718006, -0.0443345495, 0.0086660990, -0.0088018328, -0.0258059073, -0.0022425058, -0.0219566822, 0.0540820137, 0.0084394701, -0.0038743517, -0.0142547246, -0.0331348106, -0.0934021547, 0.0281042419, -0.0706621483, 0.0677775964, -0.0921158716, 0.0629967675, 0.0442606062, 0.0672657788, 0.0675604418, -0.0025614225, 0.0279390868, -0.0384176634, -0.0967421159, -0.0202625878, -0.0042362409, -0.0452568829, -0.0285107102, -0.0378603116, -0.0549272597, -0.0485818237, 0.0020186014, -0.0911337808, -0.0375237353, -0.0538866296, 0.1067589670, -0.0418997556, 0.0252048019, -0.0541707762, -0.0380631499, -0.0568647645, 0.0266909581, 0.0076901983, -0.0031272839, 0.0911126807, -0.0630035996, -0.0182151999, 0.0071357125, -0.0308961459, -0.1146028042, 0.0322166197, -0.0375436991, 0.0562296025, -0.0067980532, -0.0508928411, -0.0608637556, -0.0355295651, 0.0061969073, -0.0243654512, -0.0203004666, 0.0786436796, 0.0816084966, -0.0273961741, -0.0556098595, -0.0198987536, 0.0212833323, 0.0106957192, -0.0360959508, 0.0287625492, 0.1003666893, 0.0178758614, 0.0345048606, -0.0663573220, 0.0044441000, -0.0103986142, -0.0861476660, 0.0928936750, 0.0658365116, -0.0371074602, 0.1150431186, 0.0111933146, 0.0820597634, 0.0347624123, 0.0194831602, -0.0438705608, 0.0514099970, -0.0060120430, -0.0791962966, 0.0452960655, 0.0502346829, -0.0702981651, 0.0852617025, 0.0033852230, -0.0243831854, -0.0629139543, -0.0094619989, 0.0646222234, 0.0234857649, 0.0275787339, -0.0448866077, -0.0512782075, -0.1085363179, -0.0340265483, -0.0337229557, -0.0359185636, 0.0454554260, 0.0055347104, 0.0563587695, -0.1351294965, -0.0284771100, 0.0252720732, -0.0461840220, -0.0013982330, -0.0558139719, -0.0153681040, 0.0474537984, -0.0451657213, -0.0191464312, 0.0838169232, 0.0152687803, 0.1114184931, -0.1244367510, 0.0415642932, 0.0404182002, 0.0204458963, -0.0234175418, -0.0240623672, -0.0346278176, -0.0870818943, -0.0829916224, 0.0468790345, 0.0359358639, -0.0083393632, -0.0512459427, -0.0057844436, 0.0170537662, -0.0494683012, 0.0055896300, 0.0327885821, 0.0589498580, 0.0918893591, 0.0027390681, 0.0566512495, 0.0574832670, -0.0504226796, 0.0304460339, 0.0285947826, -0.0061695767, 0.0705204830, -0.0620847382, 0.0058864783, 0.0242754705, -0.0357914791, -0.0369248874, -0.0695095956, 0.1139791235, -0.0771154240, -0.0291405618, -0.0221123733, -0.0303184018, 0.0950616896, -0.0411208943, -0.0906771719, 0.0502538793, -0.0411407501, -0.1183042303, 0.1305492222, 0.0068793059, -0.0111032808, 0.0620164499, -0.0388731733, 0.0159478839, 0.0912832618, -0.0485735014, 0.0268300232, -0.0047194860, 0.0408750102, -0.0998573899, -0.0763137117, -0.0502935387, -0.0276071988, -0.0102908015, -0.0248441286, -0.0226379596, -0.0613863841, 0.2183632255, 0.0587194711, 0.0072957608, 0.0046533351, 0.0213489160, -0.0874083489, 0.0344422609, 0.0937483907, -0.1327334940, -0.0475873649, -0.0128165158, -0.0842839479, 0.0461083166, -0.0525246784, -0.0530818887, 0.0031915193, 0.0627010390, 0.0107358191, -0.0489788502, -0.0400431938, 0.0308562741, 0.0393465683, -0.0409248658, -0.0647930130, -0.1236485317, 0.0530798957, 0.0764940903, -0.0321079120, 0.0117728114, -0.0557858348, 0.0631260425, -0.0944476649, 0.1228991598, 0.0028292332, -0.1116002053, -0.0806398988, 0.1291491985, 0.1161374077, -0.0228172019, -0.0559983365, -0.0185681991, 0.0326116160, 0.0595453531, 0.1144702733, -0.0416752398, -0.0101482552, 0.1210002676, 0.0611556545, 0.0529167764, 0.0686386526, 0.0226788558, -0.0160519797, 0.0291360524, -0.0593584329, -0.0422276631, 0.0111375395, 0.0290008448, -0.0177921504, 0.0166763198, 0.0415190198, -0.0504116900, -0.0267367009, 0.0090470817, 0.0022955197, 0.1992906928, -0.0684054941, -0.0659404173, 0.0097919814, 0.0221537221, 0.0058850516, -0.0468867123, 0.0816196129, -0.0202063061, 0.0344328545, -0.0445343331, -0.0457130931, -0.0320811495, -0.0048654405, 0.0943684205, 0.0693097860, 0.0496253893, -0.0838684738, 0.0182200950, 0.0543507636, 0.0327082649, 0.0423183441, -0.0222215708, -0.0280913934, -0.0109870331, -0.0800751373, 0.0883069411, -0.0246283431, -0.0773605257, -0.0165925566, -0.0680466443, 0.0186061021, 0.0167616401, -0.0039205733, 0.0522740074, -0.1093169898, -0.0075048041, -0.0088406922, -0.0419331379, -0.0088833915, -0.0260635298, -0.0007246862, -0.0057217777, 0.0428178422, -0.0319588892, -0.0490264706, 0.0485756621, 0.0552010760, 0.0900852978, 0.0589047559, 0.1354303509, 0.0135409851, -0.0386965200, -0.0284889694, -0.1158602536, 0.0707817972, 0.0657089427, -0.1241651177, -0.0762728304, 0.0475028493, -0.0255580656, -0.0677187294, -0.0081101237, -0.0892592818, 0.0835004896, -0.0306166168, 0.0001639474, 0.0022578656, 0.0401831679, -0.1207857504, 0.0309217349, 0.0524684228, 0.1116659194, 0.0032219535, -0.0559796467, 0.0381402262, 0.0181044210, -0.0275514666, 0.0196001604, -0.0444432758, 0.0611895211, 0.0330862030, -0.0422342271, 0.1581127644, -0.0565541275, 0.0335007459, 0.0735470951, 0.0146377310, 0.0646066144, -0.0235188697, 0.0600926317, -0.0239457507, 0.1031440794, -0.0363274850, -0.0086522298, 0.0425283238, 0.0901148692, 0.0195511226, 0.0534685403, 0.0184832290, 0.0034630275, 0.0617824532, -0.0200392604, -0.0055955998, 0.0142458864, -0.0476105809, 0.0198462307, -0.0391346812, 0.0221439432, -0.0516019613, -0.0561303720, -0.0465311930, 0.0571631119, 0.0159481764, 0.0106861871, 0.0807720795, -0.0661743581, -0.0461712778, 0.0073266854, -0.0701447502, -0.0467644185, -0.1059797928, 0.0210589021, 0.0079253940, 0.0219047591, 0.0268919878, -0.0207368676, 0.0492258482, 0.0317212380, -0.1081888303, 0.0043746545, -0.0120707015, -0.1441256702, 0.0489892624, 0.0364712402, 0.0461740941, -0.0902887732, -0.0699675307, -0.0582300387, -0.0670189485, 0.0736018121, 0.0072995387, -0.0421690270, 0.0339660123, 0.0036468019, -0.0489185527, -0.1148976833, -0.0047973874, 0.0188478921, 0.0792104155, 0.0049071247, -0.0723282993, -0.0699817240, -0.0455728471, 0.0258537717, 0.0367203318, -0.0156289600, 0.0430429652, 0.0951892957, 0.0331468880, 0.0421817005, -0.0335617475, 0.0175086670, -0.0313290432, -0.1178720668, -0.1084013507, 0.0089974273, 0.0051638647, -0.0699282959, -0.0852348432, -0.0225789268, 0.0455821492, 0.0145072164, 0.0185559019, -0.0674304217, -0.0795733035, -0.0775515959, -0.0368391909, -0.0187302493, -0.0088520022, -0.0114884842, -0.0083813705, -0.0729684904, 0.0266867485, -0.1037733480, -0.0432367697, -0.1078467146, 0.0147555014, 0.0094063971, -0.1061470434, 0.0461206771, -0.0094496226, 0.0777822882, 0.0626750216, 0.0702518150, -0.0429420024, 0.0155390408, 0.0074012810, -0.0420917682, -0.0768105239, 0.0964622051, 0.0596631654, -0.0482894592, -0.0007743690, -0.0462106243, 0.0644475296, -0.0458072089, -0.0325218216, 0.0091672437, -0.0259354934, -0.0534310266, -0.0657316223, 0.0257919431, -0.0232342947, -0.1132901832, 0.1075341329, -0.0364722013, -0.0212136656, 0.0179737620, 0.0166353751, -0.0792305470, -0.0548713990, 0.0127990386, 0.1435842365, -0.0446859635, -0.0214450993, 0.0751409903, 0.1519742906, -0.0050889603, 0.0026772101, -0.1132792011, -0.0117691187, 0.0617133752, 0.0725795254, -0.0028349727, 0.0927820653, 0.0106461160, -0.0555061549, -0.0309290811, 0.0272983611, -0.0264018215, 0.0105647184, 0.0033469228, 0.0688796490, 0.0742405802, 0.0628671572, 0.0048144301, -0.0398309678, -0.0316220671, 0.0450223535, 0.0548755862, -0.1336467266, -0.0167725459, -0.0620892234, -0.0089632329, -0.1359540522, -0.0147312675, -0.0472484082, 0.0344075188, -0.0018626814, 0.0388359576, -0.0587301031, 0.0431166068, 0.1057566181, -0.0313391499, 0.0816624239, 0.0833546743, -0.0139658982, 0.0699496940, -0.0197775662, 0.0431421809, 0.1070460081, 0.0362772234, 0.0711943731, -0.0138192102, 0.1109719500, -0.0330825634, 0.0008021558, 0.0218649879, 0.0420547873, 0.0226242188, 0.0471517481, 0.0542433895, -0.0216435548, 0.0722743571, 0.0783234462, -0.0033406522, 0.0779632404, -0.0376452804, 0.0178572107, 0.0509834178, 0.1047323942, 0.1015158892, 0.0440851599, 0.0842124224, 0.0110254623, 0.1162225008, -0.0242915694, 0.0129695237, 0.0441659130, 0.0042761303, 0.0010576793, -0.0653294027, -0.0304262880, -0.0222775899, -0.0021305264, -0.0055454168, -0.0108235860, -0.0142105473, 0.0293387547, -0.0464318022, 0.0331919566, -0.0782448649, 0.0410734341, -0.0142696388, -0.0203631185, -0.0376201458, -0.0364398099, -0.0571860150, 0.0254480075, -0.0818635523, 0.0537979938, -0.0519475341, 0.0345630981, 0.0941696912, -0.0234249979, -0.0363776945, -0.0074361833, 0.0053625605, -0.0045458288, -0.0187181532, -0.0400174707, 0.1463059187, -0.0001605069, -0.1911193430, -0.0101832608, 0.0895192176, -0.1777864397, 0.0147581566, 0.0642779022, -0.0282825958, 0.0121121584, 0.0148755349, 0.0086650485, 0.0637872517, -0.0653839558, -0.1382278353, 0.0593885407, 0.0286662746, -0.0003354666, -0.0501721166, -0.0802876204, -0.0049665947, -0.1082994118, -0.0427065678, -0.0344377831, -0.0642723516, -0.0816888884, -0.0274028406, 0.0365430750, 0.0116879698, -0.0502186604, 0.0179876816, -0.0941529498, -0.0363392606, -0.0695757270, 0.0165959485, 0.0198354479, 0.0097477548, -0.0173435658, 0.0064165951, -0.0111889085, 0.0330256671, -0.0388415158, 0.0037127598, -0.0393427871, 0.0918630958, 0.0310937054, 0.1002719030, 0.0868661478, -0.0478539765, -0.1050983444, -0.1370679140, 0.0294878110, -0.0445437506, -0.0156296156, -0.0455395915, -0.0083846189, -0.0219435915, -0.0491657257, 0.0214194208, 0.0258133300, 0.0021264411, 0.0566025935, 0.0513551049, 0.0397661030, -0.0227127727, -0.0127263218, -0.0129279783, 0.0512050577, -0.0422101058, -0.0020346248, 0.0208664853, 0.0703066662, -0.1269508898, 0.0804314539, -0.0321968012, -0.0162959490, -0.0740237907, -0.0549414754, 0.0311905406, 0.0471040606, -0.0401654467, 0.0438140593, -0.0906282961, 0.0861436948, 0.0624388643, -0.1121021658, -0.1044675410, 0.0238632970, 0.0358743258, 0.0055916440, -0.0263598710, -0.0045367540, 0.0737619922, 0.1320143938, -0.0502626486, 0.0470066778, 0.0609679781, -0.0061408021, -0.0082329968, -0.0311702099, -0.0165828429, -0.0357787199, 0.0331182480, 0.0032660114, 0.0241760537, 0.0375373848, 0.0476338975, -0.0084852558, 0.0274791699, -0.0379765257, -0.0062194467, 0.0098290527, -0.0212984048, -0.0383912288, 0.0102862632, -0.0459563509, -0.1729493588, -0.0359106325, 0.1216988415, -0.1117077172, -0.0280898046, 0.0552084222, -0.0284909513, 0.0745147392, 0.0245338157, -0.0114107030, 0.0302570909, -0.0230950788, 0.0142093059, 0.0647072196, -0.0013117079, 0.0042544398, 0.0136594083, 0.0409026742, -0.1289584637, -0.0092516067, -0.0760410503, -0.0866412744, -0.0613382608, -0.0724984035, 0.0400610045, 0.0374103189, -0.1573013067, 0.0112827411, 0.1009256989, -0.0203573182, 0.0346624553, 0.0307851564, 0.1032349542, -0.1102328300, -0.0098509593, -0.0100158053, 0.0196392201, 0.0024415753, 0.0711635202, 0.0828251541, -0.0415493436, 0.0736883730, 0.0265167598, -0.0293817241, 0.0015238395, -0.0269783996, -0.0379863940, -0.0748050138, -0.1032711938, -0.0430079997, 0.0163565632, 0.0769205093, 0.1116205379, -0.0130309556, 0.0321206748, -0.0798886791, 0.0411092751, 0.0159993134, -0.0130321113, 0.0616985857, 0.0007266976, -0.0097572291, -0.0967770070, 0.0576078072, 0.0195627231, 0.0198348574, -0.0680895671, 0.0826186836, 0.0679501444, -0.0752198771, 0.0590835549, 0.0432586670, 0.0226043500, 0.1252177358, -0.0101336436, -0.0145311896, -0.0546386279, 0.0408264995, -0.0829594284, 0.0147119816, 0.0701618940, -0.0927315578, -0.0522189140, 0.0575889498, 0.0581288822, 0.0949719846, 0.0146806305, -0.0596141703, 0.0206912197, 0.0359733477, -0.1175518408, 0.0900775343, -0.0154645843, 0.0823630467, -0.0140247494, -0.0317292325, 0.0194012802, -0.0087933755, -0.0493060462, 0.0165320039, -0.0507321432, 0.0105116703, 0.0277379323, -0.0196779240, 0.0236620028, -0.0122957751, 0.0050396505, 0.0598393008, -0.0120217958, 0.1179300249, 0.0059310757, 0.0804551989, -0.1072513536, 0.1146776974, -0.0015105784, -0.0390036367, 0.0654783621, 0.0453504845, 0.0001290109, 0.0306198876, -0.0432395302, 0.0648785457, 0.0230974592, -0.0147447521, -0.0325437821, 0.1097605750, 0.0294038486, -0.1132131740, 0.0027794568, -0.1078910083, -0.0392286628, -0.0796220526, 0.0039120438, -0.0137857050, -0.0662463978, 0.0272982847, -0.0492716990, 0.0124804070, -0.0549587905, -0.0589464642, -0.0746147484, 0.0893427432, -0.0847111344, -0.1164888591, -0.0643300638, 0.0646070689, -0.0592112653, -0.0001802985, -0.0042299763, -0.0369815752, 0.0100596361, 0.0276929680, 0.0581532530, 0.0013187089, -0.0894288421, -0.0683682039, -0.0367224924, 0.0237069409, -0.0209731814, -0.0038050686, -0.0570990555, -0.0605862029, -0.0803063363, -0.0242929645, 0.0502579994, -0.0364725702, 0.1234336495, 0.0343620889, -0.0873858929, 0.0210551079, -0.0363787822, -0.0424167961, 0.0150729055, 0.0549997017, -0.0789774060, -0.0872540250, -0.0684055910, -0.0063103368, -0.0657673925, 0.0303996857, 0.0221070256, 0.0078868438, 0.0309263840, 0.0279260650, 0.0811329558, 0.0090898685, 0.0023718409, 0.0798227713, -0.0852534994, 0.0482013263, -0.0853867829, 0.1336892396, 0.0210554302, -0.1073318645, -0.0335128866, -0.1254141629, -0.0248671919, 0.0438215621, 0.0430466756, 0.0714114010, -0.0391057469, 0.0442955457, -0.0749500170, -0.0122224791, 0.0752679408, -0.0362356827, 0.0757456198, -0.0384956561, -0.0584477261, 0.0759907439, 0.0465020724, -0.0122330096, 0.0814606473, -0.0977143794, 0.0299895909, -0.0533868559, -0.0942108333, 0.0729477406, 0.0230092481, 0.0208347682, -0.0079501849, -0.0421383902, 0.0836894810, 0.0123129794, 0.0796373412, 0.0484724231, -0.0491884425, 0.0467191823, 0.0961932689, -0.0278654210, 0.0532596819, 0.0686428621, -0.0440003388, 0.0279816315, -0.1691496521, -0.0474007949, 0.0010039061, -0.0063342168, -0.0467712916, -0.0361530893, -0.0857575014, 0.0107746255, 0.1085343063, 0.0173048321, -0.0316239484, -0.0537806824, 0.0067856666, 0.0401004925, 0.0139147388, -0.0810416713, 0.1047185212, 0.0323765501, -0.0449222215, -0.0043717222, 0.0150940958, 0.0505851991, -0.0265863799, -0.0152792614, 0.0881552026, 0.0397485867, -0.0026706217, -0.0557630025, 0.0813384280, -0.0414454192, 0.0218643323, -0.0299150273, 0.0005368449, 0.0195325483, -0.0137480823, 0.0517790355, 0.0008002116, 0.0068794643, 0.0336528569, -0.0015246471, 0.0235171374, 0.0387794003, 0.0362776704, -0.0152371088, 0.0761364102, -0.0866861641, 0.0362528376, 0.0289956387, -0.0322302580, -0.0002879413, 0.0605191365, -0.1684460789, 0.0252276137, 0.0265638512, -0.0944334269, 0.0236529112, 0.0446712300, -0.0043668714, -0.0174108651, -0.0929578096, 0.0287465919, -0.0174862295, 0.0445864946, 0.0279801227, -0.0374370515, 0.0437257141, -0.0206413977, 0.0219656006, 0.0999897718, -0.0349753611, -0.0425589681, 0.0509420112, -0.0071374099, 0.0464593470, -0.0913419500, -0.0721836612, -0.0950570926, 0.0282683745, 0.0355988592, -0.0162209421, 0.0271990746, 0.0248859636, 0.0355028845, -0.0431805886, -0.0662834123, 0.0412830301, -0.0297215935, 0.0795905143, 0.0694162771, 0.0097678667, 0.1045091450, -0.0480338819, 0.0119335363, -0.0787940398, -0.0353570729, 0.0301398896, 0.0504048243, 0.0680184513, 0.0123332273, 0.1152494475, 0.1273797154, 0.0068303444, 0.0479072891, 0.1109076589, -0.0214991476, 0.0124495104, -0.1148046926, 0.0094055925, 0.0199633539, 0.0404274538, -0.0155042838, -0.1089066640, -0.0312511288, -0.0226243455, -0.0490439534, 0.0044984305, 0.0787812620, -0.0351505242, -0.0618874878, 0.0086892536, -0.0625512898, -0.0704645142, 0.0141124967, 0.1102360412, -0.0292718504, -0.0543330945, -0.0032213163, 0.0727614537, 0.0417913012, 0.1004532278, 0.0469332896, 0.0386195704, 0.0237137359, 0.0746093169, -0.0440402776, -0.0597836599, -0.1398817450, 0.0119033335, -0.0122988410, 0.1274718791, -0.0464097075, -0.0109261172, -0.0061698207, 0.0815804154, -0.0052399752, -0.0694554448, -0.0612927675, -0.0467427783, -0.0221989062, 0.0121277580, 0.1589329243, 0.0203380845, 0.0293845870, -0.0357264839, -0.0298716016, 0.0471153967, -0.0368095413, 0.1534328461, -0.0613024794, 0.0782084391, 0.0036693034, 0.0056720548, 0.0113720978, -0.0934952497, 0.0898078531, 0.0042748326, -0.0357327349, -0.0553956032, 0.0859508142, -0.0673414692, 0.0749159306, 0.0558609255, -0.0218547359, 0.0442794412, -0.0322201848, 0.0167724323, -0.0567257181, -0.0332000591, 0.0405160449, 0.0184930190, 0.0961004198, 0.0076409029, 0.0670539066, -0.0071280887, 0.0686848015, -0.0706402734, 0.0831694305, 0.0093145296, -0.0945233256, 0.0282070115, 0.0261649396, -0.0076231998, -0.0504293069, -0.0191193353, -0.0038580333, -0.0747238770, 0.0336220115, -0.0341240726, 0.0509885214, 0.0617882945, -0.0088609857, 0.0411364995, -0.0377626121, 0.0086766081, 0.0051671760, -0.0629749149, -0.0552245006, -0.0515777431, -0.0001394589, 0.1457374394, -0.0833564773, -0.0154011073, -0.1547755897, -0.0789673105, -0.0567857064, -0.0574907511, -0.0816013440, 0.0139181213, -0.0152917802, -0.0059029474, -0.0094907591, -0.0153824203, -0.0055701230, -0.0286616795, -0.0668179169, 0.0704460815, -0.0116890986, 0.0126501471, 0.0155055728, -0.0377221815, -0.0353666358, 0.0930351540, -0.0183218196, -0.0292633083, 0.0367953032, -0.0472756252, -0.0034903463, 0.0216109026, -0.0185993519, 0.0031949775, -0.0006477672, -0.0229308624, 0.0320369191, -0.0260694232, -0.0170146786, -0.0673376471, -0.0816331282, -0.1049067900, 0.0872527286, -0.0015247056, -0.0009140863, -0.0090530794, -0.0698091835, 0.0607484169, 0.0328375660, 0.0044933106, -0.0793634430, -0.0312711112, 0.0633438602, -0.0018091886, -0.0201343838, 0.1271359771, 0.0064586196, 0.0293092635, -0.1680729389, 0.0130300140, 0.0021948076, 0.0444192439, 0.0099088242, -0.0082322471, 0.0851663128, -0.0627899170, -0.1520412564, -0.0063055507, -0.0230552088, -0.0793053210, -0.0302961301, 0.0987818688, -0.1130524427, 0.0381860659, -0.0860331729, 0.0214126613, 0.0295270365, -0.0671400428, -0.0145986937, 0.0379361510, -0.0498035103, -0.0365820713, -0.1626604199, 0.0161329843, -0.0179443266, -0.0091257347, -0.0133243306, 0.0872849226, 0.0495116971, 0.0720580295, 0.0876093432, 0.0565294027, 0.0689183399, 0.0144356014, -0.0443705022, -0.0147178657, 0.0941467434, -0.0490551554, 0.0094752302, -0.0216197893, 0.0069882404, -0.0141990595, 0.0454877093, -0.0684583113, 0.0205001440, -0.0180423502, -0.0103838863, 0.0595929809, 0.0248358287, 0.0127410339, -0.0547040701, 0.0138293244, 0.0053014252, 0.0288438760, -0.0610175394, -0.0153212789, 0.0016380037, -0.0104500242, -0.0031257416, 0.0689860061, -0.0325288288, 0.0267928634, 0.0816021189, -0.0120614683, -0.0031941838, 0.1627443135, 0.1118963212, 0.0666052327, -0.0553694330, -0.0341388211, -0.0121728191, -0.0165351331, 0.0245560482, 0.0617227554, 0.0279114041, -0.0364455692, 0.0134168072, 0.0479647666, -0.0537813716, -0.0788742974, -0.0369352400, 0.0073008700, 0.0402980000, -0.0385021158, -0.0118394280, 0.0194112267, -0.0729366392, -0.0824240670, 0.0703097209, 0.0292663053, -0.0223660599, -0.0655765906, 0.0732681602, -0.0626351386, -0.0139382724, 0.0100975772, -0.0990942046, 0.0101051498, -0.0768316314, -0.0775904804, 0.0627076328, 0.0572342873, 0.0186396465, 0.0058182715, -0.0620600171, 0.0990388393, -0.0288396515, -0.0950933099, -0.1328538507, 0.0653128475, -0.0937407762, 0.0352719687, 0.1390959322, 0.0500549786, 0.0951227397, 0.0049406388, -0.0449742191, -0.0080175512, 0.0245266557, -0.0194020160, -0.0922574028, 0.0117893256, -0.0637282282, -0.0259161722, -0.0196327623, -0.0094554564, -0.0310028531, 0.0379880928, 0.0321265720, 0.0816349536, 0.0207911599, 0.0708904713, -0.2395219356, 0.1528836489, 0.0093046930, 0.0397503600, 0.0117928274, 0.0490381531, 0.0418135040, -0.0124176005, -0.0093247769, -0.0144128799, 0.0404058397, -0.0566103905, 0.0294022486, -0.0076929294, -0.0028916632, -0.0256668292, 0.0314760096, -0.0094969068, -0.0153586492, -0.0307142697, -0.0821898431, 0.0373517498, -0.0322838388, -0.1265578419, 0.0130279046, -0.0988761932, -0.1119989902, -0.0164637417, -0.0858393461, 0.0441165715, -0.0447510183, -0.0157475341, -0.0215609632, 0.0495297275, -0.0018591884, 0.0542192757, 0.0499281064, -0.0845120773, 0.0010827420, 0.0634979680, 0.0176960174, -0.0787695497, 0.0559951030, 0.0784747005, -0.0243714396, -0.0099960407, 0.0084972288, -0.1422838867, -0.0255495720, 0.0983870476, 0.0063118669, 0.0213219281, 0.0680484250, 0.0193276145, -0.0359496213, -0.0193108730, 0.0856044516, -0.0705859065, -0.0018740485, 0.0382267684, -0.0879380628, -0.0030415196, 0.0409911498, 0.0428611599, 0.0149495816, 0.0351166874, -0.0998826325, 0.0119060539, 0.0223038830, -0.0219364781, 0.0080636013, -0.0209905617, -0.0589963347, 0.0538219661, 0.0584359206, 0.0616276972, 0.1346933842, 0.0026030838, -0.0015471379, 0.0336857699, 0.1172853187, -0.0002093654, 0.0614812560, 0.0797098354, 0.0701953098, 0.1050105840, -0.1402292252, 0.0753885135, 0.0129778869, 0.0298639983, 0.0399269201, 0.1134491041, 0.0543620996, 0.0915979445, 0.0020744351, 0.0283515323, -0.0856155008, 0.0087532420, -0.0718966499, -0.0987537205, -0.0448960587, -0.0261775218, -0.0818976983, -0.0299703181, 0.0442358404, 0.0479067229, 0.0073032035, -0.0304136351, -0.0814789981, -0.0238414556, 0.1306369156, -0.0499381237, -0.0252750032, -0.0267378911, -0.0647105649, -0.1040827334, -0.0130187040, 0.0113095008, -0.0179693829, 0.0213993099, 0.0529250391, -0.0690681413, 0.0092875399, -0.0830620527, -0.0387309529, 0.0160444546, 0.0588686392, 0.0125934156, 0.0434344485, -0.0366445035, -0.0608914606, -0.0247779060, -0.0207142942, 0.0068515623, 0.0948970094, -0.0306045711, 0.0363995098, -0.0880209282, 0.0291072875, 0.0613744371, 0.0211360510, -0.0176986400, -0.0122757219, -0.0939490497, 0.0063863122, 0.0210856479, 0.0083604567, 0.0911413878, -0.0884377956, 0.0573310666, -0.0376680382, 0.0664730445, -0.0397715829, 0.0320475996, -0.0496285558, 0.1002214774, 0.0580378696, -0.0969131291, 0.0109310234, 0.0384785272, -0.0727197155, 0.0558807924, -0.0192297082, -0.0444199219, -0.0350078642, -0.0155401239, 0.0039882115, -0.0503347591, 0.0073069003, -0.0639708266, 0.0119106742, -0.1008102745, 0.0642944276, 0.0452976190, -0.0182088595, 0.0362794288, 0.0427288972, 0.0913669467, -0.0763192028, 0.0095518930, 0.1030191258, -0.0808618516, -0.0802044943, 0.0791995823, 0.0341339558, 0.0160514675, 0.0250565726, -0.0163705554, 0.0559063517, -0.0543804392, 0.1027730778, 0.1322084665, 0.0106796343, 0.0046473029, -0.0696398541, 0.0923715234, 0.0524941012, 0.0102121895, 0.0350352712, -0.0359704867, -0.0601646490, 0.0203943551, -0.0375041068, 0.0615784042, 0.0024245256, 0.0190909263, -0.0546903796, -0.0463143289, -0.0282486826, -0.0853883699, -0.0459343232, -0.0081993770, 0.1221810430, 0.0399688780, 0.0347140059, 0.0355191454, 0.0324765220, 0.0314583257, 0.0608908422, -0.0438869521, 0.0126641570, -0.0141188130, 0.0205593072, -0.0445570834, 0.0040340913, -0.0949344561, 0.0153991478, -0.0327291340, 0.0140989004, 0.0024631468, -0.0860974118, -0.0169582479, 0.0526511781, -0.0139461737, -0.0948517099, 0.0430591777, 0.0170880836, 0.0697346255, 0.0910467729, 0.0155640058, -0.0333610512, 0.0031213923, -0.0839263201, 0.0045454334, -0.0733855814, 0.0361009389, -0.0781540573, 0.0273190476, -0.0096081914, 0.1067838967, -0.0724232644, 0.0206642877, -0.0613741353, 0.1625794917, 0.0807114542, -0.0332111083, 0.0177033953, -0.0384660847, 0.0064392271, -0.0183088966, 0.0106741516, 0.0171162039, 0.0058302069, 0.0187290702, 0.0432103090, 0.0030161731, 0.0486653671, 0.0577265583, 0.0519084595, 0.0339657404, 0.0013337728, 0.0492685623, 0.0295920167, -0.0061181113, -0.0698955804, 0.0398844145, 0.0347617678, -0.1004600748, 0.0944795385, -0.0883209556, 0.0696137324, -0.0753225014, -0.1069890335, -0.0713757724, -0.0703877211, -0.2047299147, 0.0578110404, 0.0205191169, -0.0394497700, 0.0818224773, -0.0848197788, 0.0099226870, -0.0082256114, -0.0261143092, -0.0350640304, 0.0863179341, 0.0098246951, 0.0446944647, 0.0112572853, -0.0026245899, -0.0211223606, -0.0040604477, 0.0704117268, -0.0566329174, 0.0173138436, -0.0450116396, 0.0440781564, 0.0027182233, 0.0932567567, -0.0284404922, 0.0663684085, -0.0354742445, 0.0502903424, 0.1342625767, -0.0002021319, -0.0107770059, -0.0876136124, 0.0873480290, -0.0772615671, 0.0151079968, -0.0020094337, -0.0639142990, -0.0007505873, 0.0930013135, -0.0006385276, -0.1303891689, -0.1298631430, -0.1091907918, 0.1576780826, -0.0125687728, -0.0222151317, -0.0177160576, 0.0453097634, -0.0095631611, 0.0976936966, 0.0434520580, 0.0515187271, 0.0046538431, 0.0413235202, 0.0174971521, -0.0733032152, -0.0640830696, 0.0160099044, 0.0825354159, 0.0222827196, 0.0041585956, -0.0162587184, 0.0235662106, -0.0238008741, 0.0481007323, 0.0035402784, -0.0516948849, -0.0352577232, -0.0094480477, 0.0035365589, 0.0296717510, -0.0393015034, -0.0231893044, -0.0750889555, 0.0845785886, 0.1012616456, -0.0088978633, -0.1026389748, 0.0018650790, -0.0311158765, -0.0724540725, 0.0931121334, 0.0122209005, -0.0125468038, -0.0485244282, 0.1023184583, 0.0120108556, 0.0043159449, -0.0155880470, -0.0894797146, 0.0012183305, -0.0543825664, 0.0474528335, 0.0547734499, 0.0514440574, 0.0416532420, -0.0478252396, -0.0283028502, -0.0894299969, -0.0443973653, -0.0398670435, 0.0226274766, -0.0959994346, -0.0069051525, -0.0423218198, 0.0477331392, -0.0430168174, 0.0405729339, -0.0640053600, 0.0386951454, 0.0530227460, 0.0719277188, 0.0481283590, -0.0899249837, 0.1336530149, -0.0203257836, -0.0736958981, -0.0118407421, -0.0265878569, 0.0020415026, -0.0420783684, -0.0444659293, -0.0566125102, -0.0278977379, 0.0199090373, 0.0327356011, 0.0325531587, -0.0598760881, 0.0753339753, 0.1155867279, -0.0635445416, 0.0627891198, -0.0090322448, 0.0372634418, 0.0090998588, -0.0608460456, -0.0092523862, 0.0078391470, 0.0006162782, 0.0701044872, -0.0161334984, -0.0159922950, -0.0453737006, -0.0092569059, 0.1156393215, 0.0189814381, 0.0781297982, 0.0370403416, -0.0011589287, -0.0040371604, 0.0448544845, -0.0118944757, 0.0311762895, 0.0110461647, -0.0666262209, -0.0476821288, 0.1270627230, 0.0012493192, -0.0993907079, -0.0884432718, -0.0289666243, -0.0588540658, 0.0362328775, 0.0733396560, -0.0528991371, 0.0725781843, -0.0333726741, 0.0127005596, 0.0939985886, -0.0312441699, 0.0303315874, 0.0651869327, 0.0713314265, -0.0029515943, 0.1362508833, -0.0215576254, -0.0356138088, -0.0030086231, -0.0027820088, -0.0264336001, -0.0006888775, -0.0584546477, 0.0310502648, -0.0216530301, -0.0536598079, -0.0186047871, -0.0255515687, -0.0462706611, 0.0285803024, -0.0905544311, -0.0339801051, 0.0750211775, -0.0583951175, 0.0282061398, 0.0557545908, -0.0588575229, -0.0014790954, 0.0541159324, 0.0234952290, -0.0541150644, -0.0674016327, 0.0127585782, -0.0033641991, -0.0221617967, -0.0124232909, 0.0448212847, -0.0204781052, -0.1268742979, 0.0154874912, -0.0608373545, -0.0405005030, 0.0094548911, -0.0556579828, 0.0498267859, -0.0205929186, -0.1185011044, 0.0749500245, 0.1296681613, -0.0388949253, -0.0671870857, -0.0610154271, -0.0327736773, 0.0362937637, 0.0350792333, 0.0663014054, 0.0794354007, 0.0712127090, -0.0301023275, -0.0980110094, 0.0047709025, -0.0262652673, -0.0187752042, 0.0943999887, -0.0197734572, 0.0628126487, -0.0221555326, -0.0632881224, -0.0038813271, 0.0566883422, -0.0075153490, 0.0630567372, 0.0632342473, 0.0043056514, -0.0359855331, 0.0588092618, 0.0164737906, 0.1470851451, -0.0614854097, 0.0001185165, -0.0270666517, 0.0073707672, 0.0149714695, -0.1618775427, -0.1699694991, -0.0107878111, -0.0291781593, -0.0080246190, 0.0901943147, -0.0571634546, -0.0530041046, 0.0167502873, -0.0249232072, -0.0564072691, 0.0717600062, 0.0036765062, -0.0181158595, -0.0493601002, 0.0086189248, 0.0298469774, 0.0967138261, 0.0909436941, 0.0272631813, -0.0459348038, 0.0133826323, -0.0600987487, -0.0826973915, -0.0579613335, 0.0386606492, 0.0004420647, -0.0114273373, 0.0129814185, 0.0270861909, 0.0225921459, 0.0591006055, 0.0287097450, -0.0287733525, 0.1007057950, 0.0191439483, 0.0481852628, 0.0342087634, -0.0007817036, 0.0473102257, 0.1289743632, -0.1349086314, -0.0078169890, 0.0074069649, 0.0680297688, 0.0645211488, 0.0681191608, -0.1317629367, 0.0499082357, 0.0918450132, -0.0462966040, -0.0594782941, -0.1133616865, 0.0147753237, 0.0599321239, -0.1306559294, -0.0175123401, 0.0268721879, 0.0222445242, -0.0355354659, -0.0364055298, -0.1074400321, 0.0118811075, -0.0837438479, 0.0234580077, -0.0615151860, 0.0068619931, 0.0445748344, -0.0142150437, -0.0278754551, -0.0020614644, -0.0189422574, 0.0782631412, -0.1568115652, 0.1341327131, -0.0215303134, 0.0008747425, -0.0269129742, -0.0869199112, -0.1031931564, -0.0206218120, -0.0468410961, 0.0197893865, 0.0459842086, -0.0608817711, 0.0457479768, -0.0721301362, -0.0234597176, 0.1175266057, 0.0041577327, 0.0158612914, -0.1471504569, 0.0147195905, -0.0167034976, -0.0892636403, 0.0653825104, 0.0047142766, -0.0101046758, -0.0252119079, -0.0699915588, -0.0110161249, -0.0078689642, 0.0638763979, -0.1024263799, -0.0284083746, 0.0420298167, -0.0459284782, -0.0643828735, 0.0076779881, -0.0182938855, -0.0507631451, -0.0878305361, 0.0873717740, -0.0210775565, -0.0287353378, -0.0904925019, 0.0212372933, -0.0193032585, -0.0210938137, 0.0316929668, 0.0595043488, 0.0368712172, 0.0679207668, -0.0557442084, -0.0566700250, 0.0463589728, 0.1288290024, 0.0351934694, -0.0229439884, 0.0537395142, -0.0068227355, 0.0196265578, 0.1163731962, 0.0415864848, 0.0260402579, -0.0421239585, -0.0625199154, -0.0700181648, -0.0692662224, 0.0103360675, 0.0647036955, -0.0698593780, -0.0767901912, -0.0313484594, -0.0772994086, -0.0838629901, -0.0879777968, -0.0001239484, -0.0779857114, -0.0916898325, -0.0144857578, 0.0250006299, -0.1267229319, 0.0799595863, -0.0109268418, -0.0526234992, 0.0976502150, 0.0508734696, 0.0562345721, 0.0897240639, 0.0312474277, 0.0029180953, 0.0127132079, 0.0135375820, 0.0065963282, -0.1373275071, 0.0332537889, -0.0069808634, -0.0676144660, -0.0334743820, -0.0189847220, -0.0875858814, -0.0398884714, -0.0155372210, -0.0445261933, 0.0083821816, -0.0336659215, -0.0039070649, 0.0313131511, 0.0394032784, -0.0883366913, 0.0485198274, -0.0438763872, -0.0094018038, 0.0577064231, -0.0156594925, 0.0352132097, 0.0552361496, 0.0059150588, 0.1017903090, 0.0557490289, -0.1029748172, 0.0035370251, 0.0079433369, -0.0091513079, -0.0298572574, 0.0341639854, 0.0265249088, 0.1301740408, 0.0117351264, -0.0133001227, -0.0144600477, -0.0013594147, -0.0276255757, -0.0238084830, 0.0262834746, -0.0012984887, -0.0380643345, 0.0069513544, -0.0412095971, -0.0511958487, -0.0633562431, -0.0692982897, 0.0717302114, -0.1320763975, -0.0626219288, -0.0318337157, -0.0032285324, 0.0352347083, 0.0162436813, 0.0435661301, -0.0540590286, -0.0102645718, -0.0886706859, -0.0530570485, -0.0017589588, 0.0551009104, -0.0622416511, -0.0555429831, -0.0490348823, 0.0329036899, 0.0151166013, 0.1254064292, -0.0360239595, 0.0602046624, -0.0606721863, 0.1206649914, 0.0050311247, 0.0238443632, 0.0073971804, -0.1004934534, -0.0022953777, -0.0562052093, -0.0527474731, -0.0697905570, 0.0207685139, -0.0016551489, -0.0920147896, 0.0062816832, -0.0896621048, 0.0043752226, 0.0053458498, 0.1186221465, 0.0706888363, 0.0206888113, -0.1349454820, 0.0074076834, -0.0111751053, 0.0405033007, 0.0020462016, -0.0308613665, 0.0259117316, -0.0095332228, 0.0425633490, -0.0110507654, 0.0696146414, 0.0376411863, -0.0273108892, -0.0076486021, -0.0491106026, -0.0024939654, 0.0740421340, -0.0891226083, -0.0265292209, 0.0185744166, 0.1150241420, 0.0284981374, 0.0049139918, -0.0762898624, 0.0039160387, -0.0904768482, 0.0419257060, 0.0323588625, -0.1343538165, 0.0956333354, 0.0950970650, -0.0710853785, 0.0822837278, 0.0696289018, -0.0300735477, -0.0555972606, -0.0163862668, 0.0856526643, 0.0537581928, -0.0574960671, 0.0283822399, -0.0519298352, 0.0376950875, -0.0817431137, -0.0426121242, 0.0989785418, 0.0222325958, 0.1652985066, -0.0235801041, 0.0291769654, 0.0400835499, -0.0162288938, -0.0617858693, -0.0230077729, 0.0694565177, -0.0517045893, 0.0166279506, -0.0303256977, 0.0262834821, -0.0950079560, 0.0895698965, -0.0235825647, -0.0099983281, 0.0327046961, 0.0919531435, 0.1048334390, 0.0145628545, -0.0101080583, -0.0168490745, 0.2095471174, 0.0172894690, -0.0349850804, 0.0506376624, 0.0423025787, 0.0180855319, 0.0034731978, -0.0896603242, -0.0319746397, 0.0085334843, -0.1076892912, 0.0587486289, -0.1018665582, 0.0129881799, -0.0635752007, 0.0538410470, -0.0218109526, -0.0102804815, 0.0302892476, 0.0492723137, 0.0252569616, -0.0736112520, -0.0740179047, 0.0333548859, 0.0093215238, -0.0169712584, 0.0167622231, 0.0587948188, 0.0109978868, -0.0638292581, -0.0164699275, -0.0197019782, 0.0292250831, -0.0029990582, 0.1003327444, -0.0084233722, 0.0372937694, -0.0818624347, 0.0087152645, 0.0384953842, 0.0414497070, -0.0767889544, -0.0077981842, 0.0290783439, 0.0869455114, -0.0080778431, 0.0564700216, 0.0187543202, -0.0010422396, -0.1135597005, 0.0804614276, -0.0140561275, 0.0761226565, -0.1433775276, 0.0916185603, 0.0789415911, 0.0860096067, 0.0503450595, 0.0232775621, -0.0643167123, -0.0000828939, 0.0071413764, 0.0416395552, -0.0579424016, 0.0896878541, 0.1036026478, 0.1181825772, -0.0970233381, 0.0057435711, -0.0024261398, -0.0435339287, -0.0643765107, -0.0154570034, -0.0019928380, -0.0160519853, -0.0083717415, -0.0378897265, -0.0426847152, -0.1222208887, -0.0278739929, -0.0354516357, -0.0722527355, -0.1045848951, 0.0352639295, -0.0061195567, 0.0641581565, 0.0112976329, -0.0740725175, 0.0545511059, -0.0416064411, -0.0142096272, 0.1068970561, 0.0461769439, 0.0904946774, 0.0453019515, -0.0632310137, 0.1057674736, -0.0159632042, 0.1119322926, -0.0963534713, 0.0030253183, -0.0928553864, -0.0637935102, -0.1011646539, -0.0535511151, 0.0087223863, -0.0179632641, 0.0300179757, 0.0418554917, -0.0348768681, 0.0286776517, -0.0570414774, 0.0678011775, 0.0548494421, -0.0194856618, 0.0828143209, 0.1891073436, 0.0199928787, -0.0091180140, -0.0005047707, 0.0490213335, 0.0349359214, 0.0177581310, -0.0002351632, 0.0529416949, 0.0008479484, 0.0077963248, 0.0062342389, -0.0914408341, 0.0609857552, -0.1207418740, -0.1058699116, -0.0243466627, -0.0694128349, -0.0698269382, -0.0374853499, 0.0026723444, 0.0299161579, -0.0014552332, -0.0686651096, 0.0069759460, -0.1587042063, -0.1478743702, 0.0188676436, -0.0083347391, 0.0224525686, 0.0665468648, 0.0807322040, -0.0678835660, -0.1025186926, 0.0767083094, -0.0193620846, -0.0546589717, 0.0793204978, 0.0413333476, -0.0048384359, -0.0310226455, 0.0864899307, 0.0143330991, -0.0355175808, 0.0565866977, 0.0061490205, -0.0169311296, -0.0079928143, -0.0198308993, -0.0302475151, 0.0454240665, -0.0759165287, -0.1127241179, -0.0024477853, -0.0146882758, -0.0411498137, 0.0917715803, 0.1028452888, -0.0279803518, 0.0085821226, -0.0459059812, -0.0465025865, -0.0706241503, -0.0955301151, 0.0088709453, -0.1284571290, 0.1164181978, 0.0251572505, -0.0213577822, 0.0418863744, -0.0000988424, 0.0148855811, -0.0951318815, 0.0272873137, -0.0263918713, -0.0167041533, -0.0233270265, 0.0721571892, 0.0223240480, -0.0909065753, 0.0230715573, -0.0214906987, 0.0375139974, 0.0283891149, 0.0312026441, -0.1078936011, 0.0540322289, -0.0600262359, 0.0013531771, 0.1055197418, 0.0436643325, 0.0203012526, 0.0143679036, -0.0135589177, 0.0893964842, -0.0768389702, -0.0444056913, -0.1060369238, -0.0098411748, 0.0476979613, -0.1245578155, 0.1625315398, -0.0047701700, 0.0209351126, -0.0455000512, 0.0410995483, -0.0285074320, 0.0253401157, 0.1020612866, -0.0268036425, 0.0370696932, 0.0796477720, 0.0870329291, 0.0420049578, -0.0660793930, 0.0199444313, 0.0057041124, 0.0462917872, 0.0727280378, 0.0173733700, -0.0839802325, -0.0647355840, -0.0174405482, 0.0301140007, -0.0870302394, -0.0019629151, 0.0635835081, -0.0610827282, -0.0663169697, 0.0322045535, -0.0717054456, -0.0109068211, 0.0814299881, -0.0624491498, 0.0576452836, 0.0854749531, -0.0136421286, -0.0407062508, 0.0133363074, 0.0015420137, 0.0629291460, 0.0692296922, 0.0203556884, 0.0398932099, -0.0547470301, 0.0343402028, -0.0169274230, 0.0065820306, 0.0206874628, 0.0416023396, -0.1048561633, 0.0348506607, -0.0112995924, -0.1592364907, 0.0173884332, 0.0220803022, 0.0412791371, -0.0054101101, -0.0394432805, -0.0924423933, 0.0002347880, 0.0403612591, 0.0710734352, -0.0051275315, 0.0936479196, -0.0141448537, -0.0937033743, -0.0543185808, 0.0069878469, 0.0972530469, -0.0600866154, -0.0111088371, 0.0537849329, -0.0533334874, -0.0267988387, 0.0677662939, -0.0412998721, 0.0137496162, 0.0331093855, -0.0014063648, -0.0136783868, -0.1102866903, -0.0034458591, 0.0302637834, -0.0082441838, 0.0552466623, 0.0205089729, 0.0354589336, -0.0197882019, -0.0673363581, 0.0006591149, -0.0760862455, 0.1173088104, 0.0330202840, 0.0869786963, 0.0650476143, -0.0717129484, -0.0230667964, 0.0227725822, 0.0283454321, -0.0636120439, 0.0934335515, -0.0200549848, -0.0083675124, -0.1007947549, -0.0559131838, -0.0053045652, 0.0324083008, 0.0339564644, -0.0069921128, -0.0126965484, -0.0291424748, 0.1270334125, -0.0501578078, 0.0180464126, -0.0645210743, -0.0121884663, 0.0381987393, -0.0792562291, -0.0529449098, -0.0224025529, 0.0006432370, -0.0307369921, -0.0035246748, 0.0945061818, 0.0316627584, 0.0000367134, -0.0892634764, -0.0430015177, -0.0533282124, -0.0472747833, 0.0926569626, 0.0561953187, 0.0299721807, 0.0033156127, 0.1037651822, 0.0028425178, -0.0954067558, -0.0856333897, 0.0285491031, -0.0891320184, 0.0237270184, -0.0743908063, -0.0331279077, -0.0187011603, 0.1147151813, -0.0076965396, -0.0559561551, 0.0317915790, 0.0141269797, 0.0287730731, 0.0060461848, 0.0574086271, 0.0332428291, -0.0290323067, 0.0835530609, -0.0793757066, 0.0109477965, -0.0643520057, 0.0310036950, 0.0832836106, 0.0165783539, 0.0072169751, 0.0428977236, -0.0438587032, -0.0926216841, 0.0006370792, 0.0447844230, 0.1222711951, -0.0725016743, 0.1451786011, 0.0400545523, -0.0367112197, -0.0161928739, 0.0141410269, -0.0090605691, -0.0156166237, -0.0623876713, -0.0115353214, 0.0619911551, -0.0086646425, -0.0018576154, 0.0282701962, -0.0345349014, -0.0230064578, -0.0602268204, 0.0111133521, 0.0085984292, -0.0080879861, 0.0828477666, 0.0522336625, 0.0715390742, -0.0209568944, -0.0422024466, -0.0210095216, 0.0575032346, 0.1094303131, -0.0416201800, 0.0596556515, -0.1166556254, 0.0481187701, 0.0230633430, 0.0427284762, -0.0638072640, 0.0209690575, 0.0070770266, 0.0557843000, 0.0520410277, -0.0652452484, -0.0587590411, 0.0310145766, 0.1669323146, -0.0025934167, -0.0900914147, 0.1016907245, 0.0420357548, 0.0366170965, -0.1656092703, 0.0662134364, 0.0846458524, -0.0441869050, -0.0099819526, -0.0399368070, 0.0237728264, -0.0385868363, 0.0521149002, -0.0362868495, -0.0070182681, 0.0152213247, -0.0922336876, -0.0011447502, -0.0570830181, -0.1038051546, -0.1282882094, 0.0020352928, 0.0136637371, 0.0850613415, -0.0259256270, -0.0141313570, 0.0064108414, -0.0763608813, 0.0274724811, 0.0013476664, 0.0333738178, 0.0068954248, 0.0576259419, -0.0468327366, 0.0574857034, 0.0518466868, 0.0309743248, -0.0570615344, -0.0405568928, 0.0331570655, -0.0807204172, -0.0006658648, 0.0871468559, -0.0484458543, 0.0414147228, -0.0120554371, -0.0944728404, 0.0394197479, 0.1019275412, 0.0513555557, -0.0340378582, 0.0562031046, -0.0224505849, -0.0376951471, -0.0388006717, -0.0078916540, 0.1264533103, -0.0348427482, 0.0512585044, 0.0359168202, 0.0405963957, -0.1196810678, 0.0126355216, 0.0425532199, -0.0278449878, -0.0830266401, -0.0019988769, -0.0439960621, -0.0095359189, -0.0138315242, 0.0594055131, -0.0607777648, 0.0507459678, 0.0341634378, -0.0772338808, 0.0162125267, 0.0776562989, -0.1193682253, 0.0308803655, -0.0900444388, -0.0285888668, -0.0307563767, 0.0764411762, 0.0171018485, -0.0130561432, -0.0359065831, 0.0912900493, -0.0635019764, 0.0047949376, 0.0143944779, 0.0692536086, -0.0286528356, 0.0339070559, 0.0526197962, -0.1092593968, 0.0230257437, -0.0193341114, 0.0274765324, -0.0003364136, 0.1025218219, 0.0965428352, 0.0447739996, -0.0349788368, 0.0472329780, -0.0691426918, -0.0195805728, 0.0643692613, -0.1202993244, -0.0159250516, -0.0377715677, 0.0695186779, 0.0482711159, 0.0113659613, -0.0984162465, 0.0213623494, -0.0040923492, 0.0595270246, -0.0243654121, 0.0155297248, -0.0439301170, 0.1195399538, 0.0309455022, -0.0071566869, -0.0373151489, 0.0315986127, 0.0270362888, 0.0831370950, -0.0408670716, 0.0946022868, -0.0382502489, -0.0311095994, -0.1248914897, -0.0176105890, -0.0477594472, -0.0274946447, 0.1596280634, 0.0405701064, -0.0132084107, -0.0604938529, -0.0490882620, -0.1084515229, 0.0378269218, 0.0737183616, 0.0970611796, 0.0100753587, 0.0659875497, -0.0455566794, 0.0742922500, 0.0676687732, 0.0479786694, -0.0700103641, -0.0071850857, 0.0720065981, -0.0182011779, -0.1471012384, -0.0073537719, -0.0022873352, 0.0267214105, 0.0498824865, 0.0505936779, 0.0809026584, 0.0095882136, 0.0135576203, -0.0062489570, -0.0200603977, -0.0749871060, 0.0394152179, -0.0113002462, 0.0136850746, 0.0032876288, -0.0324454233, -0.1660565734, 0.0528327413, -0.0312549621, 0.0063703363, 0.0607009344, -0.0076587265, -0.0443572365, 0.0562459156, -0.0177796073, -0.0367464013, 0.0175690986, -0.0088221757, -0.0112454128, 0.0877812430, 0.0189077556, 0.0258205906, 0.0161177665, 0.1071861684, 0.1649873704, 0.0552849099, 0.0756001770, 0.0318132378, 0.0514565632, -0.0392597578, -0.1329336017, 0.0681296065, -0.0366313569, 0.0392145291, -0.0907612294, -0.0269020125, -0.0789629743, -0.0132279256, 0.0311091673, -0.0630072802, 0.0027306920, 0.0435001366, 0.0963105336, 0.0353888422, 0.0119244922, -0.0582753494, 0.0264486782, -0.0439931117, -0.0920226872, -0.0591814108, -0.0252649020, -0.1089627668, -0.0506075583, -0.0189718977, 0.1699029356, -0.0442391261, -0.0180758685, -0.0472783186, -0.0265207887, -0.0508679524, 0.1007927656, -0.0198962353, 0.0192327127, -0.0700846836, -0.0435176194, 0.0230245702, 0.0197714549, -0.0386790372, 0.0673184693, 0.0941345245, 0.0652531683, -0.1077528968, 0.0165274031, -0.0138581684, 0.0291836653, -0.0326399095, 0.0089925751, -0.0098407036, 0.0327438414, 0.0632868260, 0.0881947353, 0.0597945899, -0.0651277304, -0.0427265391, 0.0542243458, 0.0510190390, -0.0922743306, -0.0859956220, -0.0193634424, -0.0580195598, 0.1070558131, 0.1002668366, -0.0389273353, -0.0105290031, 0.0094914194, -0.0434888341, -0.0346336216, 0.0095820334, -0.1094633639, 0.0405435897, -0.0033810497, 0.0041086916, -0.0001998131, 0.0070316391, -0.0484043509, 0.0280488301, 0.0285366606, 0.0654916540, 0.0547851399, 0.0651953369, -0.0398967490, -0.0561480038, 0.1339444667, -0.0187654216, -0.0372781791, 0.1015109196, -0.0462265834, -0.0184520520, -0.0275604744, 0.0767312348, -0.0177014545, -0.0211372338, 0.0299363192, -0.0460238494, 0.0379336812, -0.0790030882, -0.0320574343, -0.0640757754, -0.1049911976, -0.0317745693, -0.0640852153, 0.0760371014, 0.0097072320, 0.0716844499, 0.0201872699, 0.0031002408, 0.0660436451, -0.0210608784, 0.0301626120, 0.1020433530, -0.0168085676, 0.0006084446, 0.0550797172, 0.0429837927, -0.0171932597, -0.0217857230, -0.0296350494, -0.0048282952, -0.0347343162, 0.0611897446, 0.0443456657, -0.0142883314, 0.0599404760, 0.0747961178, 0.0259929039, 0.0475835428, 0.0398892500, 0.0154546341, -0.0270895921, 0.0238431934, 0.0706202611, -0.0214863867, 0.0501579195, 0.0075623505, -0.1341785640, -0.0561742336, 0.0574846156, 0.0745340288, -0.0157774668, -0.0207517259, 0.0067739645, 0.0453256071, -0.0164787862, -0.1339532882, 0.0161050167, -0.0319606252, 0.0106562898, 0.0099677285, -0.0226411335, 0.0152836787, 0.0666429028, -0.0605189130, -0.0142220855, -0.0926211625, 0.0046738037, 0.0138790431, 0.1241906509, 0.1087789610, 0.0524221398, -0.0530334041, -0.0353513025, -0.0254716296, -0.0857838839, 0.0097185951, 0.0167883933, -0.1259856224, -0.0219455957, 0.0201097764, 0.0132072084, 0.0051510641, -0.0048664436, -0.0098819518, 0.0439531133, 0.0924947411, 0.0552379526, -0.0973121077, 0.0659360513, 0.0085474281, -0.0892449543, -0.0030135971, 0.0341514349, -0.0512288548, -0.0202119630, -0.0844286680, 0.1121257395, -0.0230505466, -0.0621812269, -0.0071361740, 0.1082681268, 0.0241489708, 0.0711625293, 0.0918200314, 0.1060305238, 0.0390617587, -0.0549603514, -0.0277173128, -0.0853004754, -0.0924298316, 0.0480401590, 0.0985639840, 0.0055303150, -0.0069185384, -0.0108210025, 0.1398759484, 0.0454867892, 0.0225669108, -0.0192937758, 0.0434463844, -0.0462351106, 0.0123728160, -0.0303879995, -0.0028392123, 0.0352704078, -0.1380270571, 0.0567544997, -0.0037726630, -0.0511035137, 0.1022216678, 0.0292427354, -0.0871960223, 0.0547261648, 0.0217295643, -0.0988233313, -0.1120032668, -0.0711996332, 0.0267369114, 0.0546674728, 0.0279353168, -0.0225950144, 0.0320922770, 0.0934697390, -0.0368868522, 0.0962895006, -0.0358192548, -0.0661994740, 0.0885408074, 0.0141897835, -0.0183134377, -0.0490770340, 0.0078362226, 0.1065620333, -0.0513034053, -0.0435688682, 0.0707585216, -0.1103621647, -0.0393596441, 0.0628492832, -0.0440213941, 0.0911208764, -0.0008011758, 0.0475116931, 0.0006127799, 0.0546337627, -0.0322325081, 0.0081736874, 0.0272074919, 0.0484787971, 0.1087197140, -0.0782125741, -0.0104334857, -0.0457649417, -0.0131087108, 0.0968009531, -0.0627276897, -0.0035141080, 0.0376086906, 0.0835439041, 0.0677333698, -0.0096885525, 0.0078432746, -0.0014056648, 0.0626370162, -0.0141395060, -0.1161945313, -0.0094741536, -0.0786867142, -0.0568747520, -0.0623898506, 0.0055666897, -0.0955488086, 0.0058384389, -0.0727035329, -0.0037878675, -0.0367147028, -0.1050678045, 0.0529903695, 0.0116763730, -0.0279439520, -0.0470014885, 0.0163529050, -0.1456562281, -0.0566315278, 0.0673654377, 0.0425350778, -0.0577660240, -0.0833577961, -0.0293091405, 0.0669099167, -0.0355083756, 0.0721722320, -0.0308715682, -0.0747431591, -0.0026592021, -0.0697401464, -0.0941535011, -0.0788402930, 0.0153765157, 0.0103268772, -0.0543618128, -0.0198121369, -0.0345110931, -0.0376261175, 0.0108694667, -0.1233783737, 0.0276687667, -0.0309163760, -0.0032888320, -0.0438881889, -0.1162505597, 0.0507234186, 0.0625454187, 0.0461723953, -0.0101006059, -0.0104857506, 0.1069393083, 0.0026887993, 0.0395621546, -0.0910016671, 0.0526599213, 0.0000929870, -0.0272786226, -0.0318914317, -0.0835401565, 0.0337001719, 0.0158743709, 0.0017479543, 0.0234092325, 0.0191833116, 0.0260095745, 0.0817636997, -0.0077332729, 0.0611989051, -0.0235666260, -0.0559967384, 0.1414771229, 0.0422324017, -0.0120212017, -0.0324846432, 0.1216945499, 0.0079349568, -0.0490054153, -0.0123055540, 0.0077644712, 0.0464490689, -0.0491201058, -0.0307236779, 0.0870624557, 0.0730265677, 0.0455689281, 0.1251246184, 0.0912926123, -0.0047459695, -0.0587868355, -0.0414955243, -0.0048724832, -0.0541766398, 0.0840336531, 0.0123030310, 0.0005107768, 0.0080306651, -0.0882934257, 0.0448503941, 0.0418649428, 0.0012963044, 0.0512338690, -0.0116375349, -0.1177031174, 0.0461589061, 0.0026144767, 0.0193353519, -0.0512169935, -0.0878245458, 0.0120339030, -0.0064492282, 0.0239281747, 0.0073787752, 0.0126781762, 0.1039575934, -0.0349045470, 0.0704131126, 0.0479964241, 0.0638174415, 0.0799403042, 0.0729110464, 0.0352145396, 0.0584708564, -0.0859138593, 0.0136611089, -0.0732898563, 0.0519899204, -0.0223696828, 0.0222706255, -0.0101470500, -0.1122891009, -0.0490905121, 0.0276838392, 0.0076441225, 0.1053347513, 0.0324406363, -0.1311174482, -0.0021243009, -0.0534929745, -0.0967262983, -0.0408419818, 0.0226279777, 0.0223717690, 0.1083156541, 0.0804622248, 0.0100356238, -0.0678820387, -0.0467100143, -0.0590555109, 0.0560809486, -0.0575289242, 0.0078464048, 0.0565700196, 0.0742370039, 0.0684079975, -0.0954478160, -0.0205301959, 0.0214659758, 0.0445783585, 0.0324619561, -0.0008357677, -0.0070049120, 0.0125646647, -0.0982310772, 0.1282553226, 0.1765705943, -0.0656650215, 0.1158829704, 0.0949217901, 0.0154861016, -0.0938089564, 0.0371539816, 0.0313420333, -0.0512888022, -0.1022568643, -0.1733278781, -0.1675987244, 0.0497098304, 0.0816942975, -0.0644627586, -0.0055431109, 0.0202597827, 0.0274885334, 0.0901535004, -0.0251864735, -0.0057085338, -0.0070931222, 0.0294074398, -0.0435202792, -0.0508139022, 0.0821267366, -0.0024253912, -0.0506887399, 0.0821620673, -0.0174166001, -0.0374265052, -0.0399092920, 0.0720350891, 0.0578530729, 0.0601262413, -0.0553733483, 0.0296883844, 0.0257868804, -0.0670589581, 0.0595584549, 0.0428130850, 0.0398505330, -0.0114648594, -0.0116112009, -0.0017985998, 0.0509379841, 0.0089759165, 0.0386943072, -0.0402826779, 0.0895178542, 0.1085204780, 0.0134288976, -0.0129706245, -0.0403865688, 0.0750038922, 0.1526665390, -0.0292392056, -0.0482134856, -0.0450141989, -0.0248110313, -0.0600552708, -0.0365033187, 0.1696158797, -0.0294497460, 0.0097716758, -0.0873050541, 0.0240057986, -0.0273961741, 0.0233079027, 0.0128111411, 0.0667040348, 0.0028172119, 0.0302835498, -0.0671291128, 0.0387947448, -0.0449167415, -0.0364879780, -0.1038707867, 0.0105221299, -0.0023243641, -0.0363336504, -0.0337162167, -0.0611902066, -0.0240623951, -0.0273051634, -0.0508500710, -0.0445183925, -0.1050199345, 0.0761461779, 0.0510267802, 0.0260305982, -0.0980948135, 0.0721111298, 0.0015989484, 0.0267918725, -0.0645563304, -0.0261635184, -0.0368802622, 0.0668751895, -0.0230825543, 0.0643193349, 0.0398969203, -0.0161305107, -0.0114781428, -0.0118725309, -0.0095535731, -0.0336012505, -0.0446939580, -0.0318544991, -0.0444529839, -0.0532104410, 0.0170280207, 0.0764095932, 0.0283691920, 0.0379275568, -0.0423731804, 0.0273600854, -0.0027543588, 0.0299017951, 0.0894103050, -0.0111257331, -0.0908756852, 0.0241969917, 0.0039600758, -0.0712234452, -0.0345414057, -0.0045403158, 0.0698273852, 0.1063605100, 0.0246518999, -0.1199921593, -0.0424167700, 0.0052928259, -0.0859165937, 0.0223720353, 0.1283787489, -0.0170686506, 0.0284297541, 0.1302380413, -0.0231733192, -0.0240173321, -0.0139365913, -0.0744160563, -0.0116941854, 0.0165885333, 0.0161534548, 0.0072420724, 0.0366705284, -0.0101246871, -0.0015026759, 0.0749346092, 0.0065921214, 0.0037630836, -0.0167911053, 0.0023046976, 0.1026005149, -0.0203545745, -0.0157821383, 0.0171145573, 0.0930097848, 0.0358600579, 0.1158834845, 0.0473864675, 0.0295328535, 0.0506493635, -0.0188504253, -0.0731451884, -0.0390715152, 0.0615853369, 0.0619342104, 0.0328569897, 0.0062825149, 0.0170831624, 0.0457246266, -0.0264910944, 0.0279274266, -0.0614671521, 0.0249150973, 0.0351813845, -0.0251466036, 0.0047550192, -0.0686788782, -0.1142992005, 0.0037580421, 0.0190226492, 0.0057714605, 0.0136823161, -0.0331889093, 0.0041060066, -0.0231555738, -0.0121515263, 0.0479668230, -0.0025485454, -0.0094424179, -0.0076584122, 0.1112184227, 0.0225251205, 0.0076839076, 0.0239028707, -0.1146879494, 0.0053879581, -0.0456501283, 0.0558834001, -0.0183868688, 0.0184292924, 0.0525323674, -0.0859488919, 0.0375246443, -0.0772576258, -0.0688513145, 0.0086952932, -0.0089327786, 0.0230025072, -0.0136135658, 0.0919384807, 0.0248483494, 0.1615535319, 0.0508360676, -0.1047314480, 0.0465130024, -0.0751392171, -0.0634041950, 0.0449149013, -0.0410348028, 0.1263446510, 0.0706718788, 0.0086057456, 0.0017379556, 0.1055468842, -0.0334071293, 0.0001653797, 0.0289362818, -0.0231533498, 0.0538046509, 0.0292051882, 0.1057504043, 0.0072640982, 0.1195914596, -0.0830030516, 0.0400454700, 0.0928363353, 0.1320976168, -0.0531563424, -0.0523290820, 0.0462841615, 0.0527382307, -0.0297722593, 0.0559726357, 0.0708620623, -0.0161230527, -0.0150997760, 0.0122837983, 0.0884053633, 0.0644823611, -0.0540894531, -0.0495139249, -0.0022918030, 0.0516095199, 0.0024255437, 0.0882212594, 0.0913448781, 0.0507555827, -0.1061964557, -0.0218813978, -0.0289256740, -0.0206110943, -0.0687960982, 0.0531140752, 0.0748777911, -0.0359224528, 0.0408361629, -0.0275129694, 0.0050984835, 0.0711580962, 0.0762621984, -0.0737905279, -0.0784418285, -0.0853694752, -0.0352231860, -0.0865134150, 0.0150200743, 0.0691356137, -0.0413399190, 0.0565526225, 0.0477999859, 0.0857088342, -0.0036454718, -0.0005476834, -0.0570771359, -0.0211468749, 0.0300216954, 0.0623242781, -0.0727374703, 0.1479334533, 0.0004213819, 0.0113177896, -0.0506651923, 0.0952463970, 0.0063597485, 0.0487328880, -0.0278783645, -0.0232095141, -0.0675718337, -0.0512310192, -0.1470607072, 0.0006120658, -0.0030496363, -0.0338548385, -0.0535975508, 0.0397373401, -0.0208891258, -0.1036285982, -0.0037477459, 0.0055102655, -0.0494456291, -0.0029339280, 0.0600663722, -0.1177107319, -0.0466322862, 0.0177751575, -0.0023969978, -0.0280470587, -0.0259614270, -0.0031008893, -0.0276057906, -0.0653804839, 0.0252167489, -0.1097517833, 0.0205202457, 0.0313082039, -0.0987964645, -0.0976415426, 0.0298323724, 0.0718168989, -0.0353207067, -0.0276308805, 0.1160268486, 0.0173425917, 0.0355115794, -0.0113159698, -0.0185242873, 0.0465671904, -0.0939631388, -0.0087873898, 0.0494443476, -0.0522872321, 0.0005883165, 0.0419986434, 0.0078881839, -0.0220513009, -0.0083713140, -0.0475133695, 0.0244524963, -0.0563027598, -0.0116150668, 0.0168266352, 0.0870031789, -0.0612613149, -0.0946997553, -0.0607251860, 0.0865259841, -0.0388059057, -0.0119689265, 0.0257137585, -0.0014366460, -0.0415042229, -0.0355133079, -0.0188524313, 0.0222510509, -0.0032740235, -0.0128707094, -0.0504270419, -0.0546081811, -0.0387699865, -0.0299704652, -0.0570907705, -0.0549102463, -0.0857677013, 0.0363727994, -0.0310288630, -0.0998969004, -0.0427353382, -0.0100104818, 0.0662026480, -0.0912641138, 0.0081048533, -0.0335386321, -0.0843653083, 0.1031623110, 0.0116846329, 0.0597786345, -0.0434194915, -0.0398314223, -0.0528335907, 0.0301250052, 0.0723796263, -0.0650424212, -0.0106304027, 0.0171585754, 0.0302114654, 0.0079527292, -0.0548527539, 0.0102928337, -0.0065444810, -0.0759727880, 0.0044593192, -0.0657329559, 0.0376131684, 0.0949064419, -0.0585271344, -0.0287177358, -0.0487187319, -0.0881741345, -0.0914337039, -0.0069514411, 0.0453330465, -0.0213251207, 0.0098267160, 0.0370578021, -0.0958225578, 0.0904719979, 0.0718820915, 0.0501959994, -0.0927145928, 0.0198602974, -0.0861474797, -0.0413701534, -0.0144381532, -0.0742009729, 0.0117499838, -0.0436597057, -0.1021871194, -0.0438571051, -0.1141732410, -0.0021982132, 0.1302946806, 0.0910974443, 0.0806386471, 0.0727252886, -0.0012564657, -0.0106591322, 0.0813004971, 0.0398253724, 0.1239306256, 0.0871489123, -0.0457520075, -0.0942492262, -0.0747413933, -0.1161585152, -0.0384402499, 0.0184364207, -0.1051241085, -0.0308704060, -0.0518686697, 0.0120118065, -0.0461151823, 0.0013604545, -0.0044952519, -0.0370975733, -0.0008748587, 0.0148073612, 0.0141434707, -0.0113942698, 0.0575963706, 0.0691563711, 0.0453852452, 0.0498965904, 0.0201465581, -0.0379842184, -0.0378075950, 0.0751244947, 0.0024565624, 0.0473092236, -0.0613704883, -0.0215041842, -0.0065595424, 0.0763982162, 0.0628888756, 0.0088253245, -0.0709158629, -0.0222668760, -0.0970148370, 0.0216152892, -0.0477877259, -0.0070507638, 0.0055014784, -0.0100441547, 0.0052049733, 0.0449571833, -0.0762329474, -0.1171042025, -0.0136677939, -0.0670926869, -0.0627769083, -0.0312974639, 0.0276433472, -0.0096128331, 0.0374688953, 0.0064514312, -0.0703006759, 0.0534678958, -0.1148052290, 0.0154637843, -0.0984076411, -0.0573845729, 0.0359002650, -0.0426579788, 0.0326436125, 0.0789038613, -0.0254432335, 0.0148042412, 0.0077121486, 0.1040791571, 0.0669001192, 0.0164417345, 0.0421037450, 0.0149337174, 0.1276507676, 0.0644027814, -0.0389366709, -0.0487518683, 0.0593806356, 0.0683291182, -0.0798130780, -0.0211575013, -0.0153705776, -0.0563000180, -0.0195921659, -0.0638426468, -0.0115480796, -0.0777134225, 0.0105679492, -0.0255078822, -0.1074116379, 0.0114033464, 0.0227596201, 0.0799832791, 0.0352654420, 0.0030275327, 0.0439291373, 0.0775155351, 0.0282869935, 0.0440661125, 0.0670234412, 0.0101596387, 0.0764166266, 0.0378575362, 0.0539882481, 0.0820216835, -0.0899236053, 0.0259380806, 0.0045439452, -0.0100447582, 0.0282491799, 0.0380352437, 0.0100422651, 0.0062121265, 0.0059483428, -0.0496796481, -0.0988412648, -0.0142133413, -0.0964578241, -0.0467632972, -0.1251113713, -0.1189428791, -0.0010771267, -0.1496888995, -0.0752182752, -0.0679019615, 0.0208727475, -0.0444074832, 0.0045501660, 0.0440067165, 0.0233134311, -0.0822826698, -0.0766855329, 0.0478573553, 0.0347942226, 0.0049874806, -0.0240219291, 0.0161843058, 0.0130811222, -0.0401610844, -0.0784689113, 0.0612218417, 0.0790513009, 0.0290901475, -0.0736761391, 0.0586837046, 0.0523448177, 0.0242129453, -0.0820879787, -0.0256989747, -0.0083451727, -0.0343961865, -0.0212171115, -0.0335085988, 0.0091766566, -0.0675466955, -0.0502076596, -0.0275798086, -0.1045083553, 0.0694092289, 0.0319096260, -0.0354601257, -0.0500713736, -0.0026355323, -0.0797808468, -0.0227973219, -0.0270636939, -0.0099396724, 0.0955823511, 0.1372340769, 0.1055098251, -0.0478454120, 0.0005630381, 0.0120159769, -0.0121680079, -0.0065654996, -0.0950877890, 0.0402831733, 0.0497521088, -0.1123057157, 0.0632933527, -0.0008961008, 0.1178246513, -0.0486490726, 0.0804719925, 0.0852905586, -0.0028587671, 0.0255411528, -0.0142779304, 0.0016198449, 0.0370136388, -0.0397464223, 0.1661309898, 0.0169558059, -0.0302190874, 0.0601943508, -0.0340231955, -0.0080969157, 0.0119390571, -0.0216522813, -0.0578293428, 0.0021348645, -0.0403454937, -0.0502650738, -0.0210794117, -0.0033248060, 0.0260030963, 0.0384444557, 0.0217862818, 0.0279477872, -0.0150226764, -0.0274344552, -0.0100486586, 0.0225413647, -0.0217475221, 0.0641865060, -0.1031004936, -0.0073512904, -0.0265436936, 0.0802018121, -0.0634488463, -0.0692505911, -0.0398828126, -0.0745854154, -0.0109302597, -0.0303429402, -0.0711689442, 0.0279870369, -0.0674468800, -0.1121447086, -0.0641369075, 0.0085907020, 0.1586285681, -0.1017473862, 0.0024806194, -0.0443528369, 0.0433476008, -0.0189696979, -0.0266702157, -0.0627674162, -0.0547089167, 0.0519099571, 0.1579934210, -0.0351524204, -0.0520940498, -0.0548584796, 0.0011969690, 0.1196724102, -0.0225656275, -0.0617842376, -0.0593665764, -0.0424097814, -0.0109464983, 0.0340492763, 0.0295170192, 0.0016331815, 0.0497000627, 0.0200038217, 0.0131104337, -0.0153567744, -0.0929659680, -0.0945846215, -0.0088276081, -0.0069786622, -0.0010573647, -0.0430124402, -0.0317090675, 0.0287917312, -0.0565768145, 0.0108166533, 0.0801169351, -0.0357460156, 0.0516406484, -0.0732291266, 0.0402258597, -0.0747570246, 0.0798210874, -0.0306996368, 0.0481150858, 0.0903115571, -0.0206882898, 0.0576428920, -0.0628332496, 0.0203727800, -0.0302432757, 0.0367122777, 0.0100556994, -0.0036656153, -0.0514044911, -0.0215279739, -0.1199188530, -0.0954151899, 0.1023611650, -0.0234074108, -0.0067504649, -0.1673139036, -0.0270824935, -0.0261074621, 0.0491949022, -0.0898087248, -0.0766812339, -0.0291111469, -0.1162899509, -0.0697643459, 0.0168508887, 0.0919270664, -0.0155179398, -0.0298542082, -0.1087524742, -0.0332176685, 0.0478385650, 0.0376035273, -0.0264593847, -0.0253118407, 0.0888802186, 0.0583223924, -0.0093003232, 0.0700334832, -0.1207030565, -0.0514903665, -0.0406826958, 0.1121086255, 0.0650248006, 0.0734636933, 0.0205214135, 0.0989195183, -0.0346460901, -0.0157030094, 0.0375200287, 0.0267189126, -0.0005029239, 0.0805881843, -0.0731960386, 0.0737862289, -0.0405787677, 0.0741792098, 0.0154392151, -0.0739612728, -0.1158628836, -0.0245740265, -0.0294044465, 0.0458237268, -0.0120143006, 0.0683424771, -0.0098282043, 0.0235544946, 0.0757835805, -0.0516970381, 0.0350372456, -0.0272654481, -0.0133323353, 0.0750950724, 0.0080908500, -0.1894972622, 0.0152198048, 0.0151907150, 0.0741617233, 0.0263864063, 0.0317920260, 0.0736928433, 0.0752422884, 0.0012044463, 0.0122192297, 0.0519233681, 0.0890241340, 0.0837524533, 0.0190827139, -0.0605474114, 0.0254224893, 0.0081349621, 0.0607076101, -0.0463038906, -0.0389061198, 0.0491159782, -0.0514014289, 0.0911493897, 0.0110859536, 0.1013677195, 0.0271253083, -0.0005040690, 0.0142161977, 0.0441588014, -0.0708881617, -0.1316790134, 0.0968483686, 0.0031472794, 0.0103662619, 0.0481515154, 0.0403299332, -0.0823815838, -0.1132420972, -0.0418105498, -0.0048473021, 0.0059023737, 0.0337157212, 0.0244236402, 0.0599675253, -0.0017284420, -0.0419399478, -0.0036294891, 0.0650174320, 0.0718375891, -0.0252149608, -0.0178814698, -0.0769686028, -0.0385706984, 0.1437668949, -0.0045713554, 0.0199210625, 0.0175503641, -0.0184645038, -0.0237277094, -0.0374697819, -0.0292582102, -0.0894765332, 0.0105385594, -0.0170503221, 0.0306669828, 0.0606151931, -0.0339618474, 0.0321106873, 0.0360782892, 0.0171286687, 0.1459823847, -0.0975689292, -0.0256548300, -0.0458087325, 0.0172481667, 0.0589050427, -0.0187086836, 0.0308566950, -0.0244277548, 0.1122532189, -0.0000828943, -0.0404104777, 0.0481207818, -0.0321635753, 0.1018952057, -0.0400922075, 0.0239336472, -0.0791453719, 0.0707103983, -0.0950442404, 0.0318859518, -0.1366746724, 0.0425008535, 0.0207976960, 0.0432047546, -0.0070170532, -0.0410299525, 0.0004049818, -0.0219547302, -0.0197799485, -0.0680404827, -0.0066002435, 0.0298992917, -0.0454033986, -0.0097666960, 0.0548289716, 0.0291202907, -0.0381835885, -0.0104864668, 0.0466853231, 0.0351609774, 0.0506371148, -0.0111627281, 0.0016031615, 0.0631401911, -0.0309048463, -0.0317995176, -0.0101777976, 0.0015611218, 0.0438365676, 0.0629376024, -0.0629802868, -0.0519039817, 0.0053457976, -0.1391700655, -0.0214350317, -0.1269868314, -0.0780789107, -0.0374252200, 0.1011519581, -0.0676094890, 0.0336793512, 0.0253035557, -0.1309561580, 0.0382515080, 0.0244750250, -0.0765114576, -0.0106775388, 0.0535835400, 0.0679191798, 0.0451388396, -0.0760045797, 0.0900643021, 0.0939864889, 0.0291442592, -0.0488967821, 0.0756198615, -0.0921041667, -0.0075477194, -0.1480938792, 0.0229258593, 0.0412386619, 0.0496270880, -0.1242466643, 0.0633658096, 0.0076971888, -0.0181882065, -0.0693060905, -0.0329458192, 0.0862144008, -0.0561869703, 0.0778769627, -0.0202364158, -0.0027115243, -0.0083024129, 0.0602178536, 0.0045900652, 0.1175938919, 0.0095959073, -0.0017595220, -0.0422091112, 0.0347708948, 0.0137881255, 0.0183312893, -0.0407107696, 0.0568946004, -0.0292183682, -0.0701259822, 0.0457840487, -0.0451088101, -0.1059629619, 0.0633443594, -0.0131670758, -0.0427951403, -0.0612418614, 0.0753280744, -0.0068647894, 0.0325554386, -0.0142499553, 0.1529229879, 0.0122472597, -0.0263304617, 0.0039091916, 0.0433824472, 0.0350458212, -0.0477677658, 0.0731700659, -0.0340851881, 0.0668519884, -0.0801743418, -0.0537545532, -0.0059185717, -0.0136863003, -0.0057019428, 0.0095246965, -0.0216435269, 0.0063785105, 0.0858205780, -0.0302979648, -0.0183902420, -0.0553077050, 0.0101775341, -0.0643569231, 0.0737016425, -0.0036696480, 0.1131061465, 0.0434472412, -0.0370679721, -0.0289741978, -0.0263698101, 0.0113411024, -0.0452837087, -0.0162525978, 0.0369441956, 0.0646065027, -0.0268445201, 0.0061793020, 0.0732480735, -0.0275843292, 0.0448324196, -0.0340479687, -0.0152569637, -0.0050379136, -0.0218084548, 0.0350317508, 0.0726447627, -0.0363526084, 0.0163993537, 0.0953061208, 0.0291669648, 0.0235884655, 0.0654087588, -0.0475149862, 0.0108120441, -0.0035130375, 0.0343148448, 0.0061465125, -0.0313338786, -0.0895313472, 0.0493610092, -0.0931077003, 0.0774308518, 0.0062045571, -0.0353703797, -0.0027215143, 0.0497067906, -0.0455460213, -0.0080481581, 0.0356685966, 0.0136926938, 0.0327923633, 0.0524053834, 0.1219004616, -0.0101754386, -0.0504925773, -0.0226366688, 0.0049617025, -0.0146342171, 0.0124412226, 0.1205746979, -0.0852233320, 0.0377556719, 0.1081962883, 0.0058612372, 0.0337866358, 0.0045263343, -0.0746207461, -0.0646671206, 0.0581614412, -0.0051259310, -0.0279574953, 0.0469171330, 0.0421849005, 0.0020151695, -0.0443087891, -0.0240968894, -0.0459825397, 0.0282482933, 0.0155778388, 0.0122299930, 0.0658014864, 0.0516289398, 0.1348747909, -0.0304842927, -0.0809406936, 0.1209406480, 0.0256734435, -0.0399209894, 0.0351424217, -0.0576005392, -0.0742302164, -0.0118166562, 0.0462515280, -0.0129043972, -0.0856634527, -0.0059048743, -0.0397698693, -0.0827446580, -0.0472044498, 0.0409822240, 0.0108527262, 0.0286824815, -0.0186918136, -0.0253477078, -0.0750562996, -0.0306296926, -0.0488163233, 0.0701548830, 0.0987096280, -0.0596391298, -0.0867965296, -0.0571685284, -0.0434009023, -0.0265868697, -0.0363115557, -0.0712307394, 0.0373760350, -0.0385896601, -0.0070085260, 0.0236437488, 0.1492194384, -0.0634932667, -0.0547202826, 0.0685204417, -0.0369880125, -0.0696223453, -0.0274875853, 0.0007562070, -0.1180642843, -0.0518865883, 0.0605964027, -0.0151705798, 0.0804195330, -0.0477536917, -0.0660683513, -0.0798195973, 0.0654199645, -0.0155678671, 0.0543890744, -0.1044055149, 0.0238755029, -0.0376812927, -0.1415749639, 0.0528051890, 0.0322848223, -0.0338448398, 0.0145974346, 0.0449996404, -0.1000775099, 0.0466944762, 0.0509820245, -0.0618188642, -0.0544451587, -0.0443271659, -0.0610369444, 0.0413480103, -0.0744068474, 0.0150363864, -0.0535065494, -0.0027127895, -0.0556703508, 0.0366435833, -0.0763994455, 0.0221733805, 0.0702489391, 0.0433185101, -0.0392983295, 0.0120868189, -0.0076625207, -0.0550691187, 0.1256176531, 0.0206060708, 0.0607710555, 0.0174163561, -0.1053553522, -0.0581041165, -0.1290574670, 0.0335454829, -0.1259535998, 0.0103170052, 0.1510369182, -0.0447865799, 0.0354887098, 0.0409273356, 0.0037995256, 0.0391153470, -0.0430723540, -0.0128174610, -0.0607088432, -0.0186950900, 0.0248140339, -0.0079191476, -0.0124486247, 0.0275542159, 0.0292863194, -0.0337805972, 0.0775687173, -0.1118340492, -0.0142632369, 0.0672461018, -0.0650402233, 0.0857321769, 0.0446705669, -0.0324016623, 0.0098434892, 0.0266775768, -0.1022373885, 0.0765063316, -0.0155575080, -0.0210023541, -0.0079671452, 0.0182907898, -0.0633625165, -0.1095619500, 0.0147942780, 0.0497325473, -0.0404288322, -0.0912429094, -0.0046212347, -0.0743946135, -0.0006263609, 0.0090039428, -0.0941213369, 0.1156705469, 0.1210241169, -0.0753526166, -0.1023162976, 0.0020337382, 0.0492891520, 0.0114990911, -0.0757582039, -0.1161500588, 0.0629345179, -0.0095796734, 0.0413614996, -0.1006919444, -0.1075621247, 0.1090997234, 0.0576050133, 0.0614638813, 0.0591727272, 0.0298536941, -0.0858861208, -0.0268532503, -0.0155788250, 0.0596178956, -0.0756342858, 0.0054999343, 0.0905092731, -0.0426113792, 0.0775595084, 0.0843073577, 0.0791909993, 0.0067552328, -0.0279548094, 0.0438781418, -0.0180463661, 0.1049903110, -0.0008907467, -0.0198369250, -0.0525122099, 0.0993080139, 0.1049950644, 0.0388361029, 0.0018274210, 0.0255966205, -0.0008028194, 0.0945958495, 0.0289921556, -0.0415036492, 0.1016214713, -0.0168025475, -0.0107959108, 0.1094440222, 0.0805660933, -0.0919131637, 0.0153446803, -0.0778178275, -0.0859575272, -0.0373773761, -0.0488330796, -0.0759099275, 0.0218603928, 0.1193307489, -0.0337837785, -0.0476264469, -0.1044164076, 0.0828288794, -0.0021228488, 0.0319335498, -0.0149148889, 0.0573512241, -0.0069278842, 0.0002324504, -0.0183762293, -0.0004577023, -0.0258754697, -0.1133292243, -0.0305628609, 0.0390590690, -0.0517493039, -0.0133318361, 0.0382337570, 0.0437796041, 0.0133328475, -0.0573857762, -0.0407867394, 0.0804956928, 0.0559502989, 0.0212395266, -0.0355489776, 0.1185408831, -0.0802199095, -0.1205537319, 0.1011249125, 0.0865491480, 0.0671544969, -0.0165086985, -0.0739706084, 0.0191956609, 0.0848973840, 0.0311264060, 0.0180262104, 0.0042100814, 0.0448662341, -0.0627084076, -0.0465256348, 0.0352100953, -0.0209473465, -0.0056881038, -0.0923006386, -0.0781760886, 0.0891797766, 0.1062861755, -0.0766057149, 0.0845944732, 0.0637614280, -0.0390575379, -0.0205493849, -0.0484684929, 0.0260888748, -0.0103404773, 0.0094861053, -0.0013889541, 0.0509194396, 0.0815965086, 0.0192787051, -0.0186948199, -0.0412762761, -0.0162673313, 0.0504744947, -0.0760813206, -0.0675341636, 0.0260497034, 0.0051493342, -0.0452306569, -0.0598923080, 0.0767298192, 0.0410928875, 0.1505236477, -0.0653353110, 0.0339954905, 0.0271686278, 0.1084888652, -0.0147868702, -0.0257975869, -0.1045473069, -0.0881615579, -0.0225766208, 0.0273441914, -0.0370729789, 0.0024323163, -0.0120601198, -0.0323343277, -0.0252514910, 0.0097648166, -0.0451540388, 0.0900052488, 0.1117299050, 0.0334995389, -0.0638795570, 0.0211539865, -0.0255082808, -0.0009319733, 0.0213434454, 0.0821302235, 0.0459974557, -0.0883023515, -0.0072866469, 0.0075714169, -0.0494700745, -0.0363022052, -0.0498235077, -0.1083427966, -0.0314518213, 0.0002388286, -0.0263481513, -0.0125399856, 0.0770639926, 0.0270065535, 0.0941566229, 0.0221985858, -0.0363248438, -0.0345573425, 0.0153262187, -0.0452308729, 0.0147088021, -0.0229207482, 0.0162977260, -0.0084871398, 0.0024637452, 0.1024713367, -0.0008041126, -0.0480072647, -0.0451031551, -0.0390866771, -0.0594015345, 0.0693299547, 0.0025461435, -0.0305638574, -0.0311356056, 0.0026965949, -0.0508633703, -0.1097589061, 0.0159248151, 0.0802339464, 0.0420834981, -0.0009383218, -0.1019188762, -0.0353967547, -0.0171130486, -0.0743175969, 0.0301524904, -0.0122744134, -0.0690907538, -0.0047761090, -0.0410910584, -0.1527224332, 0.0973485783, -0.0773866251, -0.0235434379, 0.0235136952, 0.0606991462, -0.0114754196, -0.0219251495, -0.0553120486, 0.0534844622, 0.0593076386, -0.0762433857, 0.0439393483, -0.0248381849, -0.0319884308, -0.0033324142, 0.0027624874, 0.0109444559, 0.0958065763, -0.0623837113, -0.1346687227, -0.1293802857, -0.0189005099, -0.0170250945, -0.0184451826, 0.0521494597, -0.1498564631, -0.0165500194, 0.0626173243, -0.0455679409, 0.0722751021, -0.0194278620, -0.0245119650, -0.0469074994, 0.0283683073, 0.0375484377, 0.0254840199, -0.0365665704, -0.0462296121, -0.0041599399, -0.1006605998, -0.0707432330, 0.1054096520, -0.0847318396, -0.0080836769, -0.0474882238, -0.0285057630, 0.0044065383, 0.0789764151, 0.1318323761, -0.0025950237, -0.0479309037, 0.0525980517, 0.0455145948, -0.1493210047, 0.0405316055, -0.0176618509, -0.1194116771, 0.0050957743, -0.0115131363, 0.1105259508, 0.0479792841, -0.0431502908, 0.0389684215, -0.0729527920, 0.0279295333, -0.0452957600, 0.0283431374, 0.0195271261, 0.0864724889, 0.0399569012, -0.0591373667, 0.0666071996, 0.1408389211, -0.0548295602, -0.0096139377, -0.0101492945, 0.1577331126, -0.0605956651, -0.0231851880, -0.0553074181, -0.0646655113, 0.0141636599, 0.0251835734, 0.0505943187, 0.0597673096, -0.0523129776, 0.0113524348, -0.0268872622, -0.0880134627, -0.0249606129, 0.0025305105, -0.0021431642, 0.0419404805, -0.0682134852, 0.0577219054, -0.0345823504, -0.1116112173, -0.1097262353, 0.0771270841, 0.0673162192, 0.0228398386, -0.0011467426, 0.1643986404, -0.0262133982, 0.0957991704, -0.1281393617, 0.0224805288, -0.0255551133, 0.0233368296, -0.0557389148, -0.0415944792, 0.0120065371, 0.0613510758, -0.0180152226, 0.0254898574, -0.0148351938, 0.0520207062, 0.0290540755, -0.0749163255, -0.0937808082, 0.0102007436, 0.0600995608, -0.0188092496, -0.0345224850, 0.0399651714, 0.0207433309, -0.0477491580, -0.0022746418, -0.0349456333, -0.0237523820, 0.0577381700, 0.0336007662, 0.0606507547, -0.0060230982, -0.0126612205, -0.1264426559, 0.0446955748, 0.0685342774, -0.0526063927, 0.0859902054, -0.0557258613, 0.0567973405, -0.0086177774, -0.0644529164, -0.0133759631, -0.0307661202, 0.0809687525, 0.1250136942, -0.0287670512, -0.0129109230, -0.0068904846, 0.0239113029, -0.0329908393, 0.0062987097, -0.0304460134, -0.0291231796, -0.0802190676, -0.0496073961, 0.0230874512, 0.0369779393, -0.0185833760, 0.0298511386, 0.0093981847, -0.1154483259, 0.0217120387, 0.0688648075, -0.0408333465, -0.0052330568, -0.0054575368, 0.0786768869, -0.1005524620, 0.0574351922, -0.0327845626, 0.0121378526, -0.1104432270, 0.0752737820, 0.0944632292, -0.0184895713, 0.0817102790, -0.0042275013, -0.1825384647, 0.0998654068, 0.0485614203, -0.0265195519, 0.0912100226, -0.0365059562, 0.0003427921, 0.0531437285, 0.0494123548, -0.0464217812, -0.0459294282, -0.0155817093, 0.0078859013, 0.0891982168, 0.0169074964, -0.0461113378, -0.0546441115, 0.0034808456, -0.0179759488, 0.0727955997, 0.1227171943, -0.0200483147, -0.0235135593, -0.0864165798, 0.0436372869, 0.0488176122, -0.0562365092, -0.1467290521, 0.0169262681, -0.0648220852, -0.0299775731, 0.0202209894, 0.0533790067, -0.0005214630, -0.0361061543, 0.0840852782, -0.0616763718, -0.0512445606, -0.0075652017, 0.0932513252, 0.0933825746, -0.0467902683, 0.1025398225, 0.0857424587, -0.0432264432, 0.0156070022, -0.0034232684, 0.0095185144, 0.0440837890, -0.0730799064, -0.0028887056, 0.0540820993, 0.0651843101, -0.0385902412, -0.0172512624, -0.0169344079, -0.0089959009, 0.0260141809, -0.0494686924, 0.0473656841, 0.0317649730, 0.1639226079, 0.0720188022, -0.0156152304, -0.0445813090, -0.0247098934, -0.0958679244, -0.0068250909, 0.0702291280, -0.0243055597, -0.0716289580, -0.1226622462, -0.0168547090, 0.1341989040, -0.0500047915, 0.0128480000, -0.0087829344, -0.0187118743, -0.0141404420, -0.0153927142, 0.0471381359, -0.0278350841, -0.0052641723, 0.0059467647, -0.0815059468, 0.0330610350, 0.0785150304, 0.1107828990, -0.0381125472, -0.0371273942, 0.0583370999, -0.0266577564, 0.0517062023, 0.0278714765, 0.0221912954, -0.0096602635, -0.0311740562, 0.0250137262, -0.0637130439, -0.0366266519, -0.0650690645, 0.0936926231, 0.1563059837, 0.0810532570, 0.0696531758, 0.0250320155, 0.0722987428, 0.1024826244, 0.1011494771, -0.0009361302, 0.0019334906, -0.0228835568, 0.0809522197, -0.0201812852, 0.0517888963, 0.0780409947, 0.0369870067, -0.0338518023, 0.0184752736, -0.0810279697, 0.1007490307, 0.0118973926, 0.0782981664, -0.0450268239, -0.0033722813, 0.0511041135, -0.1153030768, 0.0049078790, 0.0135418605, -0.0080113895, -0.0364525169, 0.0494337752, 0.0203108378, 0.0189212374, -0.0240712855, -0.0180615932, -0.0862580538, -0.0323784053, -0.0040618433, -0.0766306967, 0.0794074088, 0.0725584999, 0.0987977833, 0.0383665189, -0.0479075536, 0.0419015065, 0.0599467643, 0.0695799142, 0.0062660300, 0.0634594187, -0.0559071079, 0.0197098721, -0.0439851582, -0.0608348772, 0.1169234812, 0.0952990949, -0.0496180467, -0.0076221018, 0.0421196222, -0.0131493490, 0.0189305041, 0.0325695314, 0.0380322598, 0.0655208156, -0.0792072862, 0.0052144378, -0.0419248194, 0.0206780415, 0.0273330864, 0.0475165583, -0.1277109981, -0.0301206168, -0.0608899966, -0.0001010821, 0.0547706783, -0.0610518530, 0.0130820787, 0.0251953527, 0.0287501458, 0.0492425337, -0.0807692036, 0.0027543411, -0.0239987131, -0.0627291948, 0.0542093739, -0.1024580374, 0.0836135149, -0.0284963176, -0.0690376759, 0.0191745665, -0.1260420233, -0.1330780834, 0.0727477223, 0.0216951892, -0.0079192473, 0.0552198291, 0.0272952802, 0.0199135542, -0.0177828893, 0.0889051706, -0.0022558651, -0.0558564775, 0.0075352839, -0.0296969973, -0.0513602160, 0.0474001206, -0.0337868296, 0.0381406620, -0.0236022621, 0.0711964816, -0.0488894060, -0.0845079422, -0.0791380256, -0.0372653529, -0.0919657350, 0.1161568761, -0.0018562808, -0.0302808490, -0.0350863598, -0.0227576997, 0.0826420039, -0.0106421895, 0.0202827752, 0.0558355786, 0.0561461411, -0.0088676075, -0.0241715927, 0.0474895984, -0.0097118560, 0.0461498573, -0.0944018885, -0.0391776040, -0.0969774276, 0.0583707057, 0.0612235144, -0.0575372092, -0.0048812670, -0.0164954029, -0.0692189783, -0.1209204644, -0.0493585803, 0.0003287944, 0.0593922101, -0.0259142723, 0.0518168919, 0.0220958330, -0.0651872382, 0.0322264619, -0.0495973900, 0.0861774310, 0.0040901094, 0.0330695845, -0.0436935015, 0.0380849540, -0.0188896507, 0.0863436386, -0.1193060651, -0.0323522314, -0.0201047454, -0.0379939079, 0.0066040913, 0.0150727676, 0.0329249389, -0.0490044430, -0.0800385848, 0.0518185571, -0.0517274663, 0.0201695506, -0.0520495512, 0.0849962607, 0.0879951417, -0.0282269213, -0.0589793287, -0.0203326773, 0.0261078309, 0.0094419345, -0.0587247983, 0.0553008988, -0.0565340109, 0.0105745047, -0.0400006250, -0.0427365042, -0.1373141259, 0.0401972197, 0.1535937935, 0.0005571066, 0.0834589601, -0.0645992979, 0.0606568344, 0.0031840878, 0.0952340290, -0.0068242932, 0.0234141648, -0.0405519418, -0.0917161778, -0.0399381332, 0.0489723831, 0.0529752485, 0.0755302459, -0.0399140306, 0.1030736119, -0.0547115989, 0.0731087923, 0.0489876419, 0.1404600888, -0.0491833389, 0.0247680824, 0.1086727679, -0.0530553758, -0.0496771596, -0.0072022593, 0.0894520953, 0.0110395607, 0.0472585633, 0.0020301037, -0.1358503699, -0.0149853192, 0.0976011604, -0.0265561901, 0.0701061413, -0.0057192477, -0.0203568693, -0.0832651556, 0.0510003977, 0.0782574415, -0.0109762186, 0.0501176864, 0.0183659941, -0.0965188593, 0.0073532513, 0.0328026228, -0.1331825256, -0.0156515092, -0.0334751606, -0.0105826249, -0.0687604770, 0.0256430078, 0.0504216738, 0.0211825054, 0.0455909297, -0.1319945008, 0.0266936272, 0.0818672255, 0.0340191983, 0.0167798996, -0.0590210557, 0.0445702262, -0.0157620888, -0.0479381643, 0.0404565781, -0.0210971497, 0.0371537507, -0.0063445587, -0.0463921651, 0.0551313534, -0.0141686685, 0.0037350752, 0.0776876062, 0.0242444724, 0.0404953659, -0.0454943515, -0.0115807336, -0.0279554855, 0.0949404761, 0.0397074260, -0.0002151940, 0.0079204477, -0.0304061547, 0.1067796424, 0.0435017832, 0.0796853751, -0.0063365623, 0.0917001665, -0.0758925974, -0.0682646781, -0.0540731214, -0.0152028389, -0.0337348022, 0.0403876901, 0.0387456603, -0.0126239555, 0.0304897800, 0.0226278584, 0.0858257115, -0.0044333595, 0.0411734655, 0.0748104379, 0.0174547769, 0.0432242714, 0.0481435917, 0.0850143582, -0.0383886285, 0.0198922195, -0.0058677727, 0.0626799539, 0.0019280477, 0.1280580610, -0.0233439170, 0.0550580621, 0.0572600551, 0.0130998576, -0.0366695561, 0.0480800755, 0.0163602848, -0.0010115285, 0.0322087780, 0.0504289754, 0.0036075555, -0.1453007758, 0.0042922539, 0.0277902652, -0.0650743395, -0.0556320287, 0.0232742298, 0.0319689438, 0.0157316662, -0.0324883834, 0.0615229160, -0.0546014346, 0.0521366447, 0.0843069926, -0.0359237231, -0.1021872461, -0.0845874026, -0.0374969132, -0.0275602918, 0.0610222705, 0.0433282852, 0.0804749951, -0.0261358116, -0.0864575878, 0.0636064559, -0.0144808860, 0.0784344077, -0.0470651612, -0.0870402828, 0.0633692518, -0.0123116048, 0.0293011274, 0.0689700842, 0.0333458856, 0.0651059896, -0.1296818405, -0.0533430390, 0.1193518937, -0.0103646005, -0.0843968838, 0.0814601704, -0.0956516191, 0.0125164408, 0.0024305971, 0.0115219047, 0.0147920214, -0.0065726433, 0.0655060783, 0.0891799256, -0.0166507829, -0.0563804656, -0.0553302057, 0.0690608621, -0.0224509537, -0.0179164317, -0.0179947857, 0.0804768056, -0.0063433498, 0.0515451059, 0.0988947377, 0.0463407412, -0.0350606143, 0.0725596473, 0.1225874424, -0.0469451658, -0.0039568166, -0.0102106854, 0.0057507451, 0.0372748896, -0.1264274269, -0.0168411303, 0.0001057332, 0.0286445320, 0.0535488613, 0.0494200177, 0.0267026853, -0.0017931764, -0.0732921138, 0.0481104180, 0.0540414564, 0.0538139082, -0.0531932712, 0.0277124494, -0.0659728721, 0.0357668623, 0.0243974719, -0.0636495724, 0.0270921011, -0.0495299809, 0.0653589219, 0.0375644453, -0.0313534401, -0.0532725267, -0.0759953558, -0.0186477806, -0.0086379303, -0.0450272709, 0.0563273989, -0.0647497401, 0.0008802699, 0.0288067851, -0.0442279503, 0.0325483046, 0.0373909511, -0.0725455359, -0.0008630041, -0.0450810827, 0.0759972408, -0.0029750967, 0.0373716541, -0.1420378983, -0.0554275811, -0.0480636694, 0.0080387387, 0.0535344779, 0.0683557093, -0.0067178719, 0.0304670893, 0.0605418943, 0.0914478302, -0.0654471517, -0.0157542229, 0.0304332152, 0.0778802559, -0.1063760370, 0.1419394761, -0.0002809217, 0.1125792116, -0.0205297880, -0.0007865660, -0.0389666818, -0.0445580743, 0.0178493243, -0.0231794827, 0.0263032336, -0.1145344898, -0.0830283761, -0.0154443262, 0.0357982591, -0.0307616014, 0.0061956900, -0.0536899157, -0.1066382602, -0.0667945817, -0.0324344896, 0.0348688923, 0.0276172552, -0.0438610576, 0.0049383454, 0.0063382187, 0.0196199175, -0.0270216074, -0.0420169644, -0.0145966858, -0.0186100565, -0.0000726556, -0.0081994273, 0.0081394305, -0.0154387495, -0.0067424783, 0.0470366776, -0.0758963004, -0.0013833616, -0.0154865915, 0.0744978860, 0.0745666847, -0.0104662627, 0.0038907712, -0.0630583093, -0.1354532838, 0.0590542220, -0.0483287722, -0.0413787887, 0.0000576159, -0.0371620692, 0.0848930329, 0.0328563750, -0.0883508921, 0.0158601627, -0.0068186098, 0.0083976137, 0.0338464342, 0.0007103593, -0.0734778717, -0.0317312665, 0.0311953630, -0.0429739505, -0.0607226901, -0.0261071622, -0.1394237578, 0.0249936301, 0.1059223786, 0.0515848175, -0.1481826156, -0.0686958581, -0.0851904079, 0.0014608748, -0.0172843132, -0.0274868719, -0.0697571933, 0.0672294870, 0.0247924346, 0.0096458830, 0.0409368016, 0.0435638577, 0.0808441564, -0.0750569701, 0.0635838211, -0.0230258889, 0.0448669866, 0.0669963509, -0.0103874234, 0.0554838516, 0.0144916326, -0.0579895675, -0.0843717083, 0.0331499167, 0.0188515596, -0.0290346239, 0.1502635777, -0.0461638644, -0.1199800074, -0.1018727422, -0.0309497174, -0.0639842749, 0.0036586302, -0.0705796704, -0.0244537666, 0.0573383383, -0.0525229611, 0.0252064094, -0.0502936207, -0.0625257418, -0.0235162843, 0.0460416190, -0.0626276955, 0.0187960733, 0.0406487510, 0.0827913210, 0.0233849883, -0.0084124003, -0.0178189110, -0.0696590766, -0.0026665083, 0.1365457773, 0.0597478822, -0.0236866605, 0.0124022709, -0.0199520104, -0.0242213290, -0.1124417037, -0.0202231668, -0.0362472273, 0.1497310698, -0.0681129694, 0.0353275873, -0.0486596189, 0.0160987005, 0.0728121027, 0.0464596562, -0.0194721781, 0.1573263854, -0.0301665887, -0.0299545694, 0.0580388159, 0.0068542985, -0.1208782345, -0.0187013000, 0.0585854910, -0.1347173899, -0.0288370568, -0.0663267747, -0.0024728272, 0.0219200887, 0.0332077816, 0.0506474823, -0.0356349424, -0.0693974197, -0.0427856855, -0.0596879981, -0.0818070024, 0.0106352093, -0.0072364765, -0.0996344164, 0.0185145978, -0.0384469479, 0.0565409325, -0.0241573639, 0.0050434214, 0.0253493767, 0.0200314317, -0.0308477469, -0.0188321024, -0.0560241863, -0.0392167233, -0.0112251500, 0.0152819008, -0.0105694709, 0.1003423557, -0.0210533552, -0.0662943795, 0.0827194527, -0.1009220630, 0.0882160142, -0.0365839861, 0.0251046345, -0.1167397052, 0.0282936525, -0.0602140687, -0.0768520236, 0.0345486924, 0.0009229513, 0.1224182248, -0.0768209174, -0.0263685454, -0.0280833635, -0.0015584703, -0.0124187190, -0.0800948963, 0.0645531043, 0.0582830757, 0.0348113850, 0.0033122734, -0.0008963005, 0.0699724257, 0.0853938833, 0.0327199027, 0.0682392940, -0.0123451659, 0.0469694138, -0.0248518679, -0.0281926244, 0.0468969010, 0.0034138497, -0.0230397154, -0.0013771092, -0.0376866981, -0.0058299098, 0.0406817235, 0.0939388648, 0.0746965036, 0.0151731353, 0.1066981256, 0.1998687387, -0.0094706360, -0.0024304816, -0.0197324865, 0.0072571277, -0.0105803758, 0.0434484333, 0.0209313110, 0.0040380992, 0.0300814901, -0.0589328557, 0.0375465713, 0.0370476916, -0.0654720068, -0.0426369943, 0.0976712629, 0.0481269471, 0.0788496882, -0.0267616138, -0.0500442311, 0.0958378091, -0.0108869262, 0.0002732216, 0.0336646922, -0.0409584679, 0.0878431052, 0.1010461971, 0.0390753560, 0.0822622180, 0.1069266945, 0.0238700993, 0.0296836775, -0.1897380799, 0.0863436460, -0.0090697715, -0.1038999036, 0.0159175042, -0.0551306941, -0.0284734014, -0.0617819540, -0.0636360571, 0.0936061963, -0.0322164819, -0.1019650176, -0.0576753952, -0.0460256748, 0.0090426672, -0.0673070326, -0.0639281347, 0.0649214387, 0.0244906470, -0.0568497404, 0.0209240131, -0.0418141745, 0.0672017932, -0.0631937161, 0.0737011656, 0.0608097948, 0.0234618634, -0.0030656995, -0.1410721391, -0.0870054215, -0.0737947971, 0.0110724503, -0.0546588339, -0.0424530059, 0.0303799696, 0.0368791707, 0.0345222354, -0.0327296890, -0.0072171427, 0.0708366632, -0.0079530869, 0.0881116688, -0.0472733416, -0.0690073669, 0.0204155520, 0.0137317590, 0.0142101031, 0.1014285311, 0.0373755693, -0.0561628006, 0.0095092729, 0.0745957494, 0.0887177810, -0.0784398317, 0.0238387454, -0.0367663950, -0.0584981963, 0.0705880001, 0.1310177594, 0.0408860631, 0.1061761156, 0.0389111377, 0.0214211997, 0.0799016282, 0.0289681572, 0.0446932800, 0.0026756790, 0.1446938366, -0.0067897122, -0.0062324405, 0.0407300293, 0.0143549452, 0.0520070568, -0.0219853297, -0.0216849446, -0.0339490548, -0.0172099918, 0.0901875794, -0.0140266251, 0.0273644701, -0.0132713336, 0.0127249276, 0.0391027816, 0.0124155981, -0.0167042557, 0.1238791049, -0.0487277545, -0.0039428435, 0.0030686706, 0.0103604449, -0.0266631264, -0.0079243742, 0.0180771053, 0.1566618830, 0.0420320295, -0.0077034174, -0.0164163634, 0.0988211110, 0.0870778859, -0.0391330123, 0.0435188003, -0.1063256264, -0.1282239556, -0.0476596728, 0.0367147923, 0.0256405361, 0.0465355143, 0.0768041462, 0.0480193160, -0.0316132233, -0.0338149369, 0.0300993323, -0.0133712264, 0.0165726673, 0.0293180738, -0.0131733743, 0.0845875591, -0.0003115043, -0.0424243547, -0.0228052400, 0.0621480271, 0.0765868202, 0.0945605934, -0.0933459103, -0.0023511425, 0.0219977498, -0.0374314897, 0.1106153727, -0.0492674708, -0.0417057574, -0.0505120866, 0.0686704591, 0.0144510306, -0.0422720611, -0.0651401877, -0.0429517776, 0.0397096314, -0.0411312841, 0.0337212421, 0.1639361531, 0.0862646028, 0.1050015613, 0.0176738817, 0.0308980681, 0.0003750493, -0.0182825420, -0.0306301266, -0.0259466991, 0.0556477681, -0.0019042472, 0.1041430086, 0.0223504920, -0.1140000299, 0.0426277891, 0.0034749238, -0.0028014879, -0.0645226687, 0.0704923570, 0.0789731964, -0.1029948145, -0.0054044276, 0.0079313051, 0.0234024934, -0.0205303486, -0.1046847105, -0.0936519206, -0.0089501515, 0.1046637967, -0.0324423537, 0.0504968837, -0.0189098455, 0.0782781914, -0.0951802954, -0.0790912509, -0.0483230315, 0.0228090007, -0.0826411992, -0.0367239192, -0.0800754428, -0.0028692761, -0.0013645421, -0.0342114121, -0.0485193059, -0.0653647259, -0.0132073946, -0.0770838931, 0.1240676790, -0.0217364449, 0.0503071807, -0.0462331548, 0.0425393730, -0.0168540012, 0.0078341905, -0.0248410515, -0.0876636207, 0.1868099123, -0.0357373580, -0.0163630769, 0.0933036953, 0.0791566372, 0.0133423647, 0.0372271650, -0.0477856509, -0.0220896546, -0.0213625878, 0.1333588511, 0.0384860337, -0.0422067940, 0.0809006393, 0.1059137434, -0.0452904701, -0.0307319257, -0.0406615771, 0.1087855697, 0.0661378503, 0.1093245819, 0.0044871783, -0.1292871237, -0.0319652855, 0.0214463361, -0.0362981111, 0.0960224420, -0.0137560805, 0.0577109419, 0.0662688762, -0.0567813218, 0.0248883739, -0.1055488586, 0.0419550575, -0.0063574817, 0.0196417551, -0.0187439825, -0.0304608475, -0.0856239051, 0.1209409088, 0.0054410263, -0.0059789126, -0.0320751891, 0.0051189032, -0.0073299734, 0.0556125119, 0.0360941291, 0.0564444736, -0.0685598031, -0.0084016062, -0.0215630829, 0.0146852974, -0.0053881137, 0.0065011848, 0.0629714653, -0.0599138476, 0.0335154980, -0.0567585342, 0.0981771424, -0.0719880611, -0.0200374406, -0.0143407928, 0.0295030102, -0.0633647367, 0.0893281400, -0.0398964845, 0.0485524125, 0.0467502140, 0.0888732076, -0.0227902494, -0.0104580391, 0.0239273049, 0.0548279546, -0.0339161456, -0.0235362593, -0.0863240585, 0.0405886881, -0.0379836038, 0.0052216663, -0.0098233251, 0.0489430092, -0.0121224141, 0.1394853592, 0.0890398324, 0.0787198171, -0.0901318043, 0.0252433531, -0.0608656853, -0.0078929989, -0.0618166625, -0.0062513677, 0.0336925201, 0.0199937914, 0.0026977309, 0.0734172761, -0.0915203169, 0.0287247486, 0.0552983880, 0.0055598761, -0.0835804120, -0.0463859364, 0.0181564633, -0.0258037094, -0.0078158462, -0.0518268347, -0.0680065900, 0.0698740333, -0.0591333099, 0.0368370339, -0.0005358240, -0.0586841516, -0.0325883627, 0.0970687941, -0.0056478027, -0.0172826685, -0.0104146246, 0.1329467893, -0.0362733416, 0.0429374799, 0.0147656314, -0.0066343239, 0.0166218840, -0.0271013193, -0.0551910773, -0.0217033792, -0.0238561854, 0.0619529672, -0.0390803032, -0.0258534551, 0.0639269054, -0.0403924100, -0.0061545740, 0.0669540092, 0.0135174552, 0.0142517658, -0.0349541567, -0.0130721852, 0.0306098983, 0.1502473950, -0.0813331082, -0.0384027101, -0.0169931594, 0.0670601130, -0.0140541513, -0.0647681952, 0.0027686912, 0.0579524972, 0.0126670776, -0.0057284152, 0.0268831141, -0.0317103639, -0.0186680313, -0.0518557727, -0.0178174693, 0.0305604190, 0.0174616855, -0.0048426748, -0.0499309264, -0.0415835753, 0.0552727729, -0.0146333175, -0.0072075282, 0.0499200597, 0.0518421270, -0.0032747914, 0.0289991386, -0.0137637965, -0.0755306259, -0.0209325328, -0.0101576401, 0.0070398687, 0.0377313681, 0.0706766173, -0.0135784894, -0.0219102874, 0.0032908977, 0.0414421260, -0.0848236978, -0.0333773345, 0.1020112634, 0.0851428881, 0.0669419467, -0.0352907181, 0.1232192889, -0.0935815200, 0.1003477052, 0.0403970368, -0.1042114943, 0.0267346110, -0.0984270126, 0.0367686264, 0.0012873524, -0.0101961959, 0.1034830809, -0.0576984696, 0.0028582285, -0.0471308306, 0.0178862456, -0.0393625870, 0.0067598182, -0.0760769472, 0.0236536041, 0.0050062435, -0.0476864614, -0.0185328275, 0.0149625568, 0.0239754878, -0.0129444674, -0.0372677669, -0.0238569882, -0.0036452967, 0.0430439934, -0.0024773579, -0.1776756197, -0.0301280022, -0.0735261738, 0.0336413197, 0.0469184183, 0.0612299144, -0.0210219081, -0.0357183143, -0.0895514041, -0.0831854865, -0.0475130714, -0.0744388774, 0.0479166992, -0.0814405084, -0.0796502456, -0.0228242222, 0.0818269104, 0.0000671932, -0.1077494696, -0.0088013429, 0.1040602028, -0.1721980423, 0.0845931470, 0.0580060780, 0.0078290524, 0.0022755500, -0.0706066862, 0.0189908724, -0.0094302204, -0.0414796025, 0.0751879811, -0.0703980178, 0.0173562504, 0.0206446853, 0.0201780144, 0.0354073979, -0.0303544719, 0.0016930923, -0.0617040917, 0.0572666638, 0.0596542284, 0.0000972853, -0.0173091795, 0.0102280397, -0.0541262217, -0.0219607539, 0.0260858722, 0.0104295472, 0.0695801377, 0.0671387762, -0.0214391481, 0.0040495400, -0.0632713959, 0.0500173494, -0.0621500462, -0.0359157361, 0.0333737954, 0.0208980627, -0.0610518865, -0.0559680201, -0.0713852197, 0.0150169758, 0.0270150732, 0.0143789090, 0.0863621458, -0.1966075897, 0.0078642722, 0.0354384929, 0.0315959752, -0.0591527857, 0.1406230927, 0.0606826395, 0.0748926252, 0.0717806593, 0.0126352357, 0.0200782847, -0.0772453025, -0.0067110336, -0.0444491804, -0.0476311222, 0.0428407453, 0.0123331072, -0.0889711455, 0.0327071957, -0.0482830368, -0.0121265752, 0.0884467587, -0.0327582322, -0.0359817222, -0.0731991678, -0.0349109098, 0.0372293591, 0.0725039169, -0.0214877743, 0.0747849941, -0.0223305300, -0.0801478773, -0.0839377046, 0.0425794385, 0.0347383060, -0.0509063378, -0.0031138705, 0.1220949143, -0.1022958830, -0.0481224433, 0.0128130503, -0.0772666186, -0.0110874446, -0.0654927418, -0.0451338813, 0.0480612032, 0.0407806821, 0.0183775611, -0.0194930062, -0.0030722730, 0.0295446273, 0.1382617950, 0.0433442071, -0.0450983755, -0.0388538539, 0.0004613187, -0.0673435107, -0.1305049360, 0.0379477404, -0.0376714058, 0.0346064270, -0.0087857349, -0.0302813854, -0.0303219967, 0.0014215822, -0.0585424192, 0.0941582695, 0.0794421285, -0.0469341576, 0.1049342006, -0.0563634075, -0.0095702251, -0.0762745589, -0.1045706198, 0.0678089634, 0.0039604916, -0.0488638654, 0.0394828804, -0.0048216865, 0.0910939798, -0.0301444810, 0.0333494730, -0.0546964481, -0.0391348973, 0.0099806674, -0.0070952047, 0.0401337147, 0.0542805679, -0.0788630918, -0.0526899062, -0.0616116524, 0.0776831955, -0.0248953272, 0.2456254959, 0.0026793128, 0.0117807640, 0.0566971041, -0.0730406493, -0.0668175071, -0.0041574137, 0.0211629923, 0.1333764642, 0.0560207181, 0.0232922509, -0.0178312287, -0.0569034480, -0.1111249998, 0.0035278180, 0.0098124845, -0.0061799623, -0.0330852158, -0.0095093641, -0.0270905774, 0.0113595398, -0.0437524393, 0.1075412333, 0.0165419374, 0.0162017513, -0.0347165726, 0.0028273056, 0.0445215032, -0.0130362986, 0.0031993387, 0.0103411041, -0.0680372790, -0.0108388104, -0.0603646524, 0.0490277410, 0.0168811157, 0.1226866990, 0.0534033738, 0.0127634797, -0.0317255110, -0.0556126311, -0.0504369214, 0.1499408036, -0.0132926041, -0.0416599177, -0.0738003403, 0.0006553604, -0.0394254252, -0.0097815292, 0.0958538800, -0.0933921635, -0.0253890865, -0.0437897965, -0.0730706230, 0.0463406630, -0.1360955387, 0.0042857355, -0.0649986193, -0.0416854918, -0.0015478759, -0.0363408700, -0.0284634847, 0.0223852359, -0.0321795754, 0.0493653081, 0.1225602627, -0.0142674642, 0.0163644049, 0.0520395972, -0.0503578447, 0.0122922109, 0.0077183438, 0.0413787700, 0.0412226282, 0.0190769453, 0.0111231450, -0.0990212262, 0.0213762149, -0.0730180517, 0.0041953074, 0.1217440963, 0.0820275471, 0.0822932124, -0.0265005436, 0.0035518438, -0.1857345402, -0.0409703068, -0.0433518440, -0.0183380172, 0.0121282600, -0.0330390669, 0.0468737595, -0.0412778370, 0.0418534465, -0.0132835023, -0.0263288263, -0.1371455938, -0.0552413501, 0.0151813496, 0.0015348198, 0.0363569967, 0.0003464453, -0.0282838065, -0.0886458680, -0.0359766111, 0.0263275169, -0.0623831861, -0.0206486993, -0.0789261833, -0.0330269560, 0.0437111855, 0.1365619451, 0.0448401347, 0.0071965717, -0.0307175741, 0.0345857814, -0.0115017202, -0.0098534450, -0.0152900554, 0.0375394747, 0.0233791731, 0.0808872953, 0.0297245439, -0.0181275345, -0.0638548359, -0.0316815488, -0.0763372555, -0.1362408847, -0.0500484034, 0.0046066321, -0.0962338001, -0.0886380300, 0.0395904630, -0.0243548919, 0.0373450257, -0.0642028227, 0.0401337110, -0.0427340902, -0.0183803439, -0.0599622317, -0.1950310171, -0.0313488394, -0.0601688772, -0.0287579764, -0.0958897769, -0.0292749666, -0.1175995097, 0.0396100134, -0.0624376908, 0.0336816050, 0.0595704913, -0.0221967790, -0.0278956145, 0.0429073013, -0.0445597433, 0.0285947006, 0.0332657583, -0.0034955291, 0.0009213453, -0.0032092191, -0.0160935931, -0.0156482644, 0.0451517403, -0.0195584856, -0.0200741738, -0.1008893028, 0.0202475972, 0.0287384354, 0.0164304636, -0.0169249102, 0.0240158904, 0.0999394879, -0.0207830220, -0.0779420584, -0.0136793097, -0.0098119741, -0.0222980790, 0.0464546345, -0.0111933807, 0.0360951386, 0.0557453632, -0.0264276303, -0.0305564385, 0.0019672110, -0.0488072000, -0.0019921868, -0.0047809053, 0.0379622690, -0.0633237362, 0.0977272391, 0.1061381400, 0.0090100234, 0.0474694408, 0.0391728170, -0.0416223370, -0.0264638420, 0.0042024725, 0.0570416003, 0.1272293478, 0.0133285346, -0.0674294233, -0.0256829150, -0.0064325915, -0.0207416210, 0.0114195012, -0.0099768518, -0.0156325996, -0.0627612695, -0.0803869963, -0.0663036108, -0.0681595430, 0.0100173019, -0.0434610471, -0.0541264117, 0.0132468781, -0.0331589244, -0.0385316238, -0.0043533216, -0.0325776190, -0.0409625545, -0.0790735409, 0.0449261852, -0.1129537821, -0.0723681226, -0.1116744354, -0.0169367921, 0.0062138713, 0.0028215079, -0.0155423181, 0.0402529687, 0.0469928384, 0.0909122452, 0.0345009640, -0.0007452097, 0.0310692471, 0.1044616401, -0.0517551638, 0.1101804376, 0.1116523221, -0.0273202006, -0.0044059739, -0.0478110276, -0.0789689794, -0.0468439944, -0.0804576054, 0.0836197659, -0.0485628843, 0.0598110445, 0.0720346197, 0.0170053430, -0.0590385832, 0.0006129576, -0.0338878892, 0.0091940947, -0.0765899271, -0.0287654791, -0.0316392109, -0.0234313495, 0.0395489596, 0.0304684415, 0.0343909822, 0.0794686079, -0.1099709496, -0.0535951555, -0.0017843687, -0.0502247512, 0.1085639074, 0.0598008111, 0.0039570886, -0.0262374710, -0.0737317577, 0.0190206971, -0.0078849103, 0.0105426330, -0.0495330840, -0.0057795360, -0.0024677806, -0.0098710181, 0.0031563914, 0.0458736978, -0.0328266062, -0.0224017855, -0.0574701205, -0.0339638405, -0.0242458042, 0.0140309837, -0.0525159352, 0.0854536742, -0.1579881161, 0.0832344368, -0.0323254690, 0.1052496061, -0.0018994927, -0.0359073468, 0.0457421318, 0.0127285523, 0.0512000285, 0.0037895378, -0.0231996290, 0.1172188148, -0.1263985634, 0.0629950911, -0.0259836409, 0.0447111279, -0.0592107996, 0.0570887439, -0.0656644255, -0.0158174764, -0.0630479157, -0.0594175123, 0.0288931057, -0.0464829616, 0.0303595308, -0.0071752844, 0.0044359490, -0.0191089679, -0.0920200050, 0.0395677015, -0.0179905482, -0.0134555791, -0.0506406762, 0.0254088379, 0.0127344327, -0.0162385050, 0.0099001834, -0.0128337946, -0.1283469647, 0.0049177888, 0.0581980646, -0.0284322333, -0.0140015511, -0.0162261967, 0.0010127595, -0.0185776353, -0.0918667614, 0.0309407189, -0.0323273689, 0.0682492778, 0.0286235549, 0.0363833681, 0.0213982388, -0.0835564658, 0.0318431370, -0.0689323246, -0.0078112097, -0.0171372220, -0.0420215279, 0.1037980765, -0.0836406127, 0.0570426695, -0.0143152457, 0.0626950115, 0.0335282907, -0.0268470179, 0.0123861078, 0.0382593274, -0.0055174497, 0.0571155883, 0.0990459099, -0.0189591181, -0.0624989793, 0.0216162819, 0.0266105812, -0.0574905612, -0.0696106330, 0.1108084917, -0.1350404918, 0.0896880403, 0.0224987697, -0.0475523509, 0.0826645792, 0.0446428992, -0.0614297017, 0.0523634255, 0.1085464805, -0.0147504993, 0.0922884569, -0.0235426724, -0.0376266986, -0.0476887748, -0.0644995645, -0.0285425466, 0.0211820025, 0.0707380399, -0.1730087698, -0.0402147248, -0.0247263703, -0.0090751620, 0.1024102047, -0.0671239123, -0.0758445784, 0.0053937593, -0.0202942602, 0.0313425772, -0.0693088323, -0.0578569546, 0.0040487805, -0.0119279316, -0.0216754358, 0.0277857035, -0.0570613407, -0.0582818538, -0.0108162938, 0.0846976787, 0.0277863368, -0.0007358435, 0.0890236497, -0.0021415066, 0.1001316011, 0.0660234317, 0.0313041992, -0.0431465209, -0.0682042837, -0.0123230638, 0.0166978482, 0.0648616180, 0.0580227114, 0.0331481583, 0.0503233895, 0.0331682414, 0.0803681612, -0.0315538011, 0.0527387783, 0.0103501510, -0.0357652903, -0.0802905262, -0.0082820337, -0.0032075285, 0.0115667349, 0.0341225602, -0.1675878167, 0.0492116846, 0.0381396525, 0.0618422925, 0.0315601863, -0.0871848166, 0.0107136089, -0.0589165352, -0.0263936482, -0.0685084537, -0.1231124178, 0.0348733030, 0.0190975983, -0.0455342755, 0.0846237317, -0.1089597791, 0.1068120226, -0.0417249538, 0.0213732067, -0.0795520470, -0.0086878585, -0.0148105780, -0.0061329389, 0.0925365016, -0.0109660169, 0.0454961993, 0.0024044069, -0.0357857868, -0.0100316098, -0.0216865595, 0.0916249752, 0.0128440475, -0.0420376100, 0.1615113020, 0.0607753992, -0.1240887344, 0.0454017334, 0.0258017164, 0.0845296159, 0.0354736447, -0.0198894758, 0.0271046124, 0.0175336543, -0.0032586507, 0.0704199672, -0.0103893401, -0.0555351526, -0.1153062657, 0.0837090090, 0.0034883567, 0.0467705578, -0.0530081019, 0.0380123109, -0.0126142120, 0.0147190457, 0.0589025393, -0.0803801492, 0.0614741109, -0.0544016249, -0.0923635066, -0.0068558198, -0.0153946523, -0.0666950271, 0.0789265782, -0.0118498113, 0.0216036178, -0.0134504605, 0.0411146693, -0.0599278547, 0.0584647879, 0.0765446052, 0.0385175087, -0.1163210720, -0.0180524588, -0.0527320653, -0.1096998230, -0.1251726747, -0.0510330275, -0.0063430197, -0.0963761136, -0.0239511374, 0.0194251016, -0.0817818120, 0.0014899967, 0.0369848348, -0.1270750910, -0.0255542155, -0.0215210989, 0.0262058508, -0.0137144104, -0.0640859976, -0.0590346158, -0.0086727692, -0.0805148482, -0.0033788560, 0.1222589687, 0.0060223839, -0.0229583941, -0.0665479600, -0.0859463066, -0.0426663831, 0.0656828210, -0.0582685396, -0.0612422526, -0.0390702002, 0.0758734047, -0.0908427909, 0.0973008648, 0.0092944568, 0.0029183526, -0.0733492672, 0.0349095203, 0.0228767991, 0.0326997526, 0.0476379581, -0.1631301194, -0.0295534879, 0.0160858147, -0.0360034406, -0.0027953123, -0.0037884891, -0.0090510407, -0.0454785004, -0.0400120690, 0.0065069641, -0.0196206644, -0.0313452780, 0.0366552658, -0.0461076945, -0.0487450920, -0.0036355143, -0.0639021248, 0.0472174734, 0.0372279622, -0.0431869291, 0.0313837416, 0.0436209925, 0.0487610698, -0.0528304242, -0.1333608925, -0.0185596291, 0.0042466470, -0.0331969149, -0.0065979757, 0.0211935453, -0.0222298577, 0.0475837216, -0.0352454558, 0.0411805063, 0.0192169659, -0.0280329846, -0.0486030839, 0.0853127614, 0.0300443769, -0.0369844250, -0.0295384862, 0.0297158565, -0.1221903861, 0.0756411478, -0.0542926639, -0.0358009748, 0.0090388320, 0.0629979149, -0.1319031268, -0.0622423291, 0.0441755727, 0.1056280956, -0.0221430529, -0.0394762680, 0.0570561737, 0.0274055172, 0.0316215008, -0.0743362010, 0.0164895300, -0.0437584259, 0.0347928777, 0.0139010334, 