//Numpy array shape [3, 3, 128, 128]
//Min -0.132477730513
//Max 0.138799846172
//Number of zeros 0

#ifndef W31_H_
#define W31_H_

#ifndef __SYNTHESIS__
model_default_t w31[147456];
#else
model_default_t w31[147456] = {-0.0359181277, 0.0348922312, 0.0082937358, -0.0270377807, -0.0071179932, 0.0149116851, 0.0275895093, -0.0035739245, -0.0511787608, 0.0290891528, 0.0173986685, 0.0457934774, -0.0124593470, -0.0155761549, 0.0066702720, 0.0299406089, 0.0284544621, 0.0889698491, 0.0065271952, -0.0282821059, 0.0358015746, -0.0315035880, 0.0178137943, -0.0003384727, -0.0191367958, 0.0263765715, 0.0178082269, 0.0072639156, 0.0081276428, -0.0277635548, -0.0206843540, 0.0117048444, -0.0029835459, -0.0299814511, 0.0271594971, 0.0718162581, 0.0582827292, -0.0322733931, 0.0223550256, -0.0503621958, 0.0193700735, 0.0016107039, 0.0040560393, 0.0015437090, 0.0173803084, -0.0148569988, -0.0132086622, 0.0088332416, -0.0405337065, -0.0376768745, 0.0090901284, -0.0225843880, -0.0257013272, 0.0658407882, -0.0044365660, -0.0150765516, -0.0111300806, -0.0447192378, -0.0147950510, -0.0253901575, 0.0417688601, -0.0172584783, 0.0047121602, 0.0505530983, -0.0230238046, 0.0145658925, -0.0292416662, 0.0129941991, 0.0085997703, 0.0001417234, -0.0030249988, -0.0143612428, 0.0069724773, 0.0236170124, 0.0477488898, -0.0426904336, 0.0021757321, 0.0263875071, -0.0284358561, -0.0030990469, 0.0427382477, -0.0481564663, -0.0014448517, -0.0038276755, -0.0195149053, 0.0145750297, 0.0577576198, 0.0529272929, 0.0150780948, -0.0087033315, 0.0035042346, 0.0081008989, -0.0536976196, -0.0170748401, 0.0126276007, 0.0309951324, -0.0043723113, -0.0113262460, 0.0213990286, 0.0464509055, 0.0019767170, -0.0279207528, -0.0338142030, 0.0490611307, 0.0045911134, -0.0398655161, 0.0172926877, -0.0162939653, -0.0243511479, 0.0217568912, -0.0138926050, 0.0252775103, -0.0443786941, -0.0482895374, 0.0245407447, -0.0183756799, 0.0042018350, 0.0691260025, -0.0529779494, -0.0192681216, -0.0184811596, -0.0124644078, -0.0641222820, 0.0412907973, -0.0045768335, -0.0029500739, 0.0364681445, 0.0373322852, 0.0067182044, 0.0376884304, 0.0336852297, -0.0245141760, 0.0346863531, -0.0387222804, 0.0031299624, 0.0377853662, 0.0168213025, 0.0079097170, 0.0015540225, 0.0409226678, -0.0176756475, -0.0250193514, 0.0209120587, 0.0221556090, -0.0096339667, -0.0875410810, 0.0271719992, -0.0100479396, -0.0269933343, 0.0130454246, 0.0010138092, 0.0359480679, -0.0245825890, -0.0198213179, 0.0367516764, 0.0067993845, 0.0549170524, -0.0253594834, -0.0462498143, 0.0046828086, 0.0062462734, -0.0270119626, 0.0294840503, 0.0046010902, -0.0142830452, 0.0260992888, 0.0233896133, -0.0331538804, 0.0030709624, 0.0202781577, -0.0413019061, -0.0443083867, 0.0120177977, 0.0242887195, 0.0297491755, -0.0174327400, 0.0047063837, -0.0361020267, 0.0104386695, 0.0056330976, -0.0401191898, -0.0077003520, 0.0550722368, -0.0110708624, -0.0036726696, 0.0291834790, -0.0376408584, -0.0104089649, -0.0182443224, 0.0087115709, 0.0050055357, -0.0182739682, 0.0121080531, -0.0341675170, -0.0243578460, -0.0370373838, 0.0033011767, -0.0096777696, -0.0047618845, -0.0115921125, -0.0175680369, 0.0185946245, 0.0055396892, 0.0133628724, -0.0686212406, -0.0200825334, 0.0386204459, 0.0313834697, 0.0067505403, 0.0397313535, -0.0276693907, -0.0189231336, 0.0121431621, -0.0032099893, -0.0080395760, 0.0266499314, 0.0093411375, -0.0001147822, -0.0101375282, 0.0120035093, 0.0265098494, -0.0087636244, -0.0237683076, 0.0074269557, -0.0496163554, 0.0508940779, 0.0469745249, -0.0403578021, -0.0299981572, 0.0117439423, -0.0060791192, -0.0421086773, 0.0124564134, -0.0334219486, -0.0237138644, 0.0617080256, 0.0213771258, 0.0305083320, 0.0048332349, -0.0221429132, -0.0786720663, -0.0116608143, -0.0162221417, 0.0539121069, 0.0454912595, -0.0233954135, 0.0068373978, 0.0369033068, 0.0721063167, -0.0080014849, 0.0480126254, -0.0097779697, -0.0233290642, 0.0217749886, 0.0360240676, 0.0037728476, 0.0142988302, 0.0259652771, -0.0030532109, -0.0137055507, 0.0679534152, -0.0051962105, -0.0169370472, 0.0080652107, 0.0378138050, -0.0130979996, 0.0025773465, -0.0085945884, 0.0345099866, 0.0332578272, -0.0552590266, 0.0038122209, 0.0013430048, 0.0014138970, -0.0100432485, 0.0082351109, 0.0471447781, -0.0317529924, 0.0455074236, 0.0295798536, 0.0020233369, 0.0288634580, -0.0405310392, 0.0499096029, -0.0230533350, 0.0263109375, 0.0331180207, -0.0053972839, 0.0160187930, -0.0360270031, 0.0613746494, 0.0125869662, 0.0197970364, -0.0067557939, 0.0177858192, 0.0057888329, 0.0332389437, -0.0311928168, 0.0428915955, 0.0371659324, -0.0322922543, 0.0010100415, -0.0441175252, 0.0082963491, -0.0038943242, -0.0070359730, -0.0458458550, -0.0409585088, -0.0033583487, -0.0053848010, 0.0425491296, -0.0034289490, 0.0029113344, -0.0197885744, -0.0043090391, 0.0561548099, 0.0290037543, 0.0300899595, 0.0079555903, 0.0268092752, -0.0170233045, -0.0034637870, -0.0593242608, -0.0301731285, 0.0116437692, -0.0221407488, 0.0250908695, -0.0153611768, 0.0172444768, 0.0054801810, 0.0283791237, -0.0009022164, -0.0348726027, -0.0184944570, -0.0113136386, -0.0166554712, 0.0332648903, 0.0172577985, -0.0615129210, 0.0082734413, 0.0387737900, 0.0075978092, -0.0179526974, 0.0024171220, 0.0374819115, -0.0195318852, -0.0416795053, -0.0133194784, 0.0228358041, -0.0304500945, 0.0102481954, 0.0219013691, -0.0088906186, -0.0183424111, 0.0354992300, -0.0133603010, -0.0097579965, 0.0475691371, -0.0069934456, 0.0044073556, -0.0530221388, -0.0046655904, 0.0522246733, 0.0360128880, -0.0355326384, -0.0191280786, 0.0522358604, 0.0203596186, 0.0223220922, 0.0168987103, 0.0177080054, -0.0500067733, 0.0243585669, -0.0279333387, -0.0172468331, 0.0288474150, 0.0039232527, -0.0273311492, -0.0101806307, 0.0046054637, 0.0221976098, -0.0155321313, 0.0279333498, 0.0165241566, 0.0136562046, 0.0150306476, 0.0039312192, 0.0096636582, 0.0115129827, -0.0371044576, -0.0287889168, -0.0214059930, -0.0071974075, 0.0080539845, -0.0131267980, -0.0023329176, -0.0079728141, -0.0166720804, 0.0084225014, -0.0124541391, -0.0017218953, 0.0198507998, -0.0250478350, -0.0499679558, -0.0481165163, 0.0368574299, -0.0464139059, 0.0313818306, -0.0055447025, -0.0095494371, 0.0045504984, 0.0074193813, -0.0350876935, -0.0056353286, -0.0265816692, -0.0029749095, -0.0802214667, -0.0597428232, 0.0288374964, -0.0356173739, 0.0146280127, -0.0008640646, 0.0192350261, -0.0187313892, 0.0050067473, 0.0260051358, -0.0101705305, 0.0202826597, 0.0096766315, 0.0261068176, -0.0058841961, -0.0147323441, 0.0176824648, -0.0127263824, -0.0185040161, 0.0537374988, -0.0038244545, -0.0316144563, 0.0216285568, -0.0157034881, 0.0109719569, 0.0128889969, -0.0363306850, 0.0433909334, -0.0256665312, -0.0016286912, 0.0438156873, 0.0078940690, 0.0360421501, 0.0698827133, 0.0342549905, 0.0202805437, 0.0423870720, -0.0019610114, -0.0078247618, 0.0144152716, 0.0471899100, -0.0360662788, -0.0229794774, -0.0498256795, 0.0289716348, -0.0534299091, -0.0245128218, -0.0104332697, 0.0193835180, -0.0068346420, 0.0282255523, 0.0216868240, -0.0146308709, -0.0255754534, -0.0004699538, -0.0416353159, -0.0041542603, -0.0405173860, 0.0076479255, -0.0213698596, -0.0116876950, 0.0143012172, 0.0317289196, 0.0627399981, -0.0053056297, 0.0215784218, 0.0298915468, -0.0222350843, 0.0309023708, -0.0090748211, 0.0356126688, 0.0529473014, -0.0097265327, -0.0036757872, 0.0406955741, 0.0559610017, -0.0005911046, 0.0207908414, 0.0621860214, 0.0078960564, 0.0123854103, 0.0420664512, -0.0309252795, -0.0063640014, 0.0470635965, 0.0471388549, -0.0118701532, -0.0648694783, -0.0219576433, -0.0136773717, -0.0205163322, -0.0380844660, -0.0163226891, -0.0199299380, 0.0146808382, -0.0499280989, -0.0026127130, -0.0528769009, 0.0131527213, 0.0225675870, -0.0030321572, -0.0075480198, 0.0466322005, -0.0081907120, 0.0456322506, 0.0318540335, 0.0205882620, -0.0016451468, 0.0309626572, 0.0174047630, 0.0001451759, 0.0299093779, 0.0722889155, -0.0337633789, -0.0685750917, 0.0091228802, -0.0431354381, -0.0270539988, -0.0003512526, 0.0594422333, 0.0190748852, -0.0251764879, 0.0106810490, 0.0251151305, 0.0107314708, -0.0035009175, 0.0484487601, -0.0397216193, -0.0306727868, -0.0132546555, 0.0045588193, 0.0305106603, 0.0968943536, 0.0343258530, -0.0209639594, -0.0490583219, 0.0413960405, 0.0396938398, -0.0096499510, 0.0036478946, 0.0074112169, -0.0701469928, 0.0088336272, -0.0203518085, -0.0236060657, -0.0489169359, 0.0092579862, -0.0088686338, 0.0395852216, -0.0049841786, -0.0131357685, 0.0222620871, 0.0203772839, -0.0568923168, -0.0232907906, -0.0076963445, -0.0017981707, 0.0030995256, 0.0221159849, 0.0273788720, 0.0206734743, -0.0282711107, -0.0265897289, -0.0319313295, -0.0381251946, 0.0183983482, 0.0006415154, 0.0441188961, 0.0454504527, -0.0230222140, 0.0167525541, -0.0227372032, -0.0667527691, -0.0532068536, -0.0055232281, -0.0433440395, 0.0176343210, 0.0181816872, 0.0583342053, 0.0178378131, 0.0168374944, 0.0382132605, -0.0010269918, 0.0386196524, 0.0292569082, 0.0024729394, -0.0014708306, 0.0443008691, 0.0003828859, -0.0358006991, -0.0121820178, -0.0548415631, -0.0354011729, -0.0238148216, 0.0184054915, -0.0035378151, -0.0359217077, -0.0476160012, -0.0103999758, -0.0289779436, 0.0029000626, -0.0109233810, -0.0144771365, 0.0732854456, -0.0100660035, -0.0119130183, -0.0079724193, -0.0228234679, -0.0002025473, -0.0177574512, 0.0126910750, -0.0213669259, 0.0205964725, -0.0004755830, -0.0448418334, -0.0057075820, 0.0427266359, 0.0463870205, 0.0216714367, 0.0081322081, -0.0019867576, -0.0179889109, 0.0190552510, -0.0139787672, 0.0221089534, 0.0071681705, 0.0049538538, -0.0300366692, -0.0047740336, -0.0372462161, -0.0330203027, 0.0377256423, 0.0151595417, -0.0055094785, -0.0258233193, 0.0080236793, -0.0094105452, -0.0699606612, -0.0186211839, -0.0293966439, 0.0605320632, 0.0327325612, 0.0123585761, -0.0232296325, 0.0333712623, 0.0022863911, 0.0215024874, 0.0665845424, 0.0042836946, 0.0559072234, 0.0291377101, 0.0095545948, -0.0184728969, -0.0403968580, -0.0138130179, 0.0009401303, -0.0030206069, 0.0093365684, -0.0255867857, -0.0156058557, -0.0027657177, -0.0558792017, 0.0513312519, 0.0193098411, 0.0097670164, -0.0402195007, 0.0441578813, -0.0062430887, 0.0150515493, 0.0415167734, 0.0332537889, -0.0382679664, 0.0143113416, -0.0160016101, -0.0167434849, -0.0203898121, -0.0642991066, 0.0321750157, -0.0384869240, 0.0162423439, 0.0012408749, -0.0204060767, 0.0243819058, -0.0168070458, 0.0369927883, 0.0456141904, 0.0317537636, 0.0356995314, -0.0156562943, 0.0415886492, 0.0229296200, 0.0012959492, 0.0213326924, -0.0445018150, 0.0022822467, 0.0110609382, 0.0503341854, -0.0276142582, 0.0065310290, 0.0637112558, 0.0105667654, 0.0472890995, 0.0345438123, -0.0372711532, 0.0028040695, -0.0502284244, -0.0526917018, -0.0455738641, -0.0128605329, 0.0572716445, -0.0298706573, -0.0251647476, -0.0020438365, 0.0124439076, 0.0424199253, -0.0369200334, -0.0232247729, 0.0628414229, 0.0438010693, 0.0179108065, -0.0181198642, 0.0304221306, -0.0063445107, -0.0008284498, 0.0017746749, 0.0174434446, -0.0387411416, -0.0358807072, 0.0066591515, 0.0444412455, 0.0196304154, 0.0182004292, -0.0025225121, 0.0374813713, -0.0378155895, 0.0110935429, -0.0177193768, 0.0054176324, -0.0380498655, -0.0313219242, 0.0615931228, 0.0252036154, 0.0199763533, 0.0321453586, -0.0090941237, 0.0333456397, 0.0194713939, -0.0181171559, 0.0744341016, 0.0636334792, 0.0161850434, 0.0167785678, -0.0288349744, 0.0448684283, 0.0291785188, 0.0015484329, 0.0072493069, 0.0184186678, -0.0764480382, -0.0283593927, 0.0164269507, -0.0334517062, 0.0158766676, 0.0397731923, 0.0359252803, -0.0750441551, -0.0120779118, 0.0225688796, -0.0085556135, -0.0141281234, -0.0288490392, 0.0276239626, 0.0281652510, -0.0221157987, -0.0058627380, -0.0367620364, 0.0146258725, 0.0044703069, 0.0112625333, 0.0350087322, 0.0235963967, -0.0138123538, -0.0243747402, 0.0052033588, -0.0282325055, 0.0296265036, -0.0229244679, -0.0223303586, 0.0042559397, 0.0472513996, 0.0001379872, 0.0108802635, -0.0155821517, 0.0029431093, 0.0375098884, 0.0057492075, 0.0134681072, 0.0025474641, -0.0236524921, -0.0235209092, -0.0546557941, 0.0433281288, -0.0113241030, -0.0030906168, 0.0286552068, -0.0422975272, 0.0153473625, -0.0125428289, 0.0052812025, -0.0505431406, -0.0187255032, 0.0286717210, 0.0527012087, -0.0162773579, 0.0726811215, -0.0029882588, 0.0331026837, -0.0359342471, 0.0202505086, -0.0353246219, 0.0456623212, -0.0332432874, -0.0337868184, -0.0311487205, -0.0002324713, 0.0207707658, 0.0345763341, -0.0414364375, -0.0062485822, -0.0210260544, 0.0254131593, -0.0182356965, 0.0419474393, 0.0374872647, 0.0089711370, 0.0127319405, -0.0195208862, 0.0080224564, 0.0171669703, -0.0530879945, 0.0304926578, -0.0063024648, 0.0316443108, 0.0131341759, -0.0074434020, 0.0340514407, 0.0649263859, -0.0045172796, -0.0628687814, 0.0435791388, 0.0304468442, 0.0180473514, 0.0052782563, -0.0361404568, -0.0242524706, 0.0285844374, -0.0388510339, 0.0169474334, 0.0218381956, -0.0042950539, 0.0125125684, -0.0020531008, -0.0199187994, 0.0350623317, -0.0177199151, 0.0280835498, -0.0058420519, -0.0081831394, 0.0271453224, -0.0058154482, 0.0901887566, 0.0421052314, -0.0538319349, 0.0255390443, -0.0138908671, 0.0380535088, 0.0019624678, -0.0290701799, -0.0025277524, -0.0090825735, -0.0160855781, -0.0573070794, -0.0063040401, 0.0170643032, -0.0112697603, -0.0408063903, -0.0140608437, 0.0172777921, -0.0202562753, 0.0191989727, 0.0514995046, 0.0130258184, -0.0528971329, -0.0662312657, -0.0261633638, 0.0084088864, 0.0389726125, -0.0070640692, -0.0054758661, 0.0038495255, -0.0342550911, 0.0429633148, -0.0177874919, -0.0271446127, 0.0855706185, -0.0108594252, -0.0142439976, -0.0088513205, -0.0028574804, -0.0378637835, 0.0272566881, -0.0144143719, 0.0210114270, -0.0020348208, 0.0006297117, -0.0142201232, 0.0091446079, 0.0458764248, -0.0166825298, 0.0199209563, -0.0291704014, 0.0452120602, 0.0076781134, -0.0254194997, -0.0431263857, -0.0240455717, -0.0225818213, 0.0330397673, 0.0099257892, 0.0335761644, 0.0088782646, -0.0057371473, -0.0324553214, 0.0591674559, 0.0374359116, -0.0219321884, -0.0178689454, 0.0359350406, 0.0260477755, -0.0118793584, 0.0047619953, -0.0315311998, 0.0095460303, -0.0332158431, -0.0381874554, 0.0579976812, -0.0082784025, 0.0264812168, -0.0249272585, -0.0429731682, -0.0451736301, 0.0149021782, 0.0114865918, -0.0162541233, -0.0123579167, 0.0035066903, 0.0322083868, -0.0000785602, 0.0141685307, -0.0086030355, 0.0450456515, 0.0029846078, 0.0025966028, 0.0383930057, 0.0027707093, -0.0651663169, -0.0063631386, -0.0049622557, 0.0553901829, -0.0165522117, -0.0303218849, 0.0224448442, -0.0197731797, 0.0155880656, -0.0284602586, 0.0001403466, 0.0182623956, -0.0270063747, -0.0141298305, -0.0045232610, 0.0074480767, -0.0331591293, 0.0100843450, -0.0649797916, 0.0065436396, 0.0160812400, -0.0091758659, 0.0262423847, -0.0337847210, -0.0555910207, -0.0382022150, 0.0259197187, -0.0028658572, -0.0096666915, -0.0048294426, -0.0062856725, 0.0314497240, -0.0015732985, -0.0503150932, 0.0097580533, 0.0015395742, 0.0031800070, 0.0094746239, -0.0156091927, -0.0180888381, 0.0112776738, 0.0315493159, 0.0005085262, -0.0150801884, 0.0160121415, -0.0552175492, -0.0339064524, 0.0082921972, 0.0302708577, 0.0265868343, -0.0069674873, -0.0139287626, 0.0569310449, 0.0041039931, 0.0348031819, 0.0513697788, 0.0031483171, -0.0339349955, 0.0068117306, 0.0572534204, -0.0350502878, 0.0164582357, 0.0695662722, 0.0268152319, 0.0326031782, -0.0228197072, 0.0354405269, 0.0531788170, 0.0307385847, 0.0118401237, -0.0065355338, -0.0078764874, 0.0086084511, -0.0059074271, -0.0179648697, -0.0318240412, -0.0023873965, 0.0567935966, -0.0035243530, 0.0096683148, 0.0261828266, -0.0354442671, -0.0380060114, 0.0227096137, -0.0072635082, -0.0052500265, 0.0329098478, -0.0027999135, 0.0112706870, -0.0181978382, 0.0102714505, -0.0183505714, 0.0210051890, -0.0212102123, 0.0330359377, -0.0362019986, 0.0047889180, 0.0166276321, 0.0220061187, 0.0192373469, 0.0060214163, -0.0214402061, 0.0244457386, -0.0228902902, 0.0060805725, -0.0442463122, -0.0218040310, 0.0267300121, 0.0230845325, -0.0345784426, 0.0055199168, -0.0329092257, -0.0265612695, 0.0037518174, -0.0609456636, -0.0248569008, -0.0226861518, 0.0120031880, 0.0132474080, -0.0422953740, 0.0004607120, -0.0249499530, 0.0155586721, 0.0157332402, 0.0693636090, 0.0037397197, -0.0693995804, 0.0092758238, -0.0084393630, 0.0112566389, -0.0243659876, -0.0110929795, -0.0024607608, -0.0342449844, 0.0055259317, 0.0408741571, 0.0237301681, 0.0020794629, 0.0018863492, 0.0529662035, 0.0323966220, 0.0177892782, 0.0015852533, 0.0194689427, -0.0472935997, 0.0085526491, -0.0028648190, 0.0175777636, 0.0197780840, 0.0158540606, -0.0258155465, -0.0211046077, 0.0150508881, -0.0643368363, -0.0178165808, 0.0064267279, 0.0143505670, -0.0150384838, -0.0363565721, -0.0284198318, -0.0486243553, -0.0063305469, 0.0585817993, -0.0036401513, -0.0048079989, 0.0037981903, -0.0700252354, 0.0328828730, 0.0398403592, -0.0299565755, -0.0239036251, 0.0222099368, 0.0280205011, -0.0239026342, 0.0634861067, -0.0659469217, 0.0298533458, -0.0200612042, -0.0110504199, 0.0236424301, 0.0362731740, -0.0344807617, -0.0180632044, 0.0532977544, 0.0227067415, -0.0053869658, 0.0112481639, 0.0102920718, 0.0104179317, 0.0189927537, -0.0336290263, -0.0224186741, 0.0224093776, -0.0326237604, -0.0250910204, -0.0030905369, 0.0021808639, 0.0453153290, 0.0587454326, 0.0197440255, -0.0004766999, -0.0329183042, -0.0271389503, 0.0787879974, -0.0250152908, -0.0164877754, -0.0129090259, 0.0239609927, 0.0171295870, -0.0346286185, -0.0190660544, -0.0324708410, 0.0037820446, -0.0110455360, 0.0656396151, 0.0375564583, 0.0128215561, 0.0351910852, -0.0308664646, -0.0046432018, -0.0209576041, 0.0353478976, 0.0190705322, 0.0437854081, -0.0193464458, 0.0429526940, -0.0294271931, -0.0577731691, -0.0028410191, -0.0051018880, -0.0114509128, -0.0139018139, -0.0158855002, 0.0125253014, 0.0183212273, -0.0054813949, -0.0169864874, -0.0022538423, -0.0754549578, 0.0597774200, 0.0510422289, 0.0614679605, 0.0402750932, -0.0102282697, 0.0233967844, 0.0181525946, 0.0113251414, -0.0266139768, -0.0281703565, -0.0395630337, 0.0129512884, -0.0219515897, 0.0190568026, 0.0261339340, 0.0088722361, -0.0241065696, -0.0151183689, -0.0096600428, 0.0137131829, 0.0251818821, -0.0081676804, 0.0099758161, 0.0048649479, -0.0099113444, -0.0761791244, 0.0231591426, -0.0136538791, 0.0170262661, -0.0396606959, 0.0263111424, -0.0366011485, -0.0034773322, -0.0110965706, -0.0139730209, -0.0035376800, 0.0064977938, -0.0033295858, 0.0361594558, -0.0173051264, -0.0027122088, 0.0174255725, -0.0104934108, -0.0167651102, 0.0107942820, 0.0119763184, -0.0097620310, -0.0108481245, 0.0310432520, 0.0321543291, 0.0541245043, -0.0211529583, -0.0030092443, 0.0009871890, 0.0050316197, 0.0316344686, 0.0278617162, -0.0545454510, -0.0166573152, 0.0126748234, 0.0598605685, 0.0142574841, 0.0517653488, 0.0046770545, 0.0062291045, -0.0099522546, -0.0469943136, -0.0439061970, -0.0073937145, 0.0224407539, 0.0106246080, 0.0266884938, 0.0115351891, -0.0212221090, 0.0062271687, 0.0437052548, 0.0166442767, 0.0164770409, -0.0442122184, 0.0057416433, -0.0176884849, 0.0220297650, -0.0403676070, 0.0022180513, -0.0099075716, -0.0375329033, 0.0173466355, 0.0312915444, 0.0270437822, -0.0008420136, 0.0363579504, -0.0003800409, 0.0037806355, -0.0195144992, -0.0146571966, -0.0000985352, -0.0432757810, 0.0166914631, 0.0148315113, -0.0553374812, -0.0209412333, 0.0761694834, -0.0255047325, -0.0071474612, 0.0074369274, -0.0327474475, 0.0206628200, 0.0143246520, -0.0025711874, -0.0503968112, -0.0117154168, 0.0032163167, 0.0084672887, -0.0291844923, -0.0385272950, -0.0382333547, 0.0376188494, -0.0242861006, 0.0066400296, 0.0044528623, -0.0305080004, -0.0017344357, 0.0183758568, -0.0382333845, 0.0681981444, 0.0117546795, 0.0844936818, 0.0251806583, 0.0346193574, -0.0243831519, -0.0264106747, -0.0254001655, 0.0134119401, -0.0216959976, 0.0068428991, 0.0196383893, 0.0042922348, 0.0302091185, 0.0075566643, 0.0326250754, -0.0008747139, -0.0587531663, -0.0333182216, 0.0144741535, -0.0122207906, -0.0094533358, -0.0124379527, -0.0176952761, 0.0216344967, 0.0183621906, 0.0598059148, -0.0266640913, -0.0063703810, -0.0072075496, -0.0094043240, 0.0077009620, -0.0340171009, 0.0092387153, -0.0038371980, -0.0192687437, 0.0515710302, 0.0008767867, -0.0477662608, -0.0609825626, -0.0354953781, -0.0323110111, 0.0032135714, 0.0035468205, 0.0246363729, 0.0089593995, 0.0180524793, 0.0079005947, -0.0109158969, 0.0327682532, -0.0534745269, 0.0295885988, -0.0270900279, -0.0188294202, -0.0105364854, 0.0045560799, 0.0128572090, 0.0499603525, 0.0175492559, -0.0449897721, -0.0468968041, 0.0259799622, -0.0279082339, 0.0060691130, -0.0041702543, -0.0114856781, -0.0423667766, -0.0526880510, -0.0528100170, -0.0574938841, 0.0086852526, -0.0153186312, 0.0721516684, -0.0099502727, 0.0299529154, 0.0142803146, -0.0222399142, -0.0343592726, -0.0310543869, 0.0203849953, -0.0158458985, 0.0054930444, -0.0240922440, -0.0121949818, -0.0482942760, 0.0465851873, -0.0356163271, -0.0131671047, -0.0344850607, 0.0279964730, 0.0061512222, 0.0383935794, 0.0248641819, -0.0226774253, -0.0094193341, 0.0170735642, 0.0281468444, 0.0368742831, -0.0058154357, 0.0036538825, 0.0617167391, -0.0198786277, 0.0121862832, 0.0106882332, 0.0318362750, -0.0233034622, 0.0159732122, 0.0465692505, 0.0040513775, 0.0376759246, -0.0412448011, -0.0047807847, 0.0501755588, -0.0460683368, 0.0347084180, -0.0356503837, 0.0205421038, -0.0032297745, 0.0378528945, -0.0527190529, -0.0132639008, 0.0481041707, -0.0031204587, -0.0021031948, 0.0269732848, 0.0331347547, 0.0023271460, -0.0105698584, -0.0369487479, -0.0148783661, 0.0003154892, 0.0341883078, -0.0157515388, -0.0154209267, 0.0021451060, 0.0260680374, 0.0002465030, 0.0325116254, -0.0838553980, -0.0104442062, -0.0050631897, -0.0160833411, -0.0120225623, 0.0252149981, 0.0144170215, 0.0099201398, 0.0062259063, 0.0284212995, -0.0260703471, -0.0260041393, -0.0010690576, 0.0366716385, 0.0593325235, -0.0110201947, 0.0175483506, -0.0297122002, -0.0158069357, 0.0051366827, -0.0105361575, 0.0105343927, 0.0018667614, -0.0066419006, -0.0220598467, -0.0029975055, -0.0055096820, 0.0016055797, -0.0318311974, -0.0571540929, 0.0080490671, -0.0576240011, -0.0143545745, -0.0255587213, -0.0192302521, -0.0015326622, -0.0166227147, 0.0270085894, 0.0445875190, 0.0209530443, 0.0013411576, 0.0542161092, 0.0010937934, -0.0561555363, -0.0110412547, -0.0435870327, -0.0105440579, 0.0718930289, -0.0466173030, 0.0051554432, 0.0055242721, 0.0106480243, -0.0097691836, -0.0157389063, 0.0453776792, 0.0150806308, 0.0029877762, 0.0206820387, -0.0247475859, 0.0399124883, 0.0031100323, 0.0187182352, -0.0043046139, 0.0332682282, -0.0091819605, 0.0341491103, -0.0288620684, 0.0359346718, 0.0206834078, -0.0253930558, 0.0573630072, -0.0461307131, -0.0600557067, -0.0054354067, 0.0105343312, -0.0432928279, -0.0494371876, 0.0145259053, 0.0176443998, -0.0124977566, 0.0204787944, 0.0168147385, 0.0185016077, -0.0398406759, 0.0533836149, 0.0170896612, 0.0226313677, 0.0329823792, 0.0067457603, 0.0486320965, 0.0133094378, -0.0268241968, -0.0586700030, 0.0593566634, -0.0169815086, -0.0412554443, 0.0104286736, -0.0466922298, -0.0571673922, 0.0513504744, 0.0222176649, -0.0335498974, -0.0443879664, -0.0265817419, -0.0182529856, 0.0418239310, -0.0039881589, -0.0104303770, -0.0268671177, 0.0143702859, -0.0042913817, -0.0065515339, 0.0272583682, -0.0123665482, -0.0338907279, 0.0362160504, -0.0253859721, -0.0054995343, 0.0794037953, 0.0195937268, -0.0004631662, -0.0558578745, -0.0353469960, 0.0413846895, 0.0034924855, -0.0305498391, 0.0496733747, 0.0156539548, -0.0334698521, -0.0421314947, 0.0204344019, 0.0214291159, -0.0272926036, 0.0139804827, -0.0211278088, -0.0044739516, -0.0305552687, 0.0140822306, -0.0264442116, 0.0420600027, 0.0599713027, -0.0078822449, -0.0368713439, 0.0108445138, 0.0048887171, 0.0105115743, 0.0011840540, 0.0233003534, -0.0106756836, -0.0233450960, -0.0410993695, 0.0174228568, -0.0252464786, 0.0161264166, -0.0681401566, -0.0620926544, 0.0299637187, -0.0268832017, -0.0076616909, 0.0282087475, 0.0340490863, 0.0126125691, 0.0126957726, -0.0022336193, -0.0340934694, -0.0077499221, 0.0056120227, 0.0095352223, 0.0084846113, 0.0085551012, -0.0497427285, -0.0578645952, 0.0269818474, -0.0306033213, -0.0407966785, -0.0374842659, -0.0195921678, -0.0681482032, 0.0648514330, -0.0090040220, -0.0165111776, -0.0136355525, -0.0091494033, 0.0046599437, 0.0091300514, -0.0236013178, -0.0331170224, 0.0555680133, 0.0239716843, -0.0156889465, 0.0060668983, 0.0551770441, -0.0296262149, 0.0233496148, 0.0125826495, -0.0161196161, 0.0193243567, -0.0034543904, 0.0039768135, -0.0270486418, 0.0285254009, 0.0290964935, -0.0507826768, -0.0041413442, -0.0306237359, 0.0159793422, -0.0142933596, -0.0056103901, 0.0099866204, -0.0616702363, -0.0061763925, 0.0083291903, 0.0250326600, -0.0441782586, -0.0018277848, -0.0488023274, 0.0395156592, 0.0057609808, -0.0644440576, 0.0033660231, -0.0185124632, -0.0054104445, -0.0441752076, -0.0127871539, -0.0055860281, 0.0112722348, -0.0135497563, -0.0146521674, 0.0114646116, 0.0025384489, 0.0590737574, 0.0652874112, 0.0109833097, 0.0244448576, 0.0210052356, 0.0153014325, -0.0261473656, -0.0018701627, -0.0216874182, 0.0261888597, 0.0626383275, -0.0068703042, 0.0785174742, -0.0446892083, -0.0590622574, -0.0188457668, -0.0140441228, 0.0101927770, 0.0310419966, 0.0207257755, 0.0056187282, -0.0248031002, -0.0300863292, 0.0071764830, 0.0185548663, -0.0223410428, 0.0149584040, -0.0419048034, -0.0334842354, 0.0441897176, 0.0174069833, -0.0183075611, 0.0104591409, -0.0589814894, 0.0089278826, -0.0053245705, 0.0322900303, -0.0050575924, 0.0047074901, 0.0222061537, -0.0095745865, 0.0136095304, -0.0943726599, -0.0123500330, 0.0115886154, -0.0210314076, -0.0068229013, -0.0434106402, -0.0200995933, -0.0286573172, -0.0019739289, -0.0180681255, -0.0319752507, -0.0248025991, -0.0097189602, -0.0101651708, -0.0233259425, 0.0465436131, 0.0166494064, 0.0230989456, 0.0170084592, 0.0484031886, -0.0094699729, -0.0140413744, 0.0041675190, -0.0085437801, -0.0016031448, -0.0050870739, -0.0177217312, -0.0247895066, -0.0223853085, 0.0075190119, 0.0120220808, -0.0126682892, 0.0404570177, -0.0053227083, -0.0137979686, 0.0044602873, 0.0186901912, -0.0189942736, -0.0289916489, -0.0124882767, -0.0050143339, 0.0202794522, -0.0330489762, -0.0104695009, 0.0279233716, 0.0057759238, -0.0135794822, 0.0144413216, 0.0334286503, -0.0237995796, -0.0281284098, 0.0250794310, -0.0482200049, 0.0030696404, -0.0159458350, -0.0060052383, 0.0107408874, -0.0432438664, 0.0046027540, -0.0091640400, -0.0273020100, -0.0004929682, 0.0483897589, 0.0072560203, -0.0405243225, 0.0046508242, -0.0168067403, 0.0569779724, -0.0046561928, 0.0220095851, -0.0536573976, -0.0125296628, 0.0354905389, 0.0148689877, 0.0291065611, -0.0563985072, -0.0075310436, -0.0360066965, -0.0358372629, -0.0306903832, 0.0025634246, 0.0426753312, 0.0265666470, -0.0209517833, -0.0046979827, -0.0381504856, 0.0024915868, -0.0251726676, 0.0123793362, 0.0407540351, -0.0434739962, -0.0447447076, -0.0062108873, -0.0243866462, -0.0117096268, -0.0443076119, -0.0326533541, 0.0139984637, -0.0407386869, 0.0536775067, 0.0138720805, 0.0058470448, -0.0201815199, 0.0270312615, -0.0074185613, -0.0264933240, -0.0032927808, -0.0182143990, 0.0132781602, -0.0229865275, -0.0411618911, -0.0076856609, -0.0041523841, 0.0109981950, -0.0170802809, -0.0495031923, 0.0541823991, -0.0179087576, -0.0180387478, 0.0428239927, 0.0110428911, 0.0077415565, -0.0274766609, -0.0416068397, -0.0334434956, 0.0207961909, -0.0106640346, 0.0334642418, -0.0083177425, -0.0166431200, 0.0106999706, 0.0045957896, 0.0089491503, 0.0101614362, 0.0188532844, -0.0179595910, 0.0148185994, -0.0298552383, -0.0243194010, -0.0132330311, -0.0232250672, 0.0016701838, -0.0002266125, -0.0235428177, -0.0361673087, -0.0218545776, 0.0790041387, -0.0100164134, -0.0363673978, 0.1131126136, 0.0135475555, 0.0095036374, 0.0336806774, -0.0055786381, -0.0102281254, -0.0202130564, -0.0163146649, 0.0045359307, -0.0120603163, -0.0038569164, -0.0470935293, -0.0180082321, -0.0143905487, -0.0407937132, -0.0227683764, -0.0535256751, 0.0437978320, -0.0692245439, 0.0016738824, -0.0128380088, -0.0253305174, 0.0252445657, 0.0644591525, 0.0193055309, -0.0038151671, -0.0552644804, 0.0027997952, 0.0065691760, 0.0177517235, -0.0442493856, -0.0064790356, -0.0235566143, 0.0057530254, 0.0235885773, 0.0052846177, 0.0015455307, -0.0165318269, -0.0106258653, -0.0101333242, -0.0237691775, -0.0139459530, -0.0508302599, 0.0131435953, 0.0366143361, 0.0304061901, 0.0400840938, 0.0775401294, -0.0011607222, 0.0233296994, -0.0214956328, 0.0081429239, -0.0370309912, 0.0052158437, 0.0468014702, 0.0137707246, 0.0211603418, -0.0094588222, -0.0019605667, -0.0350697972, -0.0046739117, 0.0516735315, -0.0052099107, -0.0280281585, -0.0559780076, -0.0383861177, 0.0205621086, -0.0047800350, 0.0035410805, 0.0116832647, 0.0171822105, 0.0016245446, 0.0406040251, -0.0842202455, 0.0084590120, -0.0066622528, 0.0163638406, 0.0149293356, 0.0228528529, -0.0052730921, -0.0462995842, 0.0012261563, 0.0044950354, -0.0057984344, -0.0707576275, -0.0597807094, -0.0553332008, 0.0200714134, -0.0166788362, 0.0201939810, -0.0163990855, -0.0321918912, -0.0161830876, -0.0018091809, -0.0376132056, 0.0377511978, -0.0105676977, 0.0013245519, 0.0229520034, -0.0056430423, 0.0691318437, 0.0146717206, -0.0490590222, -0.0004321997, 0.0030541059, 0.0357231386, -0.0391671658, 0.0264268294, -0.0019427655, -0.0101482226, 0.0321921594, 0.0366771668, -0.0126848361, -0.0130642401, 0.0450184345, -0.0001015075, 0.0215205010, -0.0073978077, 0.0033495047, 0.0167199001, -0.0143093746, -0.0073226597, -0.0095049152, 0.0423699878, 0.0123006757, -0.0185442697, -0.0037736411, -0.0260140058, 0.0159060303, -0.0600423515, 0.0469916314, 0.0151392538, 0.0506320335, 0.0348524079, 0.0298004597, -0.0067109051, 0.0324646197, -0.0329538174, -0.0115934275, 0.0314564370, -0.0019380654, 0.0134673389, 0.0183530934, -0.0000991049, 0.0360666290, 0.0141322436, -0.0148830479, -0.0044017597, -0.0352524631, -0.0135997720, 0.0031625922, -0.0250359550, -0.0170838442, 0.0066314978, 0.0153325414, -0.0619082749, 0.0356073789, -0.0300636739, 0.0298696253, 0.0241995249, 0.0371555090, -0.0854014903, 0.0240455661, -0.0315545686, 0.0022781284, -0.0108418828, 0.0627321675, -0.0102855330, 0.0082415501, -0.0300548598, -0.0117769726, -0.0549337268, -0.1025790721, 0.0434707291, -0.0246906560, -0.0032537517, -0.0354097635, -0.0273425840, -0.0002375197, 0.0165099297, 0.0087132705, -0.0118606593, -0.0038788803, -0.0024023384, -0.0036544872, -0.0230686516, -0.0001668516, 0.0192897525, -0.0421596244, -0.0015653737, 0.0390156806, -0.0147369243, -0.0223080162, 0.0062081595, -0.0237501841, -0.0061350288, -0.0660687461, -0.0152863469, -0.0343216918, -0.0137911802, -0.0040443428, 0.0256382879, 0.0084765600, -0.0095522730, 0.0272945873, 0.0393947922, 0.0222011823, -0.0008501376, -0.0093618380, -0.0135825118, -0.0086441785, -0.0104168365, -0.0018023545, -0.0081730941, 0.0145916101, -0.0239961538, 0.0216606613, 0.0367997326, -0.0004058513, 0.0284599252, -0.0299728420, 0.0234660916, 0.0005882786, -0.0084959408, 0.0475397855, 0.0326036848, 0.0003065795, 0.0428951979, 0.0143276919, -0.0226090886, 0.0196695291, 0.0311378669, 0.0119152553, -0.0203442145, 0.0559856072, 0.0234353039, 0.0471068583, -0.0086445501, -0.0464020632, 0.0177921411, 0.0105625996, -0.0715807676, 0.0393642858, 0.0561262406, 0.0186368804, -0.0087595489, 0.0082773482, 0.0002332197, -0.0014053255, 0.0036988154, -0.0213141683, 0.0054403879, -0.0276913662, 0.0316083953, 0.0045286352, -0.0315595008, -0.0296381246, -0.0354111381, 0.0008677472, -0.0156975780, 0.0204247534, 0.0524637848, 0.0141047854, -0.0174050983, 0.0418538265, -0.0279778782, -0.0101666702, -0.0103106927, -0.0199513715, -0.0720806345, 0.0292231627, 0.0109485583, -0.0449880101, -0.0347913690, 0.0375237204, 0.0835835785, 0.0312806033, 0.0486868285, 0.0250249319, 0.0414457247, 0.0014996619, 0.0039247461, 0.0270296745, 0.0160786510, -0.0274188202, 0.0116097163, 0.0608831942, 0.0102346679, -0.0135840755, 0.0352637246, -0.0094871325, 0.0029860891, -0.0214772895, 0.0184572823, -0.0139923310, 0.0327879041, 0.0090704858, -0.0311944261, -0.0078912200, 0.0060991142, 0.0473611802, 0.0152024496, 0.0103070652, 0.0310421679, -0.0067959046, -0.0495611280, 0.0028823181, -0.0117936302, -0.0013703834, -0.0050206841, -0.0069028884, -0.0010594795, 0.0116297724, 0.0321011432, -0.0491841584, 0.0849868059, 0.0223052707, -0.0566430837, -0.0094608609, -0.0043999245, 0.0075531411, 0.0122194597, -0.0065665855, 0.0013389160, 0.0091030123, -0.0014214107, -0.0103165768, -0.0124219935, -0.0249039419, 0.0436877012, 0.0345723256, -0.0454726145, -0.0407902598, 0.0085312678, 0.0235662442, -0.0071565574, 0.0287897978, -0.0156622492, 0.0009544931, -0.0317739770, -0.0408097319, -0.0109701268, 0.0373166092, 0.0308020469, 0.0234481040, -0.0236623194, -0.0180429537, 0.0056611714, 0.0117956828, -0.0142882150, -0.0080490597, 0.0299700648, -0.0327618420, -0.0259380452, 0.0064676986, -0.0453751460, 0.0167672914, 0.0035304676, 0.0070498306, 0.0035997673, 0.0535632744, -0.0387796983, -0.0138605731, -0.0116833523, 0.0098091606, 0.0038116630, 0.0321341716, -0.0602421016, -0.0062018125, 0.0356603190, 0.0279230215, 0.0176080652, 0.0141542396, 0.0068970690, 0.0624318607, -0.0050548422, -0.0056117587, 0.0386035107, -0.0201481171, -0.0216501560, -0.0518664122, -0.0295013953, 0.0182290934, 0.0158777796, 0.0456058085, -0.0279888902, -0.0085042724, -0.0213033687, -0.0555375814, 0.0483903326, -0.0711748749, 0.0098542422, -0.0390488654, 0.0056522712, -0.0390776768, -0.0525587238, -0.0149502335, -0.0163665880, -0.0067148809, -0.0750898868, 0.0218734201, 0.0496998429, 0.0239194110, -0.0053911433, -0.0223203190, -0.0078048878, -0.0168462731, 0.0481598340, -0.0237323884, 0.0174557809, 0.0084895957, -0.0526463985, 0.0082800109, 0.0277629960, -0.0100309132, 0.0010592185, 0.0453218222, -0.0543299355, 0.0096941805, -0.0115178628, 0.0039835866, 0.0370707139, 0.0303022042, -0.0242462959, -0.0207031388, 0.0481190905, 0.0063992967, 0.0134204756, 0.0240729805, -0.0149483075, 0.0025759342, 0.0171163101, 0.0009876103, -0.0276512820, -0.0062132361, -0.0275512692, 0.0133293914, -0.0429827794, 0.0190350246, 0.0052337162, -0.0336522944, 0.0098980898, 0.0247282814, 0.0037490649, -0.0185525585, 0.0491002053, 0.0463813208, -0.0217826832, 0.0032185109, -0.0351407528, 0.0198573712, -0.0641690195, 0.0057159760, 0.0018451853, -0.0282760747, -0.0430435948, -0.0439253263, -0.0809566826, -0.0212084427, 0.0155061036, -0.0308794547, 0.0576521009, -0.0161783509, -0.0104472460, -0.0116958562, 0.0307344794, -0.0549064428, -0.0006649186, -0.0037717759, 0.0329361856, 0.0270305891, -0.0061621270, 0.0390942469, 0.0103596803, 0.0157733560, 0.0101230321, -0.0087173162, 0.0003347636, -0.0423543416, 0.0247518271, 0.0016396218, -0.0535850972, 0.0649264976, -0.0025263028, -0.0240938272, -0.0109519288, 0.0499090478, -0.0045657167, 0.0070415735, -0.0213116482, -0.0150550371, 0.0011286705, 0.0139173688, -0.0151229454, -0.0544664077, -0.0132653695, -0.0148688760, -0.0418943055, -0.0328936987, -0.0169078093, 0.0022820865, 0.0151586132, 0.0271115936, -0.0126422374, 0.0018089961, 0.0166371111, -0.0336775146, 0.0303509664, 0.0244056024, -0.0580012575, -0.0148208030, 0.0151170045, -0.0018434729, -0.0022643083, -0.0372474641, 0.0003222016, -0.0462989658, -0.0119479094, 0.0042649284, -0.0503426716, 0.0021680743, 0.0290530883, -0.0352912135, 0.0086377887, 0.0161195099, 0.0181887615, -0.0035471823, 0.0356447212, -0.0503013246, 0.0093731452, -0.0295155346, 0.0068729031, -0.0017434875, -0.0269273221, -0.0116216009, -0.0385985412, -0.0900176764, -0.0005242827, -0.0151797598, -0.0412074737, -0.0035279386, 0.0280600619, 0.0102012902, -0.0174275227, -0.0108615486, -0.0192255899, -0.0159333218, -0.0062512611, 0.0088879606, 0.0196517948, -0.0529638045, -0.0283937901, -0.0221154094, 0.0384649895, 0.0236395914, 0.0033170506, 0.0140742669, -0.0379647911, 0.0147726117, 0.0383636169, 0.0063808453, 0.0399848968, -0.0033736185, -0.0106208818, 0.0142686665, 0.0190271754, 0.0199013613, 0.0145545425, -0.0379670300, -0.0540034994, 0.0208882019, -0.0001084473, 0.0379845239, 0.0190333072, -0.0567650460, 0.0432464927, 0.0167773869, 0.0080217207, 0.0582440794, 0.0200345051, -0.0522111692, -0.0187631659, 0.0048835520, 0.0354015492, 0.0208308492, -0.0017340768, -0.0004104177, 0.0076169418, -0.0270459633, -0.0016826603, -0.0296671242, -0.0194616932, -0.0762907639, 0.0263786968, 0.0081159417, -0.0168520845, 0.0017995418, -0.0417635329, -0.0246302094, 0.0070947753, 0.0393155813, 0.0029545845, 0.0027758132, 0.0264564268, -0.0428047441, 0.0034846806, 0.0201215483, 0.0594406426, -0.0491198823, -0.0341094248, 0.0493368506, 0.0182697102, 0.0468425341, -0.0365419202, 0.0323674679, 0.0294304695, -0.0429453775, -0.0016459727, -0.0083922129, 0.0550398044, 0.0303355362, 0.0071486109, -0.0265837312, -0.0631058142, 0.0131464917, -0.0075230105, -0.0371855311, 0.0199495330, -0.0847505927, 0.0030957025, 0.0464448929, -0.0382112116, 0.0013135793, 0.0160816871, 0.0197735708, -0.0009151546, -0.0155242151, -0.0671256036, 0.0153018497, -0.0139969736, -0.0077784485, -0.0258009937, 0.0486215279, 0.0008928428, 0.0203425977, -0.0149349170, -0.0012430653, 0.0213981029, 0.0066233939, 0.0050993660, -0.0161394998, -0.0136651294, -0.0184640940, -0.0480258577, 0.0258765444, -0.0314246938, -0.0048445552, -0.0184184350, 0.0056504691, -0.0070993197, 0.0070847049, 0.0465859622, 0.0083642239, 0.0147693753, 0.0130383931, 0.0336006694, 0.0392469093, -0.0063631861, -0.0105752815, 0.0124150338, 0.0393602476, -0.0062586456, -0.0167285558, 0.0052641057, 0.0371745415, 0.0155066652, 0.0569221675, 0.0025500222, 0.0074758036, -0.0150323436, -0.0121956104, -0.0063188900, 0.0207391810, 0.0338218510, -0.0272551067, 0.0069917710, -0.0166360345, -0.0412272811, 0.0220935177, -0.0211767815, 0.0681593344, -0.0358524285, -0.0251423530, -0.0166481845, 0.0382476412, -0.0470382906, -0.0101201721, 0.0217859708, 0.0338561945, 0.0177230407, -0.0218469650, -0.0257556494, 0.0708537027, 0.0587584078, -0.0049880682, -0.0079112053, 0.0017665925, -0.0256822351, -0.0113256741, -0.0352244563, 0.0169329774, -0.0273406152, -0.0118008647, 0.0542410761, -0.0025132550, 0.0092844404, 0.0525876768, -0.0474975295, 0.0319593176, -0.0536498316, -0.0166468341, 0.0528294258, -0.0125522194, 0.0058909198, -0.0225122944, -0.0309871081, 0.0169257335, 0.0248934608, -0.0076975529, -0.0017778432, 0.0024741094, -0.0229957327, -0.0225152578, -0.0439867191, 0.0290125571, -0.0401251093, -0.0411748365, 0.0063817594, -0.0092315720, -0.0027003183, -0.0263546687, -0.0569107197, 0.0158350449, 0.0158668905, -0.0220618863, 0.0404179506, -0.0081536621, -0.0126173869, 0.0690637156, -0.0087185819, -0.0207635760, -0.0294622723, -0.0064017819, 0.0500868894, 0.0018356560, -0.0346350670, -0.0131477499, 0.0213443730, -0.0146845197, -0.0005012468, 0.0314772576, -0.0524062328, -0.0048889732, -0.0047653383, 0.0272567105, 0.0465493314, 0.0303967819, -0.0044143023, 0.0469220281, 0.0051310081, 0.0275219362, 0.0485636927, -0.0137608014, -0.0473704077, -0.0078292387, 0.0438251831, 0.0093300436, 0.0138126025, -0.0033926687, -0.0247287210, 0.0133719891, 0.0184899736, -0.0911852121, 0.0205746125, -0.0260469075, 0.0094232298, 0.0324866921, -0.0160718337, -0.0445866063, 0.0039614574, -0.0246336423, 0.0018277403, -0.0056544701, 0.0087535540, 0.0292980764, 0.0116500044, -0.0256316550, -0.0440898873, -0.0014764677, 0.0002055291, 0.0224508774, -0.0171712302, -0.0339156985, -0.0479135253, -0.0050054253, 0.0219295826, -0.0295078643, -0.0053319768, -0.0523396917, 0.0027401953, -0.0245956965, 0.0155133530, 0.0325642712, 0.0189666804, -0.0115927598, -0.0352328867, -0.0026661865, 0.0164723229, 0.0130321113, -0.0058209398, 0.0366987698, -0.0004535632, -0.0274890941, -0.0644930378, -0.0408237316, 0.0423773825, -0.0483945906, -0.0052358885, -0.0299774073, -0.0251904186, -0.0116541954, -0.0161849987, -0.0688641667, 0.0129556442, 0.0061459756, -0.0440939553, 0.0158429891, -0.0369330756, -0.0270839259, 0.0309626125, -0.0252034515, -0.0456925407, 0.0227683224, 0.0215508342, 0.0321127623, -0.0133503964, 0.0304984618, -0.0193505846, 0.0376950651, -0.0218407400, -0.0026400837, -0.0085449452, -0.0054082396, 0.0003295516, 0.0135268699, 0.0231129304, 0.0120120263, 0.0432165004, -0.0163154677, -0.0375190414, 0.0125090722, 0.0288942456, 0.0193723533, -0.0225708354, 0.0220282227, 0.0167457815, -0.0028466450, -0.0031712437, 0.0245425459, 0.0441331267, -0.0063939830, 0.0240506046, 0.0682855397, -0.0132917138, 0.0180894379, 0.0251332913, 0.0018500618, -0.0196201019, 0.0163724124, -0.0126395700, 0.0233913176, -0.0051682531, -0.0018474192, -0.0050575049, 0.0248421319, -0.0156829916, 0.0443061069, 0.0129801817, 0.0351429842, -0.0001129274, -0.0239131153, -0.0303352345, 0.0066221482, 0.0225298814, 0.0298269391, -0.0276271999, 0.0495811142, 0.0248704311, 0.0192283131, 0.0307802726, 0.0058288295, 0.0079679880, 0.0038287025, -0.0509957820, 0.0305949878, 0.0018883250, 0.0022132236, -0.0410656668, 0.0396163203, 0.0035193767, 0.0044288128, -0.0276889540, 0.0164491478, 0.0151149761, -0.0409784615, 0.0005514529, 0.0142240860, -0.0198510811, 0.0431912653, 0.0226363838, 0.0428401679, -0.0168485548, -0.0649904832, -0.0453813374, 0.0025045704, -0.0073555857, -0.0011813755, 0.0061078202, 0.0058756964, 0.0053449920, -0.0004615371, 0.0162521303, 0.0178165957, -0.0504580960, -0.0396398827, 0.0203436017, 0.0079758838, 0.0038082837, 0.0298724379, 0.0248140246, -0.0189320985, 0.0134303281, 0.0054090498, 0.0186597612, -0.0282447934, 0.0116626536, 0.0150980661, -0.0502449721, 0.0063015223, 0.0468670763, -0.0422425866, -0.0392592065, 0.0157482456, 0.0272712763, -0.0389216766, -0.0382276289, 0.0242074113, -0.0205153059, 0.0205281526, 0.0193149075, -0.0172183681, 0.0075221276, 0.0122896926, 0.0425255783, -0.0137535417, -0.0463414825, 0.0225073546, 0.0143519221, -0.0138238622, -0.0041481131, 0.0083921989, -0.0174225103, -0.0170563124, 0.0115559939, 0.0283969715, -0.0066376864, 0.1038590521, 0.0193599574, -0.0358166024, 0.0094010569, -0.0413519964, 0.0157573596, -0.0134798400, 0.0211098269, 0.0414130650, -0.0360839777, -0.0079519497, -0.0285965204, 0.0436348282, -0.0446972027, -0.0134944962, -0.0343287215, 0.0216544867, -0.0333726667, 0.0830719545, 0.0057844413, -0.0037135622, -0.0198731553, -0.0006932226, 0.0496994592, 0.0314262919, 0.0605412610, 0.0003979979, 0.0166207571, 0.0210637357, 0.0259186160, -0.0415883251, 0.0250537191, 0.0166061893, -0.0195642002, -0.0164239351, -0.0181151852, -0.0209260453, 0.0057656919, 0.0328187644, -0.0261240639, 0.0442650355, 0.0369312465, 0.0178307816, 0.0349133760, -0.0196980853, -0.0034247234, 0.0085816802, 0.0292973053, 0.0121179717, -0.0352384411, -0.0303241294, -0.0010125814, 0.0026366548, -0.0104084592, -0.0193851441, 0.0255938191, -0.0244659390, 0.0275420211, 0.0170064028, -0.0297768470, -0.0004696726, -0.0060806596, -0.0508303270, 0.0104975980, -0.0341249742, 0.0027081505, -0.0388623774, 0.0193364806, -0.0053982004, 0.0328780785, 0.0211331584, -0.0139347753, 0.0217125658, -0.0156441014, 0.0405746102, 0.0094252983, -0.0333423391, 0.0320619904, 0.0207308084, 0.0243515186, 0.0108314333, -0.0117548117, 0.0095814560, 0.0296666529, 0.0184236486, -0.0167596079, 0.0145706153, -0.0084400913, -0.0122754537, -0.0371183604, -0.0124399634, 0.0306654368, -0.0182603337, 0.0254277941, -0.0538144894, -0.0332734548, 0.0003953490, 0.0636544228, 0.0281367004, -0.0524995215, -0.0484560877, -0.0357402824, -0.0233904608, -0.0110918200, 0.0572247878, 0.0300310012, -0.0173013695, -0.0161332004, -0.0372124910, -0.0037080597, 0.0192751717, -0.0006728537, -0.0538013093, -0.0390048623, 0.0183615126, -0.0207832903, 0.0104798498, 0.0212461483, -0.0953841135, -0.0326934345, 0.0103794504, -0.0471588820, 0.0123306802, -0.0037764804, 0.0320969112, 0.0364474058, 0.0080245119, 0.0137592554, 0.0170414150, 0.0194069371, -0.0045526968, 0.0641771182, -0.0073305476, 0.0403310433, 0.0066885632, -0.0185487755, 0.0379425511, 0.0364985317, 0.0316246487, 0.0141319344, -0.0817865655, 0.0418859534, 0.0401654281, -0.0367190056, -0.0309406482, 0.0270094089, -0.0535639413, 0.0468652360, -0.0282894634, 0.0095288521, -0.0036215975, 0.0742014945, 0.0301778410, -0.0077059749, -0.0408290960, -0.0080084447, -0.0208008625, 0.0140821347, -0.0180599764, -0.0133436741, 0.0064665214, -0.0218797401, -0.0020355724, -0.0430387519, -0.0164392926, -0.0388730913, -0.0484741852, -0.0407315604, 0.0165361334, 0.0055817398, -0.0139003005, 0.0016963972, -0.0134162707, 0.0022993067, -0.0276205875, 0.0009770608, -0.0013568187, -0.0544126891, 0.0036468136, -0.0033136890, -0.0539493002, -0.0125404987, 0.0258147381, -0.0255038161, 0.0063894754, -0.0111034140, 0.0099166976, -0.0021154883, 0.0196146965, -0.0094158873, 0.0371948294, 0.0307906959, -0.0340199694, 0.0618580952, -0.0229888018, -0.0890037268, -0.0015442692, 0.0075765569, -0.0393768065, -0.0170356594, -0.0303192548, -0.0071529201, 0.0125129856, -0.0443398841, -0.0146109331, -0.0153683014, -0.0071692881, 0.0417812914, -0.0047744974, 0.0217175130, 0.0012494936, 0.0315539129, -0.0105428481, 0.0066792709, -0.0306654517, 0.0243137293, -0.0182079002, -0.0348059013, 0.0015499076, 0.0073518278, -0.0338982716, -0.0031819278, 0.0261778682, 0.0042994763, -0.0063715405, 0.0141016617, 0.0201346129, 0.0284338295, -0.0073570916, 0.0031252853, 0.0400129184, 0.0346075036, 0.0319595411, -0.0124053061, -0.0135300839, -0.0335033163, 0.0159934722, -0.0052801427, 0.0626344904, 0.0054556839, 0.0055120084, 0.0375090726, -0.0073366351, -0.0049952539, 0.0050863582, 0.0114000281, -0.0457161777, -0.0139258709, 0.0207878090, -0.0015394822, -0.0211890992, -0.0133193647, -0.0361957923, -0.0002815711, 0.0296988841, -0.0131566944, 0.0186115596, -0.0556216501, -0.0271750651, -0.0562580526, 0.0041953116, -0.0333931558, -0.0016206763, 0.0202042814, -0.0634931400, 0.0271303207, -0.0040799072, 0.0554960929, -0.0257246103, -0.0255705528, 0.0922961235, 0.0480295978, -0.0092724180, -0.0001002363, 0.0315872431, 0.0130893514, -0.0059189284, -0.0450044200, 0.0412278809, -0.1103183404, 0.0269762408, -0.0157862194, 0.0284672230, 0.0405874737, -0.0329003632, 0.0731234699, -0.0137551352, 0.0426005982, 0.0095470455, -0.0416507944, 0.0044372585, 0.0049604075, -0.0386180803, -0.0443086363, -0.0226785801, 0.0371673144, -0.0328111984, -0.0021801468, -0.0061329142, 0.0446984544, 0.0046205283, 0.0033936233, -0.0129171163, -0.0106986258, -0.0329424441, -0.0409199335, 0.0008817610, -0.0374621600, -0.0000383620, 0.0402379036, -0.0177274588, 0.0005704074, -0.0223305058, -0.0412010439, 0.0816176310, 0.0428016558, 0.0330977738, -0.0187739469, -0.0846671313, 0.0472510047, 0.0442886762, 0.0219958592, -0.0045851474, -0.0393149853, 0.0189941339, 0.0117751313, 0.0113329832, -0.0219501089, -0.0216805525, 0.0192456767, -0.0264595021, -0.0536478385, -0.0192806683, 0.0214311425, 0.0111430530, 0.0186804403, -0.0201871209, 0.0072332085, -0.0123531306, -0.0350766405, 0.0132514387, 0.0081004454, -0.0565194972, 0.0303534772, -0.0278615933, -0.0369985662, 0.0133822532, -0.0074391533, 0.0552225411, -0.0441393964, 0.0461898893, 0.0163036101, -0.0136183677, 0.0094883181, 0.0173889566, 0.0472167246, 0.0313813835, 0.0189676695, 0.0000346087, -0.0278873555, 0.0106112957, -0.0440675505, 0.0524575748, -0.0059640808, -0.0550086722, -0.0001115576, -0.0456243046, -0.0263758525, -0.0168392062, 0.0384409986, -0.0268396791, -0.0583200231, 0.0423092283, 0.0140825538, -0.0306823142, 0.0584771447, 0.0043985052, 0.0038260894, -0.0303844158, 0.0322476886, -0.0162221529, 0.0157021210, 0.0215185042, 0.0183578245, 0.0150265414, -0.0348932445, -0.0147834653, -0.0105427178, 0.0016526958, -0.0127159655, 0.0127227698, -0.0292073302, 0.0004485358, -0.0225330200, 0.0011628229, 0.0109318681, 0.0261480194, 0.0305176061, 0.0382960513, -0.0207231585, 0.0295507889, -0.0177705474, 0.0118282121, -0.0128795383, -0.0136272190, -0.0321799926, 0.0108790109, 0.0022239839, 0.0226579849, -0.0055524255, 0.0051409039, -0.0796285197, -0.0084711444, 0.0183331352, -0.0107348012, 0.0130154407, -0.0832712576, 0.0505605526, 0.0319911204, 0.0088238521, -0.0119127221, -0.0270592570, -0.0148910685, -0.0111247506, 0.0214222521, 0.0035428484, -0.0124947606, -0.0140443444, 0.0395972244, 0.0045910040, -0.0134958597, 0.0140675977, -0.0179745816, -0.0385832973, 0.0693823099, 0.0054238546, 0.0135368053, 0.0352377631, 0.0014456341, -0.0047933613, 0.0789294392, -0.0035597200, 0.0277024023, -0.0022803668, 0.0221958179, -0.0597844012, 0.0061468068, 0.0031176768, 0.0071906406, 0.0489575788, 0.0390717089, -0.0025232041, 0.0105419746, -0.0163430031, -0.0261962656, 0.0709652677, -0.0142188678, 0.0200649239, -0.0261211749, 0.0159795992, 0.0348629355, 0.0748114958, 0.0039134929, -0.0315526240, 0.0417863615, -0.0455802716, -0.0146054002, 0.0401475169, -0.0119734341, 0.0330600701, 0.0043431674, 0.0501423217, 0.0235949866, 0.0074074715, -0.0181161538, -0.0138191516, 0.0108062569, -0.0186354499, -0.0073706466, 0.0471800528, 0.0141058881, -0.0062797344, -0.0152010173, -0.0081936205, 0.0296260994, -0.0636574998, -0.0237124544, -0.0067886794, -0.0391227677, -0.0471047424, -0.0160998553, -0.0455710515, 0.0183818843, -0.0658775195, -0.0783995464, -0.0048124427, 0.0448852293, 0.0204450190, 0.0143018337, -0.0418630689, 0.0167576354, 0.0229401961, 0.0002212094, 0.0245392453, 0.0595520400, 0.0168375168, 0.0036112035, 0.0281541627, 0.0139852660, 0.0071749678, -0.0081849024, 0.0035424649, -0.0026911208, 0.0325126313, 0.0146457730, -0.0489355512, -0.0047755800, 0.0347832814, -0.0122059276, -0.0122238174, 0.0414946862, 0.0382482447, -0.0099408096, 0.0359830596, 0.0014106331, -0.0388020128, 0.0286192279, 0.0493662767, 0.0377239287, 0.0112776887, -0.0097624017, 0.0092513124, 0.0252926908, 0.0401255861, 0.0075071980, 0.0271955170, 0.0112296222, 0.0359783359, 0.0316474587, -0.0319188535, 0.0057788631, 0.0071795280, 0.0104042254, -0.0263919029, -0.0342927352, -0.0763108805, -0.0225547571, 0.0194390807, -0.0247354005, 0.0174909215, -0.0275122207, 0.0322779007, -0.0406147279, 0.0191264935, 0.0160012785, -0.0514472462, 0.0094881589, -0.0185815301, 0.0257809162, -0.0046161846, -0.0169747286, 0.0238123741, -0.0142357489, 0.0004065628, 0.0304850601, -0.0077937893, -0.0260594878, 0.0284531713, -0.0312071294, -0.0226123706, 0.0063569099, 0.0090823034, -0.0190879591, -0.0080910483, 0.0413172469, 0.0208549518, -0.0099423518, -0.0059106983, 0.0178602990, -0.0588885657, -0.0657669231, 0.0353741273, -0.0452304706, -0.0230573621, 0.0148541592, -0.0275344606, -0.0405058376, 0.0058228914, 0.0450888686, -0.0429427959, -0.0209594537, 0.0367649905, -0.0050431951, -0.0182973016, -0.0149493562, 0.0234318767, 0.0170653258, -0.0262661558, -0.0377172604, 0.0303124748, 0.0224148110, 0.0333700031, 0.0055080098, 0.0060927058, 0.0072169607, 0.0105526187, 0.0337926596, 0.0117561240, -0.0505307689, -0.0338856354, -0.0063515329, -0.0044007567, 0.0461476110, 0.0495347939, 0.0512223430, -0.0399915688, -0.0236517731, -0.0242671277, -0.0114585385, -0.0475371592, 0.0246019848, 0.0109919785, 0.0563598461, -0.0128745502, 0.0441309437, -0.0314665362, 0.0319848955, 0.0358374640, 0.0101477578, -0.0168219488, -0.0129244495, -0.0340632722, 0.0505670458, -0.0329509526, -0.0144309774, -0.0378219709, 0.0362776443, 0.0229965076, 0.0029662345, 0.0541362949, -0.0009875686, 0.0419949926, 0.0224756729, 0.0065866373, -0.0415003784, -0.0116106253, -0.0111779189, -0.0047965269, 0.0314427353, -0.0098314714, -0.0159306135, -0.0467290506, 0.0340012573, -0.0163365938, -0.0331616625, -0.0846189409, -0.0087143453, 0.0042735026, 0.0035037233, 0.0167130101, 0.0064531714, 0.0116255917, -0.0186484735, -0.0471470505, 0.0116000753, 0.0238227211, 0.0193732530, -0.0466986857, -0.0179665480, -0.0079992153, -0.0275974218, -0.0025512734, 0.0181278214, 0.0484027863, 0.0154796811, -0.0120578017, -0.0061032451, -0.0298910383, 0.0408454537, 0.0004789282, 0.0194285009, -0.0468524732, 0.0288840327, -0.0482786298, -0.0159747545, -0.0030712623, -0.0172394197, 0.0475856028, 0.0391530357, 0.0078596901, 0.0353659205, 0.0266807731, -0.0423871875, 0.0036994568, -0.0577401556, 0.0054658777, -0.0077704978, -0.0368269049, -0.0271233041, -0.0406061150, -0.0290782433, -0.0437932462, -0.0618966967, 0.0574249700, 0.0273965225, 0.0337951556, -0.0828453153, -0.0136815775, 0.0202507861, 0.0023133098, 0.0436424911, -0.0372778736, 0.0106678549, -0.0177947991, 0.0163005274, -0.0387543514, -0.0108311772, 0.0312675759, 0.0516587719, 0.0362042449, -0.0040075378, 0.0086172214, 0.0029835417, 0.0073118252, 0.0283399653, 0.0269521493, 0.0215261858, 0.0284677073, -0.0311693605, 0.0019222191, -0.0183109995, -0.0416934527, -0.0209824052, -0.0314815752, 0.0256466921, 0.0117950235, -0.0317141823, 0.0038198777, 0.0955829322, 0.0353060029, -0.0168510973, 0.0711933300, 0.0057165716, 0.0187506936, 0.0077375202, 0.0202756580, 0.0454504862, -0.0314521641, 0.0113551514, 0.0442235060, 0.0112732202, -0.0383671969, -0.0172903072, 0.0078865290, -0.0518229119, 0.0194590315, 0.0401267633, -0.0189575758, -0.0681155398, -0.0330032259, -0.0313695297, -0.0447817892, -0.0311327707, 0.0033644324, 0.0924713090, 0.0021067082, -0.0074170106, -0.0100080380, 0.0154604437, 0.0305577815, -0.0401830636, -0.0326620527, -0.0138556128, -0.0122670438, 0.0345052592, 0.0335872807, -0.0021192210, -0.0349962786, 0.0130204828, 0.0375695936, 0.0241893046, -0.0310436543, 0.0370991789, 0.0362574048, 0.0359844044, 0.0329493657, 0.0254732184, 0.0713913366, -0.0837403461, 0.0117197279, 0.0036784678, -0.0323663168, 0.0230126940, 0.0070555490, -0.0208191629, 0.0209088288, -0.0001389407, -0.0085720802, 0.0337689258, -0.0255727135, 0.0149666099, 0.0727516413, -0.0486751981, -0.0239579324, -0.0631079823, -0.0157559533, -0.0063930135, -0.0154243503, 0.0397200808, 0.0204825774, 0.0167751368, 0.0366729759, 0.0073939334, 0.0237080902, 0.0581489801, 0.0273309797, -0.0014616939, -0.0057421080, 0.0182585046, 0.0381022729, 0.0243843161, -0.0344454572, 0.0011919664, -0.0161140431, 0.0051724385, -0.0007981571, -0.0266810358, 0.0042989776, 0.0104983822, -0.0232714321, 0.0199029520, -0.0010246672, 0.0260171257, 0.0174990222, 0.0158844851, -0.0137350885, -0.0164687000, 0.0044783554, 0.0456366651, -0.0003742297, 0.0096463431, -0.0270344298, -0.0387155674, -0.0163047034, 0.0662097111, 0.0098488145, -0.0020792398, 0.0042058551, -0.0023837783, 0.0369034745, 0.0502338596, 0.0278594289, -0.0249115974, 0.0123745035, -0.0212871265, 0.0268818941, -0.0173386242, -0.0173662603, -0.0532937273, 0.0161060579, 0.0027407322, 0.0643217713, -0.0025072179, 0.0043364321, -0.0482375398, 0.0112114269, -0.0387868807, 0.0395006686, -0.0167246368, -0.0106490487, -0.0323815830, -0.0145396572, 0.0264111552, -0.0092445100, -0.0053646248, 0.0144395456, 0.0000591563, -0.0256198682, -0.0062868507, 0.0434562154, 0.0060656983, -0.0094936443, -0.0201709867, -0.0355313718, -0.0205352921, 0.0048944941, -0.0090675028, -0.0040507973, -0.0308951661, -0.0133742616, 0.0142867807, -0.0083617941, -0.0125785861, 0.0104868161, 0.0139287086, 0.0143203670, -0.0276869293, 0.0015993482, 0.0138454828, -0.0065915762, -0.0024197625, -0.0017479786, -0.0033110967, -0.0025782289, -0.0109269219, 0.0137314750, 0.0346178524, -0.0184840802, 0.0309161842, -0.0352817960, -0.0139552988, -0.0233470313, -0.0072910013, -0.0045745373, -0.0011143782, 0.0396727920, -0.0062692016, -0.0118344296, -0.0021771817, -0.0838941038, -0.0519540347, -0.0129175875, 0.0023130619, 0.0331916772, -0.0067396821, 0.0295311436, -0.0069844965, 0.0353294909, -0.0017867971, 0.0026083442, -0.0259096622, -0.0162953343, -0.0162296351, 0.0377773046, -0.0521807633, 0.0313541405, 0.0003450852, 0.0300508253, 0.0282825083, -0.0360788442, -0.0246342532, -0.0412694477, -0.0131118130, -0.0358777344, 0.0156387854, 0.0294307247, 0.0506140590, 0.0047811004, -0.0228522550, -0.0234507229, -0.0008183552, -0.0160853211, -0.0025655972, -0.0449726135, -0.0166345164, 0.0274231508, 0.0142843956, 0.0185560994, -0.0267485213, 0.0292435326, -0.0011200303, -0.0782453716, 0.0068114554, 0.0370583534, -0.0374640264, -0.0104913935, 0.0069369981, -0.0270847045, -0.0184335411, -0.0315857865, 0.0113274930, -0.0238130614, 0.0159135703, -0.0179837923, 0.0003608412, 0.0152921788, 0.0056945141, 0.0439406335, -0.0260696150, 0.0380234309, -0.0028728256, -0.0363635682, -0.0587361343, -0.0016858567, 0.0150025934, -0.0003086933, 0.0253738314, -0.0012618385, -0.0111313462, -0.0070818341, -0.0157823060, 0.0064348378, 0.0300950110, 0.0121065695, 0.0027772193, -0.0120036360, -0.0330995172, -0.0026177652, 0.0035560846, 0.0131655233, 0.0004744303, 0.0236227848, 0.0545112491, -0.0379317291, -0.0026284547, -0.0015757041, -0.0140500236, -0.0157406107, 0.0020645289, 0.0014887268, 0.0170208924, 0.0047322772, -0.0197437759, -0.0024015335, -0.0429776162, -0.0426177606, 0.0147079453, -0.0009960732, 0.0150732603, -0.0308672339, 0.0237501655, 0.0126587432, 0.0085614305, -0.0249357838, 0.0338895060, -0.0143658491, 0.0185516290, -0.0797991827, 0.0583202988, -0.0147462664, 0.0056054541, 0.0151063185, -0.0016282336, 0.0119908955, -0.0255346913, 0.0273448750, -0.0103807785, -0.0572324023, 0.0200669542, -0.0182989780, 0.0320840925, -0.0505431406, 0.0055226446, -0.0644865036, 0.0390323475, 0.0088100694, 0.0407526121, 0.0039070570, 0.0192802399, -0.0217100419, -0.0153913675, -0.0362993442, -0.0071513141, 0.0173116010, -0.0188696012, 0.0276731402, 0.0189687293, 0.0378725342, -0.0102386437, -0.0048496318, -0.0161379501, -0.0171280541, -0.0254739933, 0.0082276054, -0.0184701476, -0.0026217285, -0.0393741764, 0.0212328266, 0.0232674703, 0.0067110406, -0.0137210032, -0.0282732230, -0.0437330939, -0.0340994075, -0.0077156276, 0.0276104975, 0.0501988083, 0.0196478572, 0.0064268126, -0.0269676689, 0.0173048321, -0.0005579519, -0.0037212959, 0.0082653118, -0.0027908331, 0.0484863333, -0.0246936660, -0.0043365424, -0.0130718015, -0.0686382577, 0.0483593605, -0.0328091606, -0.0474289060, 0.0261778925, -0.0423975624, -0.0082205040, -0.0224181693, 0.0031837772, 0.0481117964, 0.0278918725, -0.0354099721, -0.0193980578, 0.0018191788, -0.0077173216, 0.0505062342, 0.0113883587, 0.0108129727, 0.0250977259, 0.0669828057, -0.0024428279, -0.0118349558, 0.0128267659, -0.0011033320, 0.0319108404, 0.0301317926, -0.0198483746, -0.0058483421, -0.0302705728, 0.0000767241, -0.0460656919, 0.0093098674, -0.0543596521, -0.0120429378, -0.0127548855, 0.0623261221, -0.0152555099, -0.0122073404, -0.0315168798, 0.0305377170, 0.0104288654, 0.0155787310, -0.0633362010, -0.0038775906, -0.0223625377, -0.0223854948, -0.0700878873, -0.0001783708, 0.0071971379, 0.0142018721, -0.0226480290, -0.0446934551, -0.0012443812, -0.0261947624, 0.0287997518, 0.0097844871, -0.0174336024, 0.0147208199, -0.0241678879, -0.0248235427, -0.0204618536, -0.0199172162, 0.0108412066, 0.0295357611, -0.0065132063, 0.0092815412, 0.0536631644, 0.0149436370, -0.0532342643, 0.0214083288, 0.0319046266, -0.0159294233, 0.0150736980, 0.0834563673, 0.0268246960, 0.0098007787, 0.0305033773, -0.0296557881, -0.0289633181, 0.0361525863, 0.0120834624, 0.0017333601, 0.0286366586, -0.0375686437, 0.0151800569, 0.0125948535, -0.0477569848, 0.0271711666, -0.0088907080, 0.0167212654, 0.0624543950, 0.0454332232, 0.0178899337, -0.0312443823, -0.0009702276, -0.0388608165, -0.0487316251, -0.0607064106, -0.0161982067, -0.0319269113, 0.0258638505, -0.0327190906, 0.0074844239, -0.0221470315, 0.0361456759, 0.0353239886, 0.0347638503, 0.0325089209, -0.0121886861, -0.0321603455, 0.0069281561, -0.0195573065, -0.0089916065, -0.0074418331, 0.0061907889, 0.0608000159, -0.0236735623, -0.0384864546, -0.0447541997, 0.0323146731, 0.0045158230, -0.0091417786, -0.0069930600, 0.0291778743, -0.0114970049, 0.0215815231, -0.0031735676, -0.0079372274, -0.0259022247, -0.0011458179, -0.0365063697, 0.0133734215, -0.0212956239, -0.0328212827, -0.0131699881, -0.0062942929, 0.0493578799, -0.0246575661, 0.0087517919, -0.0543793887, -0.0207926445, -0.0410899334, 0.0490550585, 0.0420847386, -0.0180012323, -0.0264915563, 0.0125202388, -0.0522183329, 0.0184772760, 0.0005831497, -0.0199033115, -0.0087292818, -0.0009760737, 0.0471951179, 0.0663915202, 0.0203676131, 0.0270787422, -0.0081494618, -0.0016113599, 0.0557631366, -0.0124612059, -0.0382050462, -0.0096069146, 0.0417700596, 0.0089813350, 0.0212068707, 0.0472514853, -0.0137387868, 0.0004947269, 0.0233188104, -0.0071952152, -0.0284733549, -0.0342286490, -0.0011822130, 0.0282920264, 0.0023190503, -0.0055487538, -0.0190584939, -0.0020976493, 0.0047773025, -0.0274331756, 0.0347703844, -0.0366436504, -0.0261393543, 0.0173765663, -0.0391415991, -0.0048038922, 0.0137035521, 0.0142974090, -0.0207898561, -0.0865634158, 0.0033874139, -0.0168789849, -0.0136159062, -0.0080398237, 0.0561900102, 0.0319190435, -0.0030065419, 0.0355921835, 0.0481804349, -0.0416433550, -0.0535200611, -0.0282964800, -0.0225788690, 0.0289795175, -0.0058441530, 0.0187015049, -0.0322395824, -0.0098055331, 0.0290790796, 0.0065566613, -0.0334064253, 0.0204770658, -0.0097700804, -0.0440343581, 0.0135172475, -0.0087242620, 0.0209666174, -0.0106483288, 0.0015011773, 0.0026869490, -0.0245120209, 0.0205562524, -0.0221972819, 0.0084915254, -0.0255881995, -0.0005671717, -0.0360776782, -0.0099046258, -0.0362197272, -0.0031713343, 0.0038177129, 0.0831497163, -0.0088430997, 0.0082816435, 0.0186536685, 0.0191363934, 0.0777012929, -0.0014648827, -0.0320894867, -0.0322375521, -0.0119343391, 0.0309830122, -0.0102692517, 0.0327384658, 0.0069014258, -0.0218185503, -0.0444389544, -0.0385527983, -0.0106089031, 0.0141652413, 0.0438725650, 0.0137058431, 0.0420841761, 0.0027631461, 0.0284322146, 0.0094269579, -0.0005137614, -0.0500549637, 0.0115509564, -0.0161302816, -0.0014957894, 0.0193059351, 0.0110542700, -0.0428789407, 0.0581471324, 0.0349822752, 0.0046246732, -0.0478949994, 0.0011641786, -0.0301684514, -0.0142090656, 0.0215462055, -0.0498870388, 0.0213468019, -0.0133109698, -0.0709140524, -0.0441563353, 0.0187223628, -0.0737037286, 0.0110769626, -0.0205924269, -0.0250351764, 0.0421489738, 0.0005438568, -0.0461865626, -0.0670898557, -0.0062274886, -0.0255255513, -0.0770409629, 0.0396822840, -0.0055602593, 0.0071733324, 0.0064112782, -0.0288203023, 0.0050004381, 0.0229203738, 0.0181448553, 0.0286687315, -0.0188543815, -0.0826858506, 0.0042044395, -0.0322215147, -0.0488810427, 0.0072979038, 0.0117232539, -0.0245473012, 0.0095638437, -0.0030856014, 0.0435370877, 0.0526903309, 0.0520523861, -0.0331728309, 0.0078579718, 0.0070374105, -0.0354424305, 0.0081501054, -0.0171126332, -0.0083057247, 0.0447463021, 0.0053912592, 0.0016582644, -0.0569060892, 0.0207350291, 0.0020334432, -0.0257751886, 0.0074683153, 0.0165906493, 0.0565685630, -0.0057559554, 0.0946010426, 0.0297874920, 0.0483607203, -0.0305471141, 0.0256139860, 0.0393560603, -0.0401991419, 0.0275995322, 0.0541691184, 0.0227383785, -0.0342800841, -0.0387466028, 0.0149472961, -0.0075609242, -0.0412993543, -0.0321559608, 0.0107289841, 0.0138117680, -0.0238009244, 0.0009508108, 0.0041260556, 0.0248667989, 0.0221414734, 0.0409617797, 0.0315057077, -0.0255143028, -0.0433101766, 0.0216132663, -0.0378860012, 0.0343593098, -0.0064977617, 0.0321407467, 0.0216129646, 0.0097501157, 0.0267915409, 0.0349182561, -0.0108474167, -0.0410429798, 0.0049035503, -0.0265517049, -0.0470875278, 0.0579916984, 0.0025367080, -0.0296119992, 0.0053267516, -0.0330644771, -0.0074231182, -0.0478720814, -0.0520911589, -0.0617202036, -0.0126449652, -0.0255900715, -0.0642945319, -0.0093885930, -0.0450465865, -0.0597463772, -0.0506918095, -0.0031113885, -0.0023275574, 0.0106252152, -0.0471616872, -0.0023442470, -0.0071779010, 0.0299819037, -0.0770974383, 0.0075053782, -0.0168979429, 0.0065264711, -0.0130643556, -0.0229831710, 0.0142702805, -0.0081582349, -0.0010535526, 0.0335293449, -0.0276529565, 0.0057846401, 0.0073801363, -0.0113269035, 0.0455707088, -0.0026470469, -0.0293706954, -0.0039890562, -0.0161514040, -0.0460069366, 0.0528443679, -0.0269039553, 0.0642091781, 0.0175157376, -0.0007140913, 0.0088647967, 0.0005425863, 0.0172943398, -0.0686848611, -0.0019008042, 0.0340289846, -0.0099408105, 0.0143204685, 0.0184233766, -0.0116928853, -0.0115836104, 0.0188628938, -0.0398074463, 0.0288445391, 0.0088462820, -0.0267062653, -0.0095430482, -0.0313417614, -0.0190727971, 0.0309712794, 0.0286254305, -0.0176356155, -0.0099295219, -0.0266330410, -0.0281954743, 0.0403461307, 0.0072391764, -0.0540485121, 0.0158053525, 0.0472675636, -0.0214456283, -0.0153621137, 0.0320129767, 0.0244465470, 0.0013997579, 0.0089043407, 0.0223215315, -0.0186990798, -0.0077696061, -0.0482163765, -0.0102121942, 0.0225998145, 0.0405513607, 0.0400791578, -0.0349730141, -0.0190281589, 0.0340919271, 0.0229776539, 0.0277374126, 0.0317596607, -0.0142118661, 0.0065652053, 0.0411717407, 0.0177755188, -0.0114328386, 0.0153408870, 0.0275746416, 0.0074747121, 0.0040311832, 0.0072194766, -0.0156858545, 0.0115688788, 0.0038714281, 0.0218107365, 0.0318383873, -0.0028058772, -0.0357266366, 0.0252903961, 0.0154807940, -0.0016560133, -0.0348648019, -0.0375785418, 0.0427847318, -0.0188304372, -0.0181433707, -0.0382629670, 0.0061418349, -0.0308937971, 0.0797062293, 0.0151960095, 0.0405351780, 0.0401610732, -0.0354758315, 0.0038770118, 0.0038727259, -0.0134519087, 0.0145145236, -0.0395487286, 0.0166471265, 0.0162273962, -0.0304588974, 0.0184325557, 0.0331743397, -0.0710444748, 0.0186540559, 0.0392510146, -0.0181111768, 0.0329213776, -0.0080695963, 0.0077640805, 0.0450547934, 0.0574711300, 0.0204136446, 0.0284789950, -0.0251940414, 0.0472299755, -0.0161970817, -0.0167157874, -0.0122605274, -0.0079121822, 0.0423429906, 0.0088519724, -0.0079204179, -0.0344100073, 0.0027642935, 0.0245619211, 0.0313220136, -0.0467762165, 0.0080046132, -0.0366437472, 0.0234145094, 0.0087141674, 0.0354671665, 0.0234839134, 0.0030441734, -0.0625893846, -0.0320712849, 0.0380187966, -0.0040081670, 0.0180448797, -0.0711185187, -0.0114351949, 0.0059342016, 0.0315227658, -0.0121504301, -0.0203190614, -0.0244202930, -0.0188435744, 0.0437230207, 0.0112594236, 0.0869309604, 0.0126692355, 0.0127625335, -0.0177205671, -0.0176190007, -0.0037176821, -0.0108472966, 0.0173714980, 0.0031205756, 0.0182196815, -0.0395175666, 0.0283547863, -0.0288208220, 0.0195598807, -0.0281616598, -0.0235369094, -0.0276942458, -0.0035339480, -0.0036545079, 0.0275821835, -0.0139740743, -0.0017074875, -0.0297666043, -0.0092532476, 0.0555248447, 0.0322188251, 0.0146274175, 0.0086800270, 0.0142210694, -0.0044576842, 0.0071332627, 0.0116013978, 0.0207863189, -0.0139946248, -0.0287684202, 0.0410474911, -0.0094217304, -0.0003474943, 0.0306127220, 0.0102386996, 0.0251704268, 0.0443391837, 0.0140289618, 0.0280229952, -0.0165195093, -0.0410979241, -0.0565100238, 0.0149063058, 0.0448285267, 0.0321037099, 0.0491682626, -0.0273746420, 0.0342553146, -0.0474411994, 0.0212774742, 0.0181450266, 0.0116913039, 0.0100129936, -0.0429301821, 0.0286191795, 0.0057709110, -0.0310388915, -0.0290173478, -0.0015285165, 0.0121883824, -0.0070685227, 0.0271881707, -0.0114396783, -0.0186727680, 0.0267548859, 0.0087091504, -0.0347822420, -0.0488718860, 0.0052668583, -0.0071714111, -0.0217078403, 0.0685589015, -0.0223864205, 0.0354644954, -0.0302098915, 0.0049393694, 0.0398793221, -0.0515419617, -0.0036697506, 0.0083525795, -0.0146341082, -0.0366540030, -0.0223558433, 0.0067382297, -0.0175552145, 0.0112483222, -0.0200596731, -0.0084066801, 0.0524583161, -0.0235847514, -0.0046937121, -0.0127777979, 0.0620419122, 0.0097978432, -0.0239088573, -0.0275230594, -0.0089779105, -0.0049797529, -0.0038576233, -0.0485699326, 0.0063481708, 0.0130341584, -0.0371219628, 0.0166833773, -0.0337622762, -0.0203117803, 0.0184774268, 0.0584213808, -0.0111087300, -0.0267923195, 0.0340011716, -0.0354760848, -0.0310074128, -0.0260110293, -0.0390929468, 0.0085403714, 0.0334663726, 0.0189312454, 0.0190059617, 0.0705719814, 0.0131283887, 0.0012194242, 0.0452157035, -0.0375417359, -0.0090294862, -0.0114413137, -0.0199047942, 0.0721637979, -0.0325102247, 0.0141353682, -0.0083863176, -0.0147388242, -0.0095158909, 0.0008862274, 0.0453137457, 0.0147339962, 0.0593268648, -0.0182231944, 0.0168133192, 0.0381172746, -0.0029451596, -0.0573486686, 0.0104536181, -0.0478129685, 0.0250651222, 0.0155450227, -0.0351678319, -0.0045564086, 0.0063477764, -0.0046798047, 0.0327356607, 0.0448944978, 0.0187702123, 0.0103781559, -0.0091448678, 0.0070388294, 0.0439962745, -0.0172414873, 0.0420030281, -0.0122744450, 0.0206585787, -0.0554509908, -0.0036906512, 0.0132651543, -0.0014035903, -0.0543965548, -0.0279490277, 0.0259269625, 0.0243655853, 0.0125523536, 0.0176780932, 0.0096867029, 0.0026469429, -0.0104312981, 0.0017729768, 0.0023317821, 0.0105865533, 0.0040274402, -0.0151516451, -0.0372918732, -0.0266532153, 0.0285029840, -0.0383853205, -0.0188998505, 0.0051983204, -0.0359941311, 0.0441603139, 0.0296619870, 0.0091514383, -0.0336808078, 0.0233020093, 0.0430310480, -0.0033027963, -0.0064254627, -0.0426565036, 0.0170862079, -0.0001136623, -0.0158108566, 0.0365565456, -0.0265880376, -0.0130005898, 0.0817731172, 0.0308373943, -0.0458974726, -0.0662730783, -0.0297937728, 0.0619350001, 0.0092992736, -0.0199314170, -0.0443493724, 0.0136382245, 0.0405607633, 0.0110237673, 0.0582840592, -0.0507175736, -0.0259173121, 0.0113046821, -0.0358875245, 0.0455902442, -0.0531065054, -0.0141563723, -0.0303670578, -0.0078320755, -0.0194669534, -0.0061335978, 0.0229893122, 0.0165686700, 0.0005212572, 0.0065526487, 0.0195172857, -0.0506877713, 0.0363059677, 0.0013305190, 0.0096598649, -0.0106377052, -0.0426699258, 0.0137479668, 0.0013904178, -0.0108111808, -0.0147574469, -0.0020451872, 0.0173648242, -0.0323240757, 0.0433773994, 0.0035150137, -0.0439488553, -0.0344505981, -0.0127491811, -0.0162933469, -0.0157311540, 0.0206941161, -0.0133968303, -0.0203717034, 0.0284873936, -0.0315892808, -0.0192651507, -0.0043955860, -0.0562131144, -0.0224300195, -0.0229807179, 0.0664825216, 0.0129140886, 0.0206541009, 0.0362776779, 0.0329978056, -0.0068650735, 0.0096991472, -0.0119500356, -0.0192831885, -0.0522647426, 0.0473843291, -0.0025014770, -0.0166041888, 0.0224965513, 0.0124872047, 0.0438134409, 0.0915195420, -0.0400460400, 0.0182070844, -0.0465978347, 0.0012192164, -0.0118088191, 0.0192679279, 0.0043139094, 0.0680873096, -0.0494867116, 0.0455468334, 0.0322988518, 0.0035636902, 0.0588320307, -0.0179057159, -0.0260466393, -0.0032847535, 0.0052819587, -0.0812468752, 0.0150747178, 0.0535649695, -0.0596710853, 0.0139698610, 0.0404184498, 0.0122059807, 0.0248853192, 0.0030151552, -0.0096709775, -0.0766921341, 0.0055758134, 0.0069916476, -0.0277328361, 0.0097780591, -0.0119525427, 0.0306517351, 0.0423245281, 0.0092514753, -0.0119526405, 0.0139699671, -0.0047236248, 0.0700106174, -0.0365310535, -0.0156164020, 0.0206420776, -0.0101670567, 0.0647805557, 0.0386607945, -0.0156026678, -0.0426575318, 0.0029828693, -0.0270733982, -0.0274470504, 0.0269855503, -0.0117181027, 0.0053193374, -0.0226901863, 0.0609525628, 0.0181394946, 0.0595636107, -0.0261572562, 0.0742888227, -0.0371803194, 0.0095927073, 0.0242999978, -0.0014353044, -0.0127411401, 0.0189073496, -0.0285955351, -0.0008317214, -0.0113523258, 0.0299626756, -0.0362254642, -0.0090808002, 0.0026480688, 0.0144989686, 0.0097106388, -0.0400438718, -0.0023388050, 0.0168466996, 0.0050874436, -0.0081364224, 0.0272013396, -0.0153697170, 0.0049459795, 0.0349638574, -0.0181667376, -0.0220887493, -0.0100462744, -0.0013857553, -0.0142312637, 0.0008361967, -0.0634551197, -0.0306429863, -0.0064064274, 0.0093815392, 0.0309236236, -0.0590579808, 0.0423606746, 0.0835517719, 0.0123895556, 0.0462142751, -0.0410353765, -0.0078877322, -0.0027989896, -0.0083973696, 0.0002370854, -0.0009276198, 0.0151918475, 0.0353408083, 0.0205437206, 0.0213504639, -0.0286092423, -0.0286690574, 0.0277794525, -0.0091555407, 0.0585892200, 0.0380527750, -0.0315348841, -0.0303228460, 0.0078734066, -0.0338348076, -0.0143283578, 0.0107684154, 0.0849259570, -0.0323558338, 0.0333266072, 0.0282842517, -0.0040544411, 0.0225782841, -0.0306568239, 0.0166534558, -0.0132751660, -0.0159158763, -0.0021035033, -0.0135730440, -0.0207596365, 0.0245072320, -0.0060139336, -0.0170030147, 0.0009277878, -0.0004828396, -0.0392814763, 0.0216767918, 0.0269154217, 0.0197616536, 0.0217656996, -0.0044808025, -0.0384735949, 0.0161031932, 0.0323700793, -0.0319614373, -0.0037273215, -0.0246061832, 0.0213596504, -0.0400545597, 0.0420521833, 0.0051886560, 0.0023443575, 0.0201700311, 0.0490366183, 0.0153580857, -0.0373274162, -0.0176950563, -0.0079427492, 0.0020582750, 0.0187423341, -0.0648050457, 0.0478877611, 0.0581406727, -0.0349665806, -0.0067776162, 0.0365117304, -0.0011283188, 0.0236243550, -0.0191143323, -0.0284535345, -0.0004090592, 0.0331705995, -0.0065237619, 0.0227736775, -0.0202499609, -0.0270805322, -0.0382237583, -0.0079006143, 0.0242693853, 0.0109567149, 0.0450920872, -0.0521159843, 0.0226465072, 0.0558898635, -0.0103970878, 0.0305372067, -0.0098286839, 0.0214619469, 0.0258457307, -0.0274571367, 0.0215947051, 0.0227356926, 0.0216025859, 0.0135412542, 0.0351340957, -0.0010906586, -0.0089769820, -0.0314210691, 0.0325427614, 0.0123659689, -0.0369800776, 0.0028541461, 0.0613061115, 0.0265430342, -0.0170030780, 0.0748228207, -0.0321038365, -0.0279000718, 0.0093129138, -0.0189282726, -0.0091237342, 0.0144220507, -0.0200552866, 0.0105736451, -0.0115789399, -0.0369788259, 0.0442547090, -0.0109738205, 0.0434219874, 0.0121032521, -0.0037657120, -0.0095375543, -0.0166767556, -0.0030244463, -0.0232361611, 0.0178140588, 0.0149414558, -0.0455358401, 0.0048180083, -0.0286855884, -0.0568318740, -0.0349593498, 0.0061792512, 0.0171606373, 0.0076175220, 0.0139231458, 0.0169977546, -0.0185280126, 0.0103394389, 0.0095721185, 0.0376352966, -0.0182340443, -0.0141018648, 0.0324804187, -0.0254370570, -0.0119229238, -0.0217978992, 0.0478095375, 0.0211414844, 0.0563908443, -0.0402082130, 0.0054825149, 0.0209002085, 0.0803658813, 0.0227101278, 0.0239180010, 0.0111835962, 0.0251978543, 0.0118503999, -0.0762454644, 0.0248679742, -0.0054055038, 0.0260343365, -0.0059276605, 0.0025955795, 0.0114138471, 0.0295344517, -0.0163021907, -0.0169157460, 0.0196978152, 0.0174791794, 0.0234789066, 0.0359446481, 0.0060122758, 0.0330317132, 0.0395638533, 0.0476305336, -0.0199833829, -0.0194264799, 0.0658905655, 0.0239970516, 0.0140584223, 0.0027894157, 0.0373640805, -0.0015365258, 0.0379624516, 0.0302620549, 0.0339320861, -0.0032602516, -0.0260972865, 0.0268783551, 0.0229278300, -0.0409752280, 0.0104753431, -0.0109259021, -0.0263733584, -0.0314475186, 0.0287715774, 0.0133405924, 0.0892089009, 0.0040531969, 0.0162786692, -0.0562946014, 0.0133176390, 0.0240268167, -0.0041926950, -0.0046915328, -0.0218153130, 0.0126849860, -0.0341749378, -0.0261506923, -0.0154008698, -0.0038747301, -0.0142833628, 0.0525625683, 0.0131169902, -0.0096431198, 0.0053701373, 0.0208881572, 0.0589525737, -0.0254692044, -0.0007062372, -0.0090959696, -0.0231413078, -0.0312608629, 0.0142466184, -0.0150872357, -0.0151582276, 0.0018070058, 0.0179735199, 0.0601175763, -0.0290209446, -0.0454286337, -0.0405154526, 0.0569187552, 0.0133359144, 0.0116840973, 0.0328561552, 0.0210579932, -0.0443750471, 0.0217375234, 0.0044940375, -0.0170373078, 0.0080965646, 0.0386577323, -0.0194210205, -0.0493655093, 0.0127362171, 0.0641592368, 0.0084039010, -0.0380791873, 0.0065751900, 0.0205780510, 0.0397592746, -0.0523142517, -0.0098945647, -0.0116173802, -0.0169005971, -0.0166961160, -0.0372373499, -0.0341712162, -0.0069402694, 0.0135213863, -0.0533850901, -0.0293025486, -0.0117110070, 0.0045552528, -0.0466566794, -0.0437600017, -0.0249276068, -0.0155267362, -0.0251914561, -0.0023330103, 0.0497206151, -0.0415991545, 0.0238331445, 0.0072986390, 0.0069664530, 0.0230002701, -0.0075953156, 0.0552801006, -0.0242152531, 0.0292266272, -0.0031629195, 0.0289977100, 0.0219408553, 0.0211676806, 0.0223165937, 0.0414893031, -0.0264967978, 0.0323117040, 0.0194376670, 0.0049770568, -0.0428051911, -0.0229789149, 0.0347525962, -0.0157029945, 0.0508464091, 0.0290682875, 0.0197545495, -0.0090007372, -0.0552556626, -0.0028618325, 0.0284359436, -0.0031455327, -0.0233220737, -0.0114461817, 0.0286165401, 0.0513430871, -0.0236842390, 0.0321377590, -0.0416846126, 0.0961843580, 0.0129086925, -0.0472753905, -0.0024373850, -0.0265031513, -0.0168954190, -0.0132395485, -0.0259046573, 0.0326729007, 0.0286949202, -0.0083655957, 0.0009660228, -0.0253146924, -0.0124295168, 0.0021492899, -0.0218074042, -0.0509644896, -0.0909396634, -0.0153971389, -0.0393610336, -0.0116771730, 0.0364701897, 0.0221592858, 0.0110176979, -0.0152794067, -0.0215941947, 0.0271580685, 0.0015072234, -0.0389886498, 0.0193455890, 0.0019077359, -0.0440214500, 0.0286661498, -0.0311585292, 0.0146818385, 0.0371693037, 0.0403038263, 0.0474588312, -0.0047608144, -0.0002762135, 0.0061688698, 0.0519674309, 0.0060107247, -0.0314243659, -0.0549426824, -0.0272304732, -0.0527242720, 0.0335816480, -0.0326348916, -0.0119517334, 0.0547369942, -0.0037591986, 0.0373407081, 0.0066005206, -0.0071949861, 0.0150192417, 0.0026053658, 0.0005149330, 0.0050230105, -0.0033029376, 0.0363132991, 0.0036775810, -0.0379203185, -0.0043685026, 0.0425599851, -0.0548018627, -0.0322684869, -0.0300040487, -0.0042072143, -0.0062593613, -0.0050796797, 0.0232549980, -0.0035387871, 0.0099766301, -0.0338682234, 0.0019742926, 0.0033125882, -0.0083086155, 0.0012770962, 0.0021143369, 0.0361348614, 0.0045600124, -0.0174698252, 0.0209296942, -0.0034376304, -0.0462885499, 0.0471882671, -0.0546453819, 0.0444491133, 0.0125749288, -0.0227030069, 0.0171833746, 0.0345432982, -0.0303148627, -0.0265011657, 0.0277863070, 0.0121861091, 0.0094843209, -0.0316202976, -0.0123014059, -0.0197065789, -0.0176785085, -0.0235744435, -0.0098103490, 0.0102194045, 0.0520532914, 0.0270126127, -0.0030354387, -0.0397199318, -0.0396193787, 0.0256307721, 0.0405898318, 0.0263137929, 0.0089415526, -0.0076685245, 0.0058583287, -0.0014794748, -0.0054034190, 0.0400663018, 0.0035846184, -0.0183056574, 0.0075231441, -0.0184068251, -0.0170767903, -0.0682664663, -0.0047269510, -0.0512612574, -0.0273881238, -0.0189327281, -0.0553788915, -0.0101022217, -0.0306182113, 0.0353255309, -0.0299636889, -0.0174613521, -0.0624124482, 0.0057173581, -0.0015735532, 0.0090011070, -0.0159502160, 0.0299418885, -0.0202255249, 0.0144735212, -0.0185946450, -0.0453143232, -0.0328369662, 0.0574652664, -0.0372443795, 0.0498597585, -0.0363606028, 0.0150443055, 0.0616283566, 0.0240042880, 0.0221243706, 0.0278297719, 0.0089483773, -0.0136850616, 0.0128857791, 0.0422485135, 0.0224090870, 0.0097602522, 0.0078057754, 0.0501818955, -0.0246392488, -0.0177687854, 0.0519529544, 0.0143094976, -0.0350475460, 0.0090119885, 0.0003519140, -0.0482528470, 0.0247197039, -0.0451361947, 0.0569848046, -0.0051756166, 0.0349190533, -0.0142784044, -0.0071836133, 0.0202817041, -0.0015099037, -0.0052128411, -0.0401185714, 0.0449571200, -0.0145927928, 0.0418261886, 0.0281776525, -0.0135783497, -0.0099539161, -0.0452744029, 0.0102926102, 0.0456806980, 0.0755647197, 0.0156415105, -0.0019679102, 0.0198356044, 0.0579172671, -0.0455192775, 0.0613189936, -0.0167788584, -0.0131794652, -0.0036508699, -0.0077172159, -0.0343853943, 0.0412743874, -0.0346833393, 0.0249533486, -0.0165100638, -0.0383942239, -0.0020489576, 0.0407403149, 0.0337139927, 0.0112765487, 0.0053641787, -0.0083361436, 0.0058865743, -0.0641252100, 0.0115428194, -0.0379965939, -0.0431414843, 0.0519522578, 0.0000852662, 0.0186338406, 0.0276641473, 0.0095955841, 0.0044056578, -0.0192656089, -0.0143357133, -0.0075623416, -0.0035822741, 0.0051136813, -0.0040935334, -0.0073931571, 0.0130227730, 0.0035909794, -0.0321360976, -0.0100688301, 0.0362141617, -0.0392592847, 0.0204409938, -0.0094170598, 0.0405282341, 0.0232310258, 0.0011916015, 0.0226068944, -0.0015991500, 0.0142771695, -0.0009540729, -0.0329202004, -0.0323217697, -0.0033789314, -0.0020356744, -0.0105692213, 0.0452826768, -0.0050411546, -0.0247159414, 0.0345845111, 0.0014009028, -0.0261543244, -0.0163852163, -0.0251902081, -0.0313040130, -0.0116933752, -0.0076331184, -0.0164909046, 0.0025650412, -0.0155669013, 0.0161266085, -0.0440424010, 0.0178287439, -0.0073900032, 0.0269525796, 0.0008026420, 0.0401100889, 0.0250399224, -0.0158951748, -0.0431362726, -0.0415148586, -0.0272285938, 0.0016588623, 0.0392469242, -0.0617405437, -0.0077020912, 0.0348067582, 0.0200688392, -0.0299285334, -0.0073083071, -0.0215028878, -0.0163208675, -0.0229490679, -0.0123546049, 0.0329589210, -0.0215910077, 0.0110090086, -0.0203246530, 0.0031991226, -0.0113481311, 0.0548166335, 0.0152713843, 0.0383424610, 0.0084205251, -0.0107517540, -0.0345645398, -0.0018221329, 0.0352228731, 0.0154730985, 0.0066363788, 0.0567482375, -0.0299957022, 0.0119196055, -0.0049604629, 0.0031489935, -0.0461950265, 0.0167142320, 0.0278891958, 0.0145431664, -0.0145699317, -0.0065092631, 0.0018619697, 0.0242143907, 0.0107552242, -0.0131293992, -0.0317763276, -0.0265440792, -0.0381391011, -0.0015279079, -0.0034537420, -0.0053637493, 0.0292233769, -0.0215876102, -0.0583835505, -0.0133679397, -0.0412714630, -0.0093496209, 0.0564264096, -0.0202252585, 0.0227699038, 0.0076964730, -0.0137166595, 0.0336734578, -0.0112439040, -0.0532412678, -0.0208254755, -0.0207390469, -0.0024823791, 0.0116901295, 0.0435359776, -0.0531462282, 0.0408266857, -0.0174707975, -0.0248806532, 0.0038972921, -0.0073868036, 0.0301944390, 0.0215795953, -0.0531543083, -0.0289416257, -0.0030274123, 0.0091648921, 0.0342835374, 0.0276970267, -0.0582316481, -0.0228869691, -0.0288910996, -0.0070991502, 0.0497969240, -0.0340181254, -0.0532401651, -0.0278385188, -0.0099343574, 0.0501759388, -0.0054958626, -0.0416706987, -0.0079653338, 0.0065719630, -0.0053743669, -0.0628317147, 0.0133019416, 0.0762801766, 0.0090604518, 0.0410991833, 0.0037779177, -0.0014053551, -0.0007870538, -0.0923970267, -0.0385570601, -0.0337913893, 0.0116648981, 0.0365811624, -0.0222190116, 0.0044643218, -0.0013645738, 0.0073535321, 0.0136629371, 0.0232543554, 0.0114509473, -0.0172805991, -0.0062324745, -0.0349160135, -0.0063005355, 0.0487048142, -0.0491057783, -0.0318690352, 0.0068801339, -0.0389718004, 0.0024356318, -0.0073323944, 0.0217435956, -0.0149210868, 0.0337043554, 0.0317412391, -0.0092994235, -0.0277841482, -0.0063783093, -0.0144769028, -0.0146088656, 0.0100724837, -0.0028325520, -0.0533519387, 0.0299393870, 0.0223067068, -0.0178444386, 0.0703118369, 0.0117790820, -0.0194291119, 0.0195433814, 0.0530936755, 0.0074995821, 0.0735798031, 0.0374654010, 0.0030005786, -0.0089597860, 0.0420419388, 0.0524922349, 0.0237633958, 0.0002265298, 0.0102878762, 0.0250230916, 0.0175552834, 0.0388810113, 0.0389174484, 0.0051888423, 0.0106798140, -0.0105378274, -0.0121625941, 0.0337773412, -0.0206163209, -0.0114348661, -0.0071352865, 0.0025978149, -0.0051682936, -0.0069077988, 0.0051048533, -0.0047408105, 0.0299465042, -0.0345830992, 0.0328516513, -0.0013127035, 0.0255010780, 0.0105825551, -0.0066680200, 0.0142968707, -0.0048307553, 0.0044723363, -0.0187110174, 0.0022258682, 0.0025611273, 0.0082631717, -0.0107274596, 0.0185152479, 0.0448554717, 0.0305050295, -0.0336146951, -0.0044755465, -0.0070576724, -0.0307132006, 0.0268242974, 0.0475903153, -0.0191716868, -0.0022851322, -0.0406386778, -0.0445369072, -0.0088848760, -0.0319812074, 0.0378408916, -0.0052936124, 0.0142979380, 0.0434871837, -0.0227678735, 0.0066587459, -0.0066422415, -0.0025167593, -0.0146870930, -0.0466835760, -0.0192482583, -0.0447357036, 0.0164888371, -0.0132175656, -0.0403473079, -0.0253809728, -0.0243912078, -0.0401551463, 0.0048236419, 0.0071218018, 0.0083797676, -0.0024647869, -0.0094625838, 0.0041460791, 0.0380105376, 0.0583822839, 0.0242468864, -0.0100463424, -0.0480682254, 0.0194625668, 0.0489561521, -0.0350575671, -0.0093019754, 0.0077670645, 0.0152082508, -0.0028080782, 0.0850574225, 0.0392149873, 0.0025000367, -0.0454635359, 0.0023104958, 0.0281678513, -0.0045717810, -0.0208516307, -0.0513908938, -0.0082257930, -0.0167546701, 0.0478089005, 0.0794690251, 0.0531300195, -0.0264638308, -0.0198745597, -0.0038828144, -0.0187999569, 0.0185445566, 0.0025909995, 0.0397674963, 0.0321093276, 0.0324680209, 0.0197672080, -0.0251809042, -0.0060279258, 0.0084938677, -0.0132806730, -0.0056827529, 0.0713128448, 0.0802408829, 0.0591578372, 0.0081883473, 0.0232572742, 0.0529388078, 0.0137921767, 0.0054927687, -0.0185487829, 0.0100119663, 0.0238181986, 0.0458127521, -0.0265864506, -0.0157832522, -0.0388230607, 0.0223028790, 0.0540600419, 0.0024936798, -0.0133778080, -0.0114570372, -0.0004046737, -0.0543282554, 0.0316303223, 0.0237754714, -0.0138112465, -0.0233856793, -0.0078803329, -0.0269095227, 0.0382286832, 0.0421631187, 0.0005764668, 0.0130469743, -0.0259295944, 0.0286286380, 0.0071343603, -0.0234272033, 0.0085060429, 0.0010339613, -0.0119732479, -0.0219753701, 0.0741686746, -0.0681730956, -0.0153616713, -0.0220994484, -0.0219127834, 0.0013946741, 0.0402369462, 0.0131628551, -0.0160191450, 0.0276432931, 0.0243822075, 0.0504470393, -0.0053473087, 0.0335192867, 0.0632247627, -0.0482266545, 0.0384120122, 0.0323001407, -0.0298945811, 0.0483931899, 0.0038163993, -0.0229580272, -0.0660200343, -0.0332026593, 0.0400107987, -0.0334738865, 0.0777589530, -0.0015425402, 0.0295965262, 0.0267479531, 0.0016419707, -0.0054652621, -0.0220171586, -0.0129453130, -0.0565240458, 0.0018499854, -0.0486960709, -0.0103180734, 0.0162788313, 0.0577908494, 0.0331266969, 0.0710038990, -0.0533890091, -0.0070079705, 0.0290777776, -0.0239924211, -0.0274970904, -0.0189572833, 0.0191695374, 0.0081226695, 0.0011511837, -0.0299201366, -0.0237417202, 0.0249788780, -0.0011311285, 0.0334704518, -0.0381992459, 0.0671838298, -0.0376904793, -0.0255881939, 0.0167709291, -0.0202516280, -0.0333569311, -0.0064748796, -0.0089597143, -0.0392125137, -0.0109093273, 0.0057515986, -0.0136829698, -0.0676027238, 0.0086212009, -0.0214321464, 0.0029793924, 0.0256853066, -0.0481046662, 0.0064808223, -0.0259854104, 0.0447746776, 0.0144803980, 0.0406607352, -0.0060902592, -0.0118253697, -0.0139943548, -0.0067170854, -0.0267004073, 0.0074397027, 0.0131603796, -0.0103661213, 0.0183268394, 0.0352377258, -0.0248805396, -0.0732566938, 0.0217870977, -0.0198299754, 0.0226990059, 0.0264871437, -0.0119542042, 0.0138255870, -0.0331187956, -0.0163697805, -0.0165514424, -0.0236506332, -0.0229816474, -0.0023150325, -0.0036053450, 0.0308668129, -0.0059705991, 0.0363642462, 0.0264864471, -0.0405951850, -0.0478552282, -0.0182839092, -0.0105020842, -0.0181841757, 0.0370566547, -0.0258378033, -0.0139722442, 0.0014107781, -0.0340533257, -0.0013753055, 0.0121052451, -0.0186858084, 0.0027691389, -0.0456149913, -0.0051691881, 0.0419331007, 0.0056424593, -0.0271514319, 0.0128746219, 0.0290225092, 0.0171186347, 0.0500537083, 0.0065742517, 0.0294677727, 0.0036924698, 0.0400287472, -0.0303284097, 0.0006066419, 0.0037860493, 0.0018622964, -0.0167617407, -0.0075466065, -0.0079093361, 0.0087177781, -0.0479345210, 0.0306223650, 0.0514968112, 0.0189233087, -0.0039344691, 0.0161408726, 0.0268939473, -0.0329244509, -0.0164676514, 0.0066430499, -0.0150677869, 0.0398902781, 0.0057881419, 0.0120588224, 0.0178786125, 0.0286417939, -0.0311495513, 0.0092541054, 0.0159706995, -0.0014324193, -0.0176844932, -0.0325183496, 0.0020756666, -0.0140253669, -0.0323724002, 0.0010441164, -0.0000615484, 0.0205793809, -0.0180978421, -0.0417638756, -0.0030614543, -0.0218427256, 0.0188183635, 0.0158259459, 0.0119309956, -0.0471291617, -0.0051126545, -0.0313900523, -0.0237553176, 0.0294572804, 0.0653532445, 0.0175770037, -0.0037249702, 0.0015810636, -0.0148509638, -0.0229331162, 0.0637243390, -0.0325357839, 0.0034380644, -0.0606599003, 0.0006634173, 0.0060203830, -0.0114993611, -0.0043087821, -0.0434564874, 0.0341884196, 0.0016107983, -0.0197619945, -0.0141327316, -0.0133650936, -0.0477346107, -0.0274342801, 0.0225447826, -0.0065822094, 0.0618564636, -0.0041948156, 0.0246572532, 0.0043797935, -0.0064657922, -0.0428547338, 0.0000752753, -0.0532850474, 0.0794050545, -0.0035684144, 0.0090417946, -0.0000452166, -0.0090233702, -0.0068089082, -0.0327744782, -0.0020540522, 0.0300595574, -0.0217182562, -0.0454368889, -0.0400950983, 0.0112681882, -0.0065794252, 0.0195005219, 0.0000152265, -0.0149630243, 0.0380852446, 0.0624112561, 0.0106215896, -0.0205636472, 0.0411793068, 0.0638239160, 0.0050941301, -0.0241509713, -0.0223298538, 0.0009878956, -0.0321122371, -0.0130079947, 0.0235484354, -0.0308894105, 0.0007000792, -0.0212552752, -0.0092342189, 0.0494767129, -0.0083906036, -0.0194474496, 0.0495913550, -0.0025155116, -0.0209252518, 0.0038730686, -0.0523577332, 0.0230411459, 0.0112457033, 0.0424003974, 0.0127084814, -0.0078646541, -0.0194681678, -0.0211713668, -0.0150486529, -0.0026216025, -0.0311629660, -0.0639327466, -0.0100789061, -0.0050761560, -0.0006292431, 0.0049939649, -0.0046439059, -0.0223386120, 0.0165379811, 0.0186408795, -0.0429727770, 0.0260094460, 0.0348150283, -0.0256471932, -0.0398193598, -0.0065383022, -0.0340246111, 0.0009923858, 0.0207293034, 0.0419535190, 0.0257092658, -0.0427588113, -0.0366695747, -0.0242305771, -0.0132116377, 0.0525832102, 0.0184886120, -0.0056558200, 0.0213537253, -0.0023187913, 0.0048830952, -0.0193694457, -0.0294992439, -0.0098021282, 0.0110480916, -0.0165156685, -0.0066971430, 0.0082461378, 0.0103229061, -0.0264984928, -0.0085075628, -0.0115966406, -0.0155353937, 0.0389884040, 0.0327683128, 0.0135293081, -0.0285068583, 0.0379801765, 0.0274752509, -0.0247260146, -0.0026111042, 0.0203017257, 0.0113198096, 0.0406971462, 0.0196170788, -0.0139943007, -0.0010183486, 0.0105510401, 0.0094968602, -0.0590526164, -0.0205747373, 0.0387320705, -0.0322291218, 0.0662666112, 0.0139144352, -0.0062536397, 0.0025178166, -0.0053375745, -0.0043499661, 0.0226341635, -0.0233092494, -0.0297272522, -0.0292799715, 0.0084364247, -0.0358291306, 0.0143642109, 0.0147716086, 0.0389687233, 0.0184784681, 0.0409031920, -0.0375604257, -0.0365868285, -0.0087184915, -0.0120573901, 0.0344411284, 0.0014050399, 0.0091375019, -0.0481154844, 0.0081540486, 0.0129993577, 0.0399064906, -0.0388760045, -0.0034549227, -0.0438719504, -0.0116516184, 0.0165406391, -0.0292206127, -0.0280370675, -0.0008874551, 0.0061005414, -0.0503234230, 0.0012411464, -0.0617756471, -0.0064552557, -0.0163790639, -0.0421226881, 0.0618277527, -0.0050013023, -0.0533101223, 0.0396422148, 0.0243422147, 0.0052776979, 0.0932964683, -0.0187432636, -0.0064349188, 0.0048606806, -0.0147731518, 0.0069405884, 0.0013341092, 0.0044744415, -0.0094300294, -0.0313564539, -0.0154025536, -0.0403637178, 0.0293945838, 0.0440585837, -0.0195711181, -0.0211856011, 0.0284103919, 0.0028169560, -0.0278378781, -0.0021516688, 0.0147893652, 0.0007704486, -0.0155575881, 0.0299337208, 0.0468857773, 0.0022147924, -0.0112671293, 0.0088092210, -0.0051033143, -0.0442866646, -0.0220073070, -0.0410866067, 0.0349724591, -0.0120943068, 0.0528320447, -0.0196256991, -0.0321807414, -0.0224181451, -0.0280156862, -0.0052273511, 0.0283608381, -0.0371869281, -0.0257283747, 0.0132524977, 0.0342746936, 0.0083768358, -0.0486287288, -0.0465784445, 0.0361571126, 0.0008118179, -0.0103331730, -0.0096387416, -0.0097792400, -0.0123852901, -0.0356904343, -0.0009684388, 0.0363127701, -0.0334870704, -0.0165686551, -0.0547894351, 0.0085835755, -0.0106895259, -0.0496179461, 0.0072035999, -0.0165831055, 0.0050260611, -0.0309705790, -0.0365225151, 0.0819728523, 0.0497501045, 0.0167630389, 0.0155167682, -0.0009601458, -0.0173896346, -0.0200874750, -0.0149872750, 0.0038545262, 0.0389673561, -0.0255383402, 0.0144535406, 0.0383034088, -0.0240361337, -0.0347815417, 0.0320754461, 0.0536069348, 0.0002298747, 0.0206342675, 0.0157382134, 0.0042092130, -0.0200413465, 0.0085062580, -0.0078491606, -0.0297294278, -0.0027217725, -0.0237017274, 0.0008819451, -0.0318388231, 0.0438363254, -0.0599744171, -0.0148805156, -0.0081672342, -0.0326173939, 0.0700410903, -0.0134151438, -0.0207043979, 0.0393482745, -0.0121535547, -0.0066934475, 0.0010527045, -0.0106288167, -0.0215205681, -0.0731552243, -0.0148411710, -0.0535570234, -0.0210075472, -0.0373851508, 0.0232472271, 0.0172229540, 0.0074413833, -0.0002332569, -0.0169868376, -0.0157888550, 0.0133435810, -0.0373443514, -0.0027544897, 0.0178353060, -0.0475166552, -0.0145738497, 0.0479920171, 0.0041565355, -0.0074941455, 0.0243095923, 0.0461675115, 0.0212906376, -0.0072371173, 0.0112771178, -0.0143980943, 0.0051226355, 0.0060350848, -0.0376810394, 0.0154312160, -0.0358299948, -0.0045366352, 0.0233421884, -0.0553013980, 0.0037718944, 0.0190008339, -0.0256774686, 0.0160016119, 0.0236212257, 0.0184109882, 0.0004535726, -0.0309819840, 0.0752967298, 0.0097813187, -0.0231286250, -0.0001556077, 0.0078270296, -0.0049516005, -0.0125330854, 0.0022449994, -0.0008949401, -0.0152149219, -0.0465576164, 0.0316631347, 0.0641792640, -0.0646011531, 0.0007421183, 0.0005228880, 0.0138087692, -0.0470057651, 0.0215653405, -0.0146266064, 0.0646963194, 0.0393499322, 0.0404369533, 0.0401790626, 0.0395019166, 0.0356976651, -0.0384534821, 0.0375152677, -0.0396939628, -0.0164616294, 0.0476961359, 0.0058652451, -0.0003611218, 0.0087621380, -0.0037811701, 0.0174604151, 0.0483379588, -0.0402020253, 0.0276051145, -0.0212725699, 0.0188321695, 0.0455590375, -0.0253888909, -0.0133216269, 0.0336056203, -0.0175182521, 0.0479045585, -0.0298780780, 0.0296963919, 0.0020488962, -0.0845245570, 0.0085498951, 0.0292206556, -0.0347003676, 0.0081933280, 0.0127617521, -0.0252870992, -0.0104573192, -0.0529367551, -0.0352781266, 0.0029807070, -0.0097533232, -0.0001745311, 0.0051402673, 0.0123398667, -0.0006362583, -0.0014922471, -0.0036062337, -0.0409127064, 0.0858053043, 0.0172147118, 0.0070177154, 0.0378023162, 0.0370467789, -0.0124515649, -0.0006660777, -0.0358607024, -0.0449729152, 0.0190488603, 0.0133850407, 0.0055816080, -0.0180537812, 0.0130142607, -0.0747862831, 0.0370796844, 0.0019773180, 0.0006751691, -0.0502039194, -0.0234945789, -0.0542593040, 0.0656914711, 0.0093118083, 0.0473114252, -0.0118022813, 0.0221859850, -0.0512455367, -0.0132687073, -0.0060238978, 0.0190378148, -0.0129495189, -0.0253812913, -0.0077118794, -0.0120337950, -0.0047207694, 0.0412253737, -0.0131918089, 0.0296361558, 0.0132785179, -0.0196371805, -0.0008556465, -0.0021694829, -0.0295641720, -0.0410899743, -0.0221729577, -0.0044626677, -0.0405118689, 0.0352485217, -0.0089437170, 0.0313189737, 0.0037747575, 0.0057558469, 0.0173744839, -0.0155385258, 0.0372407399, 0.0363868698, 0.0234720800, 0.0279947463, -0.0520593189, 0.0153739918, 0.0066375607, -0.0018562063, 0.0231460556, -0.0093044080, 0.0253294688, -0.0192734078, 0.0274567734, 0.0004566063, -0.0394786485, 0.0221725833, 0.0243418012, -0.0078889532, 0.0423933491, -0.0051205438, -0.0020623112, 0.0033735509, 0.0620948747, -0.0155441957, -0.0120080356, 0.0376687162, 0.0405995101, -0.0040290519, 0.0060574072, -0.0242981054, -0.0612323545, 0.0658226758, -0.0251117814, 0.0082276417, -0.0210666265, 0.0152687626, -0.0131720630, -0.0332114212, -0.0222701542, 0.0374425165, 0.0230590682, 0.0031590138, 0.0291798543, 0.0188230295, 0.0123966830, 0.0059714909, 0.0002463445, 0.0070945485, -0.0209227931, 0.0251148827, 0.0236695353, -0.0012370915, -0.0010608337, -0.0120813763, 0.0204896349, -0.0033339853, -0.0464988388, -0.0057567386, 0.0209730305, 0.0243005678, -0.0035346774, 0.0153141255, -0.0255942401, -0.0199382324, 0.0262786932, -0.0373392999, -0.0178545807, -0.0089617837, -0.0283569600, 0.0224551354, -0.0214403067, -0.0247429200, 0.0373193510, 0.0259846188, 0.0165480636, 0.0349432938, 0.0148209389, 0.0417915061, 0.0028573349, -0.0395409688, -0.0262820292, 0.0440983474, 0.0338753723, 0.0028491593, 0.0132101942, 0.0631175935, -0.0109767262, 0.0096646314, 0.0012353787, -0.0545766689, 0.0213432405, -0.0185761042, -0.0344367921, 0.0272033252, 0.0085101482, 0.0039444575, 0.0216031317, 0.0276401769, -0.0114005907, -0.0182938837, 0.0007706784, -0.0560755096, 0.0232174229, -0.0330827087, -0.0156114148, 0.0085807592, 0.0479479693, -0.0138182649, -0.0141748395, 0.0462449603, 0.0112113766, 0.0250727497, 0.0126870833, 0.0150730377, 0.0390819982, 0.0283357929, -0.0385786183, 0.0319016725, -0.0006202228, 0.0028682074, -0.0088324947, -0.0465111211, -0.0076921796, 0.0429596901, 0.0272723585, -0.0185389705, -0.0386321023, -0.0254841633, 0.0321164541, 0.0352991782, 0.0216684397, 0.0056798244, 0.0250794627, -0.0405001789, -0.0181315355, -0.0052563166, -0.0238343887, -0.0027581586, -0.0892386585, 0.0328322425, 0.0217396040, -0.0125168469, -0.0309119076, 0.0100097619, 0.0602956675, -0.0042084013, -0.0013111080, 0.0148770204, 0.0306622963, 0.0212229490, 0.0051827147, 0.0143181160, -0.0109921563, -0.0169832651, -0.0002792691, -0.0556327514, 0.0241833478, -0.0615483373, -0.0015237500, 0.0219761524, -0.0016967832, 0.0459383167, -0.0436715931, 0.0371442586, 0.0135523137, 0.0068019344, 0.0254855920, -0.0371476337, -0.0013238604, 0.0206278358, -0.0531173982, 0.0261137672, 0.0208977126, 0.0466599427, 0.0175282042, -0.0135183372, 0.0115810316, -0.0178998671, -0.0140670957, 0.0100722676, -0.0422111787, -0.0180925094, 0.0546696298, -0.0377422571, 0.0436966792, -0.0272125602, 0.0281859674, -0.0505067073, -0.0064002397, 0.0092893057, -0.0548775867, -0.0405991971, 0.0434773229, 0.0141121158, -0.0078324424, -0.0681289509, 0.0176678170, 0.0799623281, -0.0001770881, -0.0034964823, -0.0463460684, 0.0037717109, -0.0513695516, 0.0131396055, 0.0249615982, -0.0089237532, 0.0081387097, -0.0110315913, 0.0310549848, 0.0490965359, -0.0236345399, 0.0033359067, 0.0287910290, 0.0225453973, 0.0185196847, 0.0169165116, 0.0029378778, 0.0110989548, 0.0406552255, -0.0228525661, 0.0912104100, -0.0071184114, 0.0115174949, 0.0090419743, 0.0208077058, -0.0330080837, -0.0162630156, 0.0083813481, 0.0319332406, -0.0235027727, -0.0178988464, -0.0265558362, -0.0309266467, -0.0240019225, -0.0170934610, 0.0345255323, -0.0368443280, -0.0136363404, -0.0162383132, 0.0125888707, -0.0021782559, -0.0353562906, -0.0505315028, 0.0217859801, -0.0367563330, -0.0325761661, -0.0059439144, 0.0463441461, 0.0071614445, 0.0046862331, 0.0059128641, -0.0348567814, -0.0362851769, -0.0202546138, 0.0641770437, 0.0328164175, 0.0424609855, -0.0064783557, -0.0350996964, 0.0123782875, -0.0078425491, -0.0145792766, 0.0455336757, 0.0333963409, -0.0245549716, 0.0062981145, 0.0082015740, -0.0334153995, -0.0542044714, -0.0239833109, -0.0002650659, 0.0067800782, -0.0003160810, -0.0249378327, 0.0113545386, 0.0530516319, -0.0058061900, 0.0343658701, -0.0359721929, 0.0560718253, 0.0012223056, -0.0211217143, 0.0236180928, -0.0106160538, 0.0440963134, 0.0131343743, 0.0027526768, -0.0548488311, -0.0072474680, 0.0280549843, 0.0211512577, 0.0417197943, -0.0107250055, 0.0044793440, -0.0080210920, -0.0289196800, -0.0179117266, 0.0195274800, -0.0260857809, 0.0594840348, 0.0089354543, -0.0180845298, 0.0245594941, -0.0351315327, 0.0316601768, 0.0121066933, 0.0238702539, 0.0604964085, 0.0269126501, -0.0004125403, -0.0461556837, 0.0222554691, 0.0403408483, -0.0063707246, 0.0489008315, -0.0053358367, -0.0387109667, 0.0107987961, 0.0556893498, -0.0135856960, -0.0096590379, -0.0247651096, -0.0100578293, -0.0070815412, 0.0090896487, 0.0180424824, -0.0493481271, -0.0141782155, -0.0048658829, 0.0262765959, -0.0037543192, 0.0097802812, 0.0853790045, -0.0251010861, 0.0509578958, -0.0155640049, 0.0174455512, -0.0011039433, -0.0148201007, -0.0140194856, 0.0818143263, 0.0027009721, -0.0115892682, 0.0181030631, -0.0368911214, -0.0473584346, 0.0601326115, 0.0173261035, 0.0011064999, -0.0580877811, -0.0011551732, -0.0148534654, -0.0100754965, 0.0392864980, -0.0036420210, -0.0126310652, 0.0344411321, -0.0164055899, 0.0009775473, 0.0262772888, 0.0231861714, 0.0810746700, 0.0359573625, -0.0071990229, -0.0101242829, -0.0608485453, -0.0128554348, -0.0395120196, -0.0275766701, 0.0283052213, -0.0262598209, 0.0024875912, -0.0082707200, 0.0310664065, -0.0572650805, 0.0404458866, 0.0531040430, -0.0607828535, 0.0371119902, 0.0469185263, 0.0561031699, -0.0141562447, -0.0117568430, 0.0037952247, 0.0219563823, -0.0423932150, 0.0155097600, -0.0411905125, -0.0020183325, 0.0319892913, -0.0478707999, -0.0244376026, -0.0560808182, 0.0090405894, -0.0058590835, 0.0186840575, -0.0051800893, 0.0416150354, -0.0106587233, -0.0048452271, 0.0035071094, 0.0193406790, -0.0335032903, -0.0054674321, -0.0015416142, -0.0353104733, 0.0108876871, 0.0363384597, -0.0380354673, -0.0027567339, -0.0083876643,