//Numpy array shape [5, 5, 4, 16]
//Min -0.307689130306
//Max 0.331908583641
//Number of zeros 0

#ifndef W4_H_
#define W4_H_

#ifndef __SYNTHESIS__
model_default_t w4[1600];
#else
model_default_t w4[1600] = {0.0781702995, 0.0108689768, 0.1508093327, 0.0582275242, 0.1019027978, -0.0666376501, -0.0905699730, 0.0167538449, 0.0388973542, 0.1069929227, 0.1007520035, -0.0598735549, -0.1039189249, 0.0050638104, 0.0831453130, 0.0927901939, 0.1377566159, -0.0344080850, -0.2253529876, 0.0177969951, -0.1353650987, -0.0723188147, -0.0504071005, 0.0380011126, 0.1255058795, -0.2520838976, 0.0828710422, 0.0720827281, 0.0079917973, -0.1314648241, 0.0317644775, -0.0218715500, -0.0316128321, -0.2244639099, 0.0164932571, -0.1446490288, -0.1254161596, 0.0468458384, -0.0359029658, -0.0824458301, -0.0125665925, -0.1991744041, 0.0158106219, -0.0185448099, -0.1645511389, -0.1250963658, 0.2650234103, -0.0065164147, -0.1203845441, -0.0268624481, -0.1862740666, 0.1644895226, -0.1005874723, -0.0849426910, 0.0505909286, 0.1695311517, 0.1086097285, 0.1071572080, 0.0638306513, -0.0081919953, -0.0494263768, 0.0303414669, -0.0654425099, 0.0398014486, -0.0824989900, -0.1412120461, -0.0011394208, 0.0137297586, 0.0066608717, 0.0630695745, -0.0064150388, 0.0532713309, 0.1304964870, -0.0554439239, 0.1478486359, -0.0377027616, -0.0642645955, 0.1426071823, -0.1750990897, -0.0013999706, -0.0116339102, -0.0468698367, -0.0023054893, -0.0339849032, 0.0920757428, 0.1432076842, 0.0489376523, 0.0501488894, 0.0617984086, 0.0527786203, 0.0113373064, -0.3155014813, -0.0763726756, -0.0030372075, 0.0339059345, -0.0923079923, 0.0204922911, 0.1198487878, 0.0790887773, -0.0816220716, -0.0568752326, 0.2207560986, 0.0378241912, -0.0164890029, 0.0069123316, 0.0209959634, -0.0905424431, 0.0426124632, 0.0057429657, -0.0238978993, -0.0547825247, -0.1016201675, -0.1030213982, -0.1747729033, -0.0441232584, 0.0800656155, -0.0398970693, 0.0212282054, 0.0337156840, -0.1079658419, 0.0365459062, 0.1881256551, -0.0478793681, -0.0656488687, 0.0209464151, 0.1673582047, 0.0058825989, -0.1047501713, -0.0988373607, -0.1040404961, 0.0015412611, 0.0065774261, 0.0386402793, -0.1133925915, -0.0591812842, -0.1109385937, -0.0089723747, 0.0812473521, 0.0997950584, 0.0211395640, 0.1642146409, -0.2108098865, 0.0614139810, -0.0562454090, 0.1000440046, -0.0363869853, -0.0575520061, -0.1162350252, 0.0465705842, -0.0697652325, 0.0437081754, 0.2581980824, -0.1212290525, 0.0688241348, -0.1220571026, -0.2311944664, -0.0025694841, 0.0092285406, 0.0930994749, 0.1076999456, -0.0547933392, 0.1278385371, -0.0688938871, 0.0380448215, -0.1566678584, -0.0273377337, 0.0447762460, 0.0042533386, 0.0319540501, -0.0184733309, 0.2134497911, 0.0283681769, 0.0372510850, 0.0848132223, -0.2104004920, 0.0758005083, -0.1027521193, -0.2296973020, -0.0287911538, -0.1375578791, 0.1018283665, 0.1157094389, -0.0530476831, 0.1884803027, 0.1324837506, 0.0973565802, -0.0832619444, -0.0879077017, -0.0631260648, 0.0765413567, 0.0937368646, -0.0654062405, 0.1563278139, -0.0856383890, -0.0611054264, 0.0435843803, -0.0687298104, 0.2007882744, -0.1293014437, 0.0105672013, -0.2557216585, 0.0314878486, 0.1594596952, -0.0752882808, 0.0949232802, -0.1363984644, -0.1213529333, 0.1957075000, -0.0337969586, 0.0287862737, 0.0323594771, -0.1886615753, 0.1224353537, -0.0734292939, 0.1066613197, 0.0337988213, -0.0535172187, 0.0618386306, 0.0573724434, 0.0385638848, -0.0574441105, -0.0398068652, -0.0435174853, 0.3205896020, 0.1251789331, -0.0291367657, 0.0671905130, -0.1233766600, -0.0047426466, 0.0755390376, 0.0027603218, -0.1028894484, -0.0975493044, 0.0487824865, 0.0728394166, 0.0380917378, -0.1991310269, -0.1494517177, 0.1419349462, 0.0850375146, -0.1315963119, 0.0023532030, -0.1008116379, -0.0641308129, 0.1067970246, 0.0258264206, 0.0219685063, -0.0391473025, -0.0725632980, 0.1527941823, 0.0951048285, 0.0260091871, -0.0717540458, -0.0533871837, 0.0633523911, 0.0028275754, 0.0255278368, 0.0827213749, 0.0627741069, 0.0243895371, 0.1238053367, 0.0309201553, -0.1079778522, 0.0816797987, -0.0662006959, -0.0592284352, -0.0680598244, -0.1550145298, -0.0762228593, -0.0061828047, 0.1356558353, -0.0401094258, -0.1793022603, 0.0704758763, 0.1272441000, 0.1414657235, 0.0534812883, -0.0382228121, -0.0553059354, -0.0005617343, 0.0750218257, -0.0504139848, -0.0761478171, -0.1176185310, -0.1322179288, -0.1840081811, -0.0544686690, -0.1043946669, -0.0165770352, -0.0907568410, -0.1220243275, -0.0176708791, -0.0901247710, -0.0732706189, 0.0939055383, 0.0764684081, 0.1227237359, 0.0145025067, -0.1744827479, 0.2104864269, -0.0548564084, 0.1762930900, 0.0219215732, 0.0142153492, -0.1285325289, 0.1231260374, 0.0838701725, -0.0174438581, -0.1292069703, -0.1270424724, -0.0284675211, 0.0476180613, -0.1007717773, -0.1973280013, -0.0254936423, 0.0128175952, -0.1747948378, 0.0005325190, -0.0259669647, -0.0788722560, 0.0985022262, -0.0824854523, 0.0732957423, 0.0818786621, -0.1603029817, -0.0484799333, 0.0929217637, 0.0607126392, -0.0182935800, 0.1224474534, 0.0506037250, -0.0040521030, -0.0897771642, -0.0896738395, 0.0259067938, 0.0369636752, 0.0579987541, 0.0050104335, 0.1324951500, 0.0928705409, 0.0414757542, -0.0927580371, 0.1933257729, 0.1693448871, -0.1083665490, 0.0418936312, 0.2198113650, 0.1980887353, 0.0319454670, 0.1723885089, -0.0182912648, 0.0526753440, 0.1101490036, 0.0727592334, 0.0145459399, -0.1804401129, 0.1532236934, -0.0929896533, 0.0603530258, -0.0536653921, -0.1524398625, 0.0924090073, -0.2091196775, 0.0624800958, 0.1187589690, -0.2613805830, 0.1659997702, -0.0653423220, -0.1070590615, -0.0631824955, -0.0481861085, 0.0313487016, -0.0759516358, -0.0454569124, 0.1760579795, -0.1128018051, 0.0553190522, 0.0501790121, 0.0839122608, 0.0972831696, -0.1097264811, 0.0433573499, 0.0107843792, -0.0183461178, -0.0641778633, 0.0234692898, -0.0889728889, 0.0895053819, 0.0766853541, 0.0438474678, 0.1153123751, 0.0305169951, -0.0785972476, -0.0104128579, -0.1265640408, 0.1540775150, 0.0487214811, -0.0955562815, -0.1259187609, -0.0293259174, -0.2347293943, -0.2010901421, 0.1859474033, -0.0257991422, -0.0578809679, -0.0983615071, -0.0485988222, -0.1426006109, 0.0231314749, -0.0253725313, -0.0362985283, -0.0158937890, -0.0367003642, 0.0268507749, 0.0748261288, -0.1562485546, 0.2953190506, -0.0496798567, -0.1123284996, 0.0856910795, -0.0330562145, -0.0172070228, -0.0322573148, 0.0262707062, -0.0520565882, 0.0023029801, 0.0527390838, -0.0159139559, -0.0079257851, 0.0770955160, 0.0415344276, -0.1316581964, -0.0161463078, -0.2080979198, -0.1634170115, 0.0359447151, 0.1424325258, -0.0387670584, -0.0396193303, 0.0509948507, 0.0620057508, 0.0338738337, 0.1071398333, -0.0783695504, 0.0090098120, 0.1115247980, -0.0315782800, -0.0212618504, 0.1121450663, -0.0034109296, -0.0511111952, 0.1000122800, -0.1300805658, -0.1328193992, 0.1147193387, -0.1854325086, -0.0039004968, -0.0900852308, 0.1301166862, -0.1762315780, 0.0865496695, 0.0813351125, -0.0920356736, 0.0193224959, -0.1662064344, -0.0215680990, 0.0023744979, -0.0938404649, 0.0399862304, 0.0839507356, -0.1064291522, 0.0712271035, 0.2661048174, -0.0798690170, -0.2802551985, -0.0620738715, -0.0498703234, 0.0432375632, -0.0463524386, -0.0026499799, 0.0116274953, 0.0824462846, -0.0042259097, -0.0671616942, -0.1568708718, -0.1201713607, -0.0597263277, 0.0929824263, 0.0192647576, -0.0571065284, 0.0279826131, 0.1893158704, 0.0548075102, -0.0226765443, 0.0204139240, 0.0926784649, 0.0911811292, -0.1660753191, 0.0685914829, -0.0236856509, 0.0393815115, -0.0219813045, -0.0336940661, 0.1342141777, -0.0173918381, 0.1719806045, -0.0360813178, -0.2510933578, -0.0031516354, -0.0552492775, 0.1061250344, -0.1226444989, -0.0353019834, 0.1071906164, 0.0404294506, -0.0077149346, -0.0178351589, 0.0580524728, 0.0671029836, -0.0165212769, 0.0205267835, 0.1101612449, 0.0328936614, 0.3100627959, 0.0464826077, 0.0977124721, 0.1197856143, -0.1913101822, -0.0537992828, -0.1721144617, 0.1300992370, -0.0421717837, 0.0221728571, -0.0919319391, 0.1134648249, -0.0288233105, -0.0546628051, -0.0475014411, 0.0043191626, -0.0985455886, 0.1627126485, 0.0178733449, 0.1738690585, -0.1408553123, 0.1431702971, -0.0883252770, -0.0116258776, 0.0179096647, 0.1536640525, -0.0209842920, 0.0019039660, -0.0333374403, 0.0196282975, 0.0510816723, 0.0853341743, 0.0250917245, 0.0230849870, 0.0575841554, -0.2933936715, 0.1304668039, -0.0319096893, 0.0170371644, 0.0033660864, 0.1957001537, -0.0849509388, 0.0023482533, 0.0420209803, 0.1146282032, -0.0955031514, 0.0052175447, -0.2519997060, -0.0092773000, -0.0052785589, -0.0347463302, 0.0448738784, 0.1027652696, -0.0677604750, 0.1039916724, -0.0740714520, -0.0134166144, -0.0313369073, -0.0844378099, 0.0954495817, -0.0536426492, 0.1312156320, 0.0866015777, 0.1398037076, -0.0002673635, -0.2038559765, 0.0298988614, -0.0276915655, 0.0735383481, -0.0333033130, -0.1616136283, -0.0120184356, 0.1242773831, -0.0177169368, -0.2113368958, -0.0352072269, 0.0521029010, 0.0351625718, -0.0048397416, 0.2031712830, 0.1621358991, -0.1035222933, 0.0148393847, 0.0510819033, 0.0627650768, 0.0923088193, 0.0428370684, 0.0023640399, 0.0145799527, 0.0504847132, -0.2352851778, 0.0048380350, -0.1118738204, 0.0638854653, -0.1360957175, -0.1098194271, -0.2282938957, 0.0371778384, 0.1735833138, 0.0421869792, 0.1123202369, 0.0865043849, 0.0525960587, -0.0275703166, -0.0318421610, 0.1384797543, -0.1267017126, -0.1257850975, -0.0251151696, 0.2099031657, 0.2234501988, -0.0660672784, 0.0426861905, 0.0134816514, -0.0845686942, -0.0411369689, -0.0140804276, 0.0414181352, -0.0273729414, 0.1060666665, 0.0647992566, 0.1629084647, 0.0450434908, 0.0251081232, 0.0034608785, -0.0917784274, -0.0217751171, 0.0509665050, -0.1220929697, -0.0524038933, -0.1067763492, 0.0266853366, -0.0556659102, -0.0610312931, -0.1601418257, -0.0258567818, 0.0828286484, 0.0909066796, 0.0878903046, 0.1177752241, 0.0524349809, -0.0262195319, 0.0337547623, -0.0206277929, -0.0168810040, -0.1231644824, 0.0583931990, -0.1283410937, 0.1332897395, 0.0297505260, 0.1721293181, 0.1594808251, -0.1122574508, 0.1427243352, 0.1362167448, -0.1576453894, 0.2061852962, -0.0158000663, 0.1139529273, 0.0341704972, 0.0900603756, -0.0738724247, 0.0983074158, -0.2096102834, 0.0592213757, -0.0379057117, 0.0898278281, 0.0627609566, -0.0343449451, 0.0888043270, 0.1290498078, 0.1877227277, -0.1288833320, 0.0180615168, 0.0725935251, -0.0765754580, -0.0013296648, 0.0868282244, 0.0012314186, -0.0162475202, -0.0249290653, 0.0192223266, -0.0478375591, 0.0141749242, 0.0328370482, 0.0669040605, -0.2574936748, 0.0423799232, 0.1152647659, -0.2277833372, -0.1354346722, -0.0923124775, -0.0283603054, 0.0367449708, -0.0598647259, -0.0361891650, 0.1672354341, -0.0344679728, -0.0785114691, -0.0229195897, 0.1786867231, -0.0328596793, 0.0478551425, -0.1661265641, 0.0257564541, 0.1022749841, -0.0329970606, -0.0916177332, -0.1864855886, 0.0024988204, 0.0257313251, 0.0928923190, -0.0764286295, -0.0577357709, -0.0199590735, 0.2396725714, 0.0832250267, 0.0565167740, 0.0732703954, 0.0070414338, 0.1487886608, 0.1722266227, 0.0501354933, -0.0863336250, -0.0186615624, -0.1015655547, -0.0920667946, -0.1923584193, 0.0416791700, -0.0763309002, 0.0385564677, 0.0146362027, -0.0260367654, 0.1118952930, -0.0175970197, -0.0335743167, -0.0813309774, -0.0419659689, -0.0937706307, 0.1081166416, 0.1218165159, 0.0427290276, 0.0783431157, -0.0536631458, 0.1923998743, 0.0718638375, 0.0007089606, 0.1651591510, -0.2222203314, 0.0274265371, -0.1160863116, 0.0154628716, 0.0973565876, -0.1297485083, 0.0489899069, -0.0493120886, 0.0875111818, 0.0151204066, -0.0632833540, 0.2135160714, -0.0615101792, 0.0871689990, -0.0057970304, -0.2295601815, -0.0872190297, 0.1987643242, -0.0351536274, -0.0991353095, -0.0599834919, 0.1824685931, 0.0504073687, 0.0312286392, 0.1143184006, 0.0617022440, -0.1164564639, 0.0443542004, -0.0803470463, 0.1180302724, 0.1105212718, -0.1225235090, 0.0808471814, 0.0822311491, -0.1711821407, 0.0829793140, -0.0259666108, -0.1081660315, -0.1535390317, 0.1174088120, 0.1343662292, 0.1955120414, 0.0553360805, -0.0359548777, -0.0005793064, -0.0424204171, -0.0948462933, -0.2135452628, -0.0228041969, -0.0707834139, -0.0254508145, -0.1831156909, -0.0735732988, 0.0510939509, 0.1621146798, 0.0599669367, 0.0016457551, -0.0531591922, 0.1378371418, -0.1469593644, 0.1030184105, 0.1156978831, -0.0746202171, 0.1305788606, -0.0855770111, 0.1283143610, -0.0109147569, -0.1084202752, 0.0089841979, -0.1075580493, -0.1448975652, -0.0299789254, 0.0997289345, 0.0049386751, 0.1410039961, -0.0980696827, 0.1043092832, 0.1398827732, -0.0462090187, 0.0461786501, -0.0565757863, -0.1215701029, -0.0105213039, 0.1040001959, -0.0728777722, -0.0078536291, -0.0159076899, 0.0356358588, 0.0199211743, 0.1786204875, -0.0137624368, 0.0094230250, 0.0569074117, -0.0858130082, -0.1299917251, -0.2335407883, -0.1002652124, -0.2201963514, 0.1480599642, -0.0307416692, -0.1497504860, 0.0384330228, -0.1533869952, 0.1022250429, 0.1739048958, -0.0081887087, 0.0863753557, -0.0528549515, -0.0936074778, -0.0781489238, -0.0280140080, -0.0083985338, 0.0271324590, 0.0495448597, -0.1419731528, -0.0538984053, -0.0583938435, -0.0386191867, 0.1532498002, 0.1000479981, -0.0370578989, -0.0021981609, -0.1769738644, -0.1443286240, -0.0554840639, -0.0439957120, -0.0137574645, -0.0970084444, -0.0439544916, -0.0080967471, -0.1766263545, 0.0856522322, -0.0696427748, -0.0597849749, 0.0443003625, -0.0837332606, 0.0795901716, -0.0956404284, 0.0729289502, 0.0778833777, -0.1607773155, 0.0775703862, 0.0701229349, -0.0890958831, 0.1009780243, -0.0596662946, -0.1432216018, 0.0373343155, 0.0434124582, -0.1324370056, -0.0686884150, -0.1116871089, -0.0080333678, -0.0033060564, 0.0487766042, -0.0439447500, -0.1558166593, 0.0138069820, 0.1186281294, -0.1053314358, 0.0283567850, 0.1230139136, -0.1068087593, 0.1147425100, 0.0171150789, -0.2035098225, 0.0642608404, 0.0647915006, -0.1108043119, 0.0073483796, -0.0049890629, -0.0465237387, 0.0572756305, -0.1988373846, 0.0750738904, 0.0823000595, -0.1026753485, 0.0787635371, 0.0247310437, 0.0325739309, -0.0123167355, 0.1282833517, -0.0822695643, 0.0398731194, 0.2954242527, -0.0636403412, -0.1378597766, 0.1029738709, 0.0107157035, -0.1659483761, 0.0398198292, 0.0559971072, 0.0535393246, -0.0689646602, -0.0175558496, 0.0305002593, -0.0051144459, 0.0998575762, -0.0284523629, 0.0655952394, -0.0982859880, -0.1117926463, 0.0518568493, -0.1433933824, 0.0376823097, -0.0199648272, 0.0996912569, 0.0433588177, 0.2065470815, -0.1328149587, 0.0470627174, 0.1840069890, 0.2003498375, -0.0848471969, 0.0546237417, -0.0935186744, 0.0362737738, -0.0893319696, 0.1186228022, 0.2976479828, 0.1238800064, 0.2027192414, -0.0927301049, 0.0022535773, 0.1168282628, -0.0292644184, -0.0524000153, 0.0157777239, 0.0635864213, 0.1564727873, -0.0053315032, 0.0130136572, -0.0452500284, -0.0559101626, 0.0804108456, 0.1006280929, 0.0340131894, 0.1367574185, -0.0464373641, -0.2272318304, -0.0729776397, -0.0865418762, 0.0910323411, -0.0007109002, 0.0751443058, 0.1262535155, -0.1121433228, -0.1124323756, 0.0129510742, -0.0302008055, 0.0736519471, 0.0207415763, -0.0358443074, -0.2082606107, -0.0038712628, -0.1215515062, -0.0647302046, -0.0354787149, 0.0160709806, -0.1294416934, 0.0208107792, -0.1065745577, -0.0835013017, -0.0561004467, 0.0850138217, -0.0606976673, -0.0721808225, 0.1995191872, -0.1204043403, -0.1637315005, -0.0421871617, 0.0428760573, 0.1984624565, 0.0456533320, -0.0224660840, 0.0786284730, 0.0141155282, -0.1442029476, 0.1262901276, -0.1033842042, -0.1010914147, -0.1421546936, -0.0268897954, -0.1237945035, -0.0312860198, -0.0555518940, -0.1916347593, 0.0135853812, -0.0281840097, -0.0228904635, -0.0651982278, 0.0535244942, 0.0708406642, -0.1482176036, 0.0427350737, -0.0664102137, 0.0382884704, 0.1274045557, -0.0706830546, -0.1665862352, 0.0236070715, -0.0018203899, -0.0070676329, 0.0636709630, -0.1383998245, -0.0420758389, -0.1829981059, -0.0981075689, 0.0738318786, 0.1246102974, -0.0202319827, -0.0668101385, -0.0004204204, -0.0547844879, -0.2163616121, 0.2023696899, -0.1849230975, -0.2060495913, 0.0708779544, 0.0009385300, -0.0832409337, -0.1086983681, -0.2176128328, -0.0609525815, -0.0114393178, -0.1334673166, -0.0706010759, -0.0971804559, 0.0795190856, 0.0595027357, -0.1898811013, 0.0305234287, 0.0620449074, -0.2646972537, -0.0138665671, -0.0045829285, 0.0496316515, 0.0092835100, -0.0409637243, -0.1002536640, -0.0150089459, 0.2016382813, 0.0510970242, 0.0440384634, -0.0008643726, -0.0926199108, 0.1465301961, -0.0211224202, -0.1022835672, 0.0883579776, -0.0173430517, -0.1132021770, -0.1274733394, 0.0028999143, -0.1138999313, 0.1356432438, -0.1011927053, -0.0860847980, -0.1803668737, -0.1555970609, 0.0700753555, 0.1342507303, 0.0720507354, 0.0816695169, 0.1384492517, -0.0999962389, -0.0930795968, -0.0694804117, -0.1360023469, 0.0002399253, -0.0074239173, 0.0419029370, -0.0000915220, 0.0727707073, -0.0252463445, 0.1543647200, -0.1287518591, -0.0199913476, 0.0119108250, -0.1001040563, -0.1112592742, -0.1091350466, 0.0526116341, 0.0876459405, -0.1569522321, -0.0561040677, 0.0535155870, 0.0596227534, -0.1331568360, -0.0692045391, -0.0216693655, -0.0412710756, 0.0061665280, 0.0387174301, -0.0519924238, 0.2617903650, -0.0391331576, -0.1028122604, -0.0024544902, 0.1299209893, -0.0940759405, 0.0895911977, -0.3018966317, -0.0276271794, 0.1194243580, -0.0089568431, -0.0282282177, 0.0079009440, 0.1267476529, 0.2302670926, -0.0324546471, 0.1774371415, 0.0623937622, 0.0706641823, -0.0704793334, 0.1011613533, 0.0587297715, 0.0409161933, -0.1411088109, -0.1190464348, -0.0213747416, 0.0841397122, 0.0825782642, -0.1426705122, 0.0161812901, 0.0733677000, 0.0905843973, -0.0610051081, 0.0249038637, 0.1481053978, 0.0426714979, 0.0935778916, -0.1678190529, -0.0097778244, -0.0840221941, -0.0566407405, 0.1843419820, 0.1602067798, 0.0167546645, 0.0236439984, -0.1145415455, 0.0534036607, 0.0621632077, -0.3067292869, 0.0644515455, -0.0590083599, -0.0851646662, 0.1989392638, -0.1311894804, 0.1255736351, 0.1243062094, -0.0307284165, -0.0886190087, 0.0313798115, -0.0355950855, 0.0518446192, -0.0438436009, 0.0464770198, 0.0824595839, 0.1149147153, 0.0380402096, -0.0814373568, 0.0595216826, 0.1020741388, 0.0369732864, -0.1085375845, 0.1282880157, 0.0542717166, -0.0137749044, -0.0734783113, 0.0592091754, 0.1819630116, -0.0654180497, 0.1329665184, 0.0453738198, -0.1710647047, 0.0675177351, 0.0148279462, 0.0975160077, -0.0366476849, 0.1130231693, -0.1325299889, -0.2057280540, 0.0416145697, -0.0701613724, -0.0531317778, -0.0445850343, 0.0352743119, 0.0026474663, -0.0230057593, 0.1449194551, 0.0625173375, -0.0405329242, 0.0150197065, 0.0026427091, 0.1797172129, 0.0585114099, 0.0349970534, 0.1960612983, -0.0975471735, -0.0784127712, -0.0873363912, -0.1006576344, -0.0473437086, 0.0372266173, -0.0979093015, 0.1460119486, -0.0987628922, -0.0740821138, -0.0274942480, -0.0961586013, -0.1062467992, -0.0911222175, -0.1355791539, 0.0512714162, 0.1015745550, 0.0288506076, 0.1639669240, 0.2548304796, -0.0207697600, -0.0008420674, -0.1291752607, 0.0655250922, -0.0862273499, -0.0349343829, 0.1045786142, -0.0651251301, 0.0917072296, -0.1431590319, 0.0317715853, -0.1414801329, 0.0445192568, 0.1558829546, 0.0011932844, -0.0373408608, -0.0813596770, 0.1337519288, 0.0786035210, -0.0399754718, 0.0039311741, 0.1354540884, 0.0770467818, 0.1471101344, 0.1087568477, 0.0754987821, 0.0616107844, 0.1428519338, 0.1574882716, -0.1992237717, -0.1837917119, -0.0022840549, -0.0061644516, -0.0173705090, 0.2780996561, -0.0550441556, 0.0871630609, 0.0937714577, 0.0406316668, -0.0221052524, 0.1392814666, 0.0726127625, 0.0186668392, -0.2242927402, -0.0342672355, 0.1439764798, 0.0830681324, 0.0555435084, 0.1634433270, -0.0343577638, 0.1302187145, -0.1050293446, -0.0280153472, 0.2297221571, -0.0037297381, -0.0845299438, -0.1008430645, 0.0848111585, 0.0330734290, -0.0390026607, -0.0523334295, -0.1940868348, -0.1298961341, 0.1485734582, 0.0577753894, -0.0494921841, -0.0050424286, -0.0241275448, 0.0069853873, -0.0250265095, 0.0800732374, -0.0403539911, -0.1125419587, 0.0569554083, 0.1198339984, 0.0108341165, -0.1006830186, 0.0665533841, 0.0664724484, -0.0396376662, -0.0757653639, 0.0079950206, -0.0528851263, 0.2518511713, 0.0119054792, -0.1096981466, -0.1793014556, -0.0519874282, 0.0306551382, 0.0438092798, 0.0185991619, -0.1241446957, -0.0155099779, 0.0526553392, -0.0580565706, 0.0609797984, -0.0681153685, -0.1253841817, 0.1631979495, 0.1009771675, 0.0190456081, 0.1536770314, 0.0363541692, 0.0173118562, -0.1505473703, 0.0652595758, 0.1329614222, 0.0725529566, 0.0141498055, 0.1154136509, -0.0543860607, 0.0123241404, 0.0403842367, 0.0173290297, 0.0559304506, 0.3389525712, -0.0596796274, 0.1359673440, 0.0825252980, -0.1531329155, -0.0765890703, 0.0318578668, 0.0084854607, -0.1592673063, 0.0005206451, 0.0397311859, 0.1009138450, 0.0773329064, -0.0004758864, -0.0229304787, 0.1348373741, -0.0591502190, -0.2067731172, -0.0256291050, -0.1510363072, 0.0391913354, 0.0513456389, -0.1274226159, 0.0410755351, -0.1333746612, 0.1701220423, 0.1145838052, 0.0186079685, -0.0093980357, -0.0615531690, 0.0138722705, -0.0921961889, 0.0057576299, -0.1047223732, 0.0572139509, -0.2000125796, 0.0572159663, 0.1036174372, 0.0008470932, -0.2010475248, -0.0195444599, 0.0030379514, -0.0063341726, 0.0806156844, 0.0659144521, -0.0265947841, 0.0342737362, -0.0948655233, 0.0049425354, -0.1104752421, -0.0490709618, 0.1449121684, -0.0869248584, -0.0040476792, 0.0888846368, 0.2187129557, -0.0227257758, 0.0051685725, 0.0269244183, 0.0904463306, -0.0848942176, -0.0270544067, -0.0945571288, -0.0096007688, -0.0439194366, -0.0331505165, -0.1757372916, 0.0763860717, 0.0802806988, -0.0326042622, 0.0668062642, 0.0885682404, 0.0874884427, 0.0797891840, 0.0407917276, -0.1164500043, -0.1868031472, 0.0073949485, -0.0592895187, 0.0571110509, -0.0436590537, 0.0172071811, -0.1902255565, -0.0884954035, -0.0297923442, -0.0043383730, 0.0318699405, 0.1936196983, -0.0529083125, 0.0981505141, -0.1073357984, 0.1117797717, 0.1184696332, 0.3399474323, 0.0310901497, 0.0564054251, -0.1007767245, 0.0665072203, -0.0945915878, 0.3186502457, -0.0255203862, 0.0094918665, 0.0841009244, -0.1309205741, 0.1793885082, -0.0615484491, -0.0335462131, -0.0301615577, -0.0516209863, -0.0119814975, -0.1621398628, 0.1091428474, -0.1531063020, 0.0934535787, -0.1825963855, 0.1828485578, -0.0433758646, -0.0436577164, 0.0592413843, -0.0898215026, 0.1882962734, 0.0168792494, 0.2236215323, 0.0751028284, -0.1236499026, -0.0774465352, 0.0100282114, 0.0371635258, -0.1240626201, -0.0598479360, 0.1197917461, 0.1373406202, -0.1465536952, -0.1897286922, -0.1479981393, -0.0450807884, -0.0682310611, 0.0208402034, -0.0348684266, 0.1224718243, 0.0084849959, -0.0353403650, 0.1068662181, -0.0078191785, 0.2342216522, -0.0620673448, 0.0370872766, -0.1065988913, -0.0023624313, -0.0966374800, 0.1367694139, 0.0597498752, 0.0101588387, -0.1415528655, 0.0596299507, -0.0047351308, -0.0150892371, -0.0359078087, 0.0461077988, 0.0376130044, -0.0262753814, 0.0014361892, 0.0713325813, 0.1214054897, -0.0934012160, 0.1428796649, -0.0458589047, -0.0798934102, -0.0314608701, -0.0306446105, 0.0291189179, 0.0006333440, 0.0025542770, -0.0616051778, -0.0300214514, -0.1493978500, 0.0423516333, 0.1869146228, 0.0766732469, -0.0396917611, 0.0103966938, -0.0518267974, 0.1337796599, 0.0037336850, -0.1498468369, -0.0850111842, -0.0092730997, -0.0726681501, -0.1020167917, -0.2780776322, 0.0582673289, 0.0490444191, 0.0672925338, -0.0090434449, 0.0575567633};
#endif

#endif
