//Numpy array shape [256, 256]
//Min -0.253305733204
//Max 0.258795619011
//Number of zeros 0

#ifndef W49_H_
#define W49_H_

#ifndef __SYNTHESIS__
model_default_t w49[65536];
#else
model_default_t w49[65536] = {-0.0382888168, -0.0325291343, -0.1283808351, -0.0843584165, -0.1098914370, 0.0411435813, -0.0420840234, 0.0098608024, 0.0029511510, -0.0044569490, 0.0264016930, 0.0201585237, -0.0390343107, -0.0416259319, -0.0397578888, 0.0842886269, 0.0800065026, 0.0577481911, -0.0147159509, -0.1258748025, -0.0115731303, -0.1776408702, 0.0480052568, 0.0051659453, -0.0033755680, -0.0207539499, 0.1046144962, -0.1014874578, -0.0242728312, -0.0197689570, 0.0603457615, 0.0364939533, -0.0776457787, -0.0840438083, 0.0595858917, 0.0075821849, 0.0269406382, -0.0103817405, 0.1531845629, 0.0266197678, 0.0619904138, 0.0944979936, -0.0634402409, -0.0709983557, 0.0369019620, -0.0324162692, 0.0630950257, 0.0775290355, -0.0800164416, 0.0089694522, 0.0421147905, 0.0542709865, 0.0871410593, -0.0787497163, -0.0341174640, 0.0237392727, -0.0988027602, 0.0442087986, -0.0785974935, -0.0565107539, 0.0111713689, -0.0067647006, -0.0270533692, 0.0092041427, 0.0680570304, -0.0343312696, 0.0394072197, -0.0538296774, 0.0095758764, 0.1369243562, -0.1094894856, -0.0927681103, -0.0646692887, -0.0188746862, 0.0479148999, 0.0501806326, -0.0396710187, 0.0173834246, -0.0930859521, -0.0248530395, -0.0500009507, 0.0150108933, 0.0145228514, -0.0345113017, -0.1582978517, 0.0242056828, -0.0440719388, 0.0097555574, 0.0373707190, -0.0426369235, -0.0563305207, -0.0200820006, 0.0434858836, -0.0126965316, 0.0715816841, 0.0785363466, 0.0612037331, 0.0093908887, -0.0871849060, -0.0419475660, 0.1069490761, 0.0428356454, -0.1301940531, 0.1246849820, -0.0430260934, 0.0211392809, -0.0234348569, -0.0064478898, -0.0157875717, -0.0976865068, -0.0333655998, 0.0966725126, -0.0265699495, 0.1082262695, -0.0218942184, -0.0453884378, 0.1281938106, 0.0967607945, -0.0710778087, -0.0339349210, 0.0357830003, 0.1154522374, 0.0591332503, 0.0589546748, 0.0759199113, -0.0747131705, 0.0149134230, 0.0054390263, 0.0489414483, 0.0195574462, -0.1399169564, -0.0108389212, -0.0073529757, 0.0668361187, 0.0333302245, 0.0573335253, -0.0208298992, -0.0728826523, 0.1200310364, -0.0740364343, 0.0427308232, -0.0321929380, -0.0090268739, 0.0570176430, -0.0547690652, -0.0494399033, -0.0207836609, -0.0252653155, -0.0175801404, 0.1867444962, 0.0592999719, -0.0189983565, 0.0530312359, -0.0078613991, -0.0296922550, -0.0434470549, -0.0196295884, -0.0215908717, -0.0243001953, -0.1145621315, -0.0395670310, 0.0292417258, -0.0477127098, 0.0138076553, -0.0637866408, 0.0102344314, 0.0053734551, 0.0913011730, 0.0587462671, 0.0137596782, 0.0185756180, 0.1204281226, 0.0711533949, -0.0749779493, -0.0199416224, 0.0816707984, 0.0295819677, -0.0425101109, -0.1291933507, 0.0737131983, -0.0428917408, 0.0534966998, -0.0709278435, 0.0193326566, -0.0051971301, 0.0500313789, 0.0301495381, -0.0466556624, -0.1214930266, -0.0292498078, 0.0244793855, -0.0453484356, -0.0356672816, -0.0264234375, 0.0697943568, -0.0439984426, -0.1008161977, -0.0003755419, 0.0056196270, 0.0677776560, 0.0829666182, -0.1199322268, -0.0488927364, -0.0374474153, -0.0217771959, -0.0132068349, -0.1116089746, 0.0125979781, 0.0007801770, -0.0173824877, -0.1727755219, 0.1473716199, 0.0309666134, 0.0010076271, -0.0579196848, 0.0218709894, 0.0007190050, -0.0729287043, 0.0570519418, 0.0205378160, 0.0206789989, -0.0253295936, -0.0903794020, 0.0181329418, -0.0783790872, 0.0243435539, -0.0185052566, 0.0977482274, -0.0349300131, -0.0474795289, -0.0264781062, 0.0990755558, -0.0709383041, -0.0122896377, 0.1229307204, 0.0169994477, 0.0023594778, -0.0196678676, -0.0332783982, 0.0034136144, 0.0501616336, -0.0265313759, 0.1177745983, 0.0039728978, 0.0569363460, -0.0204697624, 0.0425720438, -0.0055028582, 0.0053579197, -0.1164776981, 0.0223595500, -0.0167986453, 0.0466455519, 0.0725276470, -0.0062802252, 0.0547740199, -0.0576024428, 0.0810634419, 0.0029965779, 0.0491908230, -0.0354910493, 0.0120776733, 0.0037365810, 0.0265606996, -0.0248277169, 0.0695085078, -0.0210302342, 0.0304055456, 0.0567228869, 0.0482784659, 0.0506236330, -0.0513469465, 0.0573055260, 0.0445993170, 0.0217485130, -0.0702616274, -0.1184530333, 0.0653541088, 0.0940281823, -0.1554453820, -0.0018416952, 0.0759119615, 0.0386188515, 0.0210369956, -0.0659803599, -0.0154569857, -0.0337514542, 0.1259565800, 0.0676335320, -0.0165312998, -0.0696776062, 0.1440002769, 0.0194606055, -0.1070507094, -0.0359825604, -0.0330589302, 0.0833447650, -0.0191872101, -0.1000949517, -0.0984029472, -0.0081796385, 0.0775902346, 0.0561733544, 0.1291513145, 0.0378608853, -0.0098994486, 0.0281095337, 0.0147463763, -0.0884455666, 0.0190942045, -0.0030242149, 0.0883001611, 0.0453048535, -0.0277445372, -0.1159415618, -0.0034719873, -0.0322751142, 0.0017418015, 0.0702236742, 0.0150175449, -0.0004276219, 0.0278478991, -0.0070619299, -0.0337782502, 0.0225763805, -0.0475871898, 0.0687612370, 0.0920288116, -0.0419411100, 0.0635000616, 0.0615495145, 0.0396048352, 0.0156226438, -0.0496936850, -0.0667949840, -0.0476151966, 0.1052441970, 0.0368734002, 0.0533236936, -0.0235652607, -0.1047151163, 0.0415112041, 0.0459060967, 0.0659969673, 0.0491643474, -0.0012291471, 0.0229207240, 0.0496328883, -0.0941780582, 0.0496000759, 0.1119250879, 0.0572031885, -0.0298726261, -0.0947161838, -0.0979784131, 0.0481399894, -0.0053545521, 0.0086409897, -0.1449239850, 0.0459090918, -0.0594076738, -0.0255563185, 0.0121504758, 0.0026874025, -0.0901391208, -0.0918612108, -0.0646973550, -0.0690624043, 0.0532838516, 0.0978000835, -0.0966561288, -0.0434458070, -0.0927024260, 0.0351176336, -0.0046889642, 0.0316464938, -0.1013807952, 0.0952928960, -0.1220900193, -0.0186110418, -0.0194705520, 0.0101542510, -0.0541510507, 0.0351779982, 0.1066333428, 0.0137745906, 0.0332999490, -0.0227448232, 0.0227787197, 0.1019627601, 0.0274790376, 0.0669440031, -0.0184701253, 0.1382898986, -0.0147484690, 0.0314159468, -0.0662615225, 0.0591035113, 0.0060564675, 0.0194722302, -0.0976863429, 0.0678349584, -0.0640740469, 0.0061911326, -0.0390864648, 0.0007689727, -0.0819954127, -0.0075773261, 0.1441460550, 0.1308102012, -0.0815417096, -0.0017506605, -0.0272280090, -0.0569318682, -0.0203738790, 0.0521357469, 0.0979612023, -0.0330079943, -0.0603170842, 0.0237622783, -0.0278784968, -0.0377819128, -0.0147274015, -0.0247671567, -0.0972874165, 0.0323691294, -0.0014922841, -0.0294533093, -0.0662736446, -0.0103484681, 0.0351353362, -0.0336270630, -0.0638545752, -0.0042468854, 0.0473776944, 0.0179479402, 0.0316597447, 0.0048109638, -0.0383656621, -0.0751685351, -0.0577062033, -0.0531022772, -0.0412280411, -0.0437697507, -0.0625930652, 0.1393467933, 0.0537338890, 0.0304108225, -0.0325116739, 0.0093585011, -0.0706708506, 0.0356083922, 0.0505074970, 0.0699296966, 0.0574659370, -0.0602914318, 0.0584373064, 0.0717165098, 0.0802275985, 0.0343449339, 0.0892424807, 0.0307859462, 0.0619256943, -0.0246838219, -0.0967001691, 0.0195040759, -0.0175397694, 0.0424425155, 0.0381096825, 0.1506504864, -0.0534149446, 0.0787637904, -0.0892741531, 0.0596109219, -0.0037062739, -0.0890315548, -0.0631764308, -0.0692720935, 0.0881231800, 0.0804974437, -0.0565034226, 0.0467689969, -0.0250182617, -0.0937011018, -0.0231706705, 0.1037040651, 0.0998065323, -0.0857780278, 0.1176688373, -0.0962244198, 0.0802216530, -0.0793442950, 0.0062026880, 0.0654671490, -0.0489725545, -0.1016024798, -0.0202322230, 0.0051233065, 0.0109042684, -0.0069808429, -0.0083655631, 0.0394447297, 0.0710933059, -0.0018251219, 0.0074888915, -0.0706693754, -0.0509731844, 0.0316537283, 0.0058920486, 0.0766039416, 0.0424248762, -0.0502833985, 0.0457583591, -0.0907583311, 0.0821593925, -0.1481772512, -0.0286927000, 0.0048601804, 0.0418795161, -0.1568779200, 0.0301948916, 0.0178456008, -0.1413817406, 0.0026427743, -0.0604765564, -0.0295031834, 0.0814434960, -0.0279513802, 0.0175515190, -0.1034571975, -0.0555559956, -0.0456659757, 0.1157297641, 0.0115759503, 0.0636154786, 0.0679024532, -0.0108576091, 0.0826450512, -0.0684211701, 0.0738272145, -0.0240198895, -0.0972012877, -0.0175864529, -0.0988940373, 0.0193273686, 0.0016016940, 0.0569724739, -0.0716359764, -0.0966118276, -0.0134254182, 0.0051600696, -0.0253973771, 0.0725508481, -0.0396316014, -0.1018865034, -0.0415215418, -0.1842719167, 0.0091295764, 0.0732917786, 0.0005267049, -0.0388127156, 0.0491959676, 0.0171316620, 0.0911868960, -0.0514744371, -0.0536768697, -0.0058768988, -0.0763609186, 0.0717587173, -0.0297606438, -0.1068210378, -0.0611486174, 0.0371275619, 0.0070340256, -0.0838355646, -0.0638502538, -0.0385296121, -0.0733008236, -0.0970394984, -0.0665823072, 0.1332772821, 0.0190209150, 0.0610518642, -0.0684826151, -0.0697193071, 0.0337552279, 0.0255344715, -0.0266935434, -0.1355545223, -0.0021071215, -0.0467861369, -0.1245008707, 0.0752400681, -0.0624552332, 0.0772040039, 0.0901483446, -0.0195551626, -0.0107439160, 0.0273169279, 0.0039667664, -0.0659808293, -0.0139304288, 0.0101001794, -0.0249064546, 0.0689354762, -0.0487075709, 0.0082807634, -0.0495791696, -0.0242439900, 0.0504338481, -0.0160607025, 0.0417144671, 0.1482417732, -0.0809805021, 0.0167106707, 0.0185916871, 0.1654303819, 0.0416063033, -0.0602792427, 0.0616438277, 0.0064945705, 0.0279361680, 0.0179052092, -0.0795358345, -0.0176148210, -0.0251960717, 0.0143056419, 0.0201494619, -0.0465164669, -0.0305533577, -0.0447668135, 0.0698638856, 0.0060174959, 0.0677799061, -0.0202314407, 0.1599022597, 0.0782389939, 0.0740939006, 0.1168249249, -0.0807429627, 0.0287231300, 0.0117125213, 0.0393007658, -0.0245175939, -0.0857743546, 0.0496073328, 0.0591153949, 0.0698631182, -0.0363916978, 0.0149375889, 0.0151040331, 0.0143488245, -0.1069320068, -0.0849359185, 0.0622012615, -0.0574873835, -0.0510425903, 0.0514223836, 0.1047717482, 0.0183000341, -0.1300802827, 0.0443452038, 0.0248131044, -0.0226941984, 0.0736974329, -0.0758105963, 0.0308430120, -0.0441638231, -0.0229814965, -0.1125600561, 0.0105753168, -0.0480541736, -0.0501231849, 0.0079822922, 0.0151212048, -0.2006157786, 0.0143632945, -0.0111888153, 0.0025957820, -0.0444521159, -0.1286443770, 0.0557731614, -0.0692714229, -0.0227749757, -0.0485589802, 0.0298858900, 0.0054496643, 0.0581557043, 0.0567754954, 0.0182168130, -0.0287042651, -0.0618814528, 0.0419147909, -0.0560742654, 0.0274902266, 0.0260352995, 0.0296084005, 0.0819333568, 0.0218968056, 0.0296655446, -0.0038919533, -0.0664690286, -0.0560566261, 0.0471245013, 0.0149758970, -0.0633635670, -0.0154658519, -0.0453510024, -0.0842772797, 0.0453316346, 0.0247493200, -0.0191285331, -0.0097496919, 0.0219612215, 0.0536462143, -0.0062405015, 0.0697390214, 0.0385395661, -0.0126518114, -0.1032771915, 0.0566428043, -0.0441811644, 0.0199180674, 0.0670754015, 0.0821668208, 0.0098423790, 0.0026932193, 0.0609336048, -0.0470455065, 0.0819603875, 0.0192067586, 0.0261639860, -0.0821207911, -0.0104872128, -0.0153469304, 0.0012764363, -0.0078462744, -0.0850627720, -0.0461244732, 0.0308541581, 0.0355293937, 0.0354498699, 0.0865026042, -0.0281014834, 0.0326793343, 0.0621562414, -0.0775729492, 0.0118860686, -0.1005910859, -0.0370474979, 0.0274352059, -0.0342137441, 0.0474280156, 0.0167969633, 0.0297102053, -0.1791291833, 0.0715429187, 0.0881268159, -0.1510752887, 0.0139298523, 0.0007883557, 0.0443582349, -0.1034924090, 0.0036843321, 0.0797875747, -0.0469373651, 0.0062492145, -0.0214945432, -0.0124288313, -0.0101638474, 0.1631587148, -0.0254022498, 0.0156257432, 0.0136012249, -0.0800827667, 0.0038728924, 0.1317866147, 0.0064412784, 0.0090265376, -0.0542301089, -0.0303802919, -0.1340465099, -0.0020393711, -0.0021492369, 0.0890009776, -0.0293209553, -0.0161603503, 0.0452445708, -0.0830651000, 0.0214529671, 0.0260878224, 0.0488416143, 0.0416808538, 0.1264438927, 0.0076544145, -0.1392278075, -0.0346605219, -0.0059094373, -0.0200027898, -0.0259251278, -0.0382986739, 0.0404432379, 0.1545507312, 0.0898317024, 0.0373948105, -0.1743629575, -0.0624444373, 0.0489259399, 0.0323628709, -0.1207431033, 0.1248947009, 0.0126706464, -0.0952533185, -0.0945832431, 0.0037789256, -0.0058430261, -0.1215289682, -0.0011053690, -0.0375312939, -0.0520128720, 0.0006772167, 0.1431806237, 0.1100507230, 0.0560776740, -0.0379139632, -0.0846414119, -0.0592997260, 0.0692600608, 0.1036349013, -0.0248868801, -0.0744164512, 0.0981736034, 0.0459247343, -0.0479822084, 0.0373427011, 0.0145761594, -0.0336793438, -0.0769368783, 0.0304275565, 0.0282241441, 0.0521193966, -0.0936992243, -0.0075935069, 0.0357515514, 0.0365078114, 0.0059561566, -0.0096817650, -0.0950694606, 0.0541923158, -0.1308147013, 0.0180917606, 0.0347155482, -0.0070859659, 0.0325396694, -0.0103194332, 0.0572418533, -0.0905921757, -0.0513500050, 0.0278138518, 0.0314811319, 0.0840209574, 0.0718976334, -0.0113499835, -0.0387388021, -0.0434204787, -0.0139113925, -0.0031687818, -0.0765985176, 0.0300006177, 0.0567154810, 0.0208363850, -0.0651946217, -0.0580063350, -0.0906731933, 0.0487918146, 0.1186437979, 0.0442282967, -0.0536031835, 0.0230741277, -0.1085047573, 0.0371181741, -0.0070446245, -0.0278690569, 0.0197577365, -0.0616140701, 0.0187456105, 0.0275964122, -0.0160877481, -0.0769793242, 0.0270120036, -0.0434422828, 0.1117826253, -0.0144395977, -0.0665823147, -0.0137590757, -0.0658687428, 0.0772293434, 0.0477715880, 0.0502231345, -0.0471753813, 0.0375669822, -0.0073820706, -0.0008637637, -0.0199188106, 0.0799571723, -0.0244879350, 0.0549493134, -0.1574601680, 0.1047009528, -0.0763422698, -0.0039883591, -0.0306105707, 0.0127296103, 0.0393180288, 0.0203104839, 0.0308938622, 0.0666038096, -0.0236318205, 0.0669476017, 0.1183544844, -0.0012736920, -0.0740819946, -0.0070321499, -0.0330841914, -0.0534591749, -0.0212542471, 0.1283684522, -0.0809848905, -0.0279068705, 0.0091446489, -0.0201983973, 0.0041888086, 0.0406961478, -0.0052345851, -0.0248631183, 0.0559988730, 0.1300086975, -0.0434046425, -0.1046131849, -0.0430640355, 0.0621148571, -0.1145859137, -0.0017860681, 0.0603823774, -0.0544321537, 0.0089753876, 0.0089135002, -0.0181013457, 0.0498257130, 0.0275214072, -0.0168599095, -0.1186276972, -0.1533590704, 0.0605624542, 0.0243896712, -0.0572637916, -0.0193159860, 0.0308008417, 0.0118085211, -0.0016743357, 0.0143629620, 0.0975189507, 0.0663624108, 0.0464131609, -0.0718221888, -0.0679346174, 0.0140280509, -0.0748223886, 0.0053942138, 0.0732956976, 0.0564405322, -0.0199507922, 0.0126480740, 0.0346467309, -0.0367175415, 0.0670056194, 0.0898107588, 0.0117950281, -0.0022773221, -0.0236790944, -0.0559142455, 0.0904360861, -0.0206410717, -0.0469294898, 0.0527184606, -0.1114785448, -0.0602100044, -0.0397460200, 0.0310724825, -0.0312821753, 0.0572370403, -0.0422511138, 0.0208004732, -0.0579467677, 0.0300022550, -0.0366765298, -0.0238968860, -0.0710197836, 0.1093447730, 0.0480981804, -0.1307232976, -0.0571437478, 0.1184850559, -0.0386457108, -0.0698609054, -0.0026736776, -0.0584856495, 0.0595685542, 0.0271409675, -0.0483021662, -0.1067062020, 0.0800084919, -0.0629290640, 0.0028999539, -0.0636067539, 0.0086560976, 0.0892050564, -0.0638542771, 0.0142344888, 0.0908295736, 0.0977835134, -0.0597534366, 0.0688555166, -0.0442438349, 0.0698978379, 0.0428412892, 0.0190018881, -0.0177421346, -0.0787284300, 0.0612034909, 0.0942413434, -0.0143835014, -0.0847923458, 0.0822954029, 0.0236119740, -0.0389170647, 0.0482233837, -0.0184863321, 0.0104524130, -0.1109079793, 0.0159987118, -0.0071153292, 0.0194320530, 0.0968030170, 0.0019175459, 0.0242004525, -0.0435708985, 0.0546188205, -0.0028996705, -0.0839445665, -0.0216490142, 0.0325816050, 0.0360352658, -0.0804194063, -0.0587339103, -0.0487301797, 0.0783950239, -0.0172873624, -0.0229282640, 0.0292404164, -0.0102745835, 0.0369432978, 0.0389928184, 0.0245799571, -0.0381216109, 0.0236942861, 0.0178047325, 0.0529345609, -0.0263978578, -0.0128269317, 0.0124538373, 0.0511676855, -0.0745615736, 0.0154487686, 0.0796330199, 0.0065735253, -0.0284804739, -0.0261981227, 0.0651149526, -0.0178267229, -0.0246046167, 0.1449263990, 0.0234354809, 0.0150318136, 0.1643049717, 0.0696413219, -0.0653879941, 0.0086404858, 0.0319452733, -0.0445262566, 0.0374563485, -0.0537886173, 0.0150126806, -0.0146262469, -0.2079474926, 0.1047357172, 0.0130021945, -0.0001656084, -0.0181724746, 0.0383692272, -0.0123089189, -0.0362385884, 0.0232329611, -0.0438239425, -0.0451902263, -0.0636859611, -0.0553589873, 0.0046565686, 0.0170693006, 0.0041208020, 0.0116763990, -0.0174646713, 0.0609295443, -0.0180069171, 0.0538714007, -0.0031475697, 0.0025974829, 0.0831787363, 0.0146013917, -0.0144781694, 0.0600055829, 0.0636499003, -0.1390781999, 0.0849285349, -0.1187637225, -0.1559631079, -0.0063615334, 0.1093413979, -0.0282448605, -0.0630577952, 0.0017545212, -0.0380631238, 0.0890539736, 0.0899105072, 0.0031410784, -0.1533710361, 0.0496235341, 0.0064086067, -0.0047937217, 0.1498207450, 0.1392285228, -0.0422008522, -0.0907871574, -0.0822743103, 0.0181843489, 0.0165151544, 0.0713218972, -0.0067833187, -0.1150969341, -0.0611146986, 0.0064623598, 0.1271750629, -0.0047711045, -0.0844087750, 0.0301024672, 0.0046854471, -0.0309612192, 0.0823667198, -0.0555166900, -0.0904179662, -0.0076328898, -0.0550702140, 0.0133403009, 0.0171473529, -0.0788542330, -0.0761355460, 0.0465545058, -0.0107886726, 0.0921787918, -0.0153024718, 0.0091490354, 0.0426793657, -0.0118454564, 0.0177278053, 0.0007004738, -0.0334914550, 0.0382471941, -0.0707548484, -0.0140256537, -0.1024769396, -0.1396617144, -0.0155133596, 0.0770101696, 0.0181484018, -0.1509681195, 0.0280040987, -0.0370028690, 0.0080584688, -0.0315569639, -0.0840197951, 0.1335880756, 0.0327798314, -0.0330554061, -0.1107516289, -0.0368397273, -0.0529292375, 0.0318069123, 0.0030779198, 0.0301745217, 0.0627188385, 0.0150854019, 0.0122970194, -0.1148289964, -0.1074776053, -0.0735720024, -0.0261328407, 0.0164853260, -0.0156760328, 0.0629251003, 0.0169626642, 0.0368121266, 0.0007135301, 0.0892034173, -0.0410419889, 0.1212754771, 0.0195734445, -0.1239957139, 0.0754351839, 0.0367365852, -0.0601457432, 0.0198253226, 0.0072265957, -0.1789290905, 0.0223325305, 0.0717445239, 0.0641817302, -0.0582021028, 0.0338492580, 0.0755272359, -0.0184590984, -0.0058336281, -0.0462305211, -0.0542772301, -0.0456908680, 0.0319452807, -0.0138983708, -0.1357689500, 0.0446174704, 0.0356485620, -0.0597574562, 0.0048908400, 0.0516131334, -0.0730506852, -0.0188323092, -0.0342341810, 0.0221975241, 0.1275579929, 0.0562255010, 0.0281719565, 0.0457244776, -0.0381053053, -0.1059701890, 0.0745075345, 0.0734587237, 0.0517381094, 0.0588249676, 0.0493348725, -0.0167469587, 0.0455421396, -0.0758989602, -0.0504367463, 0.0063504232, 0.1128989086, -0.1297082454, 0.0063430639, 0.0269444436, 0.0175961591, 0.0109565416, 0.0083316918, -0.0008391352, 0.1226767823, -0.0210990719, 0.0207108483, -0.1457005143, -0.0099103972, 0.0463268831, 0.0460453145, 0.1368048191, 0.0305150691, 0.0661638305, -0.0718829706, -0.0638026670, 0.0664151236, 0.0111037949, -0.1204466000, 0.0612359047, -0.0448041223, -0.0236555468, -0.0806925669, 0.0236589890, 0.0125608863, -0.0592626296, -0.1070880145, 0.0736918151, -0.1192697287, -0.0248190407, -0.0510376543, -0.0461027883, 0.0533650555, 0.0421611741, -0.0764938369, -0.0478534959, 0.0734746978, 0.0458316542, -0.0116416793, -0.0567835756, -0.0563499853, -0.0722168609, -0.1058973372, -0.0440394133, 0.0862009600, -0.0822464153, -0.0359526314, -0.0656320006, 0.0006238639, 0.0486142561, -0.0017553619, -0.0321363918, -0.1142751947, -0.0806915089, 0.0108636739, 0.0977796540, -0.0395813659, -0.0595982186, -0.0503809191, -0.0930541530, -0.0406206585, -0.0048632897, 0.0114376666, 0.1331961900, -0.0180945750, -0.0000484290, 0.0021291254, 0.0048071570, -0.0676630363, -0.1125626415, -0.0743911564, 0.0363403894, 0.0518514216, -0.0147440154, 0.0071041901, 0.0541256517, 0.0129662612, -0.0493075736, -0.0519005992, -0.0059478707, -0.0531762354, 0.0926567167, -0.0197950155, 0.1258585006, -0.0110475989, 0.0482979529, 0.0425596312, 0.0740981922, 0.0597230978, -0.0931617841, 0.0100066261, 0.0933637917, -0.0708385929, 0.1332967132, 0.0148412501, 0.0599819534, 0.0431041047, -0.0355727784, -0.1193359867, -0.0028648765, -0.1171203405, -0.0129556907, 0.0579718687, -0.1554935873, 0.0084998664, -0.0088417791, 0.0334604122, 0.0658162609, 0.0645810887, 0.0341928974, 0.0742390230, 0.0143868523, 0.0305436514, -0.0116929747, -0.0203502141, -0.0591376238, 0.0301788915, -0.0448312759, -0.0006402472, -0.0416444726, -0.0413191393, 0.0380645394, 0.0159101486, 0.1478337049, -0.1179386079, -0.0612466596, 0.0507814251, 0.0220928378, -0.0703021362, -0.0655940771, -0.0304017607, -0.0515889451, 0.0359703228, 0.1832210273, -0.0833088681, -0.1055493504, -0.0293125510, -0.0081654619, -0.0214934070, 0.0350203440, -0.0457350425, 0.1024420559, -0.0532448739, 0.0030905653, 0.0199901834, 0.0463003665, 0.0286126807, -0.1085956022, -0.0889126137, -0.0681335852, 0.0094792042, -0.0240080226, 0.0405396149, 0.0178195760, -0.0230495948, -0.0461594947, -0.0068667885, 0.0678615719, -0.0515242815, -0.0094943997, -0.0091066249, 0.0778590366, 0.0386389345, 0.0262891203, 0.0123667093, 0.0046034991, -0.0062800613, -0.0487726703, -0.0438641980, 0.0828869268, -0.0172524415, -0.1347577572, -0.0957835689, 0.1074191332, 0.0061321324, 0.0552642681, -0.0426315777, 0.0443718508, -0.0780962557, -0.0068448721, 0.0844897032, 0.0849311128, -0.0499450862, -0.1117211729, 0.0802193582, -0.0916580558, 0.0682810768, 0.0332309604, -0.0252775885, 0.0142373936, -0.0271300264, -0.0014433700, 0.0836656988, -0.0824091583, 0.0288611557, -0.0405676067, 0.0695038885, -0.0306314453, -0.0665381923, 0.0056248959, 0.1008417681, 0.0817350969, -0.1085784808, 0.1070250273, -0.0246706214, -0.0284236986, 0.0402250290, 0.0244156402, 0.0588158034, -0.0194316003, 0.0149301505, -0.0685610995, 0.0182161890, 0.0001676406, 0.0110281864, -0.0797062740, 0.0293852314, 0.0065457383, 0.1321902424, 0.0981726795, 0.0940577462, 0.0692820922, -0.0356387347, -0.0126331020, 0.0048277196, -0.0388683416, 0.0374334082, 0.0346376710, -0.1020054668, 0.0352013558, 0.0020311088, -0.0476759523, -0.0549612418, 0.0560747460, 0.0309891738, -0.0752563328, -0.0245966464, -0.1331937760, 0.0705586597, 0.0323935747, 0.0465436392, 0.0114317602, -0.0504799373, 0.0123015670, -0.0010875623, 0.1000031084, 0.0433304682, -0.0251511484, 0.0567530803, 0.0313447230, -0.0119958948, -0.0927467793, 0.0241449475, 0.0851834342, 0.0357203186, 0.1516191959, -0.0660305247, -0.1565802693, 0.0761521161, 0.0069916090, -0.0842835307, -0.0547329113, -0.0510937721, -0.0245060157, 0.0960772112, 0.0170674846, 0.0696360022, 0.0211619679, -0.0531681255, -0.0947765559, 0.0996442065, -0.0313429311, -0.0845944583, -0.0308658704, 0.0247492399, 0.0223228354, 0.0295725688, -0.0369794592, -0.0240820404, 0.0124979131, 0.0506014004, -0.0946038738, 0.0007163550, 0.0063922019, -0.0518454686, -0.0755390227, -0.0001655152, 0.0442427918, 0.0121331774, 0.1049444750, 0.0229368657, -0.0759933516, 0.0960469991, 0.0142003056, 0.0285042077, 0.0502061248, -0.0640409887, -0.0387510359, 0.1162110791, -0.0258882083, 0.1116657481, -0.0014016897, 0.0033113526, -0.0071403407, -0.0575399920, -0.0591993257, -0.0319407023, 0.0072694644, -0.0186468288, -0.0910450891, 0.0297217388, -0.0494636372, 0.0198149793, -0.0051409807, -0.1022265926, -0.0730944276, 0.1586466283, 0.0273380075, 0.0356627107, 0.0800817087, 0.0557027422, -0.0389989726, -0.0549074449, -0.0193837676, 0.0117559358, -0.1106215566, 0.0161300059, -0.0493913665, -0.0218618251, 0.0212422144, 0.0182954874, 0.0355691165, -0.0851859823, -0.0641027018, -0.0509547479, 0.0776270032, -0.0003702854, 0.0267151222, 0.0303973556, 0.0378114097, -0.0059028831, -0.0965899676, 0.0874805376, -0.0556839816, 0.0903398320, 0.0025813621, 0.0298154652, -0.0628190637, 0.0435655564, 0.0197559185, 0.0420640223, -0.0361142755, -0.0056145443, 0.0028355024, -0.0138716185, 0.0103996592, 0.0478697903, 0.0267490186, 0.0112462118, 0.0124024190, 0.0556593984, -0.1006297320, -0.0128990123, -0.0478750877, 0.0174274780, 0.0080646938, -0.0501095243, -0.1402606666, 0.1249041632, -0.0122556128, 0.0219806228, -0.0182428677, -0.0050520552, 0.1016586274, -0.0029964107, 0.0165402927, 0.1212344915, 0.0319496579, 0.0179084968, -0.1567185223, -0.0725513920, 0.0178124662, 0.0488909818, 0.1898232996, -0.0642009452, 0.0055655646, 0.0705274716, -0.1265791953, -0.0755862221, 0.0043778433, -0.0375127345, 0.0098449672, 0.0431922562, -0.1180496216, 0.0963440761, -0.0010683435, -0.0257966183, 0.0576543733, -0.0118310582, 0.0513966456, -0.0153208319, 0.0074696159, 0.0130243599, -0.0328766704, 0.0016115649, -0.0817025825, -0.0163792949, 0.1061833799, -0.0051350938, -0.0355173051, 0.0280312039, 0.0145962620, 0.0107280901, -0.0654080585, -0.0658564717, 0.0114209866, 0.0888600200, 0.1084068790, 0.1027237475, 0.1278876066, -0.0790711120, 0.0260207281, -0.0267879963, -0.0715634748, 0.0778405219, 0.0505235344, -0.0703706369, 0.0564193204, 0.0694201440, 0.0723087639, 0.0381313823, -0.1820599884, -0.0060714949, -0.0000049727, 0.0338457339, 0.0819443315, -0.0969854593, -0.0022873715, -0.0182787515, 0.0293808077, 0.0306121446, 0.0560740419, 0.0539956763, 0.0861660317, 0.0544051342, -0.0255528465, 0.0424643494, -0.0397192612, -0.0222735498, 0.0082100313, 0.0832046196, 0.0074132769, -0.0254657362, -0.0243644044, 0.0132874204, -0.1001967117, 0.0476737060, 0.0419347100, 0.0711472332, -0.0736519471, 0.0288781859, -0.0185241550, -0.0196428429, 0.0589712374, -0.0125469118, -0.0203980729, -0.0341728590, -0.0151879648, 0.0714394376, -0.0065676174, 0.0248047281, 0.0534072295, 0.0450986363, -0.0024159569, -0.0189222731, -0.0463052765, -0.0285241492, 0.0053160535, 0.1041225642, -0.0923150480, 0.0976217240, -0.0960868672, -0.0049346066, 0.0145608718, -0.0989357010, -0.0449084975, 0.1000268608, -0.0111573916, 0.1472072899, -0.1374937147, 0.0802425891, -0.0090384288, 0.0567707345, 0.0255525913, 0.0714061558, 0.1110985279, -0.0294448528, 0.0635417923, 0.0095065963, -0.0369241387, 0.0246452447, -0.0264070146, 0.0523725376, 0.0365118161, -0.0203096438, 0.0837113708, -0.0091581969, 0.0032467640, -0.0813671127, 0.0071541406, -0.0047388328, 0.0265918579, 0.0132459765, 0.0181139931, -0.0293923169, 0.0380053036, 0.0680922568, -0.0980691090, 0.0327502340, -0.0231783036, -0.0649475828, 0.1105092689, -0.0291125569, 0.0563520119, -0.0794154927, 0.0741078779, 0.0832629725, -0.0316361710, -0.0525219738, -0.0891676247, -0.0371160097, -0.0135591608, 0.0100509161, 0.1093276069, 0.0473057404, -0.0853109732, -0.0799380317, 0.0935398489, -0.0544412434, 0.0286616068, 0.0553038716, -0.0757183209, 0.0808273554, -0.0203899369, 0.0598763451, -0.0968423635, -0.0878168344, 0.0313226506, 0.0114682103, 0.1132937297, -0.0787422657, -0.0058087357, 0.0578326136, -0.0369790755, -0.0291331820, -0.1082983762, 0.0904191658, 0.0468811467, 0.0449368171, 0.0957369059, -0.0652611032, 0.0196559839, -0.0404422283, 0.0351100937, 0.0074720047, 0.0349830575, 0.0800760835, 0.0357004739, -0.0526457578, 0.0672306195, 0.0162407793, 0.0330687389, -0.0344109982, 0.0343575478, -0.1597654372, 0.0260151979, 0.0026714890, -0.0254307874, -0.0548619293, 0.0364142321, -0.1039042920, 0.1125995219, -0.1107763499, 0.0187702570, -0.0753895119, 0.0324925892, -0.0222481340, 0.0355096571, 0.0151390396, -0.0883455351, -0.0060245143, -0.0855055153, 0.0274353214, -0.0243121963, -0.0649208650, -0.0336100161, -0.0260946769, 0.1871054024, 0.0524524525, -0.0376275294, -0.0822227746, 0.0148396213, -0.1121670306, 0.0295294654, -0.0530092232, 0.0842047781, -0.1592503041, 0.0599959381, 0.1159922183, -0.0551272929, 0.0519359894, 0.0101873502, 0.0344991460, -0.0002302276, -0.0934924558, -0.0508651435, 0.0854334086, -0.0369095951, 0.0762654096, -0.1002275571, -0.0643292293, -0.0176135749, -0.0362443775, -0.0071048778, 0.0041043092, 0.0807517767, -0.0621899888, -0.1388289928, -0.0237990003, -0.0262003895, -0.0624500141, 0.0435388014, 0.0234270599, -0.0151047995, 0.0418225527, 0.0066812444, 0.0665422156, -0.0339234620, 0.0461051762, -0.0977573246, -0.0815164521, -0.0295676272, -0.0559767708, 0.0600751713, -0.0277321506, 0.0185836460, -0.0185876470, -0.1095840260, 0.0478381664, -0.1215226650, 0.0995883197, 0.0090637850, 0.0169891696, -0.0799915567, 0.0162031576, 0.1009517983, 0.0134075303, -0.0002230235, -0.0186626986, -0.0507120304, 0.0534489974, -0.0082426565, 0.0521003827, -0.0324169211, 0.0446653515, 0.0319356024, 0.1103612930, 0.0264801253, 0.0402598493, -0.0959227309, -0.0037125167, -0.0086359428, 0.0487991236, -0.0055878325, 0.0093765296, 0.0189575199, -0.1447472125, 0.0583496727, -0.0301753916, -0.1260768324, -0.0270844176, 0.1033937633, -0.0314200334, -0.0409948975, 0.0999928564, -0.0355798267, -0.0951150879, -0.0636348948, 0.0229176059, -0.0512119308, -0.0744699910, -0.0175620150, 0.0438719988, -0.0681142211, 0.0257791765, 0.0332785659, 0.0645758510, 0.0755149126, 0.1089461893, -0.0032385732, -0.0014337491, -0.0637585372, 0.0124113820, 0.0315577015, 0.1130050793, 0.0656273365, 0.0454427153, 0.0664411187, 0.0015601416, -0.0719708726, 0.0189934596, 0.0263153017, 0.0656595305, -0.0166754592, -0.1404048353, 0.0456472263, 0.0869483203, -0.1072675064, 0.0303209983, -0.0694111660, -0.1067958400, 0.0565649234, 0.0127265174, -0.0891462937, 0.0828291178, -0.0010942151, -0.0147929071, 0.0108766761, 0.0902493522, 0.0500171781, 0.0410295352, 0.0153224273, -0.0786279514, -0.0535555184, -0.0506898537, 0.0018939058, -0.0271257777, -0.0002591894, 0.0314790234, -0.0275710076, -0.0138988607, -0.0162977073, 0.0426161699, 0.0682409406, -0.0010839514, 0.0017573570, -0.0256458018, 0.0570739359, 0.1071090400, 0.1413342655, -0.0493540876, 0.0417632051, 0.0310591925, -0.0046208757, 0.0833676606, -0.0607955940, -0.0056169643, -0.0095161200, 0.0460256264, 0.0068368269, -0.1462497264, 0.0035727527, -0.0939639509, 0.0641666800, 0.0137800397, 0.0179561544, -0.0465425663, -0.0077570737, 0.0741794929, 0.0048677116, 0.0748305544, -0.0248309020, 0.1117387190, 0.0077219927, 0.0215901714, 0.0145855863, 0.1547491252, -0.0267902054, 0.0664148927, -0.0757438689, -0.0154749798, -0.0077370722, -0.0376105197, 0.0269814413, -0.0210388582, 0.0856783390, 0.0672284067, 0.0336097665, -0.0611247271, 0.0389882401, 0.0341758281, 0.0389470756, 0.0622721948, -0.1018283889, -0.0122389980, -0.0418882631, 0.0154093420, -0.0234268252, -0.0415431671, 0.0399415940, -0.0293745995, 0.1437579095, -0.0746095181, 0.0930578634, -0.0414692499, 0.0344158970, -0.0343163274, 0.0145522906, -0.0055972161, -0.0318683498, -0.1002621949, 0.0810766369, -0.1258013994, -0.0243728235, -0.0296154525, 0.0353616364, 0.0456483588, -0.0485662855, 0.0508754551, -0.1255295575, 0.0475320704, -0.0033425312, 0.0295264218, 0.0059345011, -0.0067966324, -0.1134252995, 0.0394319259, -0.0127961412, -0.0846955180, 0.0823365897, -0.0589181446, -0.1071379706, 0.0231814124, -0.1056848392, -0.0607962534, -0.0348966829, -0.0714257509, -0.0148525126, -0.0747551695, -0.0232052244, -0.0679899827, -0.0990331918, -0.0151669160, -0.0205802992, 0.0739637315, -0.0092971902, -0.0037464672, -0.0453045890, -0.0552613214, -0.0726714656, -0.0344713777, 0.0402112417, 0.1130959541, -0.0273452830, 0.0465386026, -0.0782645121, 0.0152901467, -0.0048627434, -0.0048912186, -0.0160080716, 0.0086731436, -0.0157080777, 0.0105879530, 0.0495884344, 0.0509197339, 0.1260017604, 0.0664814934, -0.0341470130, 0.0021479304, -0.0616998523, -0.0372637473, -0.0105726207, 0.1810683906, 0.0026824477, -0.0168960765, -0.0707901120, -0.0614137352, 0.0665780380, -0.0027194608, -0.0485100001, -0.0272079911, -0.0652003586, -0.0635752752, 0.0538520142, -0.0484846048, 0.0349992774, 0.0528368764, -0.0058869240, 0.0348557159, -0.0072794389, 0.0049995990, 0.0249526147, 0.0389218666, 0.0573889315, -0.0253269617, -0.1565668285, -0.0263611004, -0.0003961257, 0.0127111850, -0.0122108301, -0.1043642312, 0.0521676764, 0.0560998321, 0.0620677881, 0.0127304532, -0.1318266243, 0.1032212451, -0.0563501678, 0.0549758635, -0.0500285700, 0.0209727231, -0.0163891390, -0.0738801658, 0.0481923483, -0.0471415482, 0.0635211170, -0.0477078073, 0.0021668053, -0.0509457812, 0.0483390205, 0.0602448508, 0.0876559243, 0.1221510097, -0.0251865201, 0.0058523174, -0.0501364917, -0.1299248189, 0.0552334487, 0.0032729672, -0.0312935412, -0.0564757809, 0.0052928305, 0.0392454341, -0.0035984467, -0.0196887553, -0.0514631942, -0.0581781194, -0.0205733571, -0.1042436287, 0.0138558494, -0.1060883701, 0.1178910062, 0.0075330995, -0.0233629812, -0.0691603720, 0.0459289290, -0.0698656887, -0.0249569900, 0.1584782600, 0.0172280371, -0.0674346909, -0.0581775978, -0.0017556380, -0.0597940572, -0.0569393300, 0.0068525816, 0.0321917832, -0.0105362497, 0.0136534879, -0.0890390277, 0.1058336794, -0.0277522467, -0.0457192734, 0.0725572780, 0.0831027254, 0.1604872048, -0.0361502171, 0.1335489303, 0.0104572652, 0.0949082524, -0.0420349278, 0.0545949303, -0.0347663313, -0.0254098326, 0.0172662772, 0.0889304876, 0.0447283350, -0.0777779296, -0.0302724130, -0.0503756814, -0.0167746991, -0.0306755081, -0.0589943603, -0.0925038755, -0.0504134931, -0.1037175953, -0.1581425816, -0.1013753042, 0.0811723247, -0.0382257774, 0.0101386392, -0.1543654799, 0.0947984010, 0.0260580350, -0.0320152603, 0.0007873914, 0.0245440919, -0.0155885704, -0.0478692502, 0.0226284433, -0.0153908059, 0.0647736788, 0.0259409081, -0.0195338111, -0.0495018698, 0.0772763938, -0.0348540805, 0.0753590465, -0.0366380364, -0.0431873202, -0.0188163687, -0.0383222811, 0.0765666664, -0.0446624160, -0.0352565758, 0.1784370989, 0.0083500408, 0.0874464139, -0.1054584756, -0.0256008748, -0.0259665046, -0.0259229150, 0.0263354518, -0.0455569774, -0.0097914431, 0.0293276459, 0.0184147097, 0.0092774052, 0.0092741940, 0.0969749019, 0.0018958685, -0.0605005734, -0.0624251701, 0.1533314437, 0.0247257575, 0.0992241055, 0.0076724063, -0.0130927367, -0.0042064493, 0.0087643825, 0.0739510879, 0.0844513401, -0.1319822073, 0.1218601242, 0.0701584145, 0.0577619635, -0.0695146546, 0.0900221691, -0.1103695706, 0.1922620237, 0.0347759947, -0.0304538477, -0.0036906372, -0.0515737236, -0.0360295177, 0.0401143171, 0.0244540796, 0.0257928222, -0.0093876412, 0.0006613552, 0.0821407959, 0.0541785918, 0.0235990565, -0.0144065050, -0.0055467030, -0.1723538041, 0.0290609077, 0.0264103152, 0.0491351224, -0.0587677956, -0.1207284704, 0.0227259919, 0.0701847523, -0.0217195898, 0.0080536548, 0.0749705434, 0.0017275484, -0.0839301869, -0.0339403041, 0.0924909264, 0.0144326277, 0.0472194962, 0.1085918695, 0.0435264483, 0.0029631222, -0.0135338455, 0.0230971370, 0.0075955559, 0.0426775776, 0.0784637108, -0.0427815616, 0.0409034900, 0.0068971249, -0.0196802299, 0.0186067838, 0.0506541021, -0.0424527116, -0.0166794024, -0.0357265957, 0.0286112837, 0.0205240548, 0.0539064594, -0.0657777190, 0.0140114678, 0.0719391033, 0.0751476660, -0.0430482030, 0.0594640784, 0.0748246312, 0.0702064931, -0.0177480951, -0.0137208812, 0.0099559566, -0.0068560899, 0.0306108091, 0.0662945285, -0.1093064025, -0.0500495732, 0.1206586510, -0.0398011431, -0.0789160281, 0.0035879293, -0.0574273802, -0.0293041077, -0.0178588293, 0.0644856766, -0.0713760778, 0.0818467140, 0.0263029262, -0.0936972946, -0.0445192233, -0.0195439886, -0.0693349242, 0.0934087932, -0.0158833824, -0.0976306051, -0.1112327650, -0.0831384212, 0.0714911297, -0.0033347944, -0.0593938790, 0.0998510048, 0.0023018250, 0.0390341394, 0.0401296355, -0.0053653191, 0.0688219890, 0.0416889265, 0.0538077764, -0.0707382560, -0.0490184501, 0.0731701404, 0.0691194311, -0.0723596513, -0.0099755684, -0.0397908688, 0.0561556555, -0.0929878056, 0.0572287925, -0.0532094873, 0.0463451035, 0.0514825061, -0.0906146616, -0.0293763392, -0.0652754083, 0.0112232519, 0.0910473242, -0.0450447462, 0.0912534371, 0.0070234356, 0.0169401541, -0.0821887404, -0.0482351482, -0.0132493787, 0.0798878372, 0.0049827695, 0.0268052574, 0.0129308598, 0.0075465692, 0.0145520605, -0.0119154938, -0.0629447401, -0.0364818498, 0.0325415507, 0.0286765825, -0.0503239930, 0.0394920744, -0.0480204411, 0.2305798084, -0.0073176413, 0.0024999562, 0.0884437561, -0.0396941938, 0.1480952650, -0.1064400077, 0.0268015210, 0.0470877849, -0.0367653407, -0.0793868899, 0.0697092041, 0.0612770021, -0.0392412134, -0.0569235533, 0.0765632167, -0.0127555206, 0.0058084298, -0.0468927957, 0.0475478321, -0.0579782799, 0.0782665014, 0.0813562050, -0.0284861699, 0.0557773635, 0.0305265449, 0.0235479381, 0.0787858292, -0.0512849279, -0.0071811071, 0.0293377861, 0.0472530089, -0.0128285605, 0.0416417047, -0.0454760753, 0.1371281147, 0.0472391620, 0.0284343697, 0.0526553914, 0.1563061923, -0.0830064490, -0.0843732059, -0.0623389333, 0.0258487556, -0.0166081432, -0.0289431475, 0.0021227507, 0.0838916227, 0.0318458527, -0.0539573692, 0.0338851474, 0.0188145936, -0.0325197726, 0.0921085030, -0.0431491248, 0.0962124467, 0.0907039493, 0.0282921307, 0.0263379142, -0.0458144732, 0.0087477546, -0.0022712864, 0.0702181160, -0.0436149277, 0.1104237810, -0.0667522699, -0.0002347573, 0.1303762048, 0.1010826305, 0.0348926634, -0.0019219135, 0.0463926382, 0.0743294954, 0.0571027100, 0.0282161143, -0.0494574532, 0.0433234051, 0.0972134322, 0.0423757918, 0.0422319844, -0.0083901482, -0.0978574976, 0.0069074580, 0.0182508100, -0.0314223133, 0.2105394304, -0.0755702406, -0.0238402095, -0.0444406308, 0.0005623411, -0.1113779992, 0.0698299408, -0.0492477976, -0.0083423294, -0.0722889230, -0.0102652935, 0.0677575022, 0.1281120926, -0.0594859049, 0.0287674740, -0.0402524434, -0.0184654631, -0.0722946152, -0.0117017515, 0.0698942244, 0.0455071628, 0.0089475010, 0.0239827782, -0.1070576608, 0.0201267749, 0.0149302566, 0.0005283173, -0.1027545407, -0.0774975941, 0.0198673941, 0.0495464839, 0.0160418712, 0.0213078391, -0.0145119205, 0.0232522283, -0.0218502581, -0.1355138719, -0.0532867052, -0.0181120336, 0.0556783006, -0.0452533439, -0.0497608297, 0.0980180874, -0.0559142865, 0.1644947380, 0.0666667596, 0.1531917304, -0.0064179013, 0.0125815207, 0.0324703567, 0.0423379913, 0.0422338098, 0.0343676694, -0.0389901325, -0.0656545535, 0.0717693716, -0.1221568882, 0.0013902804, 0.0367584750, -0.0258584768, -0.0406863242, 0.0714520738, -0.1059327126, 0.0255209692, 0.0489245951, -0.0334367603, -0.1217806116, -0.0855272338, 0.0669470578, 0.0565235615, -0.0538922846, -0.0166974608, 0.0709270015, -0.1339959353, -0.1133334562, 0.0573068336, -0.0224328879, 0.1027739570, 0.0114129502, 0.1025585160, -0.0826159716, -0.0063204905, 0.0433426499, 0.0836529285, 0.0646807328, 0.0517553762, -0.0428512394, 0.0253450032, -0.0323478281, -0.0966969803, -0.0194511805, 0.0041935858, 0.0281699225, 0.0284304824, -0.0250351205, -0.0497468375, -0.1360751539, 0.0728422999, -0.0472057387, -0.0477914885, 0.0401183292, 0.0549790077, 0.0275052600, -0.0452268012, -0.0354874581, 0.0573858656, -0.0130002610, 0.1119976044, 0.0407706238, 0.0417184569, -0.0609159432, 0.0365067460, 0.0537337549, 0.0875268951, -0.0032923759, 0.0640446171, 0.0172921419, -0.0541708022, 0.1472285390, -0.0513895787, -0.0794744641, -0.0719556361, 0.0289841779, -0.0237228926, -0.0518020764, 0.1115414053, 0.0300343763, -0.0454120561, 0.0740422159, -0.0169671923, 0.0076792743, 0.0978232101, -0.0161401238, 0.0385367386, 0.0237835310, 0.0721776634, 0.0260924436, 0.0056129256, 0.0461071841, -0.0199080277, -0.1148939431, -0.0019836214, 0.0482124090, -0.0279578511, 0.0376252942, -0.0474545732, 0.0268452074, 0.0027325291, 0.0145309065, -0.0205851439, -0.0025509719, 0.0359317921, 0.0256679468, 0.0144921206, -0.0044074366, 0.0655871332, -0.0730366632, -0.0443479866, 0.0850391239, -0.0476888455, 0.0906880200, -0.0535184182, -0.0892859101, 0.0985135511, 0.0331765823, -0.0151102776, 0.0032486082, -0.0091504408, 0.0135519309, 0.0165500417, 0.0534106642, 0.0221922472, 0.0625736639, 0.0279481746, 0.1137220189, 0.1166250035, -0.0078339726, 0.0283003803, -0.1016358063, 0.0785060674, 0.0324009508, -0.0513130315, 0.0458380841, 0.0136177866, 0.0319571421, 0.0175619181, 0.0629663467, -0.0009892076, 0.0458647534, -0.0759658441, 0.1147403196, 0.0560299903, 0.0871749297, -0.0154827200, 0.1017261073, 0.0408078209, 0.0349757671, -0.0301085021, -0.0231684409, 0.0307414886, -0.0463399142, 0.0103974249, 0.0492623150, 0.0528198816, 0.0676254109, -0.0218019281, 0.1159567311, -0.0100680254, -0.0536716357, -0.0197314788, 0.0343221128, 0.1415105909, 0.0080949683, 0.0171550196, -0.0235258993, 0.0234713517, -0.0093107093, 0.0189332254, 0.1094152555, 0.0906182379, -0.0894073248, 0.0136554968, -0.1334921718, -0.0201575439, 0.0750470832, -0.1145195365, 0.0150310108, -0.1713064015, 0.0753243342, 0.0121405972, 0.0761323348, -0.0785836652, -0.0032745893, -0.0804590359, 0.0157069210, 0.0864606127, 0.0301192030, -0.0397405438, -0.0906244367, -0.0503382571, -0.0574292876, 0.0854781047, -0.0526930988, 0.0056846845, 0.0783025697, -0.0068952008, -0.0302034970, -0.0543720759, 0.0388933681, -0.1070013642, -0.0245794095, -0.0450988561, 0.0258623641, 0.1023172438, -0.0871505663, -0.0258369073, 0.0400015712, -0.0102289580, -0.0138690043, -0.0787847862, 0.0624546744, -0.0242096316, 0.0187746398, -0.0059434981, -0.0389967076, 0.0632029623, -0.0606091172, 0.0717019513, -0.1111948267, 0.0549650788, 0.0241272282, 0.1501244307, 0.0337568745, 0.1119820923, 0.0977415740, -0.0718668476, -0.0148688182, -0.1130457669, 0.0183799490, 0.0912315026, 0.0139981369, -0.0419244468, 0.0881057382, -0.0654818192, -0.0405291617, -0.0195112918, -0.0678882971, 0.0302537475, -0.0782856271, -0.0795216635, -0.0012360598, -0.0129128629, -0.0364361256, 0.0220142603, -0.0595306903, -0.0531052910, 0.0915312544, -0.0534347370, 0.0324528776, 0.0501780286, -0.0435106382, -0.0096779615, 0.0466442369, 0.0855271444, -0.0308360085, 0.0832760707, 0.0932341889, 0.0944141001, -0.0279141497, 0.0730075613, 0.1056863517, -0.0207759663, -0.0393748954, -0.1203422025, -0.0832692534, -0.0059247212, 0.0783853978, 0.0865398347, 0.0470179059, 0.0076618083, 0.0654983222, -0.0528917052, -0.0448096618, 0.0208723918, -0.0671207756, -0.1028393060, -0.0329244360, -0.0812687278, -0.0352018587, 0.0999743864, 0.1320701689, -0.0179710425, -0.1279483587, -0.0589338690, 0.0812375769, 0.0089993030, 0.0611312464, -0.0716031790, 0.0225117747, 0.0136274211, 0.0118576651, 0.0073546972, 0.0721275881, 0.0163315050, -0.0562150702, -0.0555485636, 0.1079733893, 0.0119975740, 0.0422268398, -0.0471410081, 0.0444331877, -0.0777075440, -0.0230692942, 0.0375365801, 0.0458819829, -0.0040400666, 0.0503585525, -0.0644731224, -0.0200865772, 0.0396987908, -0.0147875352, -0.0586793683, 0.0218022820, 0.0033340016, -0.0743661374, -0.0046829288, 0.0340677351, 0.1248464435, 0.0455621742, -0.0100703426, 0.0028630779, -0.0371097438, -0.0415374413, -0.0554490611, 0.0180013962, 0.0275740717, 0.0535982549, -0.0573116615, 0.0979962423, -0.0805619061, -0.0437277332, -0.0511914343, -0.0315194540, -0.1028811336, 0.0637167096, -0.0382036082, -0.0170562658, 0.0909330994, -0.0088923648, -0.0000486104, 0.0964149237, 0.0870201662, -0.0084863333, 0.0080140606, -0.0562714860, 0.1133109704, 0.0369923711, 0.0138490433, -0.0004603534, 0.0715351477, 0.0120086744, -0.0587512366, 0.0144016985, 0.1569482833, -0.0191002674, 0.0774309188, 0.0442206897, -0.0164279435, -0.0175076965, -0.0125425113, 0.0151123274, -0.0151247140, -0.0176316723, 0.0029708811, -0.2080560029, -0.0115989475, -0.0418436341, -0.0186894238, -0.0299879219, -0.0080638975, 0.0075255702, 0.0336280540, 0.1891124696, -0.0496414229, -0.1097868383, 0.0557667241, 0.0235541891, -0.0477298759, 0.0094155734, -0.0575790033, 0.0235011429, 0.1179747358, -0.0832533464, 0.0798432752, -0.0963653103, 0.0077252146, 0.1124234647, -0.0010276943, 0.0069970107, 0.1063158885, -0.0475527421, -0.0178081989, -0.0516011789, 0.0045575714, -0.0184559431, -0.0569719784, -0.0449211858, 0.0828598440, 0.1524981260, -0.0206482541, 0.0320511423, 0.0341552049, 0.1241240799, -0.0209596902, 0.0119181294, -0.0645727068, 0.0226653516, -0.0079656001, -0.1640435159, -0.0704190284, 0.0069566062, -0.0132145416, -0.0851866677, -0.0476648472, -0.0066872216, 0.0549455546, 0.0119971130, -0.0153430272, 0.0443115458, 0.0770928860, -0.0451230034, -0.0692979768, -0.0187532026, -0.0859237015, 0.0744615421, 0.0408379994, 0.0107875960, 0.0022465840, 0.0747298822, -0.0394595973, -0.1498388648, 0.0202480797, -0.0549936108, 0.0704610646, -0.0916425958, 0.0270719510, 0.0270368382, -0.0896384120, 0.0123250606, 0.0674730390, -0.0118437158, -0.0161880050, -0.0118580060, -0.0391909294, 0.0347734652, -0.0662076473, -0.0473383479, 0.0439413860, -0.0353488475, -0.0754670724, 0.0825224444, 0.0350507908, 0.0274625979, -0.0761433318, 0.0246940088, 0.0166842807, 0.0928509235, 0.0439521261, -0.0573998578, 0.1230218336, 0.0029704180, 0.0794603229, 0.0397324376, -0.0741636977, -0.0539346002, -0.0321958028, -0.0849937350, -0.0780863762, 0.0355430432, 0.0381474271, -0.0002174841, -0.0137764970, -0.1625787616, 0.1311817765, 0.0897223279, 0.0364034995, 0.0196853094, -0.0046078935, 0.0990905985, -0.0997775123, 0.0022015334, -0.0994385108, 0.0113761434, 0.0022132976, 0.0067555588, -0.0962384641, -0.0305447280, 0.0338281095, 0.0390879288, 0.0865663439, -0.0284752566, 0.0019824263, -0.0683504939, -0.1249527186, 0.0175119583, 0.0383433215, 0.0223147608, -0.0537904464, 0.0583253950, 0.0355282649, -0.1050115526, 0.0308708549, 0.0845701098, -0.0756326839, 0.0409227423, 0.1658134013, -0.0753229409, -0.0263249781, -0.0764945969, -0.0717944577, 0.0127383480, 0.0664008111, 0.0325621553, 0.1406750977, 0.0372973457, 0.0778071955, -0.0533205494, 0.0129873781, 0.0769239888, 0.0368294567, 0.0133987647, -0.0022704040, 0.1173413843, 0.1511762887, -0.0752514005, 0.0180053748, 0.0435029380, 0.1046397239, 0.0543739237, -0.0102498550, 0.0550567061, 0.0443382934, -0.0674639717, 0.0833081827, -0.0653917715, -0.0084771859, 0.0035888432, 0.0522809699, 0.0142063471, -0.0261597838, -0.0340962559, -0.0301197562, 0.0771872401, -0.0279349349, 0.0005066261, 0.1047726795, 0.0682839453, -0.0119803967, -0.0632441416, 0.0701251626, -0.0276943166, -0.1027526632, -0.0023026888, 0.0152917057, 0.0451109223, 0.0179913193, 0.0265844390, -0.0132262604, 0.0293919295, 0.0316185541, 0.0523285903, 0.0415707827, -0.0001978269, 0.0591773577, -0.0938179865, 0.0123315267, 0.0139062563, 0.0515135750, -0.0496848002, -0.0115069700, -0.1071387604, 0.0319911763, 0.0418885425, -0.0337685980, -0.0909573957, 0.0713072196, 0.1018446684, 0.0029176949, -0.0138728097, -0.0565769635, 0.0661450177, -0.0218872242, -0.0555236116, -0.0040951855, -0.0992601141, -0.0318532810, 0.0480828732, -0.0493792742, -0.0346078798, 0.0282523688, 0.1162169799, 0.0362671427, 0.0550540350, -0.1230112016, -0.0450618565, -0.0126975523, -0.1195531934, 0.0692095086, 0.1125307605, -0.0461707450, -0.0623700917, -0.0632852539, 0.1388227493, 0.0619912781, 0.0438560583, -0.0665509626, -0.0937074199, -0.0083726533, 0.0606748499, 0.0343378298, -0.0148715405, -0.0133510837, 0.0776400492, -0.0101161012, -0.0906252190, -0.0036680875, 0.0757031217, -0.0228970088, 0.0505078398, -0.0619097129, 0.0452418290, -0.1061891168, 0.0484152548, 0.0545690246, 0.0539584905, 0.0601270273, -0.0085631097, -0.0370301642, -0.0530643053, -0.0193570666, 0.0235578530, 0.0188237876, 0.0631070733, 0.1415378302, -0.0629804879, -0.0208148360, 0.0443601944, 0.0470944457, -0.0916678533, -0.1522512883, -0.0143493703, 0.0303134136, 0.0658083633, -0.0495714322, -0.0141783655, -0.1961698830, 0.0394382849, -0.1227331087, 0.0997580811, -0.0315707177, 0.0120316604, 0.0807644650, 0.1735678464, 0.0081858989, -0.0027239337, -0.0356311910, 0.0545232706, -0.0211080946, 0.0906097218, -0.0244411733, -0.0552750826, 0.0172009636, 0.0403064713, 0.0244376380, -0.0922414362, -0.0268080346, -0.0031161383, -0.0340386890, -0.0194220729, 0.0718327314, 0.0810349956, -0.0179569758, -0.0307628717, -0.0201624576, 0.0537473261, -0.0435417853, 0.0859174505, -0.0256539155, 0.0461852923, -0.1657160223, 0.0603351407, -0.0279138330, 0.0068801595, -0.1183348671, 0.0413496532, -0.0232590362, -0.0279603396, 0.0143052284, 0.0029686051, -0.0464603081, 0.1436206251, 0.0869017467, 0.0268281009, -0.1662948579, -0.0739163607, 0.0657136887, -0.0824343711, 0.0331650116, 0.0331351608, -0.0471893474, 0.0828219578, 0.0068835933, 0.0577723794, -0.0257050749, 0.0470131040, -0.0386769474, -0.0263208263, 0.0558954477, 0.0276236832, 0.0340732150, 0.0440039374, 0.0319189355, 0.0022562942, -0.0188659709, 0.0822788179, 0.0305462349, -0.0027735766, 0.0220287833, 0.0069882413, 0.0949129686, -0.0045239530, 0.1411179453, 0.0733743086, 0.0568998009, -0.0143545279, 0.0929325223, -0.0131317861, -0.0136835044, -0.0012186490, 0.0057373084, 0.0396116339, 0.0654180273, 0.0694403574, -0.0211694166, -0.0194824822, -0.0135848280, -0.0413412936, 0.0110615501, -0.0944454521, -0.0249305218, 0.0215147734, 0.0470130630, 0.0230865572, 0.0111380015, 0.0011291279, -0.0172548890, 0.1562428176, 0.0969343260, -0.1396245062, 0.0298963934, -0.0092972731, 0.0732702985, -0.0065716808, 0.0054646693, -0.1446118802, 0.0015263741, -0.0534980744, -0.0229666028, 0.0853944719, 0.0395046398, -0.0537678562, 0.0268413741, 0.0090446584, 0.1423883736, 0.0318311863, -0.0086548850, 0.0104952687, 0.0591342859, 0.1044141725, 0.0681860372, -0.0869325995, -0.1017912105, 0.0179584939, -0.0078103617, -0.0325022079, -0.0557451844, 0.0300663915, 0.0433597639, 0.0278086551, 0.0568790473, -0.0175776817, -0.0023395205, 0.0322823673, -0.0687811002, 0.0002211762, 0.0408595167, 0.0559439287, 0.0689353049, -0.0442716964, 0.0101975882, 0.0089985467, 0.1899811476, -0.0837207660, -0.0628926679, -0.0212235879, -0.0287178028, 0.0027404556, 0.0046296865, 0.0507689491, -0.0309717450, -0.1029179394, -0.0630954951, -0.1183076203, 0.0854224488, 0.0009247049, -0.1191497594, -0.0526357926, 0.0689987838, -0.0033055963, 0.0282648876, -0.0087299421, 0.0418901630, -0.0042847237, 0.1112137213, 0.0799963921, 0.0458505116, -0.1092759371, -0.0714247674, -0.0307528246, 0.0458880514, -0.0252718888, -0.0977367982, 0.0441684127, -0.0186695363, -0.0223426372, -0.0788801834, -0.0146561889, 0.0748432726, 0.0145464297, 0.0142442817, -0.1084210128, -0.0258994363, -0.0901011080, 0.0721411407, -0.0729529485, 0.0344487205, -0.0322190188, -0.0314041711, 0.0213401373, -0.0651715621, 0.0927719921, 0.0443453230, -0.0660092011, -0.0224413443, -0.0304747298, -0.0202350654, -0.1550640166, -0.0915945098, -0.0041400525, -0.0361526236, -0.0793020353, -0.0521309748, -0.1033931300, 0.1152277291, -0.0989069715, -0.0798727423, -0.0363156050, -0.0099662645, 0.0328185298, 0.0407881103, 0.0226732213, -0.0730180517, -0.0447072424, 0.0378179476, -0.0089771301, -0.0270292591, 0.0138516529, 0.0490110889, -0.0477624759, 0.0748542026, 0.0497166440, 0.1058290377, 0.0183479749, -0.0047051455, -0.1061297581, -0.0527213812, 0.0120628076, -0.0570672154, 0.0975162089, -0.0278604068, -0.0662365556, -0.0793871805, 0.0411615297, 0.0348052271, 0.0681064129, 0.0124911536, 0.0421106368, 0.0501610637, 0.0245968699, -0.0007511092, 0.0395505503, 0.0407512188, 0.0062710121, -0.1052710712, -0.0577059388, -0.1421094388, -0.1368003339, 0.0388258509, -0.0417754985, -0.1230547279, 0.0387905054, -0.0055081439, -0.1132020280, -0.1336897910, -0.0807728618, 0.0178813823, -0.0025353120, 0.0748766735, -0.0003639985, 0.0199279990, 0.1555603445, -0.0893015936, 0.0142988162, -0.1012939811, -0.0580331571, 0.0640346259, -0.1051196530, -0.0125790248, -0.0228450932, 0.0762303844, 0.0271181520, 0.0452993251, 0.0017482329, -0.0778493583, 0.0152387545, -0.0107681323, -0.0172498748, -0.0476500802, 0.0055119903, 0.0467224419, 0.0654987618, 0.0291996486, 0.0299090222, 0.0885062292, -0.0011201595, 0.0850020349, -0.0201199651, -0.0007347397, 0.0595629141, 0.0393565968, 0.0173164029, -0.0458545722, 0.0099188574, -0.0067134243, 0.0441768728, 0.0227659587, -0.1392205209, -0.0178721286, 0.0171155352, -0.0836874321, -0.0425718166, 0.0727601349, 0.0818373859, 0.1036061570, -0.0909109041, -0.0258745849, 0.0364740565, -0.0033029388, -0.1033187285, -0.0097941365, 0.0604537167, 0.0492411405, -0.1114350036, 0.0601339191, 0.1016806290, 0.0244265590, -0.0737661123, -0.0003739635, -0.0889538303, -0.0327556171, -0.0321812928, -0.0575730614, -0.0391375534, -0.0518847518, -0.0118837273, 0.0195137281, 0.1082169563, -0.0985170230, 0.0711553395, -0.0366672650, 0.0337236039, 0.1299446970, 0.0161160715, 0.0426419154, -0.0176661108, -0.0423306599, -0.0286395997, 0.0312675983, -0.0329946391, 0.0448111892, -0.1299460530, -0.0247830376, -0.0191792864, 0.0535775982, -0.0599232838, -0.1387098432, -0.1103910953, 0.0044418671, -0.0251935106, 0.0970692486, -0.0109588839, 0.0672123209, -0.0884201378, 0.0111782709, 0.0489352271, 0.1013495401, -0.0438689403, 0.0176096205, 0.0303051304, 0.0676938146, 0.0266186651, -0.0673590079, -0.0025841347, -0.0514626019, 0.0373329446, 0.0037025365, -0.1266934127, -0.0880564451, 0.0303198621, -0.0324220359, 0.0249314643, 0.0045146537, 0.0714116320, 0.0020159651, -0.0097013414, 0.0157293156, -0.0324498080, 0.0198086482, 0.0017628786, 0.0921323970, 0.0832574368, 0.0620446876, 0.0890667960, -0.0784281269, 0.0857638121, 0.0067132921, -0.0212030765, -0.0165969171, 0.0503653064, 0.0694784224, -0.0271983203, 0.0722424388, 0.0657865927, -0.1327075064, -0.0142916199, 0.0154675003, 0.1332066506, 0.0671736598, -0.0224641878, -0.1705099195, 0.1386957020, 0.0268474296, 0.0842452794, -0.0904367119, 0.0233445391, 0.0740923584, -0.0037597129, 0.0227211043, -0.0392175242, -0.0611275807, -0.0791166499, 0.0094400588, 0.0802929923, 0.0376966894, -0.0094249211, -0.0734561458, -0.0325300433, 0.0380932540, -0.0445301756, 0.0018414165, -0.0316346250, 0.0577066243, 0.0488645509, 0.0371980928, -0.0164594818, 0.0445538051, -0.0407406241, 0.0176788848, -0.0529868416, -0.0208078157, -0.0768499076, -0.0049204282, 0.0510481559, -0.0774497390, -0.0737586096, -0.0797138214, 0.0170201175, 0.0417351387, -0.0634831861, -0.0818440393, -0.0292535312, -0.0129178986, -0.0706031621, -0.0376834646, 0.0517229252, 0.0369654484, -0.0242459811, 0.0218958277, 0.0121932961, 0.0217673276, 0.0179410558, 0.0735487118, 0.0712615177, 0.0237415191, -0.0063727354, -0.0111026447, 0.0130122704, -0.0319355801, 0.0436395034, 0.0550373569, -0.0222366489, -0.0252146237, 0.0194373298, 0.0887365565, 0.0311729107, -0.0080981348, 0.0557230376, -0.1538929790, 0.0027496926, 0.0665627420, -0.0091958251, 0.0465378352, -0.0037832560, -0.0313818008, 0.0176100284, 0.0109174270, -0.0239084084, -0.0032614523, -0.0853367001, 0.0102163972, -0.0219165180, -0.0641069412, -0.0495711155, 0.0660675690, 0.0423048027, 0.0936138108, -0.0639185682, 0.0315046385, 0.0845550150, -0.0293655749, 0.0569761395, -0.0565763749, 0.0463419259, 0.0344011970, 0.0780894086, 0.0149179231, 0.0226150770, 0.0306126960, 0.1344720423, 0.0097403526, -0.0285186712, -0.0406183451, -0.0495850183, -0.0414248593, 0.0350623243, -0.0553001314, -0.1596414298, 0.0821005031, 0.0364432298, 0.1053752601, 0.0637910292, -0.1539100707, 0.0373214558, -0.0774310306, -0.1391929686, 0.0242418908, -0.0736580789, -0.1307538897, -0.0534759611, 0.1718367934, -0.0145634897, 0.0647896305, 0.0286089964, 0.0401661396, -0.0588194206, -0.0044797175, 0.0144963861, 0.0479961261, 0.0685460493, -0.0204252545, 0.0186439846, 0.1157087386, -0.0525230058, 0.0739466846, 0.0140960254, 0.0942261443, 0.0084881466, 0.0822441503, 0.0010219740, -0.0217571165, 0.0553480834, -0.0281349756, 0.0021889512, 0.0972143859, -0.0451545008, 0.0017664138, 0.0223220252, -0.1830806434, -0.0026296698, -0.0041069882, 0.0340006873, 0.1319362372, 0.0158384237, -0.0171564035, -0.0740708411, 0.0310785379, -0.0332341827, -0.1089559570, -0.0475839451, 0.0028892504, 0.1525240242, 0.0035966102, 0.1534712911, -0.0387580805, -0.0345634744, 0.0092247138, 0.0685954019, 0.0769323483, 0.0564313121, 0.0349736474, 0.0490394197, -0.0539078191, -0.0042398772, 0.0057119904, -0.0285550319, -0.0885623172, -0.0663735196, -0.0457529649, -0.0334054343, 0.0690918267, -0.0907118618, 0.0661423653, 0.0551160909, 0.0722772330, 0.0830151513, 0.0333163813, 0.0227016788, 0.1075712293, 0.0011960969, -0.0809488147, -0.0865896270, -0.0121841179, 0.1558207124, -0.0043011555, -0.0187295824, 0.1404607594, -0.0776020959, 0.0219487119, 0.0319226719, -0.0017149682, 0.0488504805, -0.1196162030, -0.0665392950, 0.0407515764, -0.0686255917, -0.0244468134, -0.0213979874, -0.0362412781, -0.0220384412, 0.0148313520, 0.0031327042, 0.0487804115, 0.0713010728, 0.0925881341, -0.0006652822, -0.1492476910, -0.0026517543, -0.0125516383, -0.0925753191, 0.0386704877, -0.0467801504, -0.0048504812, -0.0180884805, -0.0342903994, 0.1049857065, 0.0944955945, 0.0973213613, 0.0007633185, 0.0120174820, 0.0539373010, -0.0032872236, -0.0909793451, -0.0263791103, -0.0334587581, 0.1239012629, 0.0468749739, 0.0212692991, 0.0694979429, 0.0092405900, 0.0504031405, 0.0282807145, -0.0367274620, 0.0062810881, -0.0947880596, -0.0720977932, -0.0238450132, -0.0081676282, -0.1146415472, -0.0491292030, 0.0329065733, -0.0015351634, -0.0183809754, -0.0754934326, -0.0574654937, 0.0127174146, -0.1313113719, 0.0405303687, 0.0560691766, 0.0138470717, 0.0871092379, -0.0306396279, -0.0318251625, 0.0194451734, 0.0708813816, 0.0062387851, 0.1066503599, -0.0125451339, 0.1504548192, -0.0694079548, 0.0789351016, 0.0647418201, 0.0068571223, 0.0451054275, -0.0039487234, -0.0284201391, -0.0279341657, 0.1162685603, 0.0638293698, 0.0054867291, -0.0295849256, -0.0187704861, 0.0036285189, -0.0197529644, 0.0270358715, 0.0764726549, -0.0876907930, 0.1062244773, -0.1325989217, -0.0383905359, 0.0343455970, 0.0092114797, 0.0423224121, 0.0356875248, -0.1123624593, -0.1339100152, 0.0898327604, -0.1440744251, -0.0083035957, 0.0719496086, -0.0621176362, 0.0268791337, 0.0315707438, 0.0651846901, 0.0356096961, 0.0393642411, -0.0141174849, -0.0472026691, 0.0614577159, 0.0523331873, -0.0811684281, 0.0364832841, 0.1254271418, -0.0251851231, 0.1061492413, -0.0136207966, -0.1065404639, 0.0715001076, 0.0509006195, 0.0468880646, -0.0597744249, 0.0340435766, 0.0288325232, 0.0665972978, 0.0886465460, 0.1618469059, -0.0334259011, -0.0773197860, 0.0262951236, 0.1674839556, 0.0692793354, 0.0038636937, -0.0103658084, 0.0332753249, 0.0028256965, -0.0396210626, 0.0112675540, -0.0334348120, 0.0752775520, -0.0502604619, 0.0113891177, 0.1100692749, -0.0091460114, 0.0014109279, 0.1151812524, -0.0034491257, -0.0524255186, -0.0910188556, -0.0075891661, -0.0254282858, 0.0742024183, 0.0359714292, 0.1003944427, 0.0610785186, -0.1636075974, 0.0211012308, -0.0581517294, 0.1814344078, -0.0312106349, -0.0381201394, 0.0001427015, 0.0712931231, 0.0753773749, -0.0934698433, -0.0795696378, 0.0228993408, 0.0148362396, 0.0794572234, -0.0283156149, -0.1071177870, 0.1087026522, 0.0491617508, -0.0721967071, 0.0434554182, -0.0196423717, 0.1846661270, 0.0646868050, -0.0213198718, 0.0996847451, -0.0409146920, 0.0677210391, -0.0123301875, 0.0111414837, -0.0493813604, 0.0390988700, 0.0063683428, 0.1019475088, -0.1651226133, -0.0234611686, 0.0047779214, 0.0246391371, 0.0697975159, -0.0259599201, 0.0387819149, -0.0253168494, -0.0545038916, -0.0613979436, 0.0635468736, -0.0578328520, -0.0005545281, 0.0213987045, 0.0053344802, 0.0625353828, 0.0036061085, 0.0299180262, -0.0049783862, -0.0055496348, 0.0039756368, -0.0008579640, -0.0436276607, 0.0176523849, -0.0465405360, -0.0187607836, -0.0130054699, 0.0023038548, -0.0209500361, -0.0798690990, 0.0310596097, 0.0232018270, 0.0339651294, 0.0796116814, 0.0286672134, -0.0690973401, -0.0013143182, -0.0126391016, 0.0222903956, 0.0644144565, 0.0666403398, -0.0513476320, -0.0920574665, 0.0651550516, -0.0240094792, 0.0905812457, 0.0326043852, -0.0927357972, 0.0017561457, -0.0122753577, -0.0158441775, 0.0675327554, 0.0301551726, 0.0866288319, -0.0355386473, 0.0472281761, 0.0130055621, -0.0637591183, -0.0165422782, -0.0491678491, -0.0797951892, -0.0300789401, -0.0465322770, 0.0533949435, 0.0570423082, -0.0431123227, -0.0670548528, 0.0737515986, -0.0298526753, 0.0632729530, 0.0360366851, -0.0268753823, -0.0810837820, 0.0339429118, 0.0219042096, 0.1079057679, 0.0586741529, -0.0579066500, 0.0405535474, -0.1175962985, 0.0261210743, -0.0811754540, -0.1219562367, 0.0012040584, 0.0204268415, -0.0705076754, -0.0984152853, 0.0084865196, 0.0522513688, -0.0513233840, 0.0624790825, -0.0209656097, -0.0041450080, -0.0335214287, -0.0615201257, 0.1008939147, -0.0660718828, -0.0009904896, -0.0163145531, -0.1322841942, -0.0208641011, -0.0597646125, -0.0124296509, -0.0347319357, -0.0073855594, 0.0473467037, -0.0065415949, 0.0343005061, -0.0653062984, -0.0206619389, -0.0930462778, -0.0149683803, -0.0758287460, 0.0768609121, 0.0026723763, -0.0858068466, 0.0230797660, -0.0022992720, -0.0962053314, 0.1470783502, 0.0386718735, -0.0239859391, -0.0056614117, 0.0609613396, -0.0174362678, -0.1134696528, -0.0344733186, 0.0532801822, 0.0064779562, -0.0161522105, 0.0073533030, 0.0136906682, 0.0836544707, -0.0651503503, -0.0803327188, 0.0738166720, -0.0276275985, 0.0641919523, -0.0619214326, 0.0029551769, -0.0599480234, -0.0085036838, 0.0143944882, 0.0092059551, 0.0272869226, 0.0008267051, -0.1122908443, 0.0862935260, 0.0176093131, -0.0648656785, 0.1011781320, -0.0474655293, 0.0130806211, 0.0647436529, 0.0113918725, -0.0453518145, 0.1447440237, 0.1418255866, -0.0230562799, -0.0067492556, -0.1606962383, 0.0094202543, 0.0814533159, -0.0306200124, -0.0511449724, -0.0191232804, -0.0194870867, -0.0191147942, -0.0848413408, -0.0412226468, 0.0597265549, 0.0486637428, -0.0485185273, 0.0816875622, -0.0127227325, -0.0864432752, 0.0103701837, 0.1330791563, -0.1122703850, -0.0638929307, -0.0026221257, 0.0924000069, 0.0036552821, -0.0010165953, 0.0570757538, 0.0926520675, -0.0303622149, -0.0456841812, 0.0557470880, -0.1066258997, -0.0386644155, -0.0183345247, -0.1157645509, -0.0522252060, -0.0530934520, 0.0709410086, -0.0629543290, 0.0145842349, -0.0760022700, -0.0034428847, 0.0768555924, -0.0121262521, -0.0514604449, 0.0046370691, 0.0776284561, 0.0600734912, 0.0061169388, -0.0110312775, -0.0117087904, 0.0110532781, 0.0206820816, -0.0730010718, 0.0235512294, -0.0474412329, -0.0117330905, 0.0222731419, -0.0693048835, -0.0694811568, -0.0031514326, -0.0748707354, 0.0247065462, 0.0773917735, -0.1132067218, -0.0277539119, -0.0338877849, 0.0320476927, 0.0504506044, 0.0366234817, -0.0285612550, 0.0600436628, 0.0130015025, -0.0862636119, -0.0309581589, 0.0324361958, -0.0191568844, 0.0473521166, 0.0670710728, -0.0223368984, 0.0452084392, 0.0095395381, 0.0651795119, -0.0448741540, -0.0116700660, -0.0500038303, -0.0468385816, -0.0551262833, 0.0376571082, -0.0330243409, 0.0407110341, -0.0133057917, 0.1022854894, 0.0603824891, 0.0810649842, -0.0507455915, -0.0100460639, -0.0760503039, 0.0058117304, 0.0437895879, 0.0354179963, 0.0557133816, 0.0406716205, -0.0187316015, -0.0528720133, 0.0133299734, 0.0118911080, 0.1181204543, -0.0399646834, -0.1017807201, -0.0248644296, -0.0501556322, -0.0702782422, 0.0540836491, -0.0309217218, -0.1606193781, -0.0031596953, 0.0277870782, -0.0293697901, -0.1236884668, 0.0197404847, -0.0055915290, 0.0737274885, -0.0678638741, 0.0196414031, 0.0765812024, -0.0094583901, 0.0015766440, 0.0501262322, 0.0388646536, 0.0072773942, 0.0363794081, 0.0083126724, 0.0119478069, -0.0850920007, 0.0728695542, 0.0426452011, -0.0347163081, -0.0790184140, 0.0283239149, -0.1205992997, 0.0683857128, 0.1574725807, 0.0978614315, 0.1465514451, 0.0875714719, 0.1523599327, -0.0222643055, 0.0482971296, 0.0056305444, 0.0738691017, 0.1298137903, -0.0189502202, -0.0041601085, 0.0299086440, 0.0650094524, 0.0872597694, -0.1207540780, -0.0195081551, -0.0502357669, 0.0484393872, 0.0099727251, 0.0494455174, -0.0114413574, -0.1086687297, -0.0866698921, 0.0585180260, -0.0845375285, -0.0869935825, -0.0390400626, -0.0250089411, -0.0171584692, 0.0106570246, -0.0307111144, -0.0247239545, -0.0425053313, 0.0404623225, 0.1002278775, 0.0560573637, 0.0576828532, 0.0216987673, -0.0413213745, -0.0495455004, 0.0613292269, -0.0054191393, 0.0114653958, -0.0048048175, 0.1048127636, 0.0991607830, -0.0414600968, -0.0974628702, -0.0247781072, 0.0187372435, 0.0820564479, -0.0251650270, -0.0516483784, 0.0988446772, -0.1361871213, -0.1236141920, 0.1159701645, -0.0386583172, 0.0537159331, 0.0880543813, -0.0884974375, -0.0127090532, -0.0049703429, -0.0194981247, 0.0571091771, -0.1475390494, -0.0538518801, -0.0316167772, -0.0137753235, 0.0392851010, 0.0331360772, -0.0400784314, 0.0907146558, -0.0591224432, 0.0607386045, -0.0499239005, 0.1403398961, -0.0508654937, 0.0510005839, 0.1006528959, 0.0702301413, 0.0092694685, -0.0501049794, -0.1071181297, -0.0912328884, 0.0169204921, 0.0038058106, -0.0280125085, -0.0146168321, -0.0586658791, 0.0713709071, 0.0422823243, -0.0264693424, 0.0358874127, 0.1338964999, 0.0013913583, 0.0875735730, 0.0707095340, 0.0171056464, -0.0713700727, -0.0582631379, -0.0265192036, 0.0277968775, 0.0344970860, 0.0340707861, -0.0137570174, -0.0467236899, -0.0101970043, -0.0196373388, -0.0066037201, -0.0154964700, -0.0658530146, -0.0543623231, -0.1511918753, 0.0454386473, -0.0081092073, 0.0167986453, -0.0156227387, -0.1181138605, -0.0357736349, 0.0540710948, 0.1091131791, 0.0192164779, 0.0939505696, -0.0411576815, -0.0569887646, 0.0579424500, 0.0144996494, 0.0012612144, 0.1131258234, -0.0702865645, -0.0765570402, 0.0261457786, -0.0966386795, 0.0137525490, -0.0486846380, -0.0026952603, -0.0849055052, 0.0131035214, -0.0528446808, -0.1474212855, -0.0513164364, -0.0057284492, -0.0326579250, 0.0182617605, -0.0654721409, 0.0682430193, 0.0056286948, 0.0583023094, 0.1062153652, 0.0071171122, 0.0471205935, 0.0721580684, -0.0121020973, -0.0717575178, -0.0572337285, -0.0424927883, 0.0531183928, -0.0451024249, -0.0050934814, -0.0522741489, 0.0308100991, -0.1186755598, -0.1443384439, 0.0351945348, 0.0692791045, -0.0921494365, 0.0959008932, -0.0181906652, 0.0012839492, -0.0268382840, -0.0580242984, 0.0035325135, -0.0147053469, 0.0498418547, -0.0431368314, -0.1037731543, -0.1005191207, -0.0409241728, 0.0394942984, -0.0401792563, -0.0162559189, 0.0509081893, 0.0747417882, 0.1825556457, 0.0532342903, 0.0628396049, -0.0757023469, -0.0958063379, -0.0317826644, 0.0567594618, -0.0448920205, -0.0184168424, -0.1093004048, -0.0345882252, -0.0553759933, 0.0565973483, -0.0801914334, -0.1015464514, -0.0330656953, 0.0718709752, -0.0257825144, 0.0101909460, 0.0916119069, 0.0742973611, 0.0120285656, 0.0385894775, 0.0103185074, 0.0495095477, -0.0029207852, -0.0839516297, 0.0404624753, 0.1116110981, 0.0197221972, 0.0104509769, -0.0247566719, -0.0745740831, -0.1054184362, -0.0004103902, -0.0379508212, 0.0109011801, 0.0103070643, -0.0890970752, 0.1470731199, 0.0993186459, -0.0819128752, -0.0639752895, -0.0048863115, -0.0522146225, -0.0228431057, -0.0374267511, 0.0295194834, -0.0310014933, 0.0267261900, 0.0270347353, 0.0850491300, -0.1146778613, 0.0618189760, -0.0021338686, -0.0847238228, 0.1301901489, -0.0744098723, -0.0839293152, -0.0738509670, -0.0974962860, -0.0844413787, 0.0119945658, -0.0115515515, -0.0174254589, 0.0002420528, 0.0156071289, -0.1022755429, -0.0800102875, 0.0329977013, 0.0258098487, 0.0117558520, -0.0819791928, 0.0037743798, -0.0154438270, -0.0678128973, 0.0521531478, 0.0103680901, -0.0819303915, 0.0542518683, 0.0459196679, 0.0991031975, -0.0350907855, 0.0580465198, 0.0021826068, -0.0450225733, -0.0024819742, 0.0655753613, -0.0015515911, -0.0862521082, 0.0417750403, -0.0233641304, 0.0525892228, 0.0581636503, 0.0063653495, 0.0776556358, 0.0822052956, 0.0428791046, 0.0992387980, 0.0057043838, -0.0040685334, 0.0949793756, -0.0184900574, -0.0941908211, 0.0072994088, 0.1020005047, 0.0472739674, -0.0201023016, 0.0051636724, 0.0236887243, -0.0361982398, -0.0477492996, -0.1228095964, -0.1047018468, 0.0276948940, -0.0611639544, -0.0589501895, -0.0525690801, -0.0955403894, -0.0772765651, 0.0218432080, 0.0053425431, -0.0027480333, 0.0254365187, -0.1159726307, 0.0280300304, 0.0196716338, -0.0108569982, 0.0932529420, 0.0337546766, -0.0093807653, -0.0420400277, -0.0656252131, 0.0041518132, -0.0436460264, -0.0633821189, 0.0609353036, 0.0768576413, -0.0696284696, 0.0831191614, 0.0558777265, 0.0152348047, 0.0320177376, 0.0300262328, -0.0147287650, -0.1038657650, 0.0145434458, -0.0828115344, -0.0134406714, -0.0312983133, -0.0586154573, -0.0194050539, -0.0012839732, 0.0438003875, -0.0356907248, 0.0010011331, -0.1322168708, -0.0859441012, -0.0549816377, 0.0389421247, 0.0473157801, 0.1118864566, -0.0668665841, 0.0127550103, -0.0705001876, 0.0012182685, -0.0441336855, 0.0619088523, 0.0315306745, 0.0670147687, 0.0588821135, 0.0137037933, -0.0723829642, 0.0276852939, 0.1096668914, 0.0188612714, -0.0384782627, -0.0161565952, -0.0265852679, -0.0201857351, -0.0568343401, 0.0307014398, 0.0008249078, 0.0353976302, 0.0838485211, 0.0119415261, 0.0061057331, 0.1281809509, -0.1234789640, -0.0101360539, 0.1337524951, -0.0659473836, -0.1094383970, -0.0540675670, 0.0761063695, -0.0559382439, -0.0909316465, -0.1315183789, 0.0255691186, -0.0846681967, 0.0218001977, 0.0996060520, -0.0309088100, 0.0115268352, 0.0915341452, -0.0542952269, 0.0111879278, 0.0073281256, 0.0930089131, -0.0797763094, 0.0000927867, -0.0283937082, -0.0758785978, -0.0537436679, -0.0593439639, 0.0323606320, -0.0417724252, 0.0521205068, -0.0524228774, 0.0567422211, 0.0277122054, -0.0158178881, 0.0185388196, 0.0432212800, 0.1206517145, 0.0386969969, -0.0084565692, 0.2004201859, -0.0021875207, 0.0202760007, 0.1148110181, -0.0048328410, 0.1256682724, -0.0017320162, -0.0381000191, -0.0364435427, 0.0171716064, -0.0013430023, 0.0004350766, -0.1417210847, -0.0508892536, -0.0107785258, -0.0213671923, -0.0360209420, 0.0334169939, 0.0063559720, 0.1622765958, 0.0348888524, 0.0132253999, 0.0134884184, 0.0964926705, 0.1137541384, 0.0424576476, -0.0005868234, 0.1136146486, 0.0264091827, -0.0166341029, -0.0526653714, 0.0474467911, 0.0157356095, 0.0346204415, -0.0355708674, -0.0208960064, 0.1048196778, 0.0349537171, 0.0571053326, -0.0442240424, -0.0651612878, 0.0117865335, -0.0382742174, -0.0874547660, 0.0401249900, 0.0177711044, -0.0306361765, 0.0166408233, 0.0011388343, 0.0116400216, -0.0346550792, -0.1832558513, -0.0780565292, -0.0610653535, -0.1036271155, -0.0315965340, 0.0424568839, -0.0221405569, 0.0243741982, 0.0726769567, 0.0131713459, -0.0981349945, -0.0356901921, 0.0530128293, 0.0592579134, 0.1118420810, -0.0788194984, 0.0647934079, -0.0011782108, -0.1000413820, -0.0592481531, 0.0608434156, -0.0081288377, -0.0570569113, -0.0127057908, -0.0397507697, 0.0543578044, 0.0145185050, -0.0725227743, 0.0717791095, 0.0034617076, 0.1082781404, 0.0081587005, 0.0086922469, 0.0617241524, -0.1172695085, 0.0480813310, -0.0713762715, -0.0422236994, -0.0849264935, -0.0231716502, -0.0232164245, -0.0197191946, -0.0677885637, -0.0431597084, 0.0718267038, -0.0714713335, 0.0270069670, -0.0136638312, 0.0485819131, 0.0634350032, -0.0051895445, 0.0100570833, 0.0115957949, 0.0842904970, -0.1420094222, -0.1328806132, 0.1349297613, 0.0133361463, -0.0317638293, -0.0611854121, 0.0415281430, 0.1040918902, 0.0592689700, -0.0073481225, 0.1202064157, -0.0174681656, 0.0417456515, -0.0524811819, 0.0575034283, -0.0190936867, -0.0480435491, 0.0033694478, 0.0637121648, -0.0521499850, -0.0236224364, 0.1083683819, -0.0387689471, 0.0755481943, 0.0104914084, 0.0047257538, -0.0410013087, 0.1015248522, 0.0739734545, 0.0103262132, -0.0502506681, -0.0608582944, -0.0051678764, -0.1537274420, -0.0490778238, -0.0156541653, 0.0100633819, -0.0739311129, -0.0820107311, 0.0273361094, -0.0067180777, -0.0507854894, -0.0385636352, 0.0510921665, 0.0594936311, 0.0026244267, 0.0586478002, -0.0568984412, 0.0725877956, 0.1100602672, 0.0049254959, -0.0396426879, 0.0744770095, 0.0428160094, -0.0499139801, 0.0122897532, 0.0733796880, -0.0603086911, 0.0515758060, -0.0739210546, -0.0039965911, -0.0097273560, -0.0554654785, 0.0846710429, -0.0918196365, -0.0185154621, 0.0662924498, -0.0551103093, 0.0873266980, 0.0275305230, 0.0000793340, -0.1058937982, 0.0305950083, 0.0851615444, -0.0324268080, 0.0391308367, -0.0801852047, -0.0696530044, 0.0737992451, 0.0518319905, -0.0234880857, -0.0313122347, -0.1010672450, 0.0896291286, 0.0479149744, -0.1045768037, 0.0308759492, 0.0224621668, 0.0590634346, -0.0152262831, -0.0049427208, -0.0472197123, 0.0876496732, 0.0539016277, -0.0658369288, 0.0067571038, 0.0823309869, 0.0000839121, -0.0473299436, -0.0444591939, 0.0080426214, -0.0395239778, -0.0136057446, -0.0418096446, 0.0456414446, 0.0691799000, 0.0349056348, -0.0847108588, 0.0839317963, 0.0465176329, -0.0191120636, 0.0465865247, 0.0218191594, 0.0785932019, -0.0143524203, -0.0383413285, 0.0790876895, -0.0063007949, 0.0082853902, -0.0639551282, 0.0076445066, 0.0346219316, -0.0157792289, -0.1339271963, 0.0569967143, -0.1251837909, -0.0312203597, -0.1060855165, -0.1578353792, 0.0483301096, 0.0305941571, -0.0287475754, -0.1091663167, 0.1084873378, -0.0691363737, -0.0808381215, -0.0197275504, 0.0419270620, 0.0380476266, 0.0535648279, 0.0765494108, -0.0979901701, 0.0801663324, -0.0742196813, 0.0705721825, 0.0160095766, 0.0103780255, 0.0403263457, 0.1125776842, 0.0565132573, -0.1093793139, 0.0589699410, 0.1262521148, -0.0612907261, 0.0524174534, -0.0817810744, 0.0464381352, 0.0847336799, -0.0200789031, -0.0656172857, 0.1506691724, -0.0109188259, -0.0244440157, -0.0198326055, -0.0248249620, 0.0706641525, -0.0116925854, 0.0769599676, 0.0385381468, 0.0479868203, -0.0554619990, -0.0395321846, 0.1643881202, 0.0613488667, 0.0213133581, -0.0832410604, -0.0287765302, -0.0140747158, -0.1018112674, 0.1051202267, 0.0648530796, 0.0271271486, 0.0378847346, -0.0621339940, -0.0286926813, -0.0030352892, -0.0053317291, 0.0160694253, -0.0246579889, 0.1152044013, 0.0355526283, -0.0207510926, 0.0360761918, 0.0701240078, 0.0787637830, 0.1053970829, -0.0495374054, -0.1112966090, 0.0282476433, 0.0618284494, 0.1166985780, 0.0135557251, 0.0180968661, 0.0570318140, -0.1255440712, 0.0217563175, -0.0644711554, -0.0907057002, 0.0437432416, 0.0482896492, 0.0218321569, -0.0582145415, -0.0509502068, 0.0256699789, -0.0372697897, 0.0208609067, 0.1037911549, 0.0581285432, -0.0569470748, 0.0181387477, -0.0197785590, 0.1020475179, 0.0375782810, 0.0410918482, -0.1121198162, 0.0517612770, -0.0283208378, -0.0242468584, -0.1281017959, 0.0137519604, -0.0537811145, 0.0193448551, -0.0476404577, 0.0002670956, -0.0569606312, -0.0039423928, -0.0634278059, 0.0546727069, -0.0610752627, -0.1549195796, -0.0001315202, 0.0234404337, -0.0196907036, 0.0390684493, 0.0551320128, 0.0078083980, 0.0157174170, 0.0207343232, 0.1008322462, -0.0435780250, -0.0412931703, 0.0736735910, -0.0123657947, -0.1910001189, -0.0671394542, -0.0971408486, -0.0579539090, -0.1103708297, 0.0026756939, -0.0391719975, -0.0706483498, -0.0293917283, 0.0446336493, 0.0477511324, -0.0783677921, -0.0037813873, 0.0068289461, -0.0079668351, -0.0152161084, 0.0541144498, 0.0511814132, 0.0546081103, -0.0579998270, 0.0560320243, 0.0516632795, 0.0364709496, 0.0523322895, 0.0221519396, 0.0111004850, 0.0627048835, 0.0370064452, -0.0247291196, -0.0197671615, -0.0186860841, 0.0468800329, 0.0186514836, 0.0162900984, 0.1198113859, 0.0707888454, 0.0333024263, -0.0066719530, 0.0333482064, 0.0293628108, -0.0003563954, -0.0424095318, -0.0259440392, -0.0018925579, -0.1313748062, 0.0254138429, 0.0529216640, -0.1265298724, -0.0024650483, -0.0560282022, -0.0356029533, 0.0848452076, 0.0364526659, -0.0495172366, 0.0743905082, 0.0270448849, 0.0113589708, 0.0701891854, -0.0285997018, -0.0614810623, 0.0068358066, -0.0368257575, 0.0113409972, 0.0824726000, -0.0458112769, 0.0085121952, 0.0372504368, 0.0631206930, -0.0309375897, -0.0021553428, -0.1037158966, -0.0081981150, 0.0040682536, -0.0370607264, -0.0552156791, -0.0663494244, 0.0313760750, -0.0409082100, 0.0647453368, -0.1098461673, -0.0918995738, -0.0112381075, 0.0608956814, -0.0355583429, 0.0185992122, 0.0480196998, -0.0004251818, 0.0459075309, -0.0065409285, 0.0896080062, 0.1010453850, 0.0302199759, 0.0132059790, 0.0816518590, -0.0879579857, 0.0562308803, -0.0070564933, -0.0304811746, -0.0390336029, 0.0347863846, 0.0440183729, -0.0860640258, 0.0544984415, -0.0286085792, 0.0421687700, 0.0149493562, -0.0522680730, -0.0309495442, 0.1409486383, 0.1094010770, 0.0291951429, -0.0341096073, -0.0761322230, 0.1296284050, -0.0719013810, -0.1481426060, -0.0409733504, -0.0420540161, -0.0133530311, -0.0724140331, 0.0474446826, -0.0091558546, 0.0271737501, 0.0670365691, -0.0218413584, 0.0404687673, -0.0961584598, -0.0075598499, -0.0789999589, -0.0285990424, -0.1203344390, 0.0856197998, -0.0209775213, -0.0635193437, 0.0325597227, 0.0608978942, -0.0061986442, 0.0799656659, 0.0290195271, 0.0507045686, -0.1208254173, 0.0113537135, -0.0269601531, -0.0813756436, 0.0096729025, -0.0037116129, -0.0456649289, -0.0275627412, -0.1044457555, 0.0442500673, 0.0159271825, 0.0626793802, -0.0767859295, -0.0070637171, -0.0891193300, 0.0430254973, 0.0283805896, 0.0777455047, 0.0106048901, 0.0309144817, 0.0926538482, -0.0534267686, -0.0456015915, -0.0476940833, 0.0502195209, 0.1416243911, 0.0053744451, -0.0306881573, -0.0563357472, -0.0487021394, -0.1029954031, -0.0854316577, 0.0632295609, -0.0634573326, 0.0566490963, 0.1272062361, 0.0213181749, 0.0224028155, 0.0597038902, 0.0942668691, -0.0112625267, 0.0065932311, 0.0321409218, 0.0290730279, -0.0860373825, 0.0269369110, -0.0313786045, 0.0842130259, -0.0993922353, -0.0402797759, 0.1166270152, 0.0425384454, -0.1249600053, -0.0623163283, -0.0242609698, -0.0055206916, 0.0930024981, 0.0187812634, 0.0108918184, 0.0790643319, -0.0275719073, 0.0250192117, -0.1138721779, -0.1158472449, -0.0670544952, 0.1487146765, -0.1611492932, -0.0193949621, -0.0763393193, -0.0460690148, 0.0736869350, -0.0132347923, 0.0666936934, -0.0617613420, 0.0596345849, 0.0169524383, 0.0721774548, -0.1301562190, 0.0854965597, 0.0191023219, 0.0234112330, 0.0850428864, 0.0629165024, 0.0143842129, 0.0269156620, 0.0018685997, 0.0338522084, -0.0454082042, -0.1125961393, 0.0827402994, -0.0036883352, -0.0056492118, 0.0822376087, -0.0324210674, -0.0000151478, 0.0857270434, -0.0849917531, -0.0241167974, 0.0254729856, 0.0391909294, 0.0175659247, 0.0551155284, -0.0844885185, 0.1039648056, 0.0087596336, -0.0598459207, -0.0933001488, -0.0120835928, 0.0220265798, -0.0061596688, -0.0144793000, -0.1192176566, 0.0892351270, -0.0128679294, 0.0186762214, 0.0815236941, 0.0322904587, -0.1569763124, -0.0723731220, 0.0187565815, -0.0608663112, -0.0376768224, -0.1003023833, 0.0264802985, -0.0421975516, 0.0192647073, 0.0036102773, -0.0298412573, -0.0259370431, 0.0039656530, 0.0390149839, 0.1087064371, -0.0097747045, -0.0175599251, -0.0299156196, 0.1394247562, 0.0378478877, -0.0394071601, -0.0528948903, 0.0008135641, -0.1023577675, -0.0373178348, -0.1604803801, 0.0129778646, 0.0789579600, -0.0246034507, 0.0533197634, -0.0429142751, -0.0539557487, 0.0599683970, 0.0760496184, -0.1275585294, -0.1743826121, 0.0251694396, -0.0423801802, -0.0348738395, 0.0677892193, 0.0327458419, 0.1148355976, 0.0681775063, -0.0021939971, -0.0151388003, 0.0404142514, -0.1017680019, 0.0902874917, -0.0074015739, 0.0374292061, 0.0682462603, -0.0070994366, 0.0187626369, 0.0777528808, 0.0003259860, 0.0310181286, -0.0034072269, -0.0430433862, -0.0463162921, 0.0712328404, -0.0210864171, 0.0220452808, 0.0364517942, -0.1226310059, 0.0017427594, -0.0088282470, 0.0459251106, -0.0484692380, 0.1122038737, -0.0180840138, 0.0176112168, -0.0315401368, 0.0129373409, 0.0895816311, 0.0083240662, 0.0162046794, 0.0424479470, 0.2168532163, -0.0114011262, -0.0050829975, -0.0110816490, 0.0288073923, -0.1462738812, -0.0421845429, 0.0138095943, 0.0006397581, -0.0158452857, -0.0305827446, -0.0493689552, -0.0414120182, -0.0608563684, 0.0013183157, -0.0192721151, -0.0427132174, 0.0229494460, -0.0102404803, -0.0316394940, -0.0470202900, -0.1073504016, 0.0866330862, -0.0360096879, 0.0285557918, -0.0491057932, -0.0806045905, -0.0657118112, 0.0499824695, 0.0048144693, -0.0054760445, -0.0112333680, -0.0157033019, 0.1756764203, -0.0272871945, -0.0485494211, 0.0784949437, 0.0467056483, -0.0573184267, -0.1145519540, -0.0569232889, -0.0665098503, -0.0704040453, -0.0477569513, 0.0712613985, 0.0795273557, -0.0592767894, -0.0319029763, -0.0455040410, -0.0614037439, 0.0283675343, -0.0494317189, 0.0609244965, -0.0206849743, -0.0093212109, -0.0478707589, 0.0034106327, 0.0157390833, 0.0283656158, -0.1491532475, -0.0802318379, 0.0417343676, -0.0311518628, -0.0216189977, -0.0643765032, -0.0054908977, -0.0426538698, 0.0651111752, 0.0425339751, -0.0311423559, 0.0094444705, -0.0083888173, -0.0422610752, 0.0390026309, 0.0477877855, -0.0259179790, -0.0400033221, -0.0570687838, -0.0380412638, 0.0138588687, 0.0005697164, -0.0074106408, -0.0813690126, -0.0091729909, 0.1172953993, -0.0055015781, 0.0178395305, 0.1191308424, -0.0063528805, 0.0838235170, 0.1158844978, 0.0730302557, -0.1040182114, 0.0440186411, -0.0426269360, 0.0877558663, -0.0333667621, 0.0303548593, -0.0222270396, 0.0837533846, -0.0290906448, 0.0780227110, -0.0960333869, -0.0005919326, 0.0032975706, -0.0115707032, 0.0028865503, 0.0781522170, 0.0608452521, -0.0102338074, 0.0693120286, 0.0232997239, -0.0118191633, -0.0925833881, 0.0012662068, 0.0537295155, 0.0636000633, -0.0115198623, -0.0465707108, 0.0236563142, 0.0325292461, -0.0644463524, 0.0318756364, 0.0897343606, 0.0535032079, 0.0132584581, 0.0472630709, 0.1093516424, -0.0880330727, 0.1228170246, -0.0507412180, 0.0389623158, -0.0400269516, 0.0234373789, 0.0349680893, -0.0584118292, -0.0447486155, 0.0425680429, 0.0628698096, -0.0397278033, -0.0584213659, 0.1157998666, -0.0412094705, 0.0212203767, 0.0522075929, -0.1410636157, -0.0208922066, 0.1932272613, 0.0982783884, 0.0730325207, 0.1146489084, 0.0370032080, 0.0482384302, 0.0336630158, -0.0478559285, 0.0264175329, -0.0302125700, 0.0138083128, 0.0024238282, -0.0047231540, 0.0123272939, 0.0287867133, 0.0103443805, -0.0475265533, 0.0320969895, 0.0313812606, 0.0861914977, 0.0333048217, -0.0771765709, -0.1371749640, -0.0509620421, -0.0089150518, 0.1090644524, 0.0877838284, -0.0038373077, -0.0060722302, -0.0054309550, 0.1631172895, -0.1162192523, 0.0311109088, -0.0554365292, 0.0401201844, 0.0169108957, -0.0489849634, 0.1298995018, 0.0299326964, 0.0458338112, 0.0094909044, 0.0781861097, 0.0181165002, -0.0856182352, 0.0123777753, -0.0640075132, 0.0014622165, -0.0620369315, -0.0715950429, -0.0021181733, 0.1510727555, -0.0506426916, 0.0481838584, 0.0554573759, -0.1093198135, 0.0157071073, -0.0470005758, -0.0045603868, -0.1088744551, -0.0238778051, -0.0287125949, 0.0297754128, 0.0044686268, -0.0015087287, 0.0284077916, 0.0089602619, -0.0580147803, -0.0571051240, 0.0577359572, -0.0044683176, -0.0242335778, -0.0405371375, -0.0477133095, -0.0180444289, -0.0070582917, 0.0276247002, 0.1132160872, -0.0629069433, -0.0179043654, -0.1371449232, 0.1109638363, 0.0032997618, -0.0520761423, 0.0049413820, -0.0585261025, 0.0490719564, -0.1064458936, 0.0224533174, 0.0443630032, -0.0663869977, 0.0540601350, 0.0085590528, -0.0453570038, 0.0868788064, -0.0908674374, -0.0584606938, -0.0180894379, 0.0507635772, -0.0747628957, 0.0213256888, -0.0098982779, -0.0360109843, -0.0398174711, -0.0866979212, -0.0357575491, -0.0293211322, 0.0577608161, 0.0675762594, 0.0095197251, 0.0713616386, 0.0608526021, 0.0064497259, -0.0061013317, 0.0255191121, 0.0139408056, 0.0328441113, 0.0734674856, -0.0181907862, 0.0213803016, -0.0802426413, 0.0006999398, 0.0095151169, -0.0315416604, -0.0103003401, -0.0627395660, -0.0412987135, 0.0301167388, -0.0695226043, -0.0114996666, -0.0164238289, -0.0063134031, -0.0412907004, -0.0339562297, 0.0451923832, -0.0469886735, -0.1664130390, 0.0129934698, 0.0144756101, -0.0073592495, 0.1107836589, 0.0241412558, 0.0179004837, -0.0207595807, 0.0961281955, -0.0110903615, -0.1759962887, -0.0799494311, -0.0436383113, -0.0071035717, 0.0296268258, -0.0193855893, 0.1658764631, -0.1146635860, -0.0453516021, -0.0085382136, 0.0174039006, -0.1197089329, 0.0371575542, 0.0435857102, 0.0899913907, 0.0600148737, -0.0036719062, 0.0297810826, 0.1356678754, -0.0278417859, 0.0072951666, -0.0136298751, 0.0315134004, 0.0034194794, -0.0307802279, 0.0083801970, 0.0386084318, 0.0028344668, -0.0366952978, 0.0346899070, 0.0314116068, 0.1522747129, -0.0267747827, 0.0445610099, -0.0649316460, -0.0103734452, -0.1646775305, -0.0921691880, -0.0789732710, -0.0177748483, -0.0265223216, 0.0055422490, -0.0282275155, 0.0417564474, 0.0152478646, -0.0171717890, 0.0494320914, 0.0077240672, -0.0456403606, -0.0252303965, -0.0504486412, 0.0436969548, 0.0448727794, 0.0674140155, 0.0622099936, -0.0440893136, 0.0073772720, 0.1080209017, -0.0336069278, 0.1396727264, 0.0653289631, -0.1086625680, 0.0142202917, -0.1357271373, 0.0642850846, 0.0627104715, 0.0669589937, 0.0063467696, -0.0527893268, -0.0441749804, -0.0547391698, -0.0564033315, -0.0148815857, -0.0976340994, -0.0191355292, -0.1116051301, 0.0516450480, 0.0709774792, -0.0396990553, -0.1105103865, 0.0561026819, -0.0398907624, 0.0265030898, 0.0877952650, 0.0115572894, 0.1174202785, 0.0496526584, 0.0014808885, 0.0216835495, -0.0217184648, 0.0565215759, -0.1331878006, 0.0234124959, 0.0612002760, 0.0296583306, 0.0146446815, -0.0702204257, -0.1050869226, -0.0099102706, -0.0535893328, 0.0140096787, -0.0586773045, -0.0388376787, 0.1121079251, -0.0646335483, 0.0970911309, 0.0391278602, 0.0325217135, 0.0228803866, -0.0120137054, -0.0080204597, 0.0456236824, 0.0229397397, 0.0049795033, -0.0384823531, 0.0674162731, 0.0784460083, -0.0885092691, -0.1012935266, -0.1352469176, 0.0876059085, 0.1077319458, -0.0127634453, -0.0086357230, -0.0383664742, 0.0201141331, 0.0342598557, -0.0995656103, -0.2187099010, -0.0441405326, -0.0231124982, -0.0742265806, 0.0175766796, -0.0322351530, -0.0046553104, 0.0758622512, 0.0214067772, 0.0461512320, -0.0306327064, 0.0516031235, -0.0431014709, 0.0726136342, 0.0564614907, 0.0686967671, -0.0353168957, -0.0107063893, -0.0733062625, 0.0197273269, 0.1091734767, 0.0017161157, 0.0524520315, -0.0757635459, 0.1074146926, 0.0617489778, 0.0246675909, -0.0187203754, 0.0922309086, 0.0709839836, 0.1555347145, 0.1304250956, 0.0110055180, -0.0247411598, 0.0934647918, -0.0038888254, -0.1377214491, 0.0216526967, 0.0190083757, 0.0104247602, -0.0942664519, -0.0039980239, -0.1024863869, 0.0508701541, -0.0520513766, -0.0354112014, 0.0036464399, -0.1433914453, 0.0049368925, 0.0353328325, -0.0048957216, 0.0314606428, -0.0032440668, 0.0868892372, 0.0287309457, -0.0352012292, 0.0431135707, 0.0612240732, 0.1004615575, 0.0000088000, 0.0289079417, -0.0250155367, 0.0041213911, 0.0328517780, 0.0039093723, 0.0377868153, -0.0175978467, -0.0212685373, 0.0006886227, 0.0079815071, 0.0816042498, 0.0049126535, -0.0653302819, -0.0365115218, -0.0159551296, 0.0252169799, -0.0065013627, 0.0522009581, 0.1578820646, -0.0377627499, -0.0184297003, -0.0601282492, -0.1181007400, -0.0542008169, -0.0955589414, 0.0300518721, 0.0620317832, 0.0166812185, 0.0010918969, 0.0598187260, -0.0316753238, 0.0127086518, -0.0001767506, 0.0132454187, 0.0272807889, 0.0758591667, -0.0478227474, -0.0097164847, 0.0455476195, -0.0595677048, -0.0233458430, -0.0597644672, 0.0404131636, 0.0220721271, -0.0129037313, -0.0156621411, 0.0001689130, 0.0102620963, -0.0606368594, -0.0316650122, 0.0091295540, 0.1334367543, 0.0498154238, -0.0389809906, -0.0448525622, 0.1059783995, 0.0925536677, -0.1007623896, 0.0659528300, -0.1839264333, -0.0137428986, -0.0856643394, 0.0385196097, 0.1018443778, 0.0358502753, 0.0148318345, 0.0213066489, 0.0459920652, 0.1197042987, 0.0552310906, -0.0482462570, -0.1666142941, 0.1217011437, 0.1184329316, -0.0117181214, 0.0085137086, -0.0372875407, -0.0940726846, -0.0058335583, 0.1009022892, -0.0957215503, -0.1089918464, -0.0589826815, 0.0222385731, -0.0136225550, -0.0720463023, 0.0865920782, -0.0080976197, 0.1671906710, 0.0865696594, 0.0218409840, -0.1342466325, -0.0455555730, -0.0589510053, -0.0197501555, -0.0472498909, -0.0108350627, 0.0574823245, 0.0623800159, 0.0256965738, -0.1025002897, 0.0088896714, 0.0843571275, -0.1076804176, 0.0275571290, 0.0584358051, 0.0254328456, -0.0568561107, 0.0255037062, -0.0846435875, -0.0441216752, 0.1171668544, -0.0052358494, 0.0835952610, -0.0346991308, 0.0564458370, 0.0602694936, 0.0282479003, -0.1041133106, 0.0116809923, -0.0713485107, -0.0505910628, -0.0588846393, -0.0229646899, 0.0418347307, -0.0045923735, 0.1088738889, -0.0088386005, 0.0246137436, -0.0910291076, 0.0823774934, -0.1006098241, 0.0498562455, -0.1200926751, -0.0309699792, -0.0128019350, -0.0245104451, -0.0583591051, 0.0083203102, 0.0272014942, 0.0144498246, -0.0228487849, -0.0769082680, -0.0883635506, 0.0749243945, -0.0056126923, 0.0749672577, -0.0334702693, 0.0453073494, -0.0269850772, 0.0305600390, -0.0473580807, 0.0581878498, 0.1319324672, -0.0223571919, -0.0404720604, 0.0055769202, -0.0256066825, 0.0328030176, 0.0010882473, 0.0334820300, -0.0380292684, -0.0374377035, 0.0441423729, 0.0085945204, 0.0262697916, -0.1063537598, 0.0242019333, -0.0074379910, 0.0012167434, -0.0417409241, 0.0553212054, -0.1034331396, 0.0894336998, -0.0407226235, -0.0890871361, 0.1335373223, 0.0324209109, 0.0078156646, 0.0727087706, 0.0912323967, 0.0039136698, -0.0430361293, 0.0900330842, 0.0077641010, 0.0461884923, 0.0001357642, 0.0490489639, -0.0296761338, 0.0926758200, -0.0100295600, -0.0367573313, -0.0780361965, 0.1188574955, -0.0597816631, 0.0169518944, 0.0042209527, 0.1083445176, -0.0247992314, 0.0512732491, -0.0307020713, -0.0591237992, 0.0418628231, -0.0484453849, 0.0278731864, 0.0616692640, -0.0477673523, -0.0912752301, -0.0073033916, -0.1086134091, 0.0479695387, -0.0524949282, 0.1493964344, -0.0125442436, -0.0403948165, -0.0889396742, -0.0470371693, -0.0535512753, 0.0008889466, 0.0054634763, -0.0208463147, 0.0417582169, 0.0338390954, -0.0862605050, 0.1612073481, 0.0780974329, 0.0121776192, -0.0650500208, -0.0809186995, 0.0259144641, -0.0498428568, 0.0675176382, -0.0666085258, -0.0228795968, -0.1025590897, -0.0231064651, -0.0307830013, -0.0714562535, -0.0347732194, -0.0398147181, -0.0496763699, -0.0750333667, 0.0321504101, 0.0378107801, -0.0393482484, -0.0393401496, 0.0325228386, 0.0889405385, -0.0759987533, 0.0615342483, 0.0209148992, -0.0992791504, -0.0659561530, -0.0691305250, 0.0090466952, -0.0215717182, 0.0032676209, 0.0261553694, 0.0486822203, 0.0377920829, 0.0353710204, 0.0155754928, -0.0629239380, -0.0456328504, -0.0080991676, 0.0159025304, -0.0061956709, 0.0676157400, 0.0037826141, 0.0310600530, 0.0015746288, -0.0143675385, 0.1599136889, 0.0819872171, -0.1286139339, -0.0054482045, 0.1026583537, 0.0528828129, 0.0303558614, 0.0184828453, 0.0623481646, 0.0578637309, 0.0415408090, -0.0140258400, -0.0838136300, -0.0830087811, -0.0299200118, -0.1257146895, 0.0144348741, -0.0006454922, -0.0047008186, -0.0391998366, -0.0210419688, 0.0143454392, 0.0999018401, -0.0077585471, 0.1075451523, 0.0183493774, -0.0829175785, -0.0039559403, -0.0735753924, 0.0915493518, 0.0313602686, 0.0252187811, -0.0703782216, -0.0369123183, 0.0183066688, 0.0513599887, -0.0847038478, 0.0124550825, 0.0358726643, -0.0220348779, 0.0202705339, -0.0150225088, 0.0317656845, -0.0594382659, -0.1223116815, 0.0609488562, -0.0464957468, -0.0730019361, 0.1151695848, 0.0523301065, 0.0541160181, -0.0924019367, 0.0233955961, 0.0667548180, -0.0521252193, 0.0016521239, -0.0590443723, 0.0635012463, -0.0487285629, 0.0287792068, -0.0708343685, 0.1008694470, -0.1746615469, -0.0523224510, -0.0310010482, -0.1276340485, 0.0459626578, -0.0024776026, -0.0222683754, -0.0188085213, 0.0417871252, 0.0190751366, -0.0077322233, -0.0006351495, -0.0549182482, -0.0245739520, -0.0321581773, 0.1254652888, -0.1180082336, -0.0560536310, 0.0326291844, -0.0349640287, 0.0590818226, 0.0409975685, 0.0235209037, -0.0349642299, 0.0478410088, -0.0063148970, 0.0104654981, 0.0218794942, 0.0836142600, -0.0571561679, -0.1104536951, 0.0128404861, 0.1507553458, 0.0076463176, 0.0445972271, 0.0330337770, 0.0572650544, 0.0234550163, 0.0340047814, 0.0131288692, -0.0993128046, -0.0728047714, 0.0612466149, -0.0741330832, 0.1393554062, -0.0377969183, -0.0176693667, 0.0094688386, 0.0724398270, 0.0254683644, -0.0541414469, -0.0303078275, -0.0501621850, -0.0636587217, 0.0146150822, -0.0048455023, -0.0175888073, -0.0395886227, 0.0446441099, -0.0056068879, 0.0204150677, -0.0301089026, 0.1519574970, 0.0044458210, -0.0476018116, 0.0664818659, 0.0562166981, 0.0258991998, 0.0250171255, -0.0357930586, -0.0647631213, 0.0450753123, -0.0379957147, -0.0016113594, 0.0356315672, 0.0472063087, 0.0128826732, -0.0950682759, -0.0355430767, 0.0380686522, 0.0284536965, 0.0451142564, -0.0435382649, -0.0017081130, -0.0044489177, -0.0977532044, -0.0662880167, -0.0838948786, -0.0115262615, -0.0711834431, 0.0189162437, 0.0355844274, 0.0810019076, 0.0171236414, -0.0291161668, -0.0653413758, -0.1696366519, -0.0720247701, -0.0460967571, -0.0398675837, 0.0625951141, -0.0596778803, -0.0011480890, -0.1503475010, -0.0702116936, 0.0350554883, 0.1023861468, -0.0839631781, -0.1051358283, 0.0108053135, -0.0668416992, 0.0132925985, 0.0381114110, -0.0998229757, 0.0857374668, 0.0075792982, 0.0626277998, 0.0687281340, 0.0395325832, 0.0219607074, -0.0727637559, -0.0580692180, 0.1476032883, -0.0760774463, -0.0217834041, -0.0916756839, -0.0372222066, -0.0397896543, -0.0562899336, 0.0160732511, -0.0637044013, 0.0125227869, 0.0797984377, 0.1288866848, -0.0146083208, -0.0708916411, -0.1021376327, 0.0891312733, -0.0720097721, 0.0153064914, 0.1331701428, -0.0034451419, -0.1097040847, -0.1402813494, -0.0206043888, -0.0682198033, -0.0259491745, -0.0040296675, -0.0116753988, -0.0988071337, 0.0521236025, -0.0511604995, 0.1061149314, -0.0799679831, 0.0589263849, -0.0153416982, -0.0035274466, 0.0184207782, 0.1102132201, -0.1410507113, 0.0095814439, 0.0201155655, -0.0800278634, 0.0655967221, 0.0311272182, 0.0492459983, 0.0568957217, 0.1201676354, -0.0478866175, -0.1348001659, -0.0665445924, -0.0067814682, -0.0195768271, 0.0160711817, -0.1094901562, 0.0264239814, 0.0348487943, 0.0102701448, -0.0713547021, -0.0648728386, -0.0446150452, -0.0347006470, -0.0573784076, 0.0902440026, 0.0033813415, 0.0594490096, 0.0254530534, 0.0423015356, 0.0004489692, -0.0284485444, 0.0341222882, 0.0116161546, 0.0617586747, 0.0706429407, -0.0887214988, -0.0472991653, -0.0823103040, 0.0389935263, 0.0491120666, -0.0454334579, -0.1351977587, -0.0768654794, 0.0054269303, 0.0626157671, -0.0255849361, -0.0698728338, 0.0732395574, 0.0050823879, -0.0469114482, 0.1240824685, -0.0977646336, 0.0231967233, -0.0406125449, -0.0811484903, -0.0310405400, -0.0241817720, -0.1186577976, -0.0455653965, 0.0220929198, 0.0507004261, -0.0648446605, 0.0415055268, 0.0154407490, 0.0971171856, -0.0819105208, 0.0586033985, -0.0225664154, 0.1572945416, 0.0536314249, -0.0844745561, 0.0130808940, -0.0260662343, 0.0488925911, -0.0899203569, 0.0674065724, 0.0441911630, 0.0035943217, -0.0031468626, -0.0359168425, 0.0800256804, 0.0151303057, 0.0521834791, 0.0006077657, -0.0326262563, 0.0667966604, -0.0603275225, -0.0921886414, 0.0278649535, -0.0751183927, -0.0528332926, -0.0227832105, -0.0572569445, -0.0392503664, 0.0505343787, 0.1171693131, 0.0657361150, -0.0455651544, 0.1089890674, 0.0330644362, -0.0532931872, -0.0785997361, -0.0909992158, 0.0167032909, 0.0391193181, 0.0344391875, 0.0081699500, 0.0788572207, 0.0391556025, 0.0551373996, 0.0399956182, 0.0483604297, 0.0690386593, 0.1611417979, -0.0409174822, -0.0187743045, -0.0004030291, -0.0918477029, 0.1255842000, 0.1612891108, 0.0339295790, -0.0170367118, -0.1440603584, 0.1508509666, -0.0452427939, 0.0927603245, -0.0992504209, 0.0107660014, 0.0123445299, -0.1561503559, 0.0196459591, -0.0528614111, 0.0320531465, -0.0281569194, -0.0065702656, 0.0885739848, -0.0219059717, 0.0222229958, -0.0455201566, 0.0079783965, 0.0019590261, -0.0030080632, 0.0987097919, 0.0593032986, -0.1217477620, 0.0023496321, 0.0903229639, 0.0046831472, -0.0139309522, -0.0161504354, 0.0322316065, -0.0488740020, -0.0156472214, 0.0019192821, -0.0418288000, -0.0199425295, 0.0343326777, -0.0254650563, -0.0492799990, 0.0666719303, 0.0071867118, 0.0372835696, 0.0303405989, 0.1786522269, 0.0342556462, -0.0671436563, -0.0374870598, -0.0068533248, 0.0696824118, -0.0053499616, -0.1692448854, -0.0498014800, 0.1164841577, 0.0249782447, -0.0721562356, -0.0237224884, -0.0337832011, -0.0691708997, -0.0051637208, 0.0305002350, 0.0274206735, -0.0039792256, -0.0995098352, 0.0781189948, -0.0880612507, -0.0246431436, -0.0223587770, -0.0171152689, -0.0725023374, -0.0479280427, 0.1624173373, -0.0021868760, -0.0372425243, -0.0000086052, 0.1186547056, -0.0368451141, -0.0615702607, 0.1159309223, 0.0847617686, -0.0306366924, 0.0203127414, 0.1298278421, 0.0804664865, 0.0670231581, -0.0032171458, 0.0037696098, 0.0169415437, -0.0647985712, 0.0103215380, 0.0497571379, 0.0852586702, -0.0004296387, 0.0444711559, 0.0373764709, 0.0981535465, 0.0014040843, -0.0024714917, 0.0045430586, 0.0342935286, 0.0199693013, 0.1061789840, 0.0266966112, -0.0409632474, -0.0159389619, 0.1444516480, -0.0335234404, 0.0247079786, -0.0452158228, -0.0145417219, 0.0247756448, 0.0499589033, 0.0096010771, 0.0106413476, 0.0658806115, -0.0124401990, 0.0122674191, 0.0522760935, -0.0136487111, 0.0421419702, 0.0336768813, 0.0212474391, 0.0527453199, -0.0876560435, -0.0158915073, 0.0268175378, -0.0502138212, -0.0184059348, 0.0322756767, -0.0609111674, 0.0672654435, 0.0306506529, -0.0470363945, -0.0254834611, 0.0082641998, 0.0210614409, 0.1461803615, -0.0466256179, -0.0011177787, -0.1182514951, -0.0277872086, -0.0943275616, 0.0028058628, 0.0766141713, 0.0142745133, 0.0192740019, -0.0443525203, 0.0231072493, 0.0663027540, 0.0484584272, -0.0783144757, -0.0132119749, 0.1014314368, -0.0178713333, 0.0616181865, -0.1208854988, -0.0898477808, -0.0779386237, 0.1382791102, -0.0391820818, -0.1193230525, 0.0248501245, -0.0244034696, 0.0497909747, -0.1233889610, -0.0970888510, 0.0438085683, 0.0524323359, 0.0917796716, 0.0366379470, 0.0346045084, 0.0142584778, -0.0395151339, 0.0097903805, 0.0044295364, 0.0287983268, -0.0414961874, 0.0738224164, 0.0754676387, 0.0638866872, 0.0260252357, 0.0241197012, -0.0351710692, -0.0165911671, -0.0325709395, -0.0896418467, -0.0731834248, 0.0095165242, -0.0753180757, 0.0206538998, 0.0476517119, 0.0722320601, -0.0198583640, -0.0262212940, 0.0910144523, 0.0771311745, -0.0827960297, -0.0778893828, 0.0424217135, -0.0153690046, 0.0977756307, 0.0944041237, -0.0141820479, 0.0766854286, 0.0413364656, 0.0806874111, -0.0593107082, 0.0667493790, 0.1131504625, 0.0056612077, -0.0173982363, -0.0750221834, -0.0357548892, -0.0086208852, -0.0151285250, 0.0664975643, -0.0171514880, -0.0491969027, -0.0822025090, -0.0117955422, -0.1110369265, 0.1199318990, -0.0184867680, 0.0476062149, -0.0682758018, -0.0909637213, 0.0664935336, 0.0346578844, -0.0643219128, -0.0099362070, 0.0614608414, 0.1722410917, -0.0730161667, -0.0425076187, 0.0125370156, -0.0252649318, 0.0606619455, 0.0381866023, 0.0812118948, 0.0309036877, -0.0602623112, 0.0424751416, 0.1184415445, 0.0114305066, 0.0488032475, -0.1327518076, -0.0411492735, -0.0340584591, -0.0241120867, -0.0075541111, 0.0736879930, -0.0173865017, -0.1109763533, -0.0891589075, 0.1124750227, 0.0886250585, -0.0968392193, 0.0385466218, 0.0114620766, -0.0568441637, 0.1648188084, 0.0411264151, -0.1131894737, 0.0895152092, -0.0019138010, -0.0556007512, -0.0523043759, 0.0222088136, -0.0000225931, -0.0326214395, 0.0265625380, 0.0021460296, -0.0171784349, 0.1026049256, 0.1106569842, -0.0208712779, -0.0478537939, 0.0330305174, 0.0332520232, 0.0238105245, -0.1166425049, 0.0336528495, 0.0088278223, -0.0898802280, 0.0299220700, -0.0171900392, -0.0079592858, -0.1160093546, 0.0469247587, 0.0213773511, -0.0102603678, -0.0474023893, -0.0557135083, -0.0738214552, 0.0225890633, 0.0277973581, -0.0525871366, 0.0249644890, -0.0626383275, 0.0161464978, 0.0069078105, 0.0244167801, 0.0187735017, 0.0698196441, 0.0779858753, -0.0185028035, -0.0071037440, 0.0224443637, 0.0577044487, 0.0341744497, -0.0555487014, 0.0806006566, 0.1210182831, 0.0008411605, 0.0678037703, 0.0772396848, -0.1013232172, -0.0114741717, 0.0126595572, -0.0382061265, 0.0356483571, -0.0214116853, -0.0574765019, 0.0822852850, 0.1216730401, 0.0910277516, 0.0010807728, 0.0768480822, -0.1409560442, -0.0034499303, -0.1458879560, 0.0006650285, -0.0441039540, -0.0637951791, 0.1206941307, 0.1369431466, 0.0668211505, 0.0291350521, 0.0661147684, -0.0645439997, -0.0421183519, 0.0474401712, 0.0356594920, 0.0071481867, 0.0281552002, 0.0238271765, 0.1595658213, 0.0455681160, 0.1031567901, -0.0425474271, 0.0200818200, 0.0287927315, 0.0279796775, 0.0372913554, 0.0377826728, -0.0410884432, -0.0831727013, -0.0656524077, -0.0146250185, 0.0553009734, -0.0457247384, 0.0230819248, -0.0677173510, -0.0122929243, -0.0857360363, -0.0589433163, -0.0013398611, 